{
    "train_site": [
        "DRIAMS-A",
        "DRIAMS-B",
        "DRIAMS-C"
    ],
    "test_site": [
        "DRIAMS-B"
    ],
    "seed": 35,
    "model": "mlp",
    "antibiotic": "Ceftriaxone",
    "species": "Klebsiella pneumoniae",
    "years": "*",
    "test_size_obtained": 0.026816608996539794,
    "prevalence_train": [
        0.9111111111111111,
        0.08888888888888889
    ],
    "prevalence_test": [
        0.8709677419354839,
        0.12903225806451613
    ],
    "sample_sizes_per_train_site": [
        1052,
        0,
        73
    ],
    "train_proportions": [
        0.5,
        0.0,
        0.25
    ],
    "metadata_versions": {
        "DRIAMS-A": {
            "2015_strat.csv": "56d646ce31a05dd704a4a6693aabc413a4e75f76",
            "2016_strat.csv": "d06fff6b6b60af9fc10fadc858cf5624808aaf3f",
            "2017_strat.csv": "a474ce364f6d3e201b3a527d8786e2c31bbc8577",
            "2018_strat.csv": "e650292c172f16845899c3a566b8f3c427b3e9c2"
        },
        "DRIAMS-B": {
            "2018_clean.csv": "27380b0a9a43a1e699b4b311235211ccfd2a76f2"
        },
        "DRIAMS-C": {
            "2018_clean.csv": "0e0d2a1ebdfeed3f39f7dae50f4000328e7da075"
        }
    },
    "scoring": "roc_auc",
    "best_params": {
        "mlp__activation": "relu",
        "mlp__alpha": 0.0001,
        "mlp__hidden_layer_sizes": [
            256,
            128
        ],
        "scaler": "passthrough"
    },
    "y_score": [
        [
            0.9999597374890686,
            4.026251093133018e-05
        ],
        [
            0.9995243218609775,
            0.0004756781390224868
        ],
        [
            0.9996788811855261,
            0.00032111881447396197
        ],
        [
            0.9999894957642446,
            1.050423575541578e-05
        ],
        [
            0.9993773087512878,
            0.0006226912487121399
        ],
        [
            0.9968988054412588,
            0.0031011945587412788
        ],
        [
            0.9993989861916234,
            0.0006010138083765835
        ],
        [
            0.06675734003223521,
            0.9332426599677648
        ],
        [
            0.8808672107106847,
            0.11913278928931526
        ],
        [
            0.9984344375604177,
            0.0015655624395823269
        ],
        [
            0.9873896659508752,
            0.012610334049124823
        ],
        [
            0.03634993227215777,
            0.9636500677278422
        ],
        [
            0.9993564795256946,
            0.0006435204743053501
        ],
        [
            0.9999999924316335,
            7.568366438380292e-09
        ],
        [
            0.9722385743128862,
            0.027761425687113823
        ],
        [
            0.9989339674136277,
            0.0010660325863722587
        ],
        [
            0.9990450568037532,
            0.0009549431962467935
        ],
        [
            0.9999130950260178,
            8.690497398218243e-05
        ],
        [
            0.991734103918054,
            0.008265896081945948
        ],
        [
            0.999772654397985,
            0.00022734560201501957
        ],
        [
            0.9999088394436563,
            9.116055634369865e-05
        ],
        [
            0.5573088323414789,
            0.4426911676585211
        ],
        [
            0.9999112258240479,
            8.877417595205338e-05
        ],
        [
            0.9272058836145071,
            0.07279411638549295
        ],
        [
            0.9833629639173963,
            0.01663703608260371
        ],
        [
            0.9528077980572573,
            0.047192201942742686
        ],
        [
            0.9999372715345486,
            6.272846545142587e-05
        ],
        [
            0.9229895080632552,
            0.07701049193674478
        ],
        [
            0.9997221904191769,
            0.0002778095808231534
        ],
        [
            0.46525254414505246,
            0.5347474558549475
        ],
        [
            0.9997446616247798,
            0.0002553383752201333
        ]
    ],
    "y_pred": [
        0,
        0,
        0,
        0,
        0,
        0,
        0,
        1,
        0,
        0,
        0,
        1,
        0,
        0,
        0,
        0,
        0,
        0,
        0,
        0,
        0,
        0,
        0,
        0,
        0,
        0,
        0,
        0,
        0,
        1,
        0
    ],
    "y_test": [
        0,
        0,
        0,
        0,
        0,
        0,
        0,
        0,
        0,
        0,
        0,
        0,
        1,
        0,
        0,
        0,
        0,
        0,
        1,
        0,
        0,
        0,
        1,
        0,
        0,
        1,
        0,
        0,
        0,
        0,
        0
    ],
    "feature_weights": [
        0.016405264413660515,
        0.0019870513019136014,
        -0.006895404667623636,
        0.004308400220801603,
        0.039721384154584885,
        0.00012214504000322625,
        0.008735934744253748,
        0.013840926258577966,
        0.040156644737982916,
        0.05202616746931997,
        -0.00786783203969884,
        0.002264214709301705,
        0.03581939246298767,
        0.07151618925990832,
        0.05658779106598688,
        -0.018916275454743108,
        -0.043257285441583235,
        0.013667005941227186,
        0.03543937750088387,
        -0.007288618961243909,
        0.04254000054155706,
        -0.015579540931078655,
        -0.03461593285995576,
        0.016687807196433924,
        0.07184163255940432,
        0.07335084099488196,
        0.003433314548277482,
        0.007576457038166659,
        0.007099762221198402,
        0.018416398268434067,
        0.008013282000954549,
        -0.0008417353991346636,
        -0.028122826252634278,
        0.03538769377336808,
        -0.005152109655816287,
        -0.009163221857530334,
        0.006842472498607391,
        0.05448024968179581,
        0.049788371858892594,
        -0.005035964933042123,
        0.006962412050353599,
        0.04115193566390899,
        0.08909727898944673,
        0.04946252862679774,
        -0.011863413503152858,
        -0.04196651754764527,
        -0.05551002202427542,
        0.02495364395216041,
        0.03925809738357246,
        0.07476494333355659,
        0.02765469605549272,
        -0.058222871057754436,
        -0.04162528950731538,
        0.02207581575404366,
        0.005115097769130195,
        0.021526461523746022,
        0.02773732796953747,
        0.022833327066898317,
        -0.043792275202308356,
        -0.027921280270085416,
        0.004777659534479572,
        0.042815259170396476,
        -0.025200265769153164,
        -0.013522500870702902,
        0.02642926003747687,
        0.0278722247709611,
        0.030366578146763145,
        -0.026809930434308606,
        -0.003847865037120192,
        0.012431300667692444,
        -0.015585218932426868,
        0.008908056426689018,
        0.06645186889135317,
        0.035971560470983224,
        -0.06978941129042635,
        -0.1055171043526697,
        -0.08521972233648521,
        -0.006679240859711805,
        -0.015758157727877177,
        0.02076879300630173,
        -0.014081071637146446,
        -0.009489212842722482,
        -0.013887506322651615,
        0.02405593942966175,
        0.062401071907262184,
        -0.06285298897570271,
        0.019931011823291593,
        0.02020872995273502,
        0.008582819802664692,
        0.04724088580118828,
        0.043706904786504075,
        0.006356575605361953,
        -0.05792978480681867,
        -0.07847678720508611,
        -0.084320553634254,
        0.0573265841179664,
        0.05051470671802692,
        0.07092006474379005,
        0.004589690866914112,
        0.030178785019262508,
        0.042268262442524296,
        -0.019244624232204802,
        -0.016513175614079938,
        0.0421957242863533,
        0.011467837294209398,
        -0.03645029331147583,
        0.013871590289287123,
        -0.02991864495645196,
        0.011674772282106036,
        0.08228086032412843,
        -0.02954287354532693,
        -0.05359938216760629,
        -0.024749315372496083,
        -0.06927369338740355,
        -0.03935822876424955,
        0.058167128960481096,
        -0.001143034503585194,
        -0.019631086962992157,
        -0.0814892724142944,
        -0.047390117595736726,
        0.0690597404227967,
        0.024451096066345372,
        -0.009432413712510052,
        0.00780613958977265,
        0.021968791579272798,
        -0.07587100959336643,
        -0.053533162438877555,
        -0.023303273792847534,
        -0.03413360851919344,
        0.02445056298299806,
        -0.01691727832368528,
        0.0013826209889283626,
        0.03225721291669465,
        0.02047902153826985,
        0.007583420314737448,
        -0.03090191471587586,
        -0.01269733982275252,
        0.015419194047295035,
        0.037429030993569284,
        0.05648536988864533,
        0.056701700289831,
        0.03905560716668241,
        0.037140885855790715,
        -0.016381047161100008,
        0.03329627547536412,
        0.003403464484536396,
        0.01585234829552091,
        -0.04169475459201906,
        0.02444060507198228,
        -0.05999980628122606,
        0.024443278826778582,
        -0.03331725059718816,
        0.03879840602361968,
        -0.029130048422658046,
        -0.048522550593449815,
        -0.10101862511246223,
        -0.03617461582527891,
        0.011455867002153841,
        -0.061278822513214246,
        -0.08273813360394186,
        -0.09265796204185817,
        -0.004152348513587408,
        0.016200240462539928,
        0.021988203095795775,
        0.016223855160918392,
        0.023496306185873724,
        0.030579964135090926,
        -0.03729972486003043,
        0.038166269793724124,
        0.021775311504134646,
        0.011389490099341745,
        -0.014130306457409217,
        0.01738194599499883,
        0.07906068773429564,
        0.058075777552148516,
        0.0075518663688993746,
        -0.022117536296344272,
        -0.0029960197398699873,
        0.008308624386425606,
        -0.01759061379119153,
        -0.054934491625311346,
        -0.07365572076385044,
        -0.02814838849490329,
        -0.026486659936410483,
        -0.00481968989024062,
        0.07124791931196714,
        0.08606292460027663,
        0.0433119883587184,
        -0.0853371465540015,
        -0.05372576116003922,
        0.027166213011965208,
        0.02842982796925353,
        -0.00767410737312459,
        0.019778143047302015,
        0.02696309711991854,
        -0.05186314447831958,
        0.03187191827804792,
        0.03765763775136214,
        -0.009886628700000682,
        -0.002379891605148375,
        0.022935461326609327,
        0.03766141068618256,
        0.0156703845046604,
        0.044160209021923115,
        0.0024812281885318215,
        0.011575229253966245,
        0.02109388478464822,
        -0.014087264680067862,
        0.04709028527914029,
        -0.002680219385422916,
        -0.009194679687364512,
        0.0005169660319748544,
        -0.025397823074407265,
        -0.016095198481975357,
        0.06554205887545975,
        -0.01595263392950297,
        -0.05007131758164963,
        -0.06463890161853851,
        -0.02421389281936841,
        0.022409360828258673,
        -0.018670586230312657,
        0.10185431324535466,
        0.0004147099499442349,
        -0.03173114761412608,
        0.023202482295422218,
        0.01773816296293102,
        -0.03870281754745092,
        0.024737340181949268,
        -0.0179190014059755,
        0.002600536888701465,
        0.0153460233387419,
        0.0031719240767314827,
        -0.018641021896418475,
        -0.044369209053849515,
        -0.03919554166103457,
        -0.0007024845384910096,
        0.006145120842897434,
        -0.04731326908446428,
        -0.06694531957183106,
        -0.05373769306901473,
        0.0048290068082340425,
        0.014970925514392285,
        -0.01699865050636757,
        -0.02208736591398825,
        -0.006216480675571797,
        -0.07014230750719333,
        -0.11552252387219439,
        -0.04554568773119219,
        -0.004180924204680624,
        0.003733228618677459,
        -0.003152118823305442,
        0.0034568754021459644,
        -0.09536194548812572,
        -0.038535431700420605,
        0.010286416109068367,
        0.014915211673528876,
        -0.0005779051231573806,
        0.024362943032638584,
        0.1113956210702931,
        -0.05532450704743308,
        -0.10640540550828775,
        0.022142100896443792,
        0.03263297830287746,
        0.0667893422704853,
        0.04072150099437141,
        -0.03539698141571817,
        -0.01849338124238159,
        0.016824947738267752,
        0.042058984550672265,
        0.0013241843349274913,
        0.01366188892290723,
        0.04148765444838758,
        0.006279633196631164,
        -0.013748284909090178,
        -0.010880632445799246,
        -0.030422714690962117,
        -0.06364245011213857,
        -0.0700921721833307,
        0.039735134640235426,
        0.08404292730680964,
        -0.03905532537846447,
        -0.08268410779685541,
        -0.022596319152702056,
        0.011853427929637433,
        -0.006737082699227823,
        0.006649177536599668,
        0.03679721112095199,
        0.0172884170275898,
        -0.09377914003308031,
        -0.12100355247136159,
        0.020295833278680606,
        0.13601777607050652,
        0.02145278173137422,
        -0.007334905090363487,
        0.018601909433431988,
        -0.036018364675836204,
        -0.036154145902743705,
        -0.05903623991124152,
        -0.052050102984925295,
        -0.002862999237888357,
        0.015478624888208295,
        0.06756211399967438,
        0.011157720894303141,
        -0.09262998381216933,
        -0.1354810165766076,
        -0.005889399849142825,
        0.018469793762775306,
        -0.01806381218142164,
        0.026366375284344486,
        -0.012486943149160695,
        -0.050523881023817746,
        0.004159452642216599,
        0.026115854891426135,
        0.01778512760369718,
        -0.010163758276134385,
        -0.03610465693056368,
        0.046187777469675596,
        0.008231056345912828,
        0.01063010987296683,
        0.027127663492390652,
        0.012163801408216594,
        0.0027238436212882926,
        0.029071276745429468,
        0.03568713269546615,
        0.03712245179980139,
        0.03403528164546464,
        -0.027586514849850224,
        -0.023307957507994144,
        0.0010746708549197082,
        0.07176273035530664,
        0.11658278513469167,
        0.011417120763955953,
        0.0035552463918772283,
        0.004336507101898099,
        -0.009226288926674778,
        -0.0387516036817267,
        -0.039695549307634824,
        0.003628944942959198,
        -0.05179081043097566,
        -0.059044797295443076,
        -0.026628256812536246,
        -0.017602919015821533,
        0.013752243204219337,
        0.07104317471206197,
        0.04601430784638269,
        0.0429089116107781,
        0.007081486377009238,
        0.10659872928049413,
        0.13221205370633687,
        0.09055917684105318,
        0.01685116750011865,
        -0.0006679746833320262,
        0.011301529975427618,
        -0.04169862298034435,
        0.012381069930913646,
        -0.05063735174496768,
        -0.02475582070386517,
        0.041905269220923705,
        0.0037431945474073443,
        -0.020901891061271306,
        -0.05815182645769561,
        -0.050976903300944246,
        -0.019464656710460108,
        0.003240992504675325,
        0.041054327982481,
        -0.04193370164772543,
        -0.06424214532849516,
        0.00270570524913212,
        0.051483193651422926,
        0.0006361634144341638,
        0.018850371029598828,
        0.003956160497795427,
        -0.003272042408264374,
        -0.03787565373744004,
        -0.035691213844341194,
        -0.06543916777421255,
        -0.05797802426611883,
        -0.005187580590050417,
        0.02592327963914512,
        -0.011465488620029636,
        -0.04055607600248441,
        -0.013026801350571732,
        -0.024274088706878378,
        -0.029485725917223093,
        -0.012346524286024084,
        0.013468232285881293,
        0.0712608655462175,
        0.05938022877418088,
        -0.019787523521923485,
        -0.05360143956589918,
        0.03905194341648772,
        0.09145110263701339,
        0.03849914350547549,
        0.0067819678745232185,
        -0.0138795491813557,
        -0.033919821603855344,
        -0.023324689195761715,
        -0.002899626143957593,
        -0.002422944248635687,
        -0.025744252172777624,
        -0.010072398710531368,
        0.08861683266800462,
        0.11022245787662263,
        -0.020480236634672057,
        -0.0180308630193068,
        0.12027088539712519,
        0.17454446302976806,
        0.03871167705259487,
        -0.013924830690185597,
        0.02736296189236101,
        0.0013333769760148417,
        -0.04926775566174044,
        0.021679103442862783,
        -0.031016927323081204,
        -0.11522609320470463,
        -0.06980006728478277,
        -0.04255203385449423,
        -0.007752516482352708,
        0.053767604096567514,
        0.07769248308345234,
        0.021186377193337175,
        -0.014678595855459223,
        0.01016205652314068,
        -0.09690506256861489,
        -0.1024654986288566,
        -0.0821394783136125,
        -0.035549412910247644,
        0.05338290873710641,
        0.030788905516794758,
        0.005851184058887379,
        0.11257130675562366,
        0.13387290502714116,
        0.07252506689215599,
        -0.009356781737308341,
        -0.005414043015606571,
        0.0326407963986,
        0.037029076573941395,
        0.07260071127076798,
        0.0076510565753793594,
        0.01710914513864273,
        -0.043318139914344786,
        2.427311494584435e-05,
        -0.09427860965924714,
        -0.043067089564867794,
        -0.016687941766563512,
        -0.01917935889201193,
        0.04831039581873148,
        0.0020375099961242576,
        -0.021363390665472298,
        -0.06667314934990537,
        -0.04023155314875149,
        -0.042439521077785855,
        0.010371443691855962,
        -0.0219819101437359,
        0.009250642271043073,
        0.055281411193171495,
        0.09433676209192862,
        0.0027863060507443624,
        -0.021545137426702027,
        -0.03969159566413377,
        -0.0003091019592627005,
        -0.00976704204669547,
        0.049659890650893275,
        0.019768274363762155,
        -0.00843645914549028,
        0.05499871006242625,
        0.0342394977723562,
        0.024289482917965,
        0.09422202221766256,
        0.1300611067228607,
        0.18505329603731152,
        0.039547096268490636,
        -0.04159600100799424,
        -0.026683948973726942,
        0.03957923508912482,
        0.05439950221828199,
        0.010841663238364607,
        0.021995338146740134,
        0.08935802649112776,
        0.0657694430969788,
        0.030768637253914988,
        -0.02179487793573358,
        0.009609896084306596,
        0.03096435298940757,
        0.08242532829927815,
        0.09533905713369473,
        0.04292782074825359,
        -0.03838491494167162,
        -0.07559502721244844,
        -0.00902566614293288,
        0.10283415464343072,
        -0.05565817182700207,
        -0.14534121671975395,
        -0.036394389370020756,
        0.021477814223628964,
        0.024033901157843297,
        0.06750660515459662,
        0.09651226616997619,
        0.10246149136869726,
        -0.03029628448941446,
        -0.17167139853031804,
        -0.24404043140230886,
        -0.13515856805835452,
        -0.001597267167175027,
        -0.006738682591136341,
        0.007155779595359652,
        0.0369608613826842,
        0.1040427566556552,
        -0.05341610530210107,
        -0.10889860245037507,
        -0.05343103626641833,
        -0.04773633089369873,
        -0.08066094735513582,
        0.004195082835497528,
        0.10739287339764572,
        0.04361686862177712,
        0.058546820610889755,
        0.07325201154863388,
        0.008217873301456395,
        0.09225877628885237,
        0.14202400042940813,
        0.04140394910234177,
        -0.17900203687058197,
        -0.07849593718631948,
        0.010566063342108144,
        -0.03468261571386725,
        -0.016092452316889053,
        -0.0046677690742080846,
        -0.013854616212110087,
        -0.01343808431763672,
        -0.0060073812588296235,
        -0.013653974327943397,
        0.033468715750500644,
        0.009382529357904205,
        -0.05324892609674001,
        -0.05864554848165887,
        -0.12878591958487262,
        -0.10058614777818478,
        -0.028433495678118106,
        -0.004760585067174011,
        -0.03714912836581521,
        -0.04425187342830654,
        -0.015046832812730199,
        -0.009701295085195955,
        -0.03946906284108204,
        -0.016995573484059882,
        0.02949744577625836,
        0.03480610105831097,
        -0.029314224872888282,
        -0.016206449765714018,
        0.009584090653166146,
        -0.004631064664695007,
        -0.024532365224332324,
        0.004118300918463363,
        0.04903858861043425,
        0.06822203809167582,
        0.046724055253576875,
        -0.028354340996723154,
        -0.03168851740289952,
        -0.015585073232835693,
        0.04204931605575835,
        0.10976508082757189,
        0.12886688169730376,
        0.04875269430027247,
        -0.0005816221167794821,
        -0.05649779360479572,
        -0.12000186791385853,
        -0.08536552099810073,
        0.07547980179426786,
        0.028302558240924515,
        -0.016783988215365978,
        -0.09030099474404608,
        -0.08974196453822568,
        0.013717471106270397,
        0.10430054573289727,
        0.05986058731955063,
        -0.015833608348288314,
        -0.034868952934687364,
        0.017623307399842025,
        0.008901558998503175,
        -0.015998975492809875,
        -0.0013994331467913762,
        0.022669385921343887,
        0.06415522526469519,
        0.003088563732502996,
        -0.046623440843873876,
        -0.023153120469116828,
        0.02167000836828343,
        0.05722112004907498,
        0.11914012929278159,
        0.08706543516874131,
        0.02043814307778273,
        0.010467322038648513,
        0.030935984319644005,
        0.02293590621419974,
        0.07412162279261869,
        -0.005041054805582565,
        -0.04016971431724335,
        -0.0690513928908962,
        -0.03978837598805225,
        0.09859988926109006,
        0.06262194965094743,
        0.05025602122724104,
        0.07471542526477232,
        0.03431555805366149,
        0.027688889888929112,
        0.017447393221151505,
        0.014209634570563737,
        -0.0533982750144301,
        0.0012222212085867645,
        -0.008635621469369139,
        -0.01848860744182712,
        0.01848039829637288,
        0.11887836008142963,
        0.05579535017476778,
        -0.04614903926019957,
        -0.001244414764365425,
        0.0012361834887054833,
        0.0005190373929477027,
        0.02046280228959001,
        0.012857975935854499,
        -0.047521881737490584,
        -0.005378042100013239,
        0.008655863803011827,
        -0.0017280647913745775,
        0.02827370104740704,
        0.08962710474670416,
        0.05495867725267569,
        0.019148713598030775,
        -0.014516595533057558,
        0.047137375646107746,
        0.04956873361520426,
        0.016961016444300387,
        -0.03471554532227516,
        -0.015720804420372214,
        0.0007054027591458483,
        0.0953498040275541,
        0.08645110835839773,
        -0.0017796992584658356,
        0.10470469213498056,
        0.08979816691723458,
        0.014624799765741894,
        -0.06039087587491833,
        -0.040512799395129924,
        0.06824764986814773,
        0.06535575048407259,
        0.03780765162723064,
        0.007766792741857464,
        0.00759053520420914,
        0.022695826281136797,
        0.04260042577566351,
        0.06931585222555503,
        -0.007900953424805457,
        0.012677826945459679,
        0.008503826854481988,
        0.04241388000215162,
        0.012503234912086686,
        0.017899038063859424,
        -0.0038425747590694697,
        -0.01743904573766963,
        0.004925819580511668,
        -0.05497336092164741,
        -0.07278996000165802,
        -0.02297262452819125,
        0.015745969736563965,
        0.014957113972679103,
        0.003555877623094516,
        0.016112753271579704,
        -0.02601620601399351,
        -0.02642357423026458,
        -0.034756980995965234,
        -0.07437855975291162,
        -0.09082071715119468,
        0.004189753764101949,
        0.04717136993708232,
        0.011319674268601532,
        -0.01575062792509096,
        -0.05593026468071212,
        -0.11748246360322499,
        -0.10947238625294425,
        -0.05143536579937734,
        -0.016212922065117798,
        0.05200481990026716,
        0.06716150102399364,
        -0.028022076919933,
        -0.04223608359570011,
        0.00430827976468928,
        0.008055465394571578,
        -0.01521769967032042,
        0.010670762073491675,
        0.015446032475539436,
        0.01581484726663382,
        0.010114092447136562,
        0.007657417660112836,
        0.04593647179252066,
        -0.00685866629642887,
        -0.10283148754188523,
        -0.08007698347801297,
        0.01444406185491576,
        0.07033330280951108,
        -0.003139071505105732,
        -0.022110586970108908,
        0.05371559946693942,
        0.11506612828746213,
        0.04313342375573843,
        -0.023695149392932637,
        -0.009100970304573233,
        0.007645397098901332,
        -0.04334830076138391,
        -0.034599837593146915,
        -0.09675045973736932,
        -0.10998551692023485,
        -0.07527053342769935,
        -0.034731782877909706,
        -0.01845883977188038,
        -0.03490165885160953,
        0.017921571653459922,
        0.06463466122502444,
        0.0236110043474079,
        -0.002857213484026647,
        -0.04142108610997211,
        -0.025626892783710335,
        -0.012095592165800379,
        -0.014679996166467662,
        -0.053638465928937,
        -0.02570346434085773,
        -0.01983752723900723,
        -0.017788936971657218,
        0.0021626375995085004,
        0.021963022568870033,
        0.008108036016492473,
        -0.011458583272526836,
        0.00794866584526723,
        -0.012248665881548451,
        -0.011706224188599106,
        -0.028382586089119016,
        0.006545821189922051,
        0.08817935235581481,
        0.07633126121970883,
        0.07674284603982129,
        0.110222377373629,
        0.09953460971456338,
        -0.019685780217340763,
        -0.05125712676830627,
        -0.04965417052515514,
        0.03202571235169194,
        -0.007175053113899934,
        -0.007318785810763144,
        -0.0781253653827089,
        -0.061508947325013746,
        -0.008551136688526865,
        0.024530391613168737,
        0.056177986269909115,
        0.07910699322274813,
        0.048464700578747945,
        -0.062240960532368564,
        -0.07947541916561687,
        -0.009530646127322842,
        0.04675969043359285,
        0.12806734735092395,
        0.023657177923010635,
        0.01082538419595571,
        0.01659745520957029,
        0.006421732556682836,
        -0.041466988134956626,
        -0.030348172750636136,
        -0.015192412089528802,
        -0.036561843421140855,
        -0.05742040649562223,
        -0.06428961420494583,
        -0.047399662856150375,
        0.09309931382117402,
        0.0697225813122343,
        -0.02989043234636658,
        -0.05016108359082437,
        -0.03332861076477853,
        0.005589489474596863,
        0.0057606452646344185,
        -0.02043591860944942,
        -0.01110481647501559,
        0.04352747153128382,
        0.1361851837474638,
        0.11667681966004247,
        0.0326471846424666,
        0.01129670275229153,
        0.07303272594675646,
        0.022819951696689655,
        0.02661941525594425,
        0.018414214943890894,
        0.007585934602487158,
        -0.01562492562538256,
        0.0015291852034642582,
        -0.015333129776620293,
        -0.040510799141829326,
        -0.09798654798334394,
        -0.007494064638726417,
        0.11537725434195312,
        0.07970108327745262,
        0.0305220890921651,
        0.07165905785260335,
        0.11100705689161033,
        0.09528660853609147,
        0.09189910510093104,
        0.05510148683243882,
        -0.01254135778896907,
        -0.09166885791450625,
        -0.0072921682304515545,
        0.09884754413817651,
        0.014792409320571747,
        0.03351866396038204,
        0.06265303726517266,
        0.005552986187327608,
        0.0024687282865129543,
        -0.02910728508137762,
        -0.02027258886151437,
        -0.008258021146474451,
        -0.0058592459226206985,
        0.017897214639026913,
        -0.01062474918280678,
        -0.04287626826737805,
        -0.030722717852642557,
        -0.042895465047771905,
        -0.055825686614298695,
        0.017130030303629487,
        0.06453983737692182,
        -0.09566725873947525,
        -0.10129683447530821,
        0.015389169836063418,
        0.1072846902795207,
        0.05407040537923795,
        0.047592766726137464,
        0.004189995658423376,
        0.019319226087350844,
        -0.025559267634613383,
        0.035791308139328154,
        0.09027386523568634,
        0.0462045157342954,
        0.025478566919054563,
        -0.01986421579488467,
        -0.14918463272682622,
        -0.14995631501961648,
        -0.009277832257677279,
        0.012183564656988293,
        -0.06894070006551586,
        0.019425444732902603,
        0.0775758895884586,
        0.08417068018049909,
        0.0011438149654292764,
        0.04493263221193353,
        0.019779847271213763,
        0.04681884306327847,
        -0.0061326763609525735,
        0.0018058246989931552,
        0.026316064429701434,
        0.04059123930955457,
        0.0025658075091067995,
        -0.015739172808196797,
        -0.02002764773480181,
        -0.0535172404958051,
        -0.06919406977179642,
        -0.03554155343584626,
        -0.026713622967535062,
        -0.04937056049412416,
        0.03626428287564595,
        0.06371600109149933,
        0.04089034151106628,
        -0.038066849429030616,
        -0.015954538903249195,
        -0.00894442614059614,
        0.0522638574625713,
        0.10055179063708031,
        0.008894429663894124,
        -0.1017910317872395,
        -0.105530874593206,
        -0.025062367744105103,
        -0.044902849011648316,
        -0.10928442388686037,
        -0.03763961268764257,
        -0.0006278398365894117,
        -0.018371918841177122,
        0.017781184735587867,
        0.055763483321361024,
        -0.052573428945343746,
        -0.0779162495026555,
        -0.016558266922845302,
        0.0019621508321783906,
        -0.0035734858443629406,
        0.017391372736803093,
        -0.04706707993271783,
        0.025269187625199918,
        0.009363890078052942,
        -0.1063457534997937,
        -0.10952322131768252,
        -0.08266363305867525,
        -0.13087431215444292,
        -0.1446938708111212,
        -0.09461315968403364,
        -0.042263699268640584,
        0.0058518963605777,
        -0.00566783863816845,
        0.06066458890517065,
        0.04473768423215453,
        -0.024891051578270457,
        -0.056809253900999876,
        -0.0026146702959683804,
        0.13425099852092154,
        0.13625106742878926,
        0.06504007741192147,
        0.10423567895814445,
        0.1310928682966303,
        0.04455647487687361,
        0.03657191928457226,
        0.01723087589436659,
        -0.0034877443045463748,
        0.023602310775267164,
        0.015392482778364233,
        -0.025249051790777764,
        -0.03825031563389696,
        -0.06461595421373942,
        -0.024026935862908712,
        0.04617364249076074,
        -0.018934793412924276,
        0.006458183509079894,
        0.01336057528939888,
        0.0001726132194097787,
        -0.02474779905842983,
        0.00490543101594036,
        -0.011382731875936353,
        0.019649504887375303,
        -0.027961733860349697,
        -0.0331746279745246,
        0.03394385948154586,
        -0.04255640811023271,
        0.017409073450419636,
        0.06847999807548436,
        0.15565605625546092,
        0.011154952323696043,
        -0.015571203156491832,
        -0.03597745593379155,
        -0.027102499054338362,
        -0.05100048501289937,
        0.018431704212491268,
        0.07075451949089298,
        0.03630870599302764,
        -0.013140247804405444,
        -0.049271150972819006,
        0.006766297624760571,
        -0.06653764308241142,
        -0.020318051890808216,
        0.03134447139760456,
        0.015813920323869128,
        0.011565494616065819,
        -0.01765850218061566,
        0.0718036072883731,
        0.09534921810588269,
        0.1524803731291774,
        0.1350211397153348,
        0.10832437554314611,
        0.08046519274371819,
        0.07752805888327702,
        0.10020423630840991,
        -0.03275464984742542,
        -0.020594847056237917,
        0.05812813868739326,
        0.12812530788651946,
        0.06351050588976798,
        0.05974339928490185,
        -0.02856123742178592,
        -0.06894559060998451,
        -0.04552028204584783,
        -0.08318486877179412,
        -0.05104153794136333,
        -0.04653240514971291,
        0.005755461032945145,
        0.05162423772316919,
        0.07654547508093566,
        0.004959234010659164,
        0.01381522260212578,
        0.03512637068710081,
        0.07342557455586858,
        0.06674801762292301,
        0.05522661349183189,
        0.0034384264230318726,
        0.05718561054784192,
        0.13544944140329124,
        0.07402006873887346,
        -0.019938148804035407,
        0.03871044600819136,
        -0.0259309356682904,
        0.01462574768342632,
        0.0022209972931379884,
        0.06011411866799575,
        -0.03219887368273383,
        -0.01475838551740132,
        -0.09954180736781909,
        -0.12152660062548093,
        -0.11031414385010446,
        -0.019868597620776144,
        -0.017463024090783524,
        -0.044959164096795276,
        -0.038746405567000375,
        -0.03549591958006494,
        0.0009633315969936908,
        0.002968961536702455,
        0.045546767465616096,
        0.013065842810159288,
        0.008917060703562041,
        -0.011764219614794838,
        -0.01831919350506508,
        -0.010403750737531772,
        0.07082175331717334,
        0.06427891608823195,
        0.012863291390392325,
        0.010041748123587269,
        -0.0301028277285548,
        0.006188908350071878,
        -0.007380787500257472,
        0.06682743094740562,
        0.02829629886933593,
        0.0584162321407227,
        0.018037634248401657,
        -0.09723008176683808,
        -0.08412825611303901,
        -0.037914353804236675,
        -0.03818188794612061,
        -0.021236920866008212,
        -0.04229247009628468,
        -0.053507946858624034,
        -0.0802406890371647,
        0.005460168728476615,
        -0.015964793239384215,
        0.0076998789583940935,
        -0.026031429506593286,
        0.00194008705776182,
        -0.04674248479957589,
        0.039008392972867637,
        0.029442575156032078,
        0.046260492347872675,
        -0.015698111614188888,
        -0.01037960512925843,
        0.07069002277578032,
        0.09134869030083079,
        0.13286148836918385,
        0.03918785731639303,
        0.028311673402790886,
        0.00017079715890588214,
        -0.017076358833883098,
        0.022671127598686544,
        0.003841156689161377,
        0.028253506534492427,
        0.015127317423819862,
        0.06375471954519873,
        -0.004432786142679689,
        -0.013414796869013796,
        -0.025115725440115155,
        0.026188824242107583,
        -0.027197594868713287,
        -0.05292775456124681,
        -0.04780063515918344,
        -0.08465015759133626,
        -0.15670097130433008,
        -0.14198393246402616,
        -0.060185371746901445,
        0.05683480985656456,
        0.05413818933856343,
        0.010829156842548674,
        -0.06796807697233215,
        -0.03702225535474514,
        -0.013240844883993198,
        -0.01648492368987968,
        -0.061742907079629185,
        0.11967364199604753,
        0.19829955785280834,
        0.09953638963055467,
        -0.055223224036652,
        -0.03130624840903406,
        -0.009022435002627052,
        -0.004025650028708026,
        -0.06997999901899137,
        -0.007322505261779529,
        0.013268625944267507,
        -0.05001176208620925,
        0.00197854460103104,
        0.11558425023495682,
        0.16356998410054346,
        0.018628806768586616,
        0.09218139218146625,
        0.08009848543448612,
        0.02775766590315481,
        -0.028116955129299258,
        -0.07611794909887348,
        -0.046476752558125965,
        -0.04703041702389991,
        -0.01939814527557914,
        -0.01400768321271253,
        -0.016864205141495794,
        0.053401307733510636,
        0.11365313876344815,
        0.13615033819828665,
        0.2030317564763809,
        0.12139423671145745,
        0.06661638090803035,
        0.09106906630690557,
        0.02595342519607361,
        0.03517092198407264,
        0.06193963133701927,
        0.017803850301756952,
        0.058792102865205885,
        -0.04408835459935621,
        -0.07112069350192152,
        0.05333809985894447,
        0.0030758055386566575,
        -0.04181280064866905,
        0.012473143630626519,
        0.0029145972483901723,
        0.07129673319572064,
        0.08394034477966249,
        0.09663971321428247,
        0.08629574153810823,
        0.03459979258656128,
        -0.013378957444002911,
        0.010790495279753983,
        -0.016476935644599722,
        0.037848470965518854,
        -0.01237541787227412,
        -0.003765370709274229,
        0.002659817609288501,
        0.036945123278365424,
        -0.010179110489592974,
        0.05366175558803713,
        0.05669763494285823,
        -0.017568475213597834,
        0.02302578162082629,
        0.04856292979374826,
        0.03760328553629228,
        -0.028695623185212932,
        -0.08284443941279167,
        -0.10646615962369693,
        -0.10651394090005095,
        -0.08449816463460814,
        -0.04455013141141563,
        0.02383412387517591,
        0.075718636814436,
        0.07052811567898823,
        0.023667743715509622,
        -0.03383694591085367,
        -0.040576395559099705,
        0.0279346125202582,
        -0.04153648685633436,
        -0.04577236337515086,
        -0.06660586530812972,
        -0.07447855732058101,
        0.059334973113453766,
        0.14221674587586652,
        0.1341762738196634,
        0.07962256603998408,
        0.00897418588825123,
        -0.06851088328790693,
        -0.12647721031751782,
        -0.049963319357277394,
        -0.013845198607748757,
        -0.047710492212773535,
        -0.09424143407134798,
        -0.04677831695393423,
        0.004751507661827215,
        -0.03575519702376024,
        0.015569304373788267,
        0.038198263665186014,
        -0.007940841920553601,
        -0.0709400393972247,
        -0.04932048804907278,
        -0.08819097269934398,
        0.0018692012791420491,
        0.024801051354958525,
        -0.012396072530108087,
        -0.024488846591314187,
        -0.04853396421585085,
        -0.10575206186304875,
        -0.13410524043869768,
        -0.034487685298385015,
        0.08566067381781878,
        0.013961741936362291,
        0.03013012475442223,
        0.0013691725945001126,
        -0.09592418455714447,
        -0.1603144250780321,
        -0.06947949926326784,
        0.03838178101687366,
        -0.055536574521324725,
        -0.10741887046063503,
        -0.07205898267173266,
        -0.056889614624763205,
        -0.02384528067452401,
        -0.050017487920539686,
        -0.056709094347010526,
        -0.02452138572170088,
        -0.030368679763069718,
        -0.020347571913109916,
        -0.03796347681184176,
        -0.031353119904667034,
        -0.055211111413491915,
        -0.024488916629642452,
        -0.014626480869234236,
        -0.0202274634796709,
        -0.036606111899247604,
        -0.04411856284753127,
        -0.02295308546519197,
        -0.05951585075585199,
        0.0036160026097334604,
        -0.0033661049432073794,
        0.028944309136855584,
        -0.06994517801916403,
        -0.09579116789833292,
        -0.09777048379980594,
        -0.10510026525051266,
        -0.11360262253472075,
        0.005850717509085778,
        0.015410373387121156,
        -0.026440567191499776,
        -0.14789888458210532,
        -0.16441768698874726,
        -0.10082478085770386,
        0.10747486694028928,
        0.20678026405815603,
        0.12303455590483689,
        -0.017665552440731543,
        -0.09110948388711151,
        -0.18151811970948278,
        -0.14967198197613568,
        -0.09288090622273862,
        -0.0037956716574729247,
        0.004464091043319047,
        -0.07167700297864692,
        -0.07339383208379333,
        -0.06933437750395718,
        0.0059361876586282915,
        0.04442013011151187,
        0.04762432902350764,
        0.045859549789580456,
        0.009915844217493695,
        0.02971116616877399,
        -0.0005305533960174737,
        -0.03291038092383113,
        -0.014345701451537669,
        -0.017644730995203067,
        -0.0490882750183241,
        -0.1021411478502427,
        -0.013157853583040221,
        -0.008913339802990812,
        -0.02176453667342603,
        -0.09839437428681178,
        -0.0652609901008181,
        -0.08944386653983938,
        -0.07784962901250343,
        -0.05001096271861515,
        -0.03808356798819651,
        -0.04988668487674183,
        -0.12564747972022572,
        -0.07184587780323193,
        0.003613421097675259,
        -0.0572596889582834,
        -0.07927173507580332,
        -0.11209866266497101,
        -0.1566042710279246,
        -0.03510656967405498,
        0.07275949493700175,
        0.17500719317711683,
        0.13645856529849115,
        0.01429074061165204,
        -0.09940553801115957,
        -0.1500957609767377,
        -0.13674062861544495,
        -0.11478913942696566,
        -0.1022252244552352,
        -0.10257003538119014,
        -0.10546489300692338,
        -0.06155551761488692,
        0.02067625763784394,
        0.06090548312081444,
        0.012374470647400155,
        -0.0630790696039578,
        -0.07137670817301396,
        -0.04388899518800707,
        0.0016945533148992416,
        -0.04693615173350546,
        -0.04671569513317059,
        0.04816946332546885,
        -0.019679616846768506,
        -0.011585756493299262,
        0.05414741818054118,
        0.0706642248811692,
        0.003977165826584605,
        -0.01363925753749309,
        -0.011289656239541904,
        -0.029196530526251315,
        0.03888531032167804,
        0.012141117922977937,
        -0.04777414076131901,
        -0.06541465335061081,
        0.04463929603520135,
        0.0219449849137778,
        -0.013597776234343764,
        -0.04384873127575907,
        -0.012933709113490045,
        0.004825976221366796,
        -0.02251767584578529,
        -0.0021582924179241562,
        0.005813443173480915,
        -0.012293067741656031,
        -0.00971540033445497,
        -0.04003100729302715,
        0.023850510681754953,
        0.06636234540246336,
        0.061931863732462206,
        0.045539427492261135,
        0.03664670019820884,
        0.09858153861633964,
        0.11134855381231677,
        0.12418557374531172,
        0.09586777736223175,
        0.0931301203840411,
        0.07614418000193152,
        0.0937476633887058,
        0.06941240855529046,
        0.0815776858093267,
        0.04372908084075741,
        0.07152133278595937,
        0.09413919071575405,
        0.10400749796745143,
        0.06252992456068904,
        0.08710105358093309,
        0.11066457047323286,
        0.09459028758750163,
        0.06855164622688172,
        0.06815154885796978,
        0.08811335127742191,
        0.11603413774059336,
        0.09928991332408155,
        0.0028570538887637657,
        -0.06821164676653757,
        -0.0615259185036281,
        -0.027184916477219524,
        -0.055873239449985596,
        0.0028121371592817112,
        0.026335468882327878,
        0.03296658725559952,
        -0.029679065077275964,
        -0.0653093978728394,
        -0.02591577949983377,
        -0.02299652766878908,
        0.004126243728539308,
        -0.005715617691321387,
        0.02663592129991255,
        -0.024154770820458523,
        -0.05181242724718267,
        -0.08495000343546254,
        -0.016811751561672965,
        0.0809158357059303,
        0.09826049137758124,
        0.09964476361101232,
        0.04548494536288676,
        0.030913012768504743,
        0.049042759818942544,
        0.17664511936823551,
        0.13320784525791385,
        0.06766843108106421,
        0.014597040408055345,
        -0.012330304657523303,
        -0.03211750983649046,
        -0.032066357055299866,
        -0.06129784646266681,
        -0.013264240107728375,
        0.035001144331093095,
        0.06437507927818317,
        0.007674576488117259,
        0.02947854848876336,
        0.06482323638373316,
        0.04051729166415132,
        0.02272551487922567,
        -0.0019568965450070842,
        -0.009572500464302913,
        0.05631621015183423,
        0.0856683823241838,
        0.03294288846369963,
        0.0024414779531973544,
        -0.029575584210924627,
        -0.05955140370634828,
        0.009004812217299322,
        0.008358493609256114,
        -0.011222591213321857,
        -0.024058060891136816,
        0.00020070776404632502,
        0.020429618358055956,
        0.04991066353614774,
        0.09107966552892513,
        0.17023121214742823,
        0.13937409090408473,
        0.07848339451244468,
        -0.0048856183815443165,
        -0.0008745880835171491,
        0.055707045179545125,
        0.012251309585671024,
        -0.04763274087522042,
        -0.02941622366525427,
        -0.008455856339693197,
        0.012983563264837244,
        0.028295819418625936,
        -0.02345856385255448,
        -0.06682943467096253,
        -0.040490486249848134,
        0.07376673748837617,
        0.013728322976382245,
        -0.05413773037759227,
        -0.06923726254362082,
        0.017505491307769842,
        0.019821074761841403,
        -0.041856823606628284,
        -0.11823387881138264,
        -0.09786239355740012,
        -0.03574044256406067,
        -0.023853769682154344,
        -0.016253191641681188,
        -0.02062841142218989,
        0.017823952485481374,
        0.03790447732406904,
        0.0444070327086301,
        0.010328733218245978,
        -0.03549521386737031,
        -0.040230118530062434,
        -0.0286666308847564,
        -0.017917076419254215,
        -0.013146828272411308,
        0.009745166684150196,
        -0.0022301807346987107,
        0.0011317844959115497,
        0.0021609909201654983,
        -0.022040953649714874,
        -0.05349263188086389,
        -0.09281024526729484,
        -0.0026579553886670214,
        0.1081750954070017,
        0.07713730522822787,
        0.03694589139431673,
        0.036003023773596605,
        -0.010129489021308705,
        -0.07860251733235775,
        -0.11078130845740272,
        -0.11160494340113612,
        -0.07330925744225339,
        -0.028945916270293394,
        -0.018733893773960706,
        -0.0003253260054000181,
        -0.008163541394482391,
        -0.007436834505068505,
        -0.02263615014146387,
        0.003906665237184766,
        0.032760400425241996,
        0.035238052974806325,
        0.003361338603684118,
        -0.0033348869304084547,
        0.001944535700901405,
        0.00353378688524387,
        0.00679545950817226,
        0.012578121900881162,
        0.05233604573718868,
        0.07052494422425906,
        0.09123862133746502,
        0.014436546048500752,
        -0.009623867212716866,
        -0.019936094839818345,
        -0.040698106633006784,
        -0.04133083609623034,
        -0.02000411248607685,
        0.08769211115201711,
        0.07918725723353093,
        0.009975816847059669,
        0.008683229003521167,
        0.06700903171961123,
        0.07372057916976782,
        0.06037260433899039,
        0.026916077749359356,
        -0.013190584008484708,
        -0.035130377041473246,
        -0.012310186093207874,
        -0.05052777052980216,
        -0.07536392345872252,
        -0.08291443912254418,
        -0.039244222178224444,
        -0.004030393095706162,
        -0.0038006713457523706,
        0.01871961908299587,
        0.01238754065924922,
        0.00808474873838964,
        -0.02393132985429734,
        -0.10041800445648694,
        -0.04236899153004928,
        0.013182834280755576,
        0.04513653784967814,
        0.13224278229495662,
        0.08614396935560509,
        0.056197945157851134,
        -0.02885678856173719,
        -0.07148902657276232,
        -0.014333423617173045,
        0.0827923951495864,
        0.0376941511840083,
        -0.025546842595081398,
        -0.10811326782799838,
        -0.025040507900197625,
        0.0012623867038753403,
        0.031168974770590246,
        0.031442304998841736,
        -0.047275973975263175,
        -0.08648786470272632,
        -0.10081096890767557,
        -0.09209253978102568,
        -0.10832683667632072,
        -0.09866580120269416,
        -0.09173553261311962,
        -0.043069643939871435,
        -0.0874592679740891,
        -0.09338106558867618,
        -0.1163719761583602,
        -0.09846535498195193,
        -0.04080050112649123,
        -0.020387183080303385,
        0.01518161887346697,
        0.021274526628939437,
        0.05927579362426651,
        0.051176620843293545,
        0.041056568094846625,
        0.04661343753711027,
        0.04648443676569255,
        0.06997865814887416,
        0.09726160235357278,
        0.07197528365678027,
        0.0663940603092606,
        0.04912642399682415,
        0.01678852140263338,
        0.025106114537576486,
        -0.016204713890830558,
        -0.0077793738019375095,
        0.0480853452422361,
        0.09264263634540246,
        0.06965420729558416,
        0.09125100350577284,
        0.10287799000533313,
        0.017260304875431665,
        -0.004524679209128531,
        0.005215541238750171,
        -0.06174810327128509,
        -0.09979954105148942,
        -0.11845154024408311,
        -0.07189248351147817,
        -0.022500514818847395,
        -0.026635384128672033,
        0.05229893439444274,
        0.09092696378135615,
        0.08420945897766355,
        0.02546540036968324,
        0.002710192686828472,
        0.055419756047291005,
        0.054445187998306804,
        -0.0071430689179572925,
        -0.05213773300249487,
        -0.05847096171826189,
        0.0036190162398569087,
        0.09283357885311395,
        0.009990215498737317,
        -0.10304356347327039,
        -0.10455443024008676,
        -0.03424086783712749,
        0.05524651129038646,
        0.08487377508858593,
        0.04128695596437418,
        -0.004281130838714075,
        -0.08059021852477964,
        -0.1517630548505483,
        -0.08326330281275567,
        0.009154456790553715,
        0.09983715561134558,
        0.06629201951719822,
        0.04374571767500006,
        0.05920597189439705,
        0.04446688277229398,
        0.07257281610060172,
        0.04518034759848374,
        0.06938768187690493,
        0.12081007640094185,
        0.06470711480782325,
        0.0703364690057429,
        0.053676770100016265,
        -0.04894897484565545,
        -0.04333423772887525,
        -0.016220049119885324,
        -0.0002536810689249498,
        0.06500987224164438,
        0.021656257368758605,
        -0.0003639114430668612,
        -0.03345721741528415,
        -0.05772096760865693,
        -0.038201907848633476,
        0.040584581744005734,
        0.08701106011036791,
        0.07402370986791296,
        0.06545635769171815,
        0.036652766465641425,
        0.042182302982746125,
        0.06042528540837761,
        -0.010419598804066177,
        -0.02089852272978418,
        -0.04966775162153542,
        0.009526969620957147,
        0.007636000092489905,
        -0.02958937898916541,
        -0.03780905666516515,
        -0.029979275594497,
        -0.04861331588949391,
        -0.08071226089504834,
        -0.045587392411841635,
        -0.08841331764261479,
        -0.012872547339304433,
        0.0767994002633311,
        0.10918506390309277,
        0.09241887306019789,
        0.005491354682829349,
        -0.040114706882083115,
        -0.08105908871114967,
        -0.0171798948533223,
        0.06586212679993927,
        0.06195981937856291,
        -0.014154159957344276,
        -0.05365060402277662,
        0.03659478076014607,
        -0.007087147908070557,
        -0.025419384992364666,
        -0.04550853051662293,
        -0.028333997260990364,
        -0.04572688026938372,
        -0.08155715009126953,
        -0.09739553246888305,
        -0.1540161788372891,
        -0.20123505739511718,
        -0.12289718355075145,
        -0.007429276889883746,
        0.03178083474840444,
        -0.020464781711621798,
        -0.03422510881788604,
        -0.07188166087916922,
        -0.09646498473379556,
        -0.094062132934281,
        -0.17401115293554129,
        -0.08724506021074456,
        -0.001471448964824127,
        0.11064849341806632,
        0.11192773022068736,
        -0.04611478643281676,
        -0.1477118524410842,
        -0.14121629506688016,
        -0.09357310772699093,
        0.04068328966021748,
        0.08584584462678306,
        0.10328594583610584,
        0.02378464908938134,
        -0.02649851432835747,
        -0.0064168916886596945,
        -0.013670704382039376,
        0.038646482861417156,
        0.11874746509779505,
        0.14514243102989244,
        0.07841512425184057,
        -0.015714850256888152,
        -0.05801753378223651,
        -0.028850407666750413,
        0.004075118924648457,
        0.04029706946565065,
        0.06543345353076724,
        -0.000408698573431034,
        -0.08172319560584157,
        -0.03297198796492607,
        -0.08878182761299058,
        -0.015748376567529882,
        0.03207686865977301,
        0.10047504555337242,
        0.06483405405975334,
        -0.0603940284758321,
        -0.023507063778154445,
        0.005401294460361502,
        0.003720851271300591,
        -0.04257861511292988,
        -0.1623020721303798,
        -0.20343797621345514,
        -0.16625560050550495,
        -0.09655107040570642,
        -0.0653065086586123,
        -0.08676386658358651,
        -0.08353074004172167,
        -0.07197973850644263,
        0.006179783210550273,
        0.06238438507724019,
        0.005681489490176008,
        -0.019654250190767237,
        -0.09390012712688668,
        -0.09187787947960582,
        -0.06043374942118662,
        -0.031262283232923856,
        -0.009758803126665635,
        -0.03362993905238762,
        -0.06385548297105495,
        -0.01596911104332574,
        0.018799930382680023,
        -0.015890844094491652,
        -0.03606084133894727,
        -0.016065459538479,
        0.021661317329758803,
        -0.004395276667011792,
        -0.0679242629420822,
        -0.03917243471014086,
        -0.0032864336008353234,
        -0.01920036076684957,
        -0.010132774886245,
        0.017433754265877694,
        0.02176920286649467,
        -0.003834746444181273,
        -0.04523615725934828,
        0.03252148474020482,
        -0.004861375455912903,
        0.00567919366133606,
        -0.10726490123957338,
        -0.1037646160083775,
        -0.007039171982270152,
        0.10697126803490262,
        0.08675514564361735,
        0.01951249672525534,
        0.03000094552401037,
        0.010318418910267566,
        -0.06535736915515682,
        -0.11278624929673037,
        -0.03809181949021813,
        0.0017868986059951914,
        0.04750663804822785,
        -0.007419410355168875,
        0.002303488921472441,
        -0.02540999293559543,
        0.0021156703957842284,
        -0.07590972617481656,
        -0.055206708133713873,
        -0.021255201274800843,
        -0.04198416280259823,
        -0.06515395674670475,
        -0.019762626360539833,
        -0.027188913915981355,
        0.0015734099131017045,
        0.011997924876049691,
        -0.021882408373708407,
        -0.04090989405717049,
        -0.09601556500499424,
        -0.12258581980834168,
        -0.06785732066250041,
        0.06822382173460194,
        0.05971041629867037,
        0.06158014503926562,
        0.07961992586552906,
        0.06516393757124095,
        0.08225194987146517,
        0.1330932652024407,
        0.0010211811106146328,
        -0.06869871211773759,
        -0.04835084375387057,
        -0.030688102545349195,
        -0.012222995545586547,
        -0.032157634022436966,
        -0.06437806388652566,
        -0.04625598518734753,
        0.031353350034158706,
        0.0019141356925804617,
        -0.025100916644180866,
        -0.035497871271207376,
        0.031516499223425934,
        0.08364019960829192,
        0.0869755948367808,
        0.025505438664380348,
        -0.003318249313757394,
        0.12478179196807934,
        0.19724945999727483,
        0.16773398205641277,
        -0.02621249118235614,
        -0.06623177463529027,
        -0.06999985238967156,
        -0.059089791654027966,
        0.00820906320285472,
        0.09359175891007149,
        0.07110960202662181,
        0.007443337336251892,
        0.039740951904213714,
        0.03371377669329218,
        -0.00425119335237437,
        0.03658416244371873,
        -0.0022799885219716275,
        -0.014516909306692537,
        -0.07257343421742335,
        -0.12981197540041817,
        -0.13318764529515387,
        -0.14416586810596915,
        -0.017054687806445916,
        0.004606046053899403,
        0.04302629064428782,
        -0.007712582166123079,
        -0.04325748383734543,
        -0.045698791507687214,
        -0.08742568367049425,
        -0.06815852542564932,
        -0.053805220499880665,
        -0.0013226315665409373,
        0.06106480995887982,
        0.1312043601951456,
        0.14641389040929564,
        0.017560225225191343,
        -0.05433414793401152,
        -0.006662199837937463,
        0.01733828466799433,
        0.09012770380319021,
        0.11980119234297648,
        0.06299607273277855,
        0.0724812358467208,
        0.10108682999793983,
        0.04593951813443813,
        0.01014402248341007,
        -0.010602770074213178,
        -0.10164609415470616,
        -0.10469028422383916,
        0.024422434236752562,
        0.03444420258357521,
        0.05709053559062037,
        -0.08731306554619872,
        -0.1002545620815392,
        -0.032918346061354964,
        -0.03722814184631108,
        0.04522769075793116,
        0.05905356369862677,
        0.07897360289883909,
        0.06300729022097332,
        0.016218817232760363,
        -0.04447625913798911,
        -0.021242223387992316,
        -0.05978111561092535,
        -0.01751650310715476,
        0.10401744489396808,
        0.0814706598523671,
        -0.03395236208698797,
        -0.07936307485581734,
        -0.12803252085390068,
        -0.03912154079955012,
        0.08221936832037133,
        0.07561620233461049,
        0.06978145428196048,
        0.06183958206836571,
        -0.02425851860163268,
        -0.05666336555802888,
        -0.04641283903113161,
        -0.04413459724013093,
        -0.039937811787728025,
        -0.031194287186888856,
        -0.08897460595460283,
        -0.027325898337928277,
        0.04844617033351509,
        0.08627105710517435,
        0.048791663063962806,
        -0.0034390598465548366,
        0.01413136666384094,
        8.098678895581673e-05,
        0.11886723139611317,
        0.19092676623973637,
        0.19355032254595567,
        0.14427191375656157,
        0.10095616067999241,
        0.07825854554547665,
        0.05855194198748656,
        0.09074388012145354,
        0.06646444775393284,
        0.03234602387732971,
        0.030498465356736077,
        0.02380052248817216,
        0.01492947415025081,
        0.016248584067161478,
        0.02849045456236172,
        -0.012353193229576412,
        -0.04618052009998454,
        0.014199192703886088,
        0.05024579364389592,
        0.1543316262311542,
        0.17650676843171736,
        0.20006393866623565,
        0.15192422730286315,
        0.057920583950615445,
        0.020229692480197188,
        0.013992320931380704,
        -0.06878731510899523,
        -0.0942546964323558,
        -0.00831498846789714,
        -0.03336128478904353,
        -0.021653265337910458,
        -0.008052751676610305,
        -0.027787600087313923,
        -0.021199021224692985,
        0.06777125605326309,
        0.10459337073941097,
        0.10145441261385492,
        0.0006590415805349814,
        -0.03724665304918318,
        -0.014281623756772333,
        -0.09670726986656333,
        -0.027368163181333893,
        -0.002680563262260027,
        -0.012362904163263494,
        0.012016967103032692,
        -0.009157687536145504,
        -0.01819113241757468,
        0.0069589516250356965,
        0.022444256100039323,
        0.07954034223859793,
        0.06108385801076251,
        0.012273341124375559,
        0.05713355562496714,
        0.12752423713085598,
        0.1504610254768376,
        0.16279353553283238,
        0.12415296424640408,
        0.07872698281364851,
        0.06495889628351406,
        -0.033298752673416046,
        -0.06750577726540609,
        -0.055798899370555634,
        -0.03688075990466108,
        -0.0022311477911635797,
        -0.02329959002133348,
        -0.018231174958493586,
        -0.025961356761794185,
        0.03621834696295656,
        -0.02277909596864082,
        -0.06774895587359431,
        -0.03283738305816136,
        -0.040976186014019686,
        0.048160822486571324,
        0.03672506532807557,
        0.002956861403937353,
        -0.01707923313598297,
        -0.04172875275114575,
        -0.03500922433537351,
        -0.013844471503481462,
        -0.04635351385388317,
        -0.1318486517233053,
        -0.1288788148566115,
        -0.09039357212751908,
        -0.004071662980123723,
        -0.05019669040681386,
        -0.09934234672631338,
        -0.06841259859887978,
        0.04435725833231519,
        0.07672473998225632,
        0.04134250537411901,
        0.042222623667717,
        0.026447678187130872,
        0.016909902277623796,
        -0.023984027926644478,
        -0.009468915175696733,
        0.11501564922354965,
        0.1157535609367654,
        0.17974170183570076,
        0.07012599727790494,
        0.014110503751804745,
        0.001300546637108689,
        -0.06079171752500905,
        -0.009457927460531944,
        -0.052771843640229826,
        -0.0009248199758102657,
        -0.015298148869225408,
        0.0470304012219729,
        0.10998069586476171,
        0.11248062656370587,
        0.17895528137678057,
        0.13945025896173946,
        0.15460081314210122,
        0.14872548415491205,
        0.13243723095650448,
        0.17610934530988528,
        0.09265202762329414,
        0.024845601882080598,
        -0.10010372932002201,
        -0.13826243882025596,
        -0.10203004748053106,
        -0.10955744967688019,
        0.06869414732362714,
        0.05815644021439965,
        0.022062737986323543,
        -0.057467862353459395,
        -0.0916893785745772,
        -0.029870892459380096,
        -0.09793475430631228,
        -0.12213387181421316,
        -0.18185789128119867,
        -0.11894664578007863,
        -0.008988422421530876,
        0.057001578700062824,
        0.061752444699748686,
        -0.019502944162027806,
        -0.03739139099172774,
        -0.15232906529098011,
        -0.10532395811990224,
        -0.14287940868705218,
        -0.0478384336425008,
        0.05956483745910893,
        0.15599647115290644,
        0.13321058841323496,
        0.05575605889148171,
        0.010137639449630562,
        -0.06908446113344681,
        0.021631267849414864,
        -0.0003707059561488026,
        0.0015210402615008067,
        -0.03872099574832712,
        -0.0333147645855937,
        -0.05365021196957251,
        -0.07076316759599996,
        0.0319315219725107,
        -0.02529148978581409,
        0.03230063259124132,
        -0.005992637313736459,
        0.08785198232451442,
        0.12544102113474628,
        0.06980074661007182,
        0.07257200734449934,
        0.012389132887472608,
        0.09228940753498127,
        0.06561268856465405,
        0.1264404983252846,
        0.0933788095256545,
        0.08231775594162014,
        0.036625113204819135,
        0.04023780199693467,
        0.015714224369448766,
        0.0121444638323365,
        -0.03204249646763051,
        -0.01913472240623554,
        -0.031476082380238656,
        0.0243771332728824,
        -0.017526461498900938,
        -0.02080608463082627,
        -0.006141257335275256,
        0.05090731685272074,
        0.048605364483417346,
        0.024650147862703913,
        0.05341132486747594,
        0.030449621382540995,
        0.04318175935658599,
        -0.03948449298122854,
        -0.11003556483310215,
        -0.0898594120498328,
        -0.03387033529512909,
        0.060830531392415337,
        0.1275860385396322,
        0.05943035207372228,
        0.11176632713871226,
        0.040682651368986036,
        0.10658650036573634,
        0.04095791308153625,
        0.0452872998228558,
        0.02786942822986778,
        0.10804722220170956,
        0.19747538271155235,
        0.1577447566789262,
        0.1851265006447974,
        0.15145209604148233,
        0.13005196395221263,
        0.11356265002016518,
        0.0355421194340552,
        0.0563004094132276,
        0.15146815981217288,
        0.07489923640307447,
        0.07560827808149734,
        0.017691694379514147,
        0.0692069020502896,
        0.09461498562041637,
        0.009375819574463838,
        -0.06857842149650989,
        -0.04192432957638266,
        0.002948981880571486,
        0.0034636102779887195,
        0.010080839231612907,
        -0.023490380417758458,
        -0.01793480522208122,
        -0.016790386221476862,
        -0.006570106594237384,
        -0.02054456655930016,
        -0.023911580583437498,
        -0.062836840058733,
        0.004626447515351077,
        -0.04724882208044797,
        0.003970327832666046,
        -0.08990036580036806,
        -0.013131269024525553,
        -0.030252574009947353,
        0.04244599672522111,
        -0.0199777089326656,
        0.025989049614003806,
        -0.04051466353294597,
        0.024416747219549666,
        0.022667976980346193,
        0.0652330816286724,
        0.002058832079184842,
        -0.028581683101440977,
        -0.12515862648871823,
        -0.09618331489782904,
        -0.03634322446847085,
        0.1091631545274683,
        0.062476821472553026,
        -0.023401607833333893,
        0.013167614202516496,
        -0.013730677432409372,
        0.0161976195838109,
        -0.030941175589179117,
        0.0026875660909652455,
        -0.03612330491675554,
        0.02138632333575459,
        -0.03422127979168427,
        0.059490853040164014,
        -0.032882016994551025,
        0.09566729100817523,
        -0.0035644834901301294,
        0.06589791632208511,
        -0.04980654130000353,
        -0.02685955374885011,
        -0.05581680099834707,
        -0.02089474427099583,
        -0.0037302208981438746,
        -0.0064953731386928745,
        0.042510159677428605,
        0.043283271367338574,
        0.026866815943884848,
        0.055886578204886246,
        0.02999583933867902,
        0.2025780516500356,
        0.11769682177435345,
        0.0674154637948293,
        -0.03664705147935692,
        -0.010500953963131568,
        0.059435390870756236,
        0.07831794737595368,
        0.09194049995701267,
        0.027183825169517895,
        -0.007879326860137651,
        0.022547401122618223,
        -0.08114766748766564,
        -0.03998233877194881,
        -0.12147754685781875,
        -0.020587360683878352,
        -0.08204692035294883,
        -0.013502142724052976,
        -0.022976832924449082,
        0.010914164225300865,
        0.01986300955203031,
        -0.002979997268352689,
        0.032471552177317106,
        0.017984839740631132,
        -0.03365516740573416,
        -0.11698143455479657,
        -0.12398625026983383,
        -0.12503092902896265,
        0.021174871719068143,
        0.059398769595425574,
        0.13699049188453874,
        0.027120201994748475,
        0.042924219376071424,
        -0.042169942651731594,
        0.03133191949387428,
        0.0040751819184732425,
        -0.04345180382117522,
        0.043670186860650176,
        0.006001210989045791,
        0.08471066018588266,
        -0.003151557785433404,
        0.04865192452014266,
        -0.040525129190895195,
        0.04163361915401778,
        -0.08854621534862253,
        -0.0911225085470206,
        -0.06559998685447499,
        -0.04793544929872245,
        0.07525949742853802,
        -0.03668380702814083,
        -0.03738921763411546,
        -0.12649118419978378,
        -0.0035574038466226567,
        0.03471241239356501,
        0.1401046670839471,
        0.060773282314388,
        -0.07613472655929304,
        -0.0027089895478795622,
        0.0467083126372555,
        0.05058442830505876,
        0.04445757270449474,
        -0.007316925008059906,
        -0.026067612041682415,
        -0.09037020251127192,
        -0.04235144277001285,
        -0.08390086999869258,
        0.03592245512323013,
        0.0009846235573789982,
        -0.029463051387111902,
        -0.0715256808490082,
        -0.04081254506784027,
        0.035010114863080394,
        0.017180730385067317,
        0.10174968913781622,
        0.006117898020269548,
        0.017030761660903865,
        -0.023710274328090374,
        -0.021575852752475286,
        -0.022891423928177855,
        -0.05783087540940762,
        -0.005408572562643004,
        -0.08130798397874704,
        -0.024922507110491234,
        -0.0690320477413549,
        -0.04608376292801482,
        -0.05116077126299169,
        0.0001281391641126222,
        0.060217452544944816,
        -0.03312405644945059,
        -0.0865150579145531,
        -0.18269798936338771,
        -0.15962021057704195,
        -0.09991254372803382,
        -0.020688255506538057,
        0.07316748196169275,
        0.05875717285170225,
        0.05075505883894511,
        0.039453398357561495,
        0.004584996955032139,
        0.022069080690539783,
        -0.04202334538780789,
        -0.03695376110997248,
        0.004239493620956299,
        -0.023543579281480008,
        -0.02929186853159218,
        -0.0057397482468045215,
        0.004465415004829724,
        0.0117546984299805,
        -0.04581069721811162,
        -0.02002926968975642,
        -0.08848698638290749,
        0.006908218156511671,
        0.025685287175320225,
        0.04065151592705933,
        0.06268237420045628,
        0.011797246525264211,
        0.026567807421119194,
        0.0763491018710502,
        -0.0019238909009402679,
        0.01505059545984563,
        -0.046883508917774916,
        0.010740853560805374,
        0.03628272793793583,
        -0.02021001549600561,
        -0.028674671567075694,
        -0.09292153301821925,
        -0.06706220094086159,
        -0.035833403564458424,
        -0.10814350498943018,
        -0.14649596248128666,
        -0.16141464285502305,
        -0.0781209258832904,
        0.10370346855974141,
        0.06506445627982767,
        -0.0187603869270744,
        -0.11271124995397008,
        -0.02798490853525805,
        -0.010927445984688866,
        0.0352819972078717,
        0.12871400620141346,
        0.021730973438437558,
        0.012092217756756538,
        -0.07695476533119781,
        -0.12503786062329797,
        0.001539649174710375,
        -0.02040395598193747,
        0.05854999888836752,
        0.08650118633721957,
        -0.010929514021453122,
        -0.0013759410124769226,
        -0.0105932890161903,
        -0.0229009394888106,
        0.010640672040320405,
        -0.058168789779165224,
        -0.022634839833685413,
        -0.008928550372495424,
        -0.10495185984075961,
        -0.047322939688909785,
        -0.0696379235150589,
        -0.010350252656458808,
        0.028813423266324183,
        -0.05721942494124811,
        0.012322431413099175,
        0.014218638446031735,
        0.0030000866131669277,
        0.08409076843085263,
        0.0619004228006243,
        0.0840308546656097,
        0.09568439524701533,
        0.08478072094110309,
        0.11361856564992803,
        0.04382243437590522,
        -0.024903471902007996,
        -0.05137116252982456,
        -0.159535720227306,
        -0.04977426609946321,
        0.04275055179104878,
        0.028509589449141972,
        0.09538612562545397,
        0.027482861365968357,
        0.014608905821395544,
        0.04194933297017224,
        0.03765953951547682,
        0.008714246277080874,
        0.05647777042796087,
        0.010439177932419136,
        0.046303067774567254,
        0.05751432148128944,
        0.004413237602240198,
        0.049296240752442204,
        8.404058817960611e-05,
        0.00717445700521352,
        0.04567133630589967,
        0.03321092168030811,
        -0.008264683517943197,
        0.05174048248159083,
        0.04428887430980011,
        0.13176157583310505,
        0.030433468623417982,
        -0.08813099097373381,
        0.0012199069845728124,
        -0.02380947920476886,
        -0.027486374383579162,
        0.012667371350182767,
        -0.05515346195749236,
        -0.02190811944551539,
        -0.05467059216144273,
        -0.028663805078855943,
        -0.03364239468211049,
        0.001476325464398472,
        -0.0690722121808077,
        -0.059021446272348704,
        -0.044253279467246304,
        0.0030549076734527588,
        0.005398918242464809,
        0.039381568083546384,
        -0.04078644323841356,
        -0.007752596560508227,
        0.02135099975524202,
        -0.0013807591073904662,
        -0.0036126688847922727,
        0.016248193797981456,
        -0.025924490902887842,
        0.012179199299034302,
        0.013207346703426204,
        0.004187751723669027,
        0.05255590874799572,
        0.030381853896751763,
        0.007631451049999833,
        0.043056469703508335,
        0.06131506772692161,
        0.05521415728427592,
        -0.013888497056509099,
        0.013157632714762085,
        -0.021694655274625024,
        -0.011704781640816394,
        -0.018457523676454826,
        -0.026420349750506802,
        -0.018552222449496624,
        0.02274230111739403,
        -0.04889183588986296,
        -0.03603207313568668,
        0.00908256837985641,
        -0.08580838177107716,
        -0.08576430224962833,
        -0.06419925540943086,
        -0.08142794668020112,
        -0.0677691748225249,
        -0.05165633442020694,
        -0.11966508518831018,
        -0.05318951867787164,
        0.10004102020413741,
        0.06628139087900471,
        0.10619148798187357,
        0.05033427677270092,
        0.007201759114217461,
        0.039512234485685006,
        0.09782351980697715,
        -0.02615281184742853,
        -0.036295884524434496,
        -0.003447760839529851,
        -0.042004738504276634,
        -0.020313289243019644,
        0.05129387250949257,
        -0.015751236409975652,
        -0.039200626173986244,
        -0.0010210797360572406,
        -0.05420151301282061,
        -0.03707588059105606,
        -0.0016056224208204346,
        0.043244220018447126,
        0.03489056440194471,
        -0.00030980288034259903,
        -0.054991743124370024,
        -0.056144693028181446,
        0.027207063302245083,
        0.0581194301241485,
        -0.024184612543668556,
        -0.06392672468849137,
        -0.17488370585742274,
        -0.15151161170898458,
        -0.012796929410863956,
        0.012515412340485053,
        0.07456254102467032,
        0.08533309845197928,
        0.054987207154443815,
        0.05117852023008015,
        0.09556550660841173,
        0.08600538133722946,
        0.0704834478595975,
        -0.026137500376924423,
        0.032635169922894926,
        -0.027056692198035668,
        -0.06224431569680547,
        0.035870544444489796,
        0.02269148668286573,
        0.01914741383120458,
        0.03397780341107087,
        0.027551293545808604,
        -0.02388494368068423,
        0.05261956056891023,
        0.05926090435026149,
        0.09829283103303657,
        0.06588098507798462,
        0.06394468148596738,
        0.031873870536243326,
        0.012031939786694474,
        -0.019763763221738118,
        -0.07272495974837537,
        -0.08857895206870428,
        -0.09272290626528984,
        -0.07661318048763127,
        -0.09790126366685242,
        -0.1598083751058279,
        -0.16005521783789656,
        -0.08336723691772671,
        -0.001995324552038738,
        0.030308190290141732,
        0.0813949167830201,
        -0.006110020586429036,
        0.021782821127285017,
        0.036749268680167896,
        -0.0018662359044315222,
        -0.145743347647436,
        -0.11501423760150013,
        -0.00017174268900706506,
        0.07238510890094954,
        0.08771593358960486,
        0.07383022031838887,
        -0.06518636624185188,
        -0.03558151946898666,
        -0.013079263238223759,
        0.030755655214648986,
        0.04724907159525833,
        -0.0028993732776213437,
        -0.037803534552918475,
        -0.012782701855409835,
        0.005497581772712085,
        0.000266611239667181,
        0.0007225234539908396,
        0.03612696659858547,
        0.008205822968857251,
        0.05419462330434838,
        0.09066612826362251,
        0.08299864156658027,
        0.045229756969676696,
        0.05545588146277002,
        0.06364561651104272,
        0.02522956482132187,
        0.008991226632235205,
        -0.013063951283674683,
        0.020349345217477204,
        -0.001960084798518248,
        0.0006711595040195766,
        0.028621173035655152,
        0.006245668577055654,
        0.0022413474326745124,
        0.011041040451569353,
        0.057492585087804,
        0.040155690193958385,
        0.012052469947803457,
        0.001650330752850435,
        -0.020209922459700137,
        -0.014536390320123356,
        0.012478798121114479,
        0.08056700208453457,
        0.029413548865223856,
        0.02758720721089645,
        0.00435656969460195,
        -0.008678210279678564,
        -0.07418669611480103,
        -0.025364619565856603,
        0.004074578676299276,
        0.04442984280130261,
        0.01088725056203469,
        -0.03165182720335224,
        0.0386768552818067,
        0.02663808369828587,
        0.02845216870107423,
        0.03129453529613039,
        0.07901491304648567,
        0.07465026701037651,
        0.01877914251587419,
        -0.04699625239006862,
        0.009966103933076438,
        0.035968023761816986,
        -0.008299207572677452,
        0.021747462456346504,
        0.013579026265750261,
        0.0036028822858595625,
        -0.0038538357660710407,
        0.11329250179634504,
        0.13388120820524074,
        0.0838256224512541,
        0.02237743990510331,
        0.04156118358618126,
        0.024936342503274457,
        -0.001982829081846533,
        -0.028646453396115778,
        0.03271898182886103,
        -0.022074963564180223,
        0.0007838311018054456,
        -0.04653461433230001,
        -0.04041615730621091,
        -0.011571593252719621,
        -0.0016971178012129791,
        -0.025092121310903208,
        0.09341397047001357,
        0.07909936277014623,
        0.035132569210997965,
        0.031638190994802806,
        0.03215251080993492,
        0.10656215067095395,
        0.09215350405717937,
        0.013927123380499732,
        -0.017295692833052025,
        -0.13660194327205047,
        -0.1522194867615822,
        -0.1016736716268318,
        0.01153048785440675,
        0.08169199292945874,
        0.13009262840128666,
        0.04681406199168722,
        0.02827420226044292,
        0.062363957504671254,
        0.07111686223972857,
        0.0707079087702267,
        0.07097982220223617,
        0.05082909259821017,
        0.07255601351048978,
        0.08824279555311726,
        0.08002168908988333,
        0.14154908633063026,
        0.16648912852187375,
        0.11330299164418547,
        0.037713240757238975,
        0.07771101924535295,
        0.061529195403775036,
        0.08238398566606711,
        0.09030141499995598,
        0.06797689552698324,
        0.06958193049922047,
        0.034944823408819665,
        -0.1032512059799867,
        -0.12703652141852875,
        -0.11088296484549998,
        -0.03798964520539677,
        0.08077498988181392,
        0.022230862498918074,
        0.010205449381560096,
        -0.05381271619148694,
        -0.03878792981359745,
        -0.0038024435976312123,
        0.059764116041183306,
        0.014723704103010141,
        0.003297480154573729,
        -0.07417437129778874,
        -0.07121427422496439,
        -0.02712426705805948,
        0.029518893568978518,
        0.055956652172070534,
        0.056445291856242315,
        -0.010768024562156728,
        -0.04970932314834878,
        -0.051121986614311256,
        -0.048783722905625125,
        -0.07368446699665541,
        -0.08998948475496887,
        -0.07476280461871676,
        -0.04741438648240609,
        -0.05841248758410528,
        -0.08321891029364265,
        -0.07873382356938907,
        0.004533443095546128,
        0.020011780330113013,
        0.1266535887594433,
        0.05699713402171265,
        0.058763648000215336,
        0.04742771238255221,
        0.023671021019030396,
        0.09573925399660799,
        0.1316197147877066,
        0.14173881022371645,
        0.08471120247902278,
        0.14394799949150705,
        0.151321061997699,
        0.22977386630106966,
        0.21958698636735632,
        0.12943023674806825,
        0.10503043899515246,
        0.047400559421284606,
        0.04783490543634712,
        0.07325510489259757,
        0.0692292859519901,
        0.010639206560476792,
        -0.08202864765762595,
        0.017878031019923826,
        0.03281423947509378,
        0.08670870410474191,
        0.10716716612525085,
        0.08320678644880078,
        0.05054236691913107,
        0.02590971294720555,
        -0.027647267003270887,
        -0.07609775654928572,
        -0.05863026473433329,
        0.02297901309060376,
        0.004431191591659838,
        0.07639891849060337,
        0.09503577589150501,
        0.07631809081530772,
        0.0782705478628661,
        0.06902534832672794,
        -0.014414112437472697,
        -0.0014079367263707529,
        0.020643839270352588,
        -0.044603080819689805,
        -0.07772195240011828,
        -0.06909437957939633,
        -0.021744809664937498,
        0.02683266619244634,
        0.05930947882182433,
        0.01850732139496762,
        0.032899998724700265,
        0.04214882842140234,
        0.05863569344334327,
        -0.03296214085768318,
        -0.002491431413354677,
        0.04147278738685724,
        -0.04864250127058159,
        -0.055284419678371166,
        -0.052645434199644084,
        -0.07785032661638966,
        0.030190130549749755,
        -0.022238260806861112,
        -0.0099469578534075,
        -0.016977461482182515,
        -0.09578091899332786,
        0.0074673146936604234,
        -0.01784096951595432,
        -0.04693815556784908,
        -0.033125676958128826,
        -0.03252165295984215,
        -0.00909915697124234,
        0.015320045325830457,
        0.0005328423384863455,
        -0.004079091693929485,
        0.04469418862895096,
        -0.03396768761523196,
        -0.0032555693347401846,
        -0.014339116775295742,
        -0.0482318218519783,
        0.03455181787530532,
        -0.013836816421911502,
        -0.027331693195606424,
        -0.030099578627570553,
        -0.012973638374312906,
        -0.031625001219090454,
        0.027601232344258153,
        -0.025745009792165763,
        -0.015839152797276247,
        -0.04002978847578624,
        -0.0004797523152057069,
        0.046839165919551756,
        0.04191292038572182,
        0.0408890079225272,
        -0.02446625877626106,
        -0.041411509856562646,
        -0.006657820021885561,
        0.0601504278258377,
        0.018559632194341095,
        -0.009159499600403647,
        -0.11893956212621747,
        -0.11317781163843586,
        -0.047288556949378016,
        0.0771458771724209,
        0.06122191129894966,
        0.06588198507197839,
        -0.03280818076641995,
        -0.006972074984156371,
        0.017371142508610767,
        0.07401916004312428,
        0.10781534327617812,
        0.2072304468378024,
        0.16947693450030868,
        0.12198727693501744,
        0.07105593688944356,
        0.011871255687236591,
        0.041163042991763765,
        0.0900543295069629,
        0.011141183476094572,
        0.027594965708580346,
        0.06198666524060577,
        0.050922590634483594,
        0.017169000666121863,
        0.022883362101201732,
        -0.03913504801913248,
        0.007459532276187814,
        -0.013579062664426999,
        0.005401630506084113,
        -0.014238004977942009,
        0.003415298784346571,
        -0.0479233900397944,
        -0.1151703563772781,
        -0.13780884264127544,
        -0.041690765415894754,
        -0.022697970943409664,
        0.06771323211457342,
        0.039619131455988006,
        0.06375309137549638,
        -0.010698773353583295,
        -0.037068285859682304,
        -0.04705957502804053,
        -0.005665278814657112,
        0.03961555797592531,
        0.020146597247754985,
        0.06621198381821941,
        -0.008531789291322336,
        0.002256501130885346,
        -0.05332621547771878,
        0.0470601483020339,
        -0.013606185388120504,
        0.045750341738164384,
        0.04106789847531295,
        -0.004119411431292524,
        -0.029222315398721034,
        -0.0046521875020353026,
        0.02191517080722915,
        0.0008419887362032473,
        0.044844152562795676,
        0.05580555974659762,
        0.05561078634459529,
        -0.0012317096760390415,
        -0.005948233194595015,
        0.0034610336214898037,
        -0.01872821826653609,
        -0.03328526734856518,
        0.018361385604847763,
        -0.09029798755991128,
        -0.1475201085057401,
        -0.14965547408945698,
        -0.11015131892785357,
        -0.03552390167996036,
        0.07962391936316986,
        0.06107314910922756,
        0.08674447880077785,
        -0.009266888842655523,
        -0.00957070339576163,
        0.011920141426700758,
        0.02993186765530967,
        0.08330392417931909,
        0.11724166111737155,
        0.0768570597356904,
        0.04949242225601435,
        -0.014463705760189474,
        0.02162028222029978,
        -0.06625218370499951,
        -0.04129758427449565,
        -0.036888501559287364,
        0.02524248733760147,
        0.06542502243983563,
        0.036068211941562775,
        -0.049567293096630716,
        -0.0735896883822023,
        -0.10378703273316915,
        -0.04135642937517341,
        0.012681935437557988,
        0.09761404044533364,
        0.11768072947295037,
        0.13879063915386777,
        0.09737111725433445,
        -0.033525288413608065,
        -0.07096224511575877,
        -0.052861700605269395,
        0.004414012140596271,
        0.019410181883804715,
        0.0694325619651113,
        0.08718854141725271,
        0.1094540102585916,
        0.09292719363380117,
        0.03368444109321443,
        0.03738146570921618,
        0.07630064020563035,
        0.0974555616334298,
        0.1414880051678758,
        0.08739614345153483,
        0.07635731041861551,
        -0.006817301424208591,
        -0.022310737572057943,
        -0.039301294811644405,
        0.011698829663476299,
        0.01903300577142195,
        0.04602304931976383,
        -0.03583278843917828,
        -0.05451137321712262,
        -0.048947711612386674,
        0.013264944035583337,
        0.07422488286216994,
        0.0779924174351584,
        0.030036968220641523,
        0.004592589411594994,
        -0.023422691008400054,
        0.059802209143819625,
        0.04073731265937852,
        0.053041536106953314,
        0.0018720713885060386,
        -0.06847009930477452,
        -0.07484076577468492,
        -0.03587621569002458,
        -0.0046288285354011945,
        0.04380732955257242,
        0.04959518503642034,
        -0.03534564837465762,
        -0.0689775670388528,
        -0.06849084216816606,
        0.05216461853559232,
        0.08721880696215428,
        0.06638000220016035,
        0.021890638155830915,
        -0.05191301189310514,
        0.0061146626317057145,
        0.05488319421831689,
        0.09513584607060976,
        0.0978066112671742,
        0.07824209832501774,
        0.05764115491590174,
        0.06664680868299071,
        0.033008449478552394,
        -0.01547856977169049,
        -0.01616206532502839,
        -0.02093790516843354,
        0.04546624641385652,
        0.051807417635769716,
        0.035249793180188796,
        0.02228528925802978,
        0.046339078787878046,
        0.051448238316927256,
        0.03799303590401554,
        0.030501325866597463,
        0.013694457637572818,
        0.03466428386316951,
        -0.004925004109874209,
        -0.030181058242827307,
        -0.05091383426482937,
        -0.07975603306807355,
        -0.022028153154992913,
        0.010414423290474038,
        -0.036652787350536994,
        0.019955504579136633,
        0.10652755240111252,
        0.15921074108731603,
        0.1343189852272111,
        0.07066055722393225,
        -0.07039840309414862,
        -0.08496178532949851,
        0.0034164456192839468,
        0.03830427138958972,
        0.079603337337063,
        0.09431957901279416,
        0.023209401450868097,
        -0.019675946872632473,
        0.004567317618549744,
        0.0534727799447464,
        0.07617308978090256,
        0.09049419294550205,
        0.05566975756941356,
        0.03314700925848482,
        0.037712385759276455,
        0.09295693002154176,
        0.09409160142193579,
        0.046164149243420716,
        0.023655667725211042,
        -0.02555891021015103,
        -0.015235278043066992,
        0.025111885885246203,
        0.02120571440394039,
        0.03807349268291169,
        0.021568304076902557,
        0.007531134474269241,
        -0.0749670993249135,
        -0.04533014639080703,
        -0.03734293179542908,
        -0.028667785434510144,
        -0.07328129401255709,
        -0.08867449106220474,
        -0.10234608034867296,
        -0.07339147819709496,
        -0.04331154362845092,
        0.003803460203815067,
        0.014884648597438724,
        0.06099049768699573,
        0.09339956397216954,
        0.11812891871540974,
        0.1170660152311032,
        0.07267170147242316,
        0.057514262817270595,
        0.07215307429172252,
        0.065025244534867,
        0.04406816797661475,
        0.08231555500926299,
        0.10098862950369178,
        0.09285445393362937,
        0.06189029534965799,
        0.05339825389050336,
        -0.014184589390150144,
        -0.027111568964511813,
        -0.03790099344610631,
        -0.062097604036833856,
        -0.04694253884509261,
        0.052157577712912406,
        0.0826166361422051,
        0.08525085570120894,
        0.11880055278052326,
        0.11548181162883124,
        0.08186786208294575,
        -0.007217885070493971,
        -0.05185982682874109,
        -0.05265505330179829,
        -0.006371399019352241,
        0.0020903802992723215,
        0.03082723128917604,
        0.07291966591998866,
        0.0496716430871515,
        0.02969299659977556,
        0.003255179315166581,
        0.00886068584460938,
        0.010308311606731048,
        -0.034646782095386075,
        -0.056147186974001374,
        -0.06958222008413406,
        -0.1220955790622188,
        -0.08041474020928611,
        -0.021313226160134875,
        0.0674544924889547,
        0.12076696483018631,
        0.12587021624802125,
        0.0691632590406571,
        0.0660861623554457,
        0.03887037987763979,
        0.05774270909457656,
        0.03174940597530933,
        0.00020978536506760105,
        -0.026237263437842308,
        -0.048981165146816934,
        -0.07269726391256438,
        -0.043497294085474925,
        -0.059072250616048,
        -0.004841918809569588,
        0.023539737560107535,
        -0.04118956836982181,
        -0.0914926936929037,
        -0.12086309061140883,
        -0.1222413754184852,
        -0.034811935541055494,
        0.09068959917868084,
        0.1309242510014567,
        0.10742718276427161,
        0.11106654830813363,
        0.05309307690288198,
        0.00045651673346657645,
        0.02239120772925262,
        -0.005694310240209745,
        -0.04768031148703666,
        -0.07247110527605576,
        -0.06823084814664389,
        -0.03764333906575343,
        -0.008260996912648132,
        0.08345328990133752,
        0.10341130130565603,
        0.08479404463888976,
        0.06364965477509793,
        0.03176068983023962,
        -0.016419482510224293,
        0.021375500696177933,
        0.04305475703389473,
        0.05943416673506455,
        0.03516092682205321,
        -0.011682596918556274,
        -0.07013683884237193,
        -0.07880278915025207,
        -0.04002677001148444,
        -0.0015741088102350052,
        0.05493019061764591,
        0.11241639719929217,
        0.09200968860135962,
        0.07961584438055572,
        0.07675186070477595,
        -0.0020446271115977543,
        -0.056591536057538847,
        -0.03248815949573032,
        -0.034302089034599345,
        -0.02359774836526247,
        -0.04367682187247293,
        -0.038857220531577565,
        -0.05050359007353471,
        -0.03628425292900557,
        -0.049902823100791846,
        -0.08399733105059781,
        -0.10621760551893447,
        -0.1054507387998975,
        -0.06642482601454226,
        -0.014502973387904,
        -0.008085070304818994,
        0.025229502223556376,
        0.06577300529218266,
        0.10051979796519799,
        0.09595435343386144,
        0.08406578767402852,
        -0.01555733291179625,
        -0.056374780187972554,
        -0.054981363884183565,
        -0.0013883394822901138,
        0.03589306960496982,
        0.10240665388315578,
        0.08357782058303277,
        0.09086875105730624,
        0.060528655657230805,
        0.06243015698809012,
        0.07605730617506469,
        0.06466947235451952,
        0.027333479622657312,
        -0.01971469542702304,
        -0.040741694784490676,
        -0.06351325494018614,
        -0.04926596734465945,
        -0.030194463601589838,
        0.0191989794129592,
        0.00342616738762471,
        -0.002068941224549546,
        -0.03451780966167274,
        -0.052303208404375634,
        -0.0537357722115972,
        -0.05182782822964205,
        -0.03233654919547168,
        -0.03329689945915374,
        -0.014977674568303553,
        -0.01779477191424115,
        -0.002875673187551074,
        0.02634356490983638,
        0.036251738336035545,
        0.024723268642198953,
        0.023478649597897944,
        -0.035578388382988387,
        -0.03922702152505208,
        -0.03243258981780851,
        -0.0004798747998646537,
        -0.008869692969472069,
        0.006011427972712105,
        0.04049515702416352,
        0.09160265231252804,
        0.1650202040292389,
        0.15367793182775152,
        0.12344693862873926,
        0.08592578413048188,
        0.02998790533818979,
        0.01278365843427793,
        0.057621095396651764,
        0.03647044199440022,
        0.035499309735780436,
        0.04572347301110119,
        0.052436265045274225,
        0.09540726422345269,
        0.1274149563285067,
        0.1001758177998199,
        0.0978866386359204,
        0.03504746725166598,
        -0.06138912081609801,
        -0.11731018012617074,
        -0.1470590553316402,
        -0.072294845806843,
        0.003049756619539781,
        0.02325893003035568,
        0.015452295327533228,
        -0.004182273075244103,
        -0.061829363547175914,
        0.015311543540554766,
        0.057449097002012686,
        -0.019709858353814207,
        -0.05031392124633528,
        -0.02911161133952346,
        -0.008855936194475188,
        0.030435895186170847,
        0.06869959511381982,
        0.0890817080366807,
        0.10102117945805966,
        0.10231055319713615,
        0.12083706054968894,
        0.05164991212455186,
        -0.03447553677617884,
        -0.07457799391377262,
        -0.1013725230689397,
        -0.12235092427341238,
        -0.16114365928800634,
        -0.13552414034364083,
        -0.10110944408582245,
        -0.052890301138164356,
        -0.010071172412233917,
        0.06323602697193179,
        0.06303766811252168,
        0.07231851402593464,
        0.07923855264090471,
        0.048177218643386796,
        0.011800243378091862,
        -0.02252191893942627,
        -0.010413684290418723,
        -0.025001179642011737,
        -0.0004084776447437328,
        0.010171825104970975,
        0.009889437851437591,
        0.015404924166395953,
        0.02008602400775529,
        0.019158119418576005,
        0.0020923025658229483,
        0.009395516573872938,
        -0.013530930943498823,
        -0.017474195096097937,
        -0.048157006069214005,
        -0.03572957273115157,
        0.010924089880389027,
        0.007157237382306942,
        0.050329850252219276,
        -0.023053095607234435,
        -0.0660334350379442,
        -0.06776558458801041,
        -0.0934813729159826,
        -0.12512823786147856,
        -0.05340946226820232,
        -0.07037903305061181,
        -0.11846761273065026,
        -0.12317782717681511,
        -0.11230164107070381,
        -0.09298024799317535,
        -0.05600156353514274,
        0.004266880253514262,
        -0.015836110010659418,
        0.020265979939867403,
        0.016226124187223565,
        -0.012314800925818803,
        -0.021155054402876534,
        0.013085424621929345,
        -0.034593992064726985,
        0.019795817220045534,
        0.09007440171881409,
        0.09327273710279443,
