{
    "train_site": [
        "DRIAMS-A",
        "DRIAMS-B",
        "DRIAMS-C"
    ],
    "test_site": [
        "DRIAMS-B"
    ],
    "seed": 35,
    "model": "mlp",
    "antibiotic": "Ceftriaxone",
    "species": "Klebsiella pneumoniae",
    "years": "*",
    "test_size_obtained": 0.1,
    "prevalence_train": [
        0.8566308243727598,
        0.14336917562724014
    ],
    "prevalence_test": [
        0.8709677419354839,
        0.12903225806451613
    ],
    "sample_sizes_per_train_site": [
        0,
        60,
        219
    ],
    "train_proportions": [
        0.0,
        0.5,
        0.75
    ],
    "metadata_versions": {
        "DRIAMS-A": {
            "2015_strat.csv": "56d646ce31a05dd704a4a6693aabc413a4e75f76",
            "2016_strat.csv": "d06fff6b6b60af9fc10fadc858cf5624808aaf3f",
            "2017_strat.csv": "a474ce364f6d3e201b3a527d8786e2c31bbc8577",
            "2018_strat.csv": "e650292c172f16845899c3a566b8f3c427b3e9c2"
        },
        "DRIAMS-B": {
            "2018_clean.csv": "27380b0a9a43a1e699b4b311235211ccfd2a76f2"
        },
        "DRIAMS-C": {
            "2018_clean.csv": "0e0d2a1ebdfeed3f39f7dae50f4000328e7da075"
        }
    },
    "scoring": "roc_auc",
    "best_params": {
        "mlp__activation": "relu",
        "mlp__alpha": 0.0001,
        "mlp__hidden_layer_sizes": [
            512,
            128,
            64
        ],
        "scaler": "StandardScaler"
    },
    "y_score": [
        [
            0.9998732695213636,
            0.00012673047863645933
        ],
        [
            0.9999480045568253,
            5.199544317464351e-05
        ],
        [
            0.9530426444630592,
            0.0469573555369408
        ],
        [
            0.9893415378621941,
            0.010658462137805821
        ],
        [
            0.9900511011727049,
            0.009948898827295069
        ],
        [
            0.9999917776433931,
            8.22235660686793e-06
        ],
        [
            0.987915666138179,
            0.012084333861820942
        ],
        [
            0.9999999591629413,
            4.083705878358317e-08
        ],
        [
            0.9996764987334926,
            0.0003235012665073545
        ],
        [
            0.9998066116655602,
            0.0001933883344397863
        ],
        [
            0.9883617614707636,
            0.0116382385292364
        ],
        [
            0.9966343326716915,
            0.0033656673283084474
        ],
        [
            0.999997001330279,
            2.998669720951944e-06
        ],
        [
            0.9983104924997538,
            0.0016895075002462195
        ],
        [
            0.9994531872933139,
            0.0005468127066861547
        ],
        [
            0.9997988175933182,
            0.0002011824066817117
        ],
        [
            0.9776209035479452,
            0.022379096452054784
        ],
        [
            0.8207036033877859,
            0.17929639661221403
        ],
        [
            0.9999988331830574,
            1.16681694259217e-06
        ],
        [
            0.9999999307242816,
            6.927571833499712e-08
        ],
        [
            0.9004588223188236,
            0.09954117768117639
        ],
        [
            0.9989448653211185,
            0.0010551346788814694
        ],
        [
            0.9980725044514843,
            0.0019274955485156968
        ],
        [
            0.9993112670454386,
            0.0006887329545614201
        ],
        [
            0.9999950472601327,
            4.952739867378173e-06
        ],
        [
            0.9999335646942289,
            6.64353057711522e-05
        ],
        [
            0.9999445550807569,
            5.5444919243121455e-05
        ],
        [
            0.7316264694872732,
            0.26837353051272683
        ],
        [
            0.7925792161635169,
            0.20742078383648307
        ],
        [
            0.9977714359066191,
            0.002228564093380943
        ],
        [
            0.9999999409841598,
            5.901584022613977e-08
        ]
    ],
    "y_pred": [
        0,
        0,
        0,
        0,
        0,
        0,
        0,
        0,
        0,
        0,
        0,
        0,
        0,
        0,
        0,
        0,
        0,
        0,
        0,
        0,
        0,
        0,
        0,
        0,
        0,
        0,
        0,
        0,
        0,
        0,
        0
    ],
    "y_test": [
        0,
        0,
        0,
        0,
        0,
        0,
        0,
        0,
        0,
        0,
        0,
        0,
        1,
        0,
        0,
        0,
        0,
        0,
        1,
        0,
        0,
        0,
        1,
        0,
        0,
        1,
        0,
        0,
        0,
        0,
        0
    ],
    "feature_weights": [
        0.000314762453894706,
        6.249425422301304e-05,
        0.0005640192583579856,
        -0.0007478788919849568,
        0.0003255255054447783,
        -0.0008025405751094357,
        0.0006640926473284435,
        0.0008335138997542255,
        0.0004256922345715555,
        0.0006832128954384441,
        -0.0008786900946285639,
        -0.0004589907104635291,
        -0.0012218896473396353,
        -0.001020498650542497,
        -0.0005762026796116771,
        0.0008159011069592142,
        0.00038686297144488967,
        0.0006893385209000838,
        -0.0001464181453281417,
        0.0015222453014436955,
        -0.0011338257642666116,
        0.0004959734389394764,
        -0.00024918680113256587,
        -0.0006901741603394697,
        0.0009931257416649732,
        0.000429683306067337,
        -0.00012018459718431173,
        -0.0011675388608975398,
        -0.0004715758590401181,
        -0.00011107993460728892,
        0.0002844520673354319,
        0.001108757590582576,
        -8.15267549392428e-05,
        0.0009363204511614398,
        0.00026912286353838165,
        -0.0016337685463931558,
        4.739694261914908e-06,
        0.0008654607009412775,
        0.0008591214644016914,
        0.0007481483464571517,
        0.001216780278414145,
        -0.00026424455392954266,
        -0.00034872047351443763,
        0.0009977924542716942,
        8.519181132119174e-05,
        -0.00026998681119560955,
        3.5244286512039113e-05,
        6.38460144899831e-05,
        0.0012880499588775666,
        0.0010481028734101163,
        0.0008133420806751526,
        0.00011423554806312339,
        -0.0003957997559896574,
        -0.00038213843117025463,
        0.0006933547052473517,
        -0.001563849536377624,
        -0.0004742257146056918,
        0.0008708405755244763,
        -0.0013252139146392465,
        0.0002583716764598185,
        -0.0009668010120220168,
        -0.0011753349482349952,
        0.0019079159268487618,
        -7.337570097661927e-05,
        0.0009093307227313071,
        0.00017144789306970307,
        -0.0006464051536792426,
        -0.0007420285380399919,
        0.00146931690101522,
        6.279610149383516e-05,
        0.0008224873442154192,
        0.001302572816509479,
        -0.000579548793711094,
        -0.001295083775411903,
        0.00024889676609612363,
        -1.6079379978205157e-06,
        0.00012618722009524774,
        -0.0005380484415323035,
        0.00023539593698916964,
        6.929038477585566e-05,
        0.0007247246862948048,
        0.0006956813000095279,
        0.0008351810217150657,
        0.0021058657752677365,
        -0.0003408810741103315,
        4.7157337481041955e-05,
        0.0006860911558861072,
        -0.00218280337986739,
        -0.001257084642164598,
        0.0007643022788956167,
        0.001801745834694031,
        -0.0002529193914958238,
        3.7815855767370666e-05,
        0.0010757463913028263,
        0.0007041221604513831,
        0.0018683129364460665,
        -0.001089241552898192,
        0.001069442521703105,
        -0.0004015596243284328,
        -0.0011642709553806394,
        0.0004693211856619108,
        0.0007649211413044443,
        0.0015555455234705679,
        -0.0007420879291993006,
        0.0005601736479640103,
        0.0006268537297183333,
        0.0006407573643039874,
        -7.051179503707252e-05,
        -0.0010249392782530598,
        -0.00030802076137727177,
        -0.0006786986054951873,
        0.001666324592835741,
        1.2833204203633675e-05,
        -0.0012589407949300836,
        -0.0008734443226597982,
        0.0019855557576672206,
        0.0002416325970778006,
        0.0010096104541918735,
        0.001709637910898882,
        -0.0007382999904352437,
        0.001908475978273117,
        0.001027450501320989,
        0.00105339889188703,
        -0.0006522148504980467,
        0.0004545089011218437,
        -0.0004552585508394985,
        0.0008419794235602115,
        0.0003103006248398853,
        0.0002616156058476215,
        -0.00041439156323194314,
        -0.00023781424900152094,
        0.0006943036620177846,
        -0.000722626238818247,
        -3.318454636594168e-05,
        0.0009275339909208648,
        -0.0015157185409383324,
        0.0005548407453758969,
        0.0007230826489929975,
        -4.056408274106648e-05,
        -0.000887994542063822,
        0.000901606795280111,
        0.00043196004324721853,
        -0.001364495913644957,
        -0.0008904759878538677,
        -0.000980054676364639,
        -2.0694321847930064e-05,
        0.00040858800650173024,
        0.0013326224116382511,
        0.000502866058015074,
        0.00031891229763162006,
        0.000993901592738812,
        -0.0005982405753728551,
        -0.0002510250482611733,
        0.0005919737760839057,
        0.0007013113682791558,
        0.0004310165837682565,
        2.235796640348575e-05,
        -0.0007822094212974109,
        5.632265123267188e-06,
        -0.00043450010215051785,
        0.00019756202013187672,
        -0.00030058889016078397,
        -0.0002191554625195373,
        -0.0003659022352409314,
        -0.0008399815988799216,
        0.0003509557738931751,
        0.0005310436552177198,
        0.0006307171965287469,
        0.0014850324051085733,
        0.0006632506997266136,
        -0.00014518098764851195,
        -0.0001334588776111325,
        -0.00032253412543166026,
        0.00025337522878510037,
        0.00109790260026281,
        0.0008742403282142493,
        -0.0005187703775058705,
        -0.0002864092483634561,
        -0.0011754119696617753,
        -0.0008219734509054224,
        -5.146172494930988e-05,
        -0.0018213176899441962,
        -5.295911560228479e-05,
        0.0017528202418862784,
        0.00031200906837549805,
        0.0004024460208094889,
        0.0002433372548692103,
        0.0005304239160496232,
        0.00040532727872209703,
        3.572890976267514e-05,
        0.0009997812804064673,
        0.0011034599809228256,
        0.0009116488274199761,
        -0.0013942862150034552,
        -0.0014800307736027888,
        -0.0005543413069484586,
        0.0003489531056554744,
        0.00029978933368298214,
        -0.0008237696628359264,
        -0.00031899931264557126,
        0.0018898508155750257,
        0.000112390864827377,
        0.0014077391679230558,
        0.0006902611614100179,
        0.0005707554886947743,
        -0.0004015385845579763,
        0.00037553567083082435,
        0.0002287538328087362,
        0.00067352744361337,
        6.491558502245824e-06,
        0.0007563620943431926,
        -0.00034047875724531025,
        -0.000182656020395977,
        0.00019293823312397637,
        -0.0011710300485584238,
        -0.00023009337976042147,
        -0.00041733476532685094,
        0.00026724224832655756,
        -0.0001514324938554806,
        -0.0017480617239315792,
        0.0008117180115285583,
        0.0007863593349960948,
        -0.00029213474159780074,
        0.00028669013442357257,
        -4.053378146858956e-05,
        0.0006904755777613922,
        0.00022150469369255742,
        0.0003624171382324745,
        9.29585665243084e-05,
        -0.0015984452428784465,
        -0.0007421427007878339,
        0.0005710767192023106,
        -0.0008651229510850643,
        -0.00016369792701895485,
        -0.0010889855249980856,
        0.000500166968946489,
        0.0003741020675496865,
        0.0014143673510938195,
        -0.000847766488431032,
        -0.001603990374103261,
        -0.0006703788850643833,
        -0.0009960008747435791,
        6.639272978701703e-05,
        0.0004618748336653526,
        3.934727533069817e-05,
        -0.0010851795555750325,
        0.0007357871919381205,
        0.001016795502174402,
        -0.0005697228180041303,
        0.00012119712163183581,
        -0.00042002336598805784,
        0.00016174395896653487,
        0.0006020204929293892,
        -0.0007477811559563919,
        -0.001223179994906088,
        0.00020779745699713614,
        -0.0005204598769511307,
        0.0003749163049037549,
        -0.0006603151431600386,
        -0.002015587441789505,
        -0.00048370040551411344,
        0.00023208045294723616,
        -0.000795469941954061,
        -0.00031885895654942397,
        -0.00011594468737032182,
        -7.648494505733473e-05,
        0.0003831683523412312,
        -0.0007395049130177488,
        0.00023023127367119412,
        -0.000118601867181151,
        0.00021554900765496216,
        0.0008315034013570497,
        -0.00011891281478330071,
        0.000138136061339066,
        -9.674557776448942e-05,
        -0.00018715252172008348,
        -0.0009549406371210945,
        0.0002563449732643872,
        -0.0005008754573380665,
        -0.0006225985941673086,
        0.00040552897104861776,
        8.365171158762597e-05,
        -7.491088490052463e-05,
        9.61444791912071e-05,
        -0.0016126377096362253,
        -0.0004920783823238449,
        -0.0008951250121006897,
        -0.0010431301200396889,
        0.000523839220754295,
        0.0013293616342917125,
        0.0003590073414955956,
        -0.001332839737538076,
        -0.0007561822266197774,
        -0.001032126585606701,
        0.0008417607889500119,
        0.0020007012627830814,
        -0.0005728466837372857,
        -0.0017537382271418166,
        -0.0004770182563221246,
        -0.0007277628608279457,
        -0.002135063639983414,
        -0.0015596541156683741,
        -0.0005721733809182246,
        -0.001532932081121016,
        9.82497677704327e-05,
        -0.0006896868608592072,
        -0.00038319939693190805,
        0.0003255961761750082,
        0.00016320791197354937,
        -0.00020017711168125182,
        -0.0008294075439440463,
        0.0010402517439098886,
        0.0014734234299913658,
        -0.00032959131347899727,
        -0.0010472381734232315,
        -0.001349650649211511,
        0.001404794640720801,
        -0.00015124816572662463,
        0.00036896982789158235,
        0.0004514242900782249,
        0.00010250730719196592,
        -0.00013074816454584952,
        0.0005764950637333691,
        0.0010875732027043471,
        0.0008780945641347396,
        0.000854311386902955,
        1.3247492448190221e-05,
        -0.00076043051473111,
        -0.0005229964257972875,
        0.0002966811795129181,
        0.0012917152790630714,
        0.0010106628603627325,
        -0.00043764452860665086,
        -0.0006450571632466715,
        -0.0006146547830333209,
        -8.696882277444773e-05,
        -0.0006056956314378888,
        0.00022413139348650353,
        0.00027136202969245307,
        0.0006431896316470395,
        0.0017326235997338576,
        0.00035312885799010016,
        0.0002923479965307973,
        0.001257908773774389,
        7.739323146359491e-05,
        -3.624808551410183e-05,
        0.00010082960175293804,
        -7.527193250977338e-05,
        0.0008442041754593828,
        0.001209136833267576,
        0.0004265632637833796,
        8.408593949560579e-05,
        0.0003944071294864008,
        0.0007649284963188984,
        0.0003581492110104795,
        0.0014680995328288425,
        -0.0001283668605496548,
        -0.0014442661808472706,
        -0.0006672431959373411,
        0.00020288080326284546,
        0.000735716431720675,
        0.00030572009201322613,
        0.00034386671690189914,
        -0.0009829085034054408,
        -0.002082974504437704,
        -4.870822788119011e-05,
        0.00014182249434498102,
        0.00035924103506068173,
        -0.0007896187639351362,
        0.0013364774317494322,
        0.0010415399286008195,
        -0.00012792107048675562,
        0.0007141486750120369,
        -0.00113653716911826,
        -0.0003222097913732798,
        -0.0005941726297571935,
        -0.0013038211129841948,
        0.000588366756612512,
        0.0009696456989111826,
        -0.000854184621363492,
        -0.000544510435140895,
        -0.000731858984561314,
        -0.0015240170691321717,
        0.00010121929180890028,
        0.0006378996822349573,
        6.616170871784317e-05,
        0.0005984741789181125,
        0.0005507737277386201,
        -0.00013947813411287495,
        -0.0006026880513497883,
        -0.0002195398394395709,
        0.0009968624440761706,
        0.0009631514268001336,
        0.0013196485766756767,
        0.000790216390174878,
        0.0010516817002743247,
        0.001199055913050148,
        0.0006876849784793288,
        -0.00016565903843043794,
        0.00031370277662095116,
        0.00019027466199704885,
        0.00034115655088469876,
        -0.00020124892253636269,
        -0.0012399218946513666,
        0.00014015574925545064,
        0.0007276521543961271,
        -0.00115061136528548,
        -0.000588649554650892,
        0.0001547981624081187,
        -0.0005756777234412025,
        0.0002702245936657802,
        0.0002515042081087594,
        0.0007897619686174428,
        0.0017921031279743717,
        -0.000652524067133651,
        -0.00028712153116177905,
        0.00022574371944137207,
        -0.00016099516097452162,
        0.00019902518075235213,
        -0.000787224122248019,
        7.579007880679394e-05,
        0.0009620858210268703,
        0.00040141291547830034,
        -0.0021275986809240295,
        -0.00014522164518626255,
        -5.1604732769313044e-05,
        -0.0011421643160111803,
        0.0009679275495548188,
        0.00036772109353636626,
        0.0005958804485311827,
        0.0012960664403749848,
        -0.0002069027601768025,
        -0.00025979828804654966,
        -0.0007188467470797143,
        -0.0003642923454193819,
        0.0013075677487152564,
        -0.0007110322185849187,
        -0.00027282815819755436,
        0.0005907994089883887,
        -0.00017846143298456323,
        -0.0004490562673611876,
        -0.00024396014076619708,
        0.0005609925351415346,
        0.000640493390125133,
        0.0004996750376889192,
        -0.0010745067238831895,
        -0.001320863216216959,
        -0.00020485865527589277,
        -0.0007191501656546646,
        0.0013199402420706844,
        -0.0006026319422200545,
        0.0004888786744821467,
        0.0011372827552128314,
        -3.8079422699146084e-05,
        -0.0006709715019916755,
        -0.00017210947034238845,
        -0.0014156460379395623,
        0.00031880265853927685,
        0.0007504162044667678,
        -0.0006964037537064739,
        0.00010922602063318974,
        -0.0009788337713506842,
        -0.0013360199839314625,
        -0.0012491962059852702,
        -0.0010587874776871963,
        0.0006345394644958712,
        -0.0013389758179624149,
        -0.0020270372547104365,
        -0.00109018436369634,
        -0.00030382252126594906,
        4.93836126321417e-05,
        -0.0006909818541077108,
        0.0007795365188141479,
        -0.00010133962627436493,
        -0.0002731973723635564,
        0.0004285371090384355,
        4.632908478140505e-05,
        5.540379121617676e-06,
        0.0005623693207093352,
        -0.0003365348781153222,
        -0.0003185311182110305,
        0.0014331617113160938,
        -0.001320196367674413,
        0.000417312758849908,
        -0.0002617549002894973,
        0.0004136474117158512,
        -0.001720123834921651,
        -0.0005596098790948134,
        -0.001819394459814759,
        0.0012173001147459824,
        -0.0002203603144714574,
        -0.0005448859549720688,
        -0.0005184464229295286,
        0.0007948363241855894,
        0.000995967604848856,
        -0.0029724332443207893,
        -0.001340390572235994,
        -0.001406128568988768,
        0.00013485262736071283,
        -0.0013342392979527288,
        -6.397353265011254e-05,
        -0.0002732809227504112,
        -0.00191781561900135,
        0.0001522067652149693,
        -5.678186398759685e-05,
        -0.0011519724348952628,
        -0.0001623145442100144,
        0.0001806082240446117,
        -0.00047530456065287744,
        0.0014228285950885875,
        0.000807012419279207,
        0.00040461916199273666,
        -0.00041144635343810343,
        -0.0008725812142634477,
        0.00039646420996498395,
        -0.0001406788383720768,
        0.002171860754560854,
        0.00019049155905984436,
        -0.0009945006898246377,
        -0.0009780956770693288,
        -0.00027156940293469054,
        0.0010835797955759522,
        0.00012874447567946644,
        -0.000577699473526194,
        0.0002753106346264045,
        -0.001560326247796496,
        -8.506233338523994e-05,
        0.00014433785680743454,
        0.00015301481605577095,
        -0.0009299281237276824,
        -0.0007457407575147683,
        -0.0005763026105917023,
        0.0009537613591564551,
        -0.0015506013293027248,
        0.001529406417600386,
        -0.00043655817395526087,
        -0.0013933628732833033,
        0.0001388152149498242,
        0.0010928269467608445,
        7.049885771234196e-05,
        0.0011645681689547113,
        -0.0001541140307248989,
        0.000496888647010122,
        0.0003332071101088859,
        -0.0010270012316220556,
        0.000464176891683643,
        -0.00043213901033641136,
        0.000403965596124489,
        0.00017166623960437741,
        -0.00045592544211578933,
        -0.0006570727104961462,
        -0.00037509312979787417,
        -0.0003399362175099494,
        -0.0004640384283529795,
        -0.0019972052009971757,
        -0.0016563920773114398,
        0.0002431787090714651,
        -0.000691134688133936,
        0.000280932227284539,
        0.0016098459641938376,
        0.0009107686100898681,
        -1.4528883508278779e-05,
        -0.0003249423258526931,
        0.0006605717291547797,
        0.00012948690623942942,
        -0.0009758375845770354,
        0.00022926833772661894,
        -0.0004928433222292185,
        0.0004027294131182823,
        -0.0004902808058585155,
        -0.0006831715701053576,
        0.0005883780845669518,
        0.001533850525386393,
        -0.0005816653612769731,
        -0.00022827667823053106,
        0.0006755740030701401,
        0.00033336437083283867,
        -0.00027633823209202864,
        0.0005071151741429357,
        -0.0002579167086009069,
        0.00016153601652921736,
        -0.0005375458186082369,
        -0.0005132726361953391,
        0.0006126049833813576,
        -0.001598753606168393,
        0.00018187550065478734,
        -0.0007842117678889377,
        -0.0014897273226402912,
        0.0004701108199617064,
        -0.0001493617447982541,
        -9.413409789995323e-05,
        -0.0015450610752359675,
        0.0005178310092777032,
        -0.0008641067087940084,
        -0.00012895406835832855,
        -0.0005573556908983331,
        -0.0005794410795910304,
        -2.7207281464216855e-05,
        -0.0001598546459340135,
        0.0006232782016822464,
        0.0003022252385607977,
        0.0008385194927469516,
        1.8825637258053764e-05,
        0.0020274970272280346,
        0.0008599504336365476,
        -0.0025688108829442125,
        -0.0008023597164184826,
        -0.0017078857721209177,
        0.0007227480423651958,
        -0.0006224263490675089,
        -0.0009949552771698973,
        -0.0004115196784412422,
        0.0015359950583129708,
        0.000574810752204056,
        -0.0002712525161034439,
        0.00018247645719407588,
        -8.851634233962517e-05,
        -0.00014258722898487914,
        -0.00030252708019263283,
        -0.0006163054362320198,
        0.0005364569963867801,
        0.000572740516533959,
        0.00032247104169472516,
        0.0004467899955726117,
        0.0005127834612993663,
        0.00016891978259460854,
        0.0011656244543325506,
        0.0006777079119193556,
        0.0001387111478236328,
        5.626017302005128e-06,
        3.4979927248257213e-06,
        0.0012455789015718285,
        -0.0015700064684230183,
        -0.00026528071441657143,
        0.0008102360103083414,
        0.0002291105574845811,
        0.0008462859164043128,
        0.0010504011740745819,
        0.0012020934289506157,
        -0.0004714885825686371,
        -0.0014952313802744604,
        0.0001031896156149784,
        0.00010977426161991983,
        0.0006276274366363718,
        0.00018279795803574265,
        -0.0011026567902552929,
        -0.0014195679181005644,
        0.00014367506146449393,
        -0.00044440129349690747,
        0.0006131958310644259,
        5.6033223249629975e-05,
        -0.0004404233675455152,
        0.0011592998534846117,
        0.0010263059091174139,
        0.0011687349184040928,
        0.0007545209391505989,
        3.5779262008187496e-05,
        0.0003992565224995662,
        -0.0011039159385833556,
        -0.0005730302889719025,
        0.00045207284954008767,
        -0.0003245356872158535,
        0.0008360201798444395,
        -0.00036997408926271123,
        1.1748157189735251e-05,
        -0.0001706572647421974,
        -0.0002657272587592202,
        -0.0006579611483500534,
        -0.0006864106247461869,
        -0.00011447717491074104,
        -0.0009263575365557872,
        -0.000764875551848497,
        -0.00028282849322408077,
        0.00011573305255527754,
        0.00019305836891890293,
        -0.00034733797512493964,
        -0.0008335564086426872,
        -0.000731366349282097,
        -0.0003158875981677579,
        -0.0011146925034747686,
        0.00015518734962753934,
        0.0003425552916377136,
        -0.0007046072214830523,
        -0.0007379654250095913,
        -0.000641170955181984,
        -0.0011609722566330695,
        0.0002917190549103987,
        -7.529178167542757e-05,
        -0.0006716015955123362,
        -0.0008156891870953053,
        -0.0008406310715240017,
        0.0010021507258607242,
        0.000591351513132387,
        -0.0005302210991913835,
        0.0005196674553574543,
        -0.0009622363367826255,
        0.0010664192424027622,
        0.0004425465670471682,
        0.0011626992252965957,
        0.0005380312505035451,
        -0.0006577674305026731,
        0.0017633637345903514,
        0.0005701097981203563,
        0.00037619070322055393,
        0.000958564813457637,
        0.000926183207770782,
        0.0003078409262484757,
        0.00030537580818834446,
        -0.0011357828849526234,
        0.00015909626970881015,
        -9.71439772083243e-05,
        0.000991943659844206,
        0.00070925797681842,
        0.0009928220634898052,
        0.0002809320136541536,
        0.0010633797985157762,
        0.0009186867589417535,
        -0.0015049302203041302,
        -0.00015307734888653048,
        -6.702754964910113e-05,
        0.0010789836841014811,
        -0.000269119549520135,
        -0.0004423351212178188,
        0.0011384111027021582,
        -0.00032016598314215793,
        -0.000680788078019295,
        -0.0002599676105428404,
        -0.0007734115089057084,
        -0.0011772130612028582,
        0.0015946346515559825,
        -3.3351772635517536e-05,
        0.00031067352754860514,
        0.00015125411761640284,
        -0.0004704891261770283,
        0.0008593402850916352,
        0.0002286981117531561,
        0.00059481707709743,
        -0.0005629825536083775,
        -0.0001061982877433528,
        0.0005557512683333374,
        5.508247598466328e-05,
        -0.0004998514925060691,
        0.00032872980997957694,
        0.0002725056427591604,
        -0.0005485597634781295,
        -0.00020828286958085265,
        0.0004778127950670011,
        -0.00026341023434323243,
        -0.0004515471073637129,
        -0.002535415627089168,
        0.00017437566372877555,
        -0.0012355997840641994,
        0.001489043032514936,
        0.0012511523608909122,
        0.000687381620157684,
        -0.0003199148926759913,
        -0.00023780204426026652,
        0.0001966190159026153,
        0.0004408410848895408,
        -5.970127934494513e-06,
        -0.0008177699324758332,
        -0.00027924181756665094,
        0.0007379095150893578,
        -0.00037237025318997497,
        -0.0008366897640671839,
        -0.0006748948099820192,
        -0.0002068300518925897,
        0.0007755555983130821,
        9.764328676038997e-05,
        0.00035529140836356674,
        0.0002800224828594797,
        6.332448099854868e-05,
        -0.00013887075150485837,
        -0.0001516864618757772,
        -5.232560357076085e-05,
        0.0012494359521689781,
        0.0002928613708139422,
        -0.0009785360438915947,
        -0.001216823048641529,
        6.453539609779853e-05,
        0.0007971747236392743,
        -0.00017124673756572432,
        -0.001847004898500223,
        0.0008353189652130881,
        -0.00024018538292696368,
        0.0008781634615685397,
        0.00038305099425341486,
        -6.671905784312246e-05,
        -3.4347305628434238e-06,
        -0.0015441438938327188,
        -0.0006193031859622525,
        0.00012585157623804853,
        -0.0016200628592456046,
        -0.0002667338827603572,
        -0.0004347740469078849,
        -0.00019953513644183223,
        0.0009282870402458561,
        -0.000905877523441865,
        -0.001372375122940992,
        -0.002823407238323126,
        -0.0007794598534969661,
        -0.0017805226794434079,
        0.0004519044755373219,
        0.0004849935129336816,
        0.0019676432937006183,
        -0.0005242937637867639,
        -0.0013758465945486226,
        -0.0016130916033735695,
        -0.0007500908889765922,
        0.00041184256142993536,
        0.0002762896481366766,
        7.893930982966703e-05,
        -0.0007051669272977916,
        0.0012190427145759085,
        4.2961511420203276e-05,
        7.653459839480388e-05,
        0.0011311288394827087,
        0.0003462103805431462,
        0.0009648748457314876,
        0.0015982859913265708,
        0.0005033045593809562,
        -0.0002347901869802065,
        -3.52919411959903e-05,
        0.00041166155847875946,
        1.3789456251600763e-05,
        0.0015269452027504035,
        0.00043975031479004487,
        -0.0008882740537770011,
        0.0018519348057249372,
        -0.0007748332228273133,
        -0.000515294371888614,
        -0.0010433253704381158,
        0.00012045619518026828,
        -0.0004579310920003309,
        0.0003670372454007333,
        0.0011678267140973826,
        -0.001364186862757719,
        0.0010482955407407901,
        -0.0006368130820600803,
        0.0006066761014335689,
        0.001837559063504287,
        -0.0002841231178671321,
        0.0006089558332144146,
        -0.0002785837358009661,
        -0.0007881669752008368,
        -0.0010927994847423114,
        0.0006010137732673504,
        -0.00028070691670734874,
        0.00027957749183513315,
        0.0007868277948195471,
        -0.00016194224335470733,
        0.0008331174862539116,
        0.00015050506125328825,
        0.0011763277820836411,
        0.0005351780131605344,
        -3.778001526906396e-05,
        -2.2847092794785358e-05,
        0.0010099474787985544,
        0.0009742106069138353,
        5.6038210490189685e-05,
        0.0016656492187398521,
        0.0003600623617279612,
        0.0014419451373030169,
        0.0012873793445988,
        -0.0007347381514608386,
        0.0009769872791171575,
        -0.0013587940819835404,
        0.0008260085776444321,
        0.0009534580913785805,
        -0.0003949393884328887,
        0.00023272234140973505,
        -0.00021670100018567453,
        -0.0004085405250090434,
        0.0006525427943993667,
        -0.0007550851807225356,
        -0.00022566837359475436,
        -0.0009117885549035967,
        0.0004349753023267704,
        0.0006498058647040636,
        -0.00021795504315625888,
        -0.00042581931904174585,
        -0.00013223020488525394,
        -8.447856926540166e-05,
        -0.0002506829545674234,
        0.002555478576814648,
        0.0008303339516054363,
        0.0010727355121871909,
        0.0009458964809566772,
        0.0005417341705376831,
        0.0008174434933022783,
        -0.0008445357075932871,
        0.00041943063245675487,
        -0.000610731843539745,
        0.0005990015219016361,
        0.0014855966954257305,
        -0.00018133756856205969,
        0.00025202045833942863,
        0.0019242090148672462,
        -0.0003861298676999484,
        0.00025705968507589425,
        0.0005171730824882387,
        -0.0003397796265842164,
        -0.0013059137724094937,
        -0.0007409539036533947,
        -0.0006542016808076535,
        -0.0008880832340126173,
        0.0007907977621972927,
        0.0015832202699429465,
        -1.9263439403380917e-05,
        5.378612679265597e-05,
        0.0013892217248923483,
        -0.00030472939463216755,
        0.002147924467705851,
        7.46220406642277e-05,
        0.0016359784866123387,
        0.0010784753980206886,
        -0.0004287806966115136,
        0.00046714523081230685,
        0.0013277055609075658,
        0.0011877654395200754,
        0.0014263735308958484,
        0.0008561117172443055,
        0.00034065246361632983,
        -0.0003652669211933626,
        -0.0005456746351743954,
        0.0012009352648431019,
        -0.00020196950367735636,
        0.00017696336660560932,
        0.0005868911022594732,
        3.890502857999774e-05,
        0.0003394234115679022,
        -0.0007115011723514106,
        -0.0012856008301841068,
        -0.00019511399792954042,
        -0.00037236730406861596,
        0.00038693843379266024,
        0.0014774396852066918,
        -0.00022014226405138226,
        -0.00016388490087448416,
        -0.0012138117448937048,
        -0.0006223727469335289,
        -0.0003167567645813851,
        -0.00017741589251796654,
        0.0014740285470578858,
        0.0007291713513615718,
        0.000466337298527407,
        -0.0006783594195217315,
        0.00036045028015086177,
        -7.33586624132166e-05,
        0.0004992668013118543,
        -0.0007780283873881164,
        0.0009081835372909024,
        0.0007925491133495004,
        0.0007747170830533767,
        -0.000460213908967913,
        -0.0007481924651439322,
        -0.0006249481796979286,
        -0.0010352957180789937,
        -0.0002488276367575298,
        0.00024239999001410913,
        -0.0002861009314714224,
        -0.0005095805238801722,
        0.0008457515076073768,
        -0.00034225645117559643,
        0.00012444826650906545,
        0.0014495246494002842,
        -0.0010582703893673672,
        -0.0016734311602214613,
        -0.0008927068734959205,
        -0.0017645115352677772,
        -0.0007073445634395584,
        -0.000515080922377753,
        0.0005597006118853342,
        0.00029842116701065183,
        0.00016034060851774327,
        -8.233095910180176e-05,
        0.000297811422804058,
        -0.0002512408644329394,
        -2.471730297200301e-05,
        -0.00014439730236370018,
        0.0007023741590657334,
        0.0006368869321125119,
        4.393874971080232e-05,
        -0.0012176039617746307,
        -0.0004176346657310371,
        0.0005757971215784847,
        0.0002130780904385165,
        -0.0009769034363337923,
        0.00014130143210722845,
        -4.989353052836334e-05,
        0.0006574532990292985,
        2.7695657293234433e-05,
        0.0003317209168116191,
        -0.0014962147581399552,
        -0.001621253563090469,
        -0.0009926539864447653,
        -0.0015785935147220444,
        0.000642354959939145,
        0.00042875505727099487,
        0.0008262404198727975,
        0.0010175030503131659,
        0.0009669475948853093,
        0.0016843152884163338,
        -0.0008381794629644728,
        -6.084179257226678e-05,
        -0.0006259251392960522,
        -0.0004631407800937729,
        -0.0006954100008909224,
        -0.00020347446580073458,
        0.000276633841948402,
        0.0012596003669936057,
        0.00015257801343034386,
        0.0005737075921371255,
        0.0011956769483647501,
        0.0015521134892544613,
        0.0016325672940033285,
        0.0005906194023384875,
        0.0005654483225007577,
        0.00047707927929767986,
        0.0012968059699166963,
        -0.0010133177860396723,
        -0.000470032807372063,
        -0.00013569162506473748,
        -0.0012061344150521831,
        -0.0007704297258237452,
        -0.0016363269871981214,
        0.0007524137076637722,
        0.00010780277327801903,
        -0.0008829933692640715,
        -0.0013780573718986829,
        -0.0014452255895416129,
        -0.0012790171950788928,
        -0.001239308840357137,
        -0.00033640660133823705,
        0.0007312508726568265,
        0.000215986576137455,
        0.0006045458769279595,
        -0.0005786886106770119,
        -0.0006097287253298213,
        0.0015360232211051,
        3.3795948467112234e-05,
        0.0006445349221366977,
        -0.0013500486667402272,
        -0.0008380915286273886,
        0.00019356811270041958,
        0.00031805337715363775,
        0.0006696876557316688,
        -0.00025743146256863435,
        -0.0007022100434788707,
        -0.0007403386410235781,
        0.0005224397375600558,
        -0.000428981946220284,
        -5.771151836518737e-06,
        0.0013776338315171477,
        2.9244464778011643e-05,
        0.0006789126804966964,
        0.0002664149122839143,
        -0.0003299502540194349,
        -0.0007142739447494055,
        -6.656872210205884e-05,
        -0.0010957405773865244,
        -0.0001418694837258602,
        -9.798664047335121e-05,
        0.00064454735820367,
        0.0011617621890875087,
        -0.0009424782605015688,
        -0.00027193739570611147,
        -0.00019063257740084522,
        0.0004496228192000666,
        -0.000502317277213345,
        -0.00033856106351278794,
        -0.0011738975311734968,
        0.000817556947461026,
        0.0003571449008612664,
        0.001168220466619951,
        -0.001163329410101716,
        -0.0007606420835862745,
        -0.0002951038686317939,
        0.0004592823340335843,
        -0.0014220686264393362,
        -8.616189886264742e-05,
        -2.5411918830617336e-05,
        -0.002016338899688941,
        0.00015423297342411337,
        -0.0009759903853085837,
        0.0006019550779734628,
        0.0019615168005053573,
        0.0003333417336824306,
        0.001515438870532394,
        0.0009944147705747812,
        0.0012253157944095191,
        -0.0011544804032101444,
        -0.0006625641635918697,
        0.0014152597390094522,
        -0.0007687028673583906,
        -0.000623315122242671,
        0.0009042865638883115,
        -0.0007906173085321138,
        -0.0008804598680229019,
        -0.0007116612737438043,
        -0.0008910056688048108,
        -0.0023441077625268713,
        0.001397301982703107,
        0.0004583722031511367,
        6.643769863245216e-05,
        -0.0010307396139220043,
        0.0008186232713194594,
        0.0005426869428988975,
        0.00104280933665209,
        0.0006407687597514901,
        9.118459718939528e-05,
        0.00039530606378849803,
        -0.00044674477515788477,
        0.0003810636154444241,
        0.0011571317928692085,
        0.0005806706276752532,
        -0.0006500809499366781,
        -0.0018963617217601023,
        -0.00023853878130920445,
        -0.00163652719430937,
        -3.667358823786042e-05,
        -0.001397740327685328,
        -0.002225014455321487,
        0.0005892896040647581,
        -0.0016616375373087729,
        -0.0019363575312169178,
        -0.002757634644307762,
        -0.0004766956683752172,
        3.2566894240372655e-06,
        0.00014572766856103673,
        0.0006015921666425732,
        0.00021554471498241824,
        0.0003116344530653688,
        0.0008941713691118403,
        0.0003843007014710819,
        -1.0915199816548032e-05,
        -0.00033573276364613227,
        -0.002273087502170832,
        0.0001963342547964154,
        0.0008798749326817887,
        0.00012370977992780014,
        -0.0015207697886353718,
        -0.0005858685439393388,
        -0.0003392041292768718,
        0.0013357337061760267,
        -0.0007992297696394448,
        -0.00045783869431764116,
        -0.0007850977622998277,
        -0.00014929627932613377,
        -0.0007838049985918549,
        0.0008263857908576621,
        -0.0006402205224497466,
        -0.003570718634633398,
        -0.0005400791676247397,
        -0.0001186205135178495,
        5.060082796503121e-05,
        0.0008460807032314617,
        4.4358951924354864e-05,
        0.0011198034240525357,
        -0.0002411754411392161,
        0.0006382483852725165,
        0.0008829255435723526,
        -0.0010936167032192118,
        3.22535740384898e-05,
        0.00012703874683441104,
        -0.00038948213278706294,
        -0.0004995818889296584,
        -0.0002188762732798662,
        -0.0004863066142966847,
        -0.00018701742260559265,
        -0.0011331540454699272,
        -0.000876891257049124,
        0.001500596564106229,
        -0.0005929884634446795,
        -0.0011312543225558988,
        -0.0015136198976732121,
        -0.0009317376118611162,
        -0.00025121257314329796,
        -0.0017777451093648577,
        0.0011046053912930668,
        0.00018117637447173952,
        -0.0009603282445489706,
        -0.00030777783825748314,
        -0.001594987358396366,
        -0.0019898215844496676,
        -0.0018859981951937265,
        -0.00107381814681986,
        -0.0011850826698239544,
        -0.003244551063281725,
        -0.00047377662212391854,
        -0.0007389614160282092,
        -2.0934975459894513e-05,
        -0.001214971451799059,
        0.001407128204670298,
        0.0015010991556914574,
        0.0009085048565681989,
        0.001553887177045768,
        0.000434384735146889,
        0.0003223427810365996,
        9.687096983259535e-05,
        4.48296018998773e-05,
        -0.0004681847750490763,
        0.0016916929882383985,
        0.001327163456149403,
        -0.0001128276913087208,
        0.0003393042704542227,
        -0.00012965617311467125,
        0.001110811565448072,
        -0.000213942531766322,
        0.00019901928124263708,
        0.00036998365613027473,
        0.00023053028153961438,
        -0.0010526730051700875,
        0.0005967104641819809,
        -0.00019202608362289074,
        -9.480431629820267e-05,
        9.606755817791933e-05,
        -0.000735646957322904,
        0.0020256141199672855,
        4.233714837056419e-05,
        0.00019417105538762174,
        0.0006541510574412843,
        -0.001707539486458916,
        -0.0014478047783121866,
        0.0001375683571987444,
        0.00037594440892567394,
        -0.000189579931078767,
        -0.0012803344745730542,
        -0.0010229011729565004,
        -0.0009791894045817577,
        -0.0012990796743288253,
        -0.0009050394449024223,
        -0.0016683503024516471,
        -0.0005005184398057625,
        -0.0004710811219436566,
        -0.0006174296626880513,
        -0.001295034250120795,
        0.0003451424868831181,
        0.00011886479761895037,
        0.0016346620041151035,
        -0.0008868597026982431,
        0.0014067014824368737,
        0.000300902857629267,
        -0.00031491371260867487,
        0.00196233978745934,
        0.0023020384879332938,
        4.3021807252598175e-06,
        -0.00030653955234080947,
        0.0021231292294828625,
        -0.001377539737249596,
        0.001270122853227239,
        -0.0009261532436839089,
        -0.0006231564860271726,
        -0.0009818021402140614,
        -0.0006752364870939428,
        -0.0004724784103630901,
        -0.0012125524999232504,
        0.0008548465868036692,
        0.001718983304441451,
        -0.0006732630444449497,
        0.0008623824113838575,
        -0.001718752220306967,
        0.0005250347656054941,
        0.00022699333553339072,
        -0.0014661712188011032,
        0.00020972836934415878,
        0.001122701715090221,
        -0.00035274958501026047,
        -0.0009728172550037561,
        -0.001237030001116172,
        -0.0018632914977818893,
        0.0006089451538682428,
        -0.0011402076602095462,
        0.0006612258099257207,
        -0.0008266110342500427,
        0.00017782392101284362,
        0.00035781778114714325,
        0.00048520745881681644,
        -0.000412623055063034,
        -5.525998632584353e-05,
        -5.672363253658404e-05,
        -0.0015368482041159964,
        -0.0002550978297644993,
        -0.0005950872969384222,
        -0.00040022286953838513,
        -0.0007812357415925902,
        -0.000587359941853629,
        -0.00040743765154519905,
        6.867432568978608e-05,
        0.0010374651897531889,
        0.00014314910936459187,
        0.0004699807718706303,
        0.00010416027856539016,
        0.000475906171850358,
        0.0012468635036628943,
        0.0008129979459013889,
        0.0007527752868800237,
        -0.0002727136964610586,
        0.000603899163586719,
        -0.00032893536923210846,
        -0.0002834265996943703,
        -0.0012580881707489836,
        0.00014802533222343516,
        3.900395434453224e-05,
        -0.0006910590471097894,
        -0.00044834166579303593,
        -0.0012726034071873348,
        -0.0001118288077894886,
        -0.0003129028274445432,
        -0.0005278703479662038,
        0.00017611746539173475,
        -0.0004102182055995801,
        0.0006218407539914222,
        0.0009555790134739024,
        0.0011688122485020813,
        0.0007724087548417744,
        0.0009700649080140757,
        -0.00015389576398396212,
        0.0009745805885363879,
        0.0013264924163930512,
        0.00012408717191496986,
        0.0019324847202014165,
        -0.0009014297540874562,
        0.00042986498866837304,
        0.0011979035676517773,
        0.0002524376951295133,
        0.0006508926872935107,
        -0.0007842267503458367,
        -0.0008315270689693319,
        0.0010328074221347793,
        -0.0007605927660955043,
        8.80332288135915e-05,
        -0.0015987352760058805,
        -0.0018369834120646506,
        -0.0007042637402583355,
        -0.00024383681263275348,
        0.0009198308702529343,
        0.0003303438090903868,
        0.0006216413227724119,
        8.762301093688322e-05,
        0.0003867164528299442,
        0.0020190647237487546,
        0.0009451798135562148,
        -0.0009948910536635236,
        -0.00032024414891897374,
        0.0004319183786399793,
        0.0010726538272095199,
        -0.0006497321237603799,
        -0.0008702708618448221,
        -0.0020446888430277867,
        2.3102933214465553e-06,
        0.0005218306848546732,
        -0.0008573750174124836,
        0.0001972307641138172,
        5.959148310752773e-05,
        0.0006424859131527424,
        -0.000622824769946758,
        0.0007444992340567022,
        0.0010432258822807715,
        -0.0006711962387794623,
        -0.00043678781337729906,
        -0.0006610740837275344,
        0.0003428257236275441,
        -0.00034914373689608566,
        0.0009291591386566011,
        -0.0013387743306924303,
        -0.001083267895985149,
        0.00016673571010172888,
        -8.433749200588176e-05,
        0.0015067101638745937,
        0.0003778156297378593,
        0.0007053549209941038,
        0.0009775448960120906,
        0.0005000434586465792,
        0.0011741472493844113,
        -0.00012682833131438218,
        -3.0654885448263506e-07,
        -0.00041437820142666785,
        0.0004686967444311581,
        -0.0002467085309389697,
        -0.0002153374197594425,
        -0.0015523592225468801,
        -0.0005388487079997888,
        0.001472609550270959,
        -0.0005153958062543033,
        -0.0002583454804075382,
        -0.0015063268531129988,
        0.00043615241301983966,
        0.0002797238967608091,
        0.0016210511732467183,
        -0.000966062884949782,
        -0.0010383527740695036,
        0.00042335875767074665,
        -0.0011907416667586703,
        -0.0021013957094208856,
        0.0005004556085472885,
        -0.0009257369865016297,
        7.370528955058262e-05,
        -0.001482251061431491,
        9.376081997070865e-05,
        -2.522566812981187e-05,
        0.0010291538012996409,
        0.0009050502353781667,
        0.0015045300306975743,
        0.0002453352880975218,
        0.00043198656243291,
        0.000597461298700703,
        -0.0007051688113897712,
        -0.0017127139110441974,
        0.0009807190290528956,
        -0.00021713868379634872,
        4.2724523973353685e-05,
        -0.0011961559100832414,
        -0.0011666007772419724,
        -0.0015239168346091042,
        0.0009067974246969989,
        0.00029584947526345093,
        -0.000558121571733916,
        -0.0005272814183862507,
        -0.001372914394088465,
        -0.0002193417328268903,
        0.0009786246940256627,
        0.001249256741234866,
        0.00020677996815444337,
        -0.0012301308630642,
        -0.0012465120699658833,
        -0.0020534477283671803,
        -0.0008141747218937482,
        -0.00027645576044756716,
        -0.0017950386456194415,
        0.0003753398211069661,
        0.0008962478714950559,
        -0.0005304874064247136,
        -0.0003119753566405675,
        -0.00037293909748970194,
        -0.0006021783608033078,
        0.00021619519818730443,
        -0.0002531334980876559,
        -0.0021080996010286873,
        -0.0008206178929540272,
        5.75978646368282e-05,
        -0.00040690801873331556,
        0.0004032218880160107,
        0.00042320814421617546,
        -0.0009215022747918665,
        -0.0005552022341820955,
        -7.46955668533627e-05,
        0.0007345415539143024,
        0.0016613551341833725,
        0.0003628944872083816,
        0.0017279124276865137,
        0.0008369469905190837,
        -0.0008275271425457487,
        -0.0011182103053398824,
        -0.000806126542540185,
        -0.0004290293559218264,
        0.0012986038331948887,
        -0.00034294464189083993,
        -0.0004793999059309668,
        -0.0007188919108684023,
        0.0008796684314435991,
        0.0007606642944256231,
        0.00023430430671622817,
        0.0004511212874126247,
        0.00020931299979242828,
        -0.0003825810097927305,
        0.0020516568527832162,
        -8.653047539366703e-05,
        0.0006423737060840751,
        7.367773211426376e-05,
        -0.00010552956174184945,
        0.001056499972715555,
        0.0011667274657909945,
        0.0001310836588909831,
        0.0004821790858779976,
        0.0002733642259866886,
        0.00044725556513634476,
        0.000866419836585341,
        -0.0010014004017328709,
        0.00028056966039944004,
        -0.0004653802598663301,
        -0.0004912126347327775,
        -0.0004749229815939237,
        -0.0001090182956309802,
        0.00083930071093635,
        -0.000631248870920711,
        -0.0005425000652467362,
        0.001011741217283778,
        -0.0011900689380310026,
        0.0003696468832823251,
        -0.0010491336075607956,
        -0.000674071664689113,
        -0.0009240675890714099,
        0.00043688167255261323,
        0.0003971319431560989,
        -0.0018164705322716319,
        0.00041853687539025595,
        -0.0014772247892914758,
        -0.0003656451271900199,
        -0.0005044681163287946,
        -9.722833231704398e-05,
        0.00038872771139788825,
        -3.822718086559209e-05,
        0.0009006221765080943,
        0.0005799064877783396,
        0.002191351883840894,
        0.001344195351089606,
        0.0006301191791474683,
        -0.0006930176058637643,
        0.0006646388049383579,
        0.0007368671721607828,
        -0.0005604601601807849,
        0.00036209927279771357,
        0.0007199135618957226,
        -0.00032552274519628377,
        -0.0005055466950443319,
        0.0003882663448831307,
        0.00048332187516672456,
        -0.00036736619043765256,
        0.0010604194645554743,
        0.0006711314519987397,
        -0.0012973009747042977,
        -0.0007274761721627042,
        -4.447396970495734e-05,
        -0.0007014052256550642,
        -0.0015420809338755302,
        0.0014592531799343543,
        -0.00012140109271622027,
        0.0010772311054674812,
        -0.0003133002370961407,
        -0.0006656788095868786,
        0.0007421163341104961,
        0.0002315217244223002,
        -6.650056829014657e-05,
        0.0013756996945012499,
        -0.000654412117062499,
        -0.0018049529761504381,
        -0.0001884601543487282,
        -0.0009806976103174556,
        0.0009631224302596878,
        0.00021345499220036567,
        -0.001286762019225884,
        0.0004243089865107394,
        0.0009597949131577823,
        9.220490793513102e-05,
        0.00044967702739239645,
        0.0010195499051112347,
        -0.00021364701214928388,
        -0.0003437996662853676,
        7.459958712197979e-06,
        0.0005944834250372072,
        0.0016835303347609168,
        0.001632792082285922,
        -0.00013660570615734238,
        -0.0003936206859363474,
        -0.0005009208809443298,
        0.00010555641909931316,
        -6.937225529787786e-05,
        -0.001034827528713534,
        0.0005769694630826363,
        0.0017482575381556455,
        6.072901853512421e-06,
        -4.1273020788469697e-05,
        -0.00023001281607541783,
        0.000941204226525202,
        -0.0015425276650530729,
        -0.0016237161962759869,
        -7.256346157208762e-05,
        0.0007530207521657311,
        0.001667857999665561,
        -0.0007562329229806623,
        0.001290308742263259,
        0.0012335752980369126,
        0.002067075847998551,
        -0.00035958945770847236,
        0.00014586322483876738,
        -0.000196353117173504,
        -0.00034221597884265536,
        0.001079390298661843,
        0.0006651353511788308,
        -0.0020553737521549873,
        0.0013383794216635333,
        0.0006692586957304476,
        -0.00032699290183146255,
        0.0017731758913770023,
        6.518573535219075e-05,
        0.0018118003622163241,
        -1.9997443520811662e-05,
        -0.000690410466631155,
        -0.00037604406408762547,
        8.521662139138489e-05,
        -0.00024368960771062732,
        -0.0006414519391218653,
        -6.76311709801676e-05,
        0.000432578542108872,
        -0.00048194092318038276,
        0.00013897092564038257,
        -0.0001608347419436815,
        0.000324456405373211,
        -0.0012704936801619174,
        -0.0011721967297430459,
        0.0011419596876182114,
        -0.0006888850365282776,
        -0.0005262095387440549,
        -0.0003574466982165955,
        0.0004997918225691263,
        -1.1543016528652722e-05,
        0.000916343819775942,
        -0.0009441489725431429,
        -0.0006147051456720839,
        0.0013177452261916064,
        0.000181300080739149,
        -0.0006178887542974744,
        -0.0010178684873221823,
        -0.0017604097634180559,
        -0.0015321196085186046,
        -0.00020348941348507542,
        -0.001458885756173877,
        0.0012399307497102312,
        -0.000865121488388903,
        0.0011706120858660546,
        0.0003318695574720408,
        0.0005093759090499774,
        -0.0013329288807856377,
        -0.00022181492779221618,
        0.001308137708669887,
        0.00012107622807529136,
        0.0021686789419106973,
        0.00045754127477438733,
        0.0017546274233117675,
        0.0015911459880982202,
        -9.522686513426274e-06,
        -0.0012114425851593557,
        0.0005644696061853193,
        -0.0003897205951289741,
        -0.002245047103758717,
        0.0003943495420465688,
        -0.0006213278217320137,
        -0.0021055687362325133,
        -0.0008670753072542822,
        -4.183861760813541e-05,
        -0.002697667667048296,
        -0.0011241753313263698,
        -0.0019848566288427033,
        3.6730801964849464e-05,
        -0.0005993753906808778,
        0.0006090920245315312,
        1.0140947575512231e-05,
        0.0011656839398793196,
        0.0022893433493240915,
        0.0012740574706551796,
        0.00171010033135806,
        -0.0003216434755432101,
        -0.0012099536043375392,
        0.0001447041931937222,
        -0.0007920854852823678,
        -0.0006963570339866174,
        -2.8334057551560824e-05,
        -0.0011828112387946071,
        0.0005218419644930645,
        -0.00029757395796774775,
        0.00014864798876934886,
        0.0012928980826477023,
        0.0023791699556869115,
        -0.0008053349445617492,
        1.877532059035012e-05,
        6.991542468736078e-05,
        0.00041113271922732996,
        0.000851328826347538,
        -0.00031436515187014156,
        0.0006517674117253881,
        0.0009395002839488328,
        0.0003245204445124062,
        0.0008654511032962594,
        0.00025723928591740437,
        0.0005952913665335389,
        -0.0022871955762362945,
        -0.0022293071180219098,
        -0.000601549779476295,
        0.00023633394627600864,
        0.0012903109443042063,
        0.00054517204758746,
        0.00020437229900323474,
        0.0019851159293643402,
        -0.0002788926731885021,
        0.00010890248025002429,
        0.0005488397397143555,
        -0.00024185253043388733,
        -0.00019469626885994012,
        -0.0004801816996315975,
        -0.0012197745991891248,
        -0.001795526581051777,
        -0.0006489340833052245,
        0.0004293152188918674,
        0.0003932760785150877,
        0.0006290146498335657,
        -0.00048311846176927326,
        0.0003931609438967265,
        -0.00017206548559348095,
        -0.00045883566200582987,
        -0.0009372853581639135,
        0.0011106954987100785,
        0.0016001125906096847,
        -0.0008094077474035876,
        -0.0004697625781135516,
        -0.0016195107498519867,
        0.0002251166120524514,
        0.00015117214929269668,
        -0.0002139984767762097,
        0.00019473349422536841,
        -1.1654647305446e-05,
        -0.0015234981784676325,
        -0.00030879796265745264,
        -5.97105498687257e-05,
        -0.000645071554550187,
        -0.0010339957020504122,
        0.0011534250899532712,
        -0.0006109772625049548,
        0.00016394380390859312,
        -0.002707873812978388,
        -0.00046919422009340713,
        0.00024740465087907016,
        -0.0008177910853211239,
        -0.0004005809260587593,
        0.0009119623687571167,
        -0.00019948416997761875,
        -0.0007358255732258655,
        -0.00037319509834246015,
        -0.0002847482007085402,
        -0.0004233390812228651,
        -2.7353833606216695e-05,
        0.0006323450476829777,
        0.0003997059638342005,
        0.0005320206982302468,
        0.00030959849064420594,
        0.0022576883380752374,
        -8.43751671161568e-05,
        0.0010256357215148238,
        0.0011846258583386579,
        0.0011722997055888423,
        -7.137444363404587e-05,
        0.0007996184903994606,
        -0.0004038553723796416,
        0.0018710173179222066,
        -0.000881546238674637,
        -0.0019293572393184162,
        0.001380231900843006,
        -0.0017008926521445173,
        0.0006975955005147884,
        0.0010034268806017395,
        -0.0012277578051545167,
        4.9579534299197124e-05,
        0.000449720794723335,
        0.0007486117729981036,
        0.00019951597705916225,
        0.0020376629521433975,
        -0.0003162246952041581,
        -0.0007699475755138147,
        0.00023072193375030885,
        0.00015495271599663796,
        -0.000140991157495293,
        -0.0006386275665924236,
        0.0001292741907078053,
        0.0008239671280581347,
        0.0011463718041422005,
        0.00018422157640531387,
        0.0005060167053940551,
        -0.0002522026337136325,
        -0.0011484312232140693,
        -0.0007035584484300464,
        0.00016664420107237454,
        0.00013802083273665468,
        0.00033328168592487674,
        -0.0005818473817018093,
        0.0015102574830873846,
        3.327540132355331e-05,
        -0.0002776366037129219,
        0.00024387804660672664,
        -2.673581470027093e-05,
        0.0012813787054397983,
        4.300762513548707e-05,
        0.00044975813644549,
        0.001264293642364361,
        -0.002278274503802815,
        6.471059405292371e-05,
        0.000611143918128654,
        0.00023838745445286714,
        0.0008752105735079627,
        -0.0002415410782714654,
        0.0002630849193352594,
        -0.0007477292213666737,
        0.00013634023666602292,
        0.0008417599570622432,
        0.0012594850445061055,
        -0.00046058829211498005,
        -4.8846024225098015e-05,
        0.0012039293764491382,
        0.0015152273306011958,
        0.00034445107936472417,
        0.001208703148483398,
        0.0018415508699942634,
        0.000239410240451647,
        -0.00012171031400546597,
        -6.094381907638982e-05,
        0.0005301392684438697,
        0.000951550158469709,
        0.001110531702875549,
        0.0012362809193372012,
        0.0005841181205910007,
        0.0008371887532475415,
        0.0006252810049290641,
        -0.0011625214359986353,
        0.0009371649875539038,
        -0.0009418944317658696,
        0.0007327094141456671,
        0.0016230584140974542,
        -0.0008242420984788571,
        0.00042065627482418093,
        0.0004116747375688733,
        -0.00017109246837311874,
        0.0005213642311941053,
        0.00020196651662683,
        0.0008869871013700734,
        -0.0009872463619498694,
        0.0008148986408306655,
        -0.0009135456703699477,
        -0.0016428947388105479,
        -0.0007056434769274289,
        -0.0004226849744099545,
        0.0007977448483057393,
        -2.7439289229586495e-05,
        -0.00031977656030240486,
        0.0002564150373182495,
        -0.002373981626323801,
        -0.0005935803746003968,
        -0.0017782881456905716,
        0.0007374657027718048,
        -0.0006611404801106287,
        0.0009127936747851466,
        0.000394557274760592,
        0.0007379085877889229,
        8.470420811173385e-05,
        0.0004330653115299298,
        -0.0010205148264041224,
        -0.0008677575611519585,
        0.0003508750438939567,
        -0.000832114183023523,
        0.0002411152486439082,
        -5.145156169681893e-05,
        -0.0012371248284647495,
        0.0006429616625555117,
        0.0009557739532386405,
        0.0002820444435978081,
        -0.00021414685494256663,
        -0.00021259328960600526,
        0.0018477514534744883,
        0.000875189664348345,
        -0.0003587180432820349,
        -0.0007479472359267774,
        0.00076439295963977,
        0.00015129576436759872,
        0.0007066542681073279,
        0.0007228436728382295,
        -0.000748403569167879,
        0.0012761962664679157,
        0.0015313768275187895,
        -0.00082015279600611,
        -0.0016070004793201174,
        -7.530035862170708e-05,
        0.00023398646239647348,
        0.00019189401097027793,
        0.0009492342735489823,
        -0.00048057655888434573,
        0.00040871098619058645,
        -0.0010520070124979987,
        -0.0010772958302649087,
        -0.0007218260974094536,
        0.00020437604085213627,
        -0.001121016571249379,
        0.0013220456168615803,
        0.00213827547133071,
        0.0015362549752141667,
        0.0006820152711290498,
        0.0009856414514466236,
        0.0008266151505136449,
        0.0008476265324775174,
        -0.0016772887901446174,
        0.0002742921381194552,
        0.0014785299086965962,
        0.0018448498333028347,
        -5.749614270902036e-05,
        0.00014607811885549663,
        0.0008319834562929345,
        0.0011964113287426126,
        3.566694531578979e-05,
        0.0007952165658676956,
        0.0014488242665523419,
        0.000503699587461134,
        -0.0002225560234331421,
        0.0009167260647214581,
        0.00023865965207607755,
        -0.0009459623210592697,
        -0.001300439804239203,
        0.0009222623689613089,
        -0.0005113778743481696,
        0.0016201160947649615,
        0.000338055724838289,
        0.00017787767144709644,
        0.0005226111761278709,
        0.0005462513801163503,
        -0.0005923661243098343,
        -0.0010368359028100362,
        -0.0010852937120361008,
        0.00042528311991807844,
        -0.00033153955358270246,
        0.0008028096077676247,
        -0.0006486321703015109,
        0.0007162366855275417,
        -0.0008806367561990509,
        0.0004478095897254352,
        0.00013562053513108087,
        0.0007939666219034241,
        0.0006674877820095819,
        0.001098308944240761,
        0.0007616000314148535,
        0.0005250766704262213,
        0.0005593683955239326,
        0.00014459554513750607,
        0.001449667352254409,
        0.0013054821453436884,
        0.0005642311357140648,
        -0.00015650087103058014,
        0.0001626414946439374,
        -0.0007913183247839626,
        0.0008577729132606397,
        -6.674799928879128e-05,
        -0.00044184193566682614,
        0.000895235972816327,
        0.0010571544503987,
        -0.0005981885122329051,
        0.0009717367048435715,
        -0.0004641839820954148,
        0.000656692193172481,
        0.0013792133032954688,
        5.0892181846619495e-05,
        0.001343924806088418,
        0.00026406698640654534,
        -0.0008678248215652598,
        -0.0002762683536865102,
        0.0008001459535327719,
        0.0017834568660293907,
        0.0015908902156549728,
        0.0004839143428441426,
        -0.00043946427622200884,
        -0.00033189915694017367,
        -0.00037218019214045844,
        -0.0004336332415277315,
        7.60897499306099e-05,
        0.0011054936757264216,
        0.0006498646726505639,
        0.0006639580626493021,
        0.0004697540844033442,
        -0.0012510035730902956,
        0.0001727360374359969,
        0.0007551485163888323,
        6.525543259240256e-05,
        0.0011593983299767632,
        0.0015887780030996636,
        0.001053884943682572,
        0.0008616558815967929,
        0.0005984319301400099,
        0.0011399071669127444,
        0.001176421667504776,
        0.0018112196151967553,
        0.00011665000176934051,
        -0.0012442294709892688,
        -0.00034080320738039897,
        -0.00027008925432429605,
        0.0001525364646636358,
        0.0001809666020117851,
        0.0005538181213363252,
        0.0010026780658079638,
        0.0014017496370339996,
        -0.0004279514160453245,
        0.001765461729538119,
        0.0007574595321575988,
        -0.00016604551946371973,
        0.0015840415291310972,
        3.0632701613859175e-05,
        -0.0005306684037046062,
        -0.000453320125562198,
        -0.001781896832334905,
        -0.0004228896673391611,
        0.0011372408494141235,
        -0.0007149515017110461,
        -0.0013804828327740404,
        0.000302430930023099,
        -0.0009754541216722406,
        0.00036933662479432896,
        -0.0015820206581889224,
        0.000503531516383557,
        -0.0001251264872912356,
        -8.535810247478918e-05,
        -0.00038393641194470586,
        -0.0021995322586631735,
        -0.0002997690589259549,
        0.00018362876837054918,
        -0.00027639296967852403,
        -0.0005891786159161043,
        -0.0012147662350613826,
        0.0005113667921192618,
        -0.000848100280594332,
        0.0004894312486837805,
        -0.00020592786186485198,
        0.0005210248356121983,
        -1.5862002798139763e-05,
        -0.0005285091185131944,
        0.00034503849541214836,
        0.0008665082978459315,
        -0.0004794644610896797,
        0.0008075888373995413,
        0.0014463089277084965,
        0.0007042614661514293,
        -0.0013764664181955411,
        0.0008387070417753221,
        0.00024156246156928053,
        0.0004185686107973771,
        0.00010562200155159895,
        0.00015402343349478985,
        -0.0005753687647459915,
        0.0003451528662591668,
        -7.502142810928894e-05,
        0.0006481258048311352,
        0.0009987965056700604,
        0.00037541850282410687,
        0.00048077287261820683,
        -6.938079588143786e-05,
        0.0009097640209941634,
        0.00010443553217155753,
        0.0011402563081443862,
        0.0008872332447290184,
        0.001156355680694498,
        0.0002570173827987307,
        0.001005025423288998,
        0.00038624782355493154,
        -0.00042420073345256085,
        0.00021787040628662148,
        0.0011251941616957795,
        -0.001209772356813325,
        0.0005951996881429825,
        -0.00045645205038516657,
        0.0010079667799538098,
        3.08045814064403e-05,
        8.668454248095709e-05,
        -0.0015752862043413962,
        -0.0008812752528672619,
        -0.0018508649683828507,
        -0.0008053411027618934,
        -0.0007299986308149858,
        0.000988143429573029,
        -0.000111988903084577,
        0.00033209099013956116,
        -0.0009728803316249889,
        0.0008498720899331384,
        -0.00041024815183241447,
        0.0006778450757331167,
        0.0011727890741474911,
        0.00014315336572798477,
        0.0009559316544663565,
        0.0010773049278630735,
        0.0002572035386119104,
        0.0006274255048097859,
        0.0004117308715228845,
        -1.5166441798345463e-05,
        0.0005359094516006059,
        -0.0005309522970209607,
        0.00017864173783496543,
        -0.0005184699340974096,
        -0.0006276347348500553,
        0.00017996346007523957,
        0.00047564222585251396,
        0.0006155712650050219,
        0.001448808216947892,
        0.0004915986763264172,
        -0.0008844477203853967,
        0.00041014518768299707,
        -0.0004028025148600604,
        -0.00014875976249646776,
        0.0006221795489233506,
        0.00018501363153947137,
        0.0006315357813251274,
        -0.0008366989219756733,
        0.0016088674388046614,
        0.0002444807933974682,
        0.00022895201561744634,
        -0.0008597547259240362,
        0.00047193559025214364,
        -0.0005893987731856209,
        0.0006723285788622435,
        -2.7498618572453933e-05,
        0.0004686083741572055,
        -0.001117287655145996,
        9.825840860964221e-05,
        -4.946850646748828e-05,
        -1.6163181408117668e-05,
        -0.0009846014618996519,
        -0.00040606339974036767,
        -7.988295670303535e-05,
        0.0008762114782859026,
        -0.0004696948946343435,
        0.0006295458929908458,
        0.00039695170595025435,
        0.0005842908426957074,
        -0.0009839620816658576,
        -0.0014161356479370306,
        -0.0014733524545618656,
        -0.00036968577733780575,
        0.0005485215096341446,
        0.001858667344733499,
        -0.0011039170390637816,
        -0.00022054195809212244,
        -1.1298835286691511e-05,
        0.0003724127100040414,
        -0.0005667295432768423,
        0.0013048389724624068,
        -0.0011654591546722208,
        0.0009896840521587513,
        0.0015723975794069006,
        9.958605725233057e-05,
        0.0005068576806937632,
        0.0001529050936822751,
        0.000665004146948669,
        0.0012975960670779684,
        0.0005648149564065045,
        0.00043429820916075887,
        -0.00013349425762597357,
        -0.0005416676104300284,
        -0.00015598242111788577,
        0.001333353011020674,
        0.0008662908566448943,
        -7.020321793521536e-05,
        0.0006004095017226388,
        0.0001669051773543657,
        -0.0009058661890498025,
        -6.665169083630598e-05,
        0.0011387201589600233,
        0.0013052687588557019,
        0.000652796759503803,
        0.0009765513440805295,
        8.404224755446669e-05,
        -8.114629335753253e-05,
        -0.0008162996707463235,
        -0.0009878165126864923,
        -0.00021751519514847019,
        0.0009044318037386525,
        -0.0009266388360704338,
        -0.0006146736909708832,
        -0.000419333481400053,
        0.0014069612450582556,
        -0.00017200992815150158,
        -0.0004756645779699902,
        0.0004598644867783993,
        -0.00019658920937325913,
        -0.0009511165333275955,
        0.0002923233289465443,
        0.0007836329604904075,
        8.845660142683433e-05,
        0.00020096785066813552,
        0.0005287760897247926,
        -0.000620005610946177,
        -0.00044320821029350836,
        -0.0003991710828234455,
        0.0012817017511036134,
        -0.0008934210913886203,
        -0.00017354512959860365,
        -0.00022347463538054482,
        -0.0012283909983104944,
        -0.0006388904323627142,
        -0.0011132551284504136,
        0.0015600882377344181,
        -0.0008643834795916309,
        0.0013533502824371068,
        -0.00076367432957282,
        0.000729870775541126,
        -0.0014786918399584711,
        0.0004980848592746397,
        -0.0013203683267338712,
        -1.4896960044721592e-05,
        0.0001519162420593528,
        0.0007480943741339027,
        0.000302279477076137,
        0.0002526146969664114,
        -0.0008282882338100614,
        0.0005017671283269878,
        -0.0010275880136633925,
        -0.000755560195726745,
        -0.0002873516611875994,
        0.00011112316189431488,
        0.00041184986882162136,
        -0.0011503526142231778,
        -0.00203177819940565,
        -0.0002713970156476551,
        0.0006565449234054966,
        -0.00026116871491381575,
        0.0005450044891586907,
        0.0014458026599222492,
        0.001712011074848591,
        -0.000307981574495274,
        0.0011610934385256864,
        0.000703344101054589,
        -0.0003108380889914904,
        -0.0002465642455913399,
        -2.010150859328713e-05,
        0.00031852046566973707,
        -4.816801504034122e-05,
        -0.0014392650823182597,
        0.00012271324681335468,
        -0.0009042881388013938,
        -7.010296587222449e-05,
        0.0011082847993192531,
        8.322901869857664e-05,
        0.0004626002938341096,
        -0.0003557923909087155,
        0.0007708776711769364,
        0.0006011410640728932,
        -0.0005770060834266183,
        -0.00037588054108334803,
        -0.0014868004110900317,
        -0.00022502928116993517,
        -0.0006514820584153835,
        -0.0009244927014880644,
        0.0005837030174377534,
        0.00018097098628702506,
        -4.06164462841464e-06,
        3.091630258733266e-06,
        0.00024809858454541986,
        -7.913165787311744e-05,
        0.0005316619131995208,
        -5.1168485293418795e-05,
        5.2727181771662824e-05,
        -0.00042131343208331285,
        -0.0007327157770280513,
        -0.0011689811684454468,
        -0.0003864038257487402,
        -0.0001350950525350744,
        0.0004351565008932601,
        -0.001140850448425058,
        4.760611097519941e-05,
        0.0009078982121767291,
        0.001028051560698875,
        0.0011016518165905369,
        0.0003313835616218368,
        0.0007052442247917968,
        0.0008868991670784438,
        0.0003255869231637928,
        0.0015186855545126971,
        0.0013849479868776058,
        0.0015516943393359245,
        0.001559455409896262,
        0.0006947943006786393,
        0.0003448535327441147,
        -0.0008525731532246492,
        -0.00010033843848426653,
        -0.0008106595759805903,
        -0.0008523013524923512,
        0.001858727545459623,
        -0.00075030200372493,
        -0.0009075419478936926,
        0.0009292923840467148,
        0.0006662737594002046,
        -0.0006110489139248645,
        -0.000258601137777345,
        0.00046957272582508387,
        0.0005775839810642489,
        -0.0012547601865951189,
        0.0009523180748913807,
        5.7516283113033095e-05,
        -3.257739055183002e-05,
        -0.0006272430542711481,
        -0.00016414652278854086,
        -0.0005895148737543571,
        -0.0006418685181858202,
        0.0010451277067894207,
        -0.00037232389774418924,
        0.0013187881066910314,
        0.0013042626304791078,
        0.0002300755522888815,
        -6.556899291097157e-05,
        -0.00048119169724967944,
        0.0016474300800413148,
        0.00041959992130048034,
        -0.0009535759117904983,
        -0.0010102662331195923,
        -0.0012384968727852425,
        -0.0019894098211689477,
        0.00014822992117904417,
        -0.0008060958402637361,
        -0.0009418147573668852,
        0.0008005164058912456,
        -0.0012571139586921114,
        0.0007801087416479942,
        0.0010686685612610945,
        -0.0004794021252547343,
        0.0010261775131676092,
        0.002132176153542696,
        0.0005093693857688846,
        -0.0005137135792230405,
        0.0012866159168468383,
        -0.0007927743570162675,
        -0.0011205584394049337,
        0.00011565773566110676,
        -0.00035371408674452767,
        0.0001593811570743572,
        0.00044305137578029975,
        -0.0008613848706578383,
        0.00023595400391772443,
        -0.0005618239461738559,
        -0.001223208487100547,
        -0.0001395094756120106,
        0.0007665532743145909,
        -0.0002444726431197915,
        -0.0016851070830056908,
        0.0009776382583206902,
        -0.0007722332367299345,
        -0.0006355059137460639,
        -0.0002531100549907609,
        0.0009046762997708893,
        -4.686088810323312e-05,
        -0.0010670983038485289,
        -0.00023613060245462894,
        -0.0005419541656809931,
        -0.00025306784631168235,
        -0.0013999941728452029,
        0.001681765829482122,
        -0.0010743963900928155,
        -0.0004161071484897605,
        -0.00032967412766373946,
        0.0007343601914595443,
        -0.0009725301497303211,
        0.00017602895346818592,
        0.00101237737493128,
        -2.0024576344537034e-05,
        -0.0003439542974708775,
        -4.809049019711335e-05,
        -0.00026886399279250125,
        0.0013230364530709593,
        -0.0004504274070654327,
        -0.0018530476561855805,
        0.0002576916285645507,
        0.00038634916796957447,
        -0.001014790292292252,
        -0.002060547861933085,
        -0.0011762275884640095,
        -0.0010428401845597763,
        -4.752299329863484e-05,
        -0.001918269045867375,
        -0.00012214468286734495,
        -0.0006059125049695738,
        -0.001253780260465898,
        -0.0002610811584869021,
        0.00014194033622050848,
        -0.0013937184386903691,
        -0.0006628016221149901,
        -0.0004409263975269246,
        0.0017076590010201692,
        0.00018332116657667974,
        -0.0003850411185012178,
        0.001643388978559362,
        0.0004401202839002949,
        0.0009506488669997083,
        0.0018315249421741574,
        0.003079759070320164,
        -0.0004998284531367002,
        0.0011893709763920006,
        0.0023562077799457173,
        0.001292796075499452,
        1.8846133992559116e-05,
        0.0006165089820595647,
        7.747492650698887e-05,
        -0.0004511582410650613,
        0.0013481616547751875,
        0.00016972176799972941,
        0.0006037394723032301,
        6.033705832004729e-07,
        0.0025570499733008614,
        0.0001300590534624301,
        -0.00031246905266876443,
        0.0002242236893920235,
        0.00028838937531149093,
        0.0002943339540075347,
        0.00045973482258514263,
        -0.0005379017035415963,
        -0.0008545547337838379,
        -0.00043887969245741447,
        1.873578287280291e-05,
        0.0006636103228668162,
        -0.00022153728922423522,
        0.00028448460293039446,
        -0.0001424272353874626,
        -0.00020057399744408198,
        0.0020311899242574953,
        0.0008944146693086066,
        0.0007441131052518507,
        -0.0004374231748166111,
        0.00014273268472013927,
        -0.0015639178959733972,
        -0.0010082746435563525,
        -0.0003646634872401925,
        -0.00010141560078575414,
        -0.0013275412715922734,
        -0.0009297277349463438,
        0.0006057684781213667,
        -0.0011243135398153997,
        7.330820494294658e-05,
        -0.00045466990071821745,
        -0.00018286671871128212,
        0.000878424085272911,
        4.008176081889906e-05,
        -0.00022764847588858331,
        1.539235587496603e-05,
        -0.0008809696788775979,
        -0.001306997782531512,
        -0.0005838034528567515,
        0.0010825582220324909,
        0.0007524846749640468,
        0.0014030966333908532,
        0.0013370813371675408,
        -3.711934873392387e-05,
        0.0011807286045647043,
        -0.0006579244465940864,
        5.5589351054553034e-05,
        0.00015979306340180023,
        -0.0003105675448804145,
        -5.02842882490332e-05,
        0.00022896900387373855,
        0.00014269416341345376,
        0.0010586185023593003,
        0.0004527814370413198,
        0.0017843568368720061,
        0.0010838848386693458,
        0.0015511454774899517,
        0.0016395517969519816,
        0.00023344257412994957,
        0.0012388008770494487,
        -0.00019672883855318372,
        0.0007813181859250052,
        -0.0005457634307607189,
        -0.00035493899276770876,
        -0.0017180669196212744,
        -0.0021110213315942666,
        -0.0011287274344906804,
        -0.0006861484658009134,
        0.0011173270511191226,
        0.001011178075551853,
        0.001850136768458723,
        0.001078082221570918,
        -0.00032567429307182877,
        -0.00038700169490366574,
        -0.0006391918489170382,
        -0.0003097010776231468,
        -0.0021331280262444777,
        0.0011440002872518222,
        0.0003782576998903244,
        0.0006883947765436315,
        0.00062320497505749,
        0.0011918770423762104,
        3.63949435891282e-05,
        -0.00021620352608678518,
        7.016705239950319e-05,
        0.0009484492741093911,
        0.0005390158984054775,
        -0.0019055019413008762,
        0.0006850722789356747,
        -0.0007382373468477999,
        -0.0009352266721175605,
        0.0003281940191151883,
        0.0011676332546014915,
        -0.0004224290544173858,
        0.0010941192255552912,
        0.0007384198831987398,
        0.001200130450609857,
        -0.0015020508785520388,
        -1.8812415839683267e-05,
        0.0012441363655212264,
        0.0015330137003773238,
        0.0006535730789077212,
        -0.0004603089945673692,
        0.001321184069567147,
        0.0005890085626013345,
        0.00032423802623647726,
        -0.00045337480803494065,
        -0.0012617381922645037,
        -0.00022810845022888464,
        -0.0009021465061010755,
        0.00037077354008204747,
        0.00028044520490624805,
        0.00027652164346093216,
        0.0006676196931299063,
        -0.000756536676314893,
        0.0005614750752438798,
        0.0020271706345029654,
        0.0013127026494410678,
        0.00031865925842417735,
        -0.0006548514215090271,
        -0.000233191510110782,
        0.0006718418479560017,
        0.00026543856795569636,
        0.0013033278631880733,
        -0.0004177832415142847,
        -8.974915386309465e-05,
        -0.0013035796687879833,
        -0.0007075350367596908,
        0.00013849501321624297,
        0.00011163816565625846,
        -0.0006202401633455827,
        7.99039642534343e-05,
        9.581826337904347e-05,
        -0.0001658095053248654,
        -0.00011301694599905695,
        0.0003119083882147842,
        7.58866463427829e-05,
        -0.00011737154153931324,
        0.0006230584028031642,
        0.0016497815966175842,
        -0.00020437665056336244,
        9.929487599324966e-05,
        0.0007823455599064865,
        -0.0006481192655357048,
        -0.000516973435617509,
        -0.00046862711993882677,
        4.371328294316187e-05,
        -0.0006402242660969613,
        -0.002951285503105291,
        0.0008190079616349198,
        -2.24685007038821e-05,
        0.0016301759941303841,
        0.0012631243130818504,
        0.0004898669818575536,
        -0.000604082403264735,
        -0.00029833893097628975,
        0.00015745911282960534,
        0.0003009201853877712,
        -0.001446127395214971,
        -5.450950602914838e-05,
        -0.0010243289848830969,
        0.0006630510798820213,
        -0.002015692316324886,
        -0.00035404769020625025,
        0.0010539725193918388,
        0.0013817570868791943,
        0.003033414628210895,
        0.0003067598569431463,
        0.0014079051820952851,
        -1.725646659706128e-05,
        -0.00044900216566036666,
        -0.0007747446722654636,
        -0.0010472838718141501,
        0.0009853286345621048,
        0.00018238644537225973,
        0.0014496702256350969,
        -0.0003723871751653711,
        -0.0012780036662787299,
        -0.00023849685800970066,
        -0.00025264192996977063,
        -0.0005632474381350296,
        -0.001124107592089561,
        0.00011128056579667845,
        0.00019357016362331548,
        0.0010214439372193617,
        -0.00021931117781260497,
        -0.001387024222598338,
        -0.00033633485586563334,
        0.0009149400484811403,
        0.0006006316146851644,
        0.0009119865292211134,
        -0.0004871192017827662,
        -0.000959637914117227,
        -0.0013608110431987252,
        -0.00037319854215378003,
        -0.00024564625832672674,
        0.0002862644356069744,
        -0.0023063595918930008,
        -0.0014148862576579845,
        -0.0016032834496775574,
        -0.000833068599380685,
        -0.0009565355426473571,
        4.489551914041179e-06,
        0.0002508912251496287,
        0.0008699032214730599,
        -0.00011143285277473365,
        -5.471027551310725e-05,
        -0.001209428720445836,
        -0.0008313310689937514,
        0.00044173607773415145,
        0.0004086352638934626,
        -0.00020638948434625263,
        -0.0003136330945033266,
        0.0009814896171818296,
        0.0003269270956049998,
        -0.0005364821365072221,
        -0.001144900957586541,
        0.00042398270842906427,
        0.0008045210518688741,
        0.0004060911581838655,
        0.0004965623022040696,
        -0.0006054400035450697,
        0.0006170583137269685,
        0.00017324410819055284,
        0.0008161459816762621,
        0.00040769305347237777,
        -0.00048154347201558826,
        -0.0001685033096966988,
        0.0020080141421762888,
        0.0012447676533026703,
        1.1581911653401244e-05,
        -0.0007445269044442196,
        -4.4355730677160586e-05,
        -0.00029148012492966855,
        -0.00025774089190588596,
        0.001401517287706306,
        -0.00033321810971775494,
        0.0005700658193254983,
        0.0011903887993977883,
        0.0011695015278190314,
        -0.0018515372116232655,
        0.0010530646352069338,
        -0.00017013584352217203,
        -0.0006892678489500095,
        -0.00026012796723163905,
        0.0009387642794571801,
        0.000696453313587548,
        -0.00010377087495174812,
        0.0001569934704355769,
        0.0015210699582837656,
        0.0008609792160920785,
        -0.0010209446347735763,
        0.00139990711959901,
        -0.0002884338249488624,
        0.0008754079834144206,
        9.092222981743199e-05,
        -0.0007397390267608882,
        -0.0005190638409893741,
        0.0006343931471066719,
        0.0001864284142796347,
        -0.00042605386043214705,
        -0.0005024113987987301,
        0.0011425146884057197,
        0.0007120244226059062,
        0.0012105711059870233,
        0.0010195937339116676,
        0.0006416308732423736,
        -0.000980526467286917,
        -0.0009533005741472018,
        -0.00013353773824437902,
        9.030379048661965e-05,
        -0.0006379562371677118,
        0.00010360764659528288,
        -0.00034952441206541893,
        9.975415252208296e-05,
        0.0016041789363109107,
        0.0005599388022788924,
        2.681340179454001e-05,
        0.0010564830419347287,
        -0.0012270601180877406,
        -0.0005066116929791711,
        -0.00040062630173981023,
        -0.0009053123825063306,
        -0.0008637355134330675,
        -0.0005068531689855209,
        0.000712064623415684,
        -0.0010005694480229221,
        -0.00043990663747092533,
        5.8118627338161306e-05,
        0.0014585650693116564,
        0.0005640312358000727,
        -0.00018604765809733577,
        0.0007109082989347284,
        0.0018921088674459297,
        0.0009187751708961699,
        0.0011603303500807584,
        0.0001672465143683884,
        -0.0002667005088904885,
        0.00017850379226401665,
        0.0007793167876177073,
        0.0006006792732938796,
        0.00044741222802474145,
        2.9814201040373716e-05,
        0.0017222035337430487,
        -4.704416426119318e-05,
        0.000262510000988341,
        -0.0005243262419585787,
        -0.00042042903320560314,
        -0.000359395567572744,
        0.0014718209783184779,
        -6.608849764430332e-05,
        -0.0007941850466559645,
        0.0007216761026875585,
        -0.00029498962358115097,
        0.0006872389380953482,
        0.0008699331307353529,
        -0.00022786269559438906,
        -0.001225120242688877,
        -0.0005123695880232604,
        -9.86635172743628e-05,
        -0.0006329437683236312,
        0.0012173692663664183,
        0.00017388086434434063,
        -7.045596007478798e-05,
        -0.00017408434679212117,
        0.0010368210373620148,
        -0.0005907770026084078,
        -0.0017211921835680744,
        -0.0018639316365114973,
        -0.00040425774771273926,
        -0.002073579308011558,
        0.0008957122118535309,
        0.00016677694645272502,
        -0.0010629153701744638,
        2.8445402638753735e-05,
        -0.00012148471290891847,
        0.0021002995613032516,
        0.0019009946877924888,
        0.0015018728934763279,
        -0.00020736353017057548,
        -0.0005612424862867858,
        -5.0444304303812665e-05,
        -0.000541387460700304,
        0.000894008813690032,
        0.001328495881194909,
        0.000615068099267508,
        -0.0006412827408301164,
        -0.0006339483525088143,
        5.3112475718169246e-05,
        8.574698313383851e-05,
        -0.00030335985326786533,
        -0.0006594703241825535,
        -0.00020147023248777803,
        -0.00021138346499356627,
        -0.0013050490545628212,
        7.576289873355247e-05,
        0.0011790806779729177,
        0.00022714705945411272,
        -0.000436190077084247,
        -0.0005407822626930409,
        0.001083763719322735,
        0.0006218214628903346,
        0.000557751331670587,
        0.0012582292432682526,
        -0.00019508885457999287,
        0.0006265724376474378,
        5.068819399543312e-05,
        -0.0006277568209911888,
        0.0003491515937063518,
        -0.0018728418073030073,
        0.0006442769179852228,
        -0.00012414170633350116,
        0.0011180665902834502,
        0.0003611811672658212,
        -0.0010219151875516556,
        -0.0005055496139013079,
        0.00021973341940328977,
        -0.0006628631175521449,
        -0.0012408763808349156,
        -0.0005892633898101902,
        0.00048616131845204754,
        0.0005958138862573054,
        0.0009921580949426097,
        -0.0011445661807192506,
        0.0005969188198349262,
        -0.0016220460084425566,
        -0.0003733946300036316,
        0.0008082295076030989,
        0.0008599391767960101,
        0.00015586779386426175,
        -0.00024238132580505428,
        0.00044329323942074824,
        0.0007959971445717505,
        0.0008209022324690153,
        -0.000471934722882895,
        -0.0009399802648683858,
        -0.00013706367638855924,
        -0.0010085762570705174,
        5.056756100385232e-05,
        0.0009768544140933506,
        0.0007275242382930979,
        0.0011490464748101694,
        0.0006088129850382357,
        -0.0014943575356393703,
        -7.192353941418893e-05,
        -0.0009533757932492549,
        -0.000504451251288485,
        -0.001188687695952739,
        0.0001306220438882002,
        0.00065564843903929,
        0.0017572380912398017,
        -5.589581225758436e-05,
        -0.00014025078091575987,
        -0.0007042602190473917,
        0.00027732409062241465,
        -6.559991586975611e-05,
        0.0005942158181773724,
        -0.0007704690107036696,
        -0.0006495553815706143,
        0.000654143213710615,
        0.0003140686367275094,
        -8.98312821128265e-05,
        0.0007628987136851039,
        -0.0008153182498306277,
        -0.0008262809784798667,
        0.0005789362476778025,
        0.0004592868815656047,
        0.0001917600223798176,
        0.002321608424694876,
        0.0007274144548339522,
        0.0005246430747377919,
        0.00013956905881280405,
        0.0007791249170584118,
        0.0002567574623764163,
        0.0011691550729368077,
        0.0019763612096735574,
        -0.0003901946807667926,
        -0.0003615108426549233,
        0.0004908416769440242,
        0.0004007643980222226,
        -8.22496290844672e-05,
        -0.000291374975253987,
        -0.0005270742019432297,
        -0.0010305335657656892,
        0.0008691852987567943,
        -0.00024249489827109238,
        0.0014644729725233425,
        0.002122412198112787,
        0.000465478773033558,
        0.001358370750144518,
        -0.0008448574841760456,
        -0.0011906118775631281,
        -0.0008556509419679155,
        -0.0023751948711590145,
        0.0002873112901700738,
        0.0003608390777377925,
        7.995327626616084e-05,
        0.000410775473875616,
        -4.1548236533911736e-05,
        0.0007099370183748725,
        -0.0009846115087889784,
        -0.0006505254436698481,
        -0.0006646071464976523,
        -0.0018211501000291231,
        0.00022114410944222383,
        0.00018096022588987742,
        0.0010446369611173188,
        0.0003395433347843428,
        0.0009704366598805642,
        -0.0003529922656713274,
        0.0017274744676472882,
        0.0012928168429484385,
        0.0008100474969482388,
        0.0002777202517624717,
        0.0005663520343110575,
        0.0004727051695560361,
        0.0012469589935659238,
        -0.0015037164942130585,
        -0.000262590138777251,
        -0.00038322145494779064,
        0.0019223122406860115,
        0.001052561633978647,
        0.001250883265228627,
        -0.0003855257339734278,
        -0.0003845139519289464,
        -0.00056233048608555,
        -0.0005863716143514571,
        0.0015823414466050573,
        0.0003478380959714488,
        0.0012616569539675973,
        3.2513422178266784e-05,
        0.001576558516296193,
        0.0011491316851426,
        -0.00015826134348957276,
        -0.00016540844497766932,
        0.0005292361488813649,
        0.0010419685839643323,
        1.2752425771735728e-05,
        0.001117714997384527,
        0.00013612816458018288,
        -0.0006048186410684126,
        -0.00032001055351613854,
        0.0018792172750051622,
        0.0002508844720779898,
        0.00026370418083232375,
        -0.0001270549752860863,
        0.0003730123875267993,
        -0.00017235394294181492,
        -0.0004245821094792569,
        -7.585083083053303e-05,
        0.0010331608570127012,
        0.0005431998438497289,
        -0.0005733613927125847,
        -0.0009974329435615975,
        -0.0005475234987457567,
        0.0008197512629292111,
        -0.00030425365660287183,
        -0.0006133863164469908,
        -0.0002722624007794538,
        0.00016838580676469212,
        -5.246471948460737e-06,
        0.0010257043282299258,
        2.2280654119364912e-05,
        0.00017982475385219077,
        -0.0010148976763084735,
        -0.0011394262191288989,
        -0.00041515001735876556,
        0.0005695430543706947,
        0.000878748645261897,
        0.0021582241789811383,
        3.493213776667952e-05,
        -0.0001698214217881854,
        1.4467207710507806e-05,
        0.00035631669685856507,
        0.0006366340253305246,
        -0.0007407519018957565,
        0.0005118549829648323,
        9.280904207919244e-05,
        0.0008667624857803723,
        0.0014307812188201071,
        -0.00011823394768991339,
        0.00164646108569576,
        -0.0003037614205338111,
        0.0002617989491071191,
        -0.001033766202807261,
        -0.00046348995212765345,
        -0.00014717363867649907,
        0.0009493429021826469,
        0.00034316104471966247,
        -0.00029452974696662817,
        0.00030836508406802035,
        -0.000737020291133677,
        -0.0007113015225667096,
        -0.0002328109273715942,
        -0.001043997157572296,
        -0.00037901253729663315,
        0.00016475350383314525,
        -0.0008084089864751646,
        -0.00066545903818689,
        -0.0006098503685726918,
        -0.0008053832999019162,
        0.00026455695772327606,
        -0.00021182856475242438,
        -0.0005702403670902688,
        0.0005733610089251665,
        -4.842763610973843e-06,
        -0.0014518076922902237,
        0.0010917326916341217,
        0.0005862617114794619,
        0.0009024797805173121,
        0.00030696954544374815,
        8.002131019824399e-05,
        0.0006685499223890083,
        0.0009835533544086364,
        0.0004638163160748677,
        0.002395837626333045,
        0.0008418254413230028,
        0.0009207593884016658,
        0.0007177882205767565,
        0.0009316826546558046,
        -3.370358089808392e-05,
        0.000557354980539948,
        -0.0006850846026369187,
        -0.0004920115358110841,
        0.00041467918996516924,
        -0.0003482199488017185,
        -0.0016865599342945283,
        0.0004431116628245945,
        -0.0003030163388964949,
        -0.0005609866659444077,
        -0.0009174598518197576,
        7.46142447801872e-05,
        0.0011222842685051488,
        0.0008061652869841172,
        -0.00035821107303240146,
        -0.0002973180437609768,
        0.0005475088171561964,
        -0.0001265574370604993,
        -0.0007604813533931653,
        -0.0002029842337449911,
        -0.0008269635741497579,
        -0.0009290392371709897,
        0.0006699917185065572,
        -1.1421375607616635e-05,
        0.00039038014141337435,
        -0.0007442885329357214,
        0.0007475100531086064,
        -2.7245445746843476e-06,
        0.00022531171147203684,
        0.000633226929425407,
        -0.0006573562922515303,
        0.0001568075135390029,
        0.0005373295495163451,
        0.0005457220943487889,
        0.0009946324466734847,
        -0.0004991278697486564,
        -0.00046251909214490314,
        0.00025676164929379624,
        0.0008153900352483184,
        0.00026542121131859354,
        -0.00038589201051305796,
        -0.0007517746058332132,
        -0.001639137664042742,
        -4.8683894257439876e-05,
        0.001223362645876952,
        -0.001468419555545199,
        3.9404221928941876e-05,
        -0.0002292526813521591,
        -0.00034250549722171974,
        0.00044518139907346775,
