{
    "train_site": [
        "DRIAMS-A",
        "DRIAMS-B",
        "DRIAMS-C"
    ],
    "test_site": [
        "DRIAMS-B"
    ],
    "seed": 270,
    "model": "mlp",
    "antibiotic": "Ceftriaxone",
    "species": "Klebsiella pneumoniae",
    "years": "*",
    "test_size_obtained": 0.01709873138444567,
    "prevalence_train": [
        0.9068462401795735,
        0.0931537598204265
    ],
    "prevalence_test": [
        0.8709677419354839,
        0.12903225806451613
    ],
    "sample_sizes_per_train_site": [
        1563,
        0,
        219
    ],
    "train_proportions": [
        0.75,
        0.0,
        0.75
    ],
    "metadata_versions": {
        "DRIAMS-A": {
            "2015_strat.csv": "56d646ce31a05dd704a4a6693aabc413a4e75f76",
            "2016_strat.csv": "d06fff6b6b60af9fc10fadc858cf5624808aaf3f",
            "2017_strat.csv": "a474ce364f6d3e201b3a527d8786e2c31bbc8577",
            "2018_strat.csv": "e650292c172f16845899c3a566b8f3c427b3e9c2"
        },
        "DRIAMS-B": {
            "2018_clean.csv": "27380b0a9a43a1e699b4b311235211ccfd2a76f2"
        },
        "DRIAMS-C": {
            "2018_clean.csv": "0e0d2a1ebdfeed3f39f7dae50f4000328e7da075"
        }
    },
    "scoring": "roc_auc",
    "best_params": {
        "mlp__activation": "relu",
        "mlp__alpha": 0.0001,
        "mlp__hidden_layer_sizes": [
            256,
            128
        ],
        "scaler": "passthrough"
    },
    "y_score": [
        [
            0.9999984644332922,
            1.5355667077829606e-06
        ],
        [
            0.022456795157282383,
            0.9775432048427176
        ],
        [
            0.7717899962899434,
            0.22821000371005665
        ],
        [
            0.9997533450006735,
            0.00024665499932651175
        ],
        [
            0.9987452266368191,
            0.001254773363180903
        ],
        [
            0.6244937655830742,
            0.3755062344169258
        ],
        [
            0.9995069571791854,
            0.0004930428208146517
        ],
        [
            0.20129426611571444,
            0.7987057338842856
        ],
        [
            0.11709420102669854,
            0.8829057989733015
        ],
        [
            0.999703544790124,
            0.0002964552098759674
        ],
        [
            0.9954143496935293,
            0.004585650306470759
        ],
        [
            0.9979639956549775,
            0.002036004345022489
        ],
        [
            0.9999996479375352,
            3.520624648745795e-07
        ],
        [
            0.03597668907591656,
            0.9640233109240834
        ],
        [
            0.9995957167238615,
            0.0004042832761385267
        ],
        [
            0.9997853011986364,
            0.00021469880136357775
        ],
        [
            0.9996732924775583,
            0.0003267075224416585
        ],
        [
            0.9997202923231446,
            0.0002797076768553958
        ],
        [
            0.687643943146064,
            0.31235605685393597
        ],
        [
            0.9997528807053406,
            0.0002471192946594195
        ],
        [
            0.14992776879028147,
            0.8500722312097185
        ],
        [
            0.9993629758833293,
            0.0006370241166707084
        ],
        [
            0.999454549371899,
            0.0005454506281010058
        ],
        [
            0.9998316559465705,
            0.00016834405342952254
        ],
        [
            0.5194784686758865,
            0.48052153132411346
        ],
        [
            0.001525511354045772,
            0.9984744886459542
        ],
        [
            0.930891282705802,
            0.06910871729419793
        ],
        [
            0.07511431658705736,
            0.9248856834129426
        ],
        [
            0.9862819832948119,
            0.013718016705188157
        ],
        [
            0.18621690351009845,
            0.8137830964899015
        ],
        [
            0.3468054819014378,
            0.6531945180985622
        ]
    ],
    "y_pred": [
        0,
        1,
        0,
        0,
        0,
        0,
        0,
        1,
        1,
        0,
        0,
        0,
        0,
        1,
        0,
        0,
        0,
        0,
        0,
        0,
        1,
        0,
        0,
        0,
        0,
        1,
        0,
        1,
        0,
        1,
        1
    ],
    "y_test": [
        0,
        0,
        0,
        0,
        0,
        0,
        0,
        0,
        0,
        0,
        1,
        0,
        0,
        0,
        0,
        0,
        0,
        0,
        0,
        0,
        1,
        0,
        0,
        1,
        1,
        0,
        0,
        0,
        0,
        0,
        0
    ],
    "feature_weights": [
        -0.0027459713685772293,
        -0.061142740716209024,
        -0.043705207056405036,
        -0.015439914718568403,
        0.006493147658953709,
        -0.08444880526135914,
        -0.07077661410538096,
        -0.04793822693527136,
        -0.03033147358460507,
        0.16252321159091268,
        0.09445208067161782,
        -0.010453713906263446,
        0.03240649107529389,
        0.033001799206785094,
        0.045159723543286005,
        0.04826871210138562,
        -0.018298815517764223,
        -0.011008675412743084,
        -0.052297939881937025,
        -0.06460416717033432,
        0.026942267709708805,
        -0.02596432037988964,
        -0.0163005392568245,
        0.06791427703254971,
        0.08079446249123723,
        0.038679159834786585,
        0.010559417410128696,
        0.025030757051607767,
        0.037579860880604,
        0.02619867756380025,
        0.007214107475292452,
        -0.010233709352009247,
        0.04102589757535886,
        0.05108617415982043,
        -0.0059290642388364154,
        -0.035889614359969055,
        -0.02582472144577041,
        0.036266749338975654,
        0.045826978296253415,
        -0.012586030866091415,
        -0.013200869306847163,
        0.019933243848013052,
        0.09106979695765513,
        0.09399530640110111,
        -0.04249862787952838,
        -0.06753919415227817,
        -0.052911310911338966,
        -0.03303644244192597,
        -0.03766110184107971,
        -0.049623115371550064,
        -0.008301041846516647,
        -0.025430939045959493,
        -0.017198909910402883,
        0.018287983103437627,
        0.0022684785215779093,
        0.020144534642638528,
        0.07118190819520386,
        0.07066244874926361,
        -0.024151582453336623,
        0.015662521215177583,
        -0.001290444420392991,
        0.026026562556387852,
        -0.02396660622126158,
        -0.009659367905389876,
        -0.08037997502928118,
        0.0013159656391057905,
        0.03176292723055854,
        -0.0331339584729589,
        -0.030943915626988113,
        -0.032638074364701224,
        0.022830574445930615,
        -0.0248602767978412,
        0.05921774212695717,
        0.06243974347145326,
        0.019453605670261765,
        0.017295990588003296,
        0.031119943772023723,
        -0.002729535315906008,
        0.023305567395462263,
        0.037041648091647034,
        -0.023141154427470927,
        0.001997836832771206,
        0.04487804392760722,
        -0.019559984828502033,
        -0.028268461730812766,
        -0.06383274938780045,
        -0.01933780883732436,
        0.012532673555714555,
        0.08585678436959819,
        0.09920623372006693,
        0.016105962850162574,
        0.02886776920095432,
        -0.027100569520380702,
        -0.12139280647466978,
        -0.11889498083029222,
        0.032649605118795264,
        0.038809492383100413,
        0.09693649794913897,
        0.0251652250936772,
        -0.06866638849421591,
        0.01696252884276635,
        -0.034761342187024896,
        -0.038152306293046195,
        0.03623823611395583,
        0.050310279375760644,
        -0.06187630962429151,
        -0.012740931034879468,
        -0.0027338121292252273,
        0.05108053586681341,
        0.14205985327564746,
        -0.06638170564474005,
        -0.09816162655850853,
        -0.02979955132173591,
        -0.02617280967720139,
        0.047146521333127016,
        0.07860466771127944,
        0.001675510334066398,
        0.006228156531804098,
        -0.025789091401329373,
        -0.02004376491487712,
        0.008365771617212229,
        0.02243521730973875,
        0.05166994894862293,
        0.0738994695181065,
        -0.017889265827937956,
        -0.1260202823250729,
        -0.07559452695810609,
        -0.04182364806130924,
        0.05185998736139713,
        0.02767980807500138,
        -0.06410516955964696,
        -0.0333683106199507,
        0.03539036780699277,
        0.06691333653795137,
        -0.005528680439526998,
        -0.056209262662223286,
        -0.013295011718553745,
        0.023823455582432287,
        0.04307897115897793,
        0.030711227705074604,
        -0.006961598615999323,
        0.052410409518458455,
        0.02186787170507489,
        -0.008992752161464456,
        0.013636951027205538,
        -0.0274709334487293,
        0.008282905499611862,
        0.027455802646282727,
        0.026203635556637003,
        -0.0503853308340536,
        -0.04830404257315861,
        -0.053642170032349654,
        -0.01616585633414256,
        -0.03234618082929157,
        -0.09662425436671838,
        -0.1281381885525154,
        -0.0833313364437873,
        0.029125496823217044,
        -0.032399403902834634,
        -0.07199437541493045,
        -0.03614838154571651,
        0.040796249174084656,
        -0.00042028469301579275,
        -0.06807563927290614,
        0.012733772931286313,
        -0.0059066426220909995,
        0.004478102087126286,
        -0.03704931418022424,
        0.025374086235891317,
        0.039739727450423395,
        -0.008999650143515232,
        -0.01289252530326209,
        0.04812408929339618,
        -0.03265186056381934,
        -0.002447161993924825,
        0.010383038536300303,
        0.035133402760191695,
        0.08190220999019898,
        0.09433562858248556,
        0.014807016779388857,
        -0.03976694730970261,
        -0.0976279978323403,
        -0.06771002233624884,
        -0.02528494835021724,
        -0.021823554620012377,
        0.1146185864559655,
        0.08918749753179539,
        0.03082070910122464,
        -0.08390623248819827,
        -0.09174499879707329,
        -0.05712173750398855,
        0.07716622553770762,
        0.04308705826563358,
        0.03176648869211585,
        0.0034135281006290093,
        -0.07583308608049982,
        -0.03804258686578815,
        -0.021461893033134803,
        0.034702678609684734,
        -0.009599665901391548,
        -0.004576031127050954,
        0.042303754622542974,
        0.04543369763598158,
        0.011510749192757713,
        0.01100986229973309,
        0.09438396185286548,
        0.035246467619344926,
        -0.0887735559069365,
        -0.04905413446946343,
        0.017961737751413034,
        0.0036365751582181118,
        -0.000548725447473747,
        -0.06628656448004466,
        -0.03919631700838704,
        0.1371933266508374,
        0.08263790426436375,
        -0.009171666835412463,
        -0.018991100570659322,
        -0.006198778366253909,
        0.07998514773802776,
        -0.05367312514351861,
        0.029602251853832088,
        0.06837928573509744,
        -0.02614467613026185,
        -0.0036359415226380914,
        -0.014389469991401433,
        -0.044962511706612626,
        -0.06313426290087203,
        -0.014062745668120623,
        0.00559687465382723,
        0.0030689000818618292,
        0.03537635344365822,
        0.02995406324841872,
        -0.011268190709223018,
        -0.07363810359852488,
        -0.04812346692585434,
        0.008552194737739383,
        0.04431483331765602,
        -0.1244606267492078,
        -0.014797545022882613,
        0.01621664186364219,
        0.034758981594466984,
        -0.0013773417103839893,
        0.049079554456504366,
        0.06292772824630835,
        -0.0028460248054219314,
        -0.05897010643488956,
        -0.02541082162406487,
        -0.0008730582383070541,
        0.03543023942263776,
        -0.009438093922904154,
        0.010821635506550832,
        0.0463207049768712,
        0.10761862379773209,
        0.004359652062828108,
        0.0052382122137328985,
        0.015469857558299098,
        0.016062494561014343,
        0.07767429999179616,
        -0.05189675736638768,
        -0.07945086275029839,
        0.01908474343566035,
        0.06863127691051647,
        0.06297674721127777,
        -0.041543727256296736,
        -0.04336745013888049,
        -0.046240598514068344,
        -0.055716152059369015,
        -0.005889829607100477,
        0.09506706782511534,
        0.05965348192555469,
        -0.0018611453475139831,
        0.015569290089768165,
        -0.0016106402243117493,
        0.061855256353577866,
        0.03018079797980295,
        -0.04483215840477217,
        -0.012284400264566703,
        0.11579465619723091,
        0.0765158798428721,
        -0.06512256480576158,
        -0.09450661215981732,
        -0.04464117985295487,
        0.0032730293465816932,
        0.0137310418164797,
        0.02038187893100494,
        -0.015685325998812134,
        -0.03878261388513016,
        -0.08765344875443107,
        -0.13297543094119046,
        -0.04142458484100156,
        -0.016064114706583005,
        -0.04313265899434747,
        -0.051513738299700226,
        -0.06440105615549227,
        -0.062042539562677364,
        0.0336506951157932,
        0.014087933449548853,
        0.006612225625163473,
        0.040145573767515215,
        -0.02529696883336975,
        -0.04111659218519095,
        -0.014160080999882765,
        -0.026289829394151195,
        -0.05175148307932921,
        -0.06018679983833175,
        -0.06352830423669045,
        -0.018596162291585686,
        -0.012911501362322273,
        -0.010879445684508115,
        0.009479247830300502,
        0.002531715192446628,
        0.028270784996986542,
        -0.0043742693619153285,
        -0.080270148095516,
        -0.11598576588112652,
        -0.012643575985640164,
        0.04186858469126435,
        -0.007701571335408937,
        -0.023966513868244617,
        -0.006417901701248339,
        0.040133697061385774,
        0.016906053727171487,
        0.03154338733109769,
        -0.02874565740511488,
        0.002183075925827006,
        -0.021623443479773033,
        -0.032798924806307514,
        -0.0005282688031749771,
        0.01878157733446819,
        -0.0026724674900280012,
        0.032973517929525326,
        0.02043541045347788,
        0.042175643409767316,
        0.02259559512389077,
        0.019557528365327946,
        0.03139550671096923,
        0.005677810346033317,
        -0.06421758013949082,
        -0.0345005469787685,
        0.08286033350725343,
        -0.07662495316560572,
        -0.036211726804087754,
        0.03169998878193614,
        0.04720448634715492,
        0.048354806216775736,
        0.07153855623626172,
        0.04247304315997153,
        0.032388314362833764,
        0.06064459746082508,
        0.06937926803878731,
        -0.08179652252780614,
        -0.07212680695127374,
        -0.17145935295502548,
        -0.12456512043674298,
        -0.01770363245829116,
        -0.05022142064888499,
        0.004972429603313343,
        0.006937795194425666,
        -0.004580405738537553,
        -0.006783697605402237,
        0.001160103774687892,
        -0.03931027184126262,
        -0.008434810699191019,
        0.02914482884752849,
        -0.01616126841440852,
        0.023099364553283822,
        -0.023644217351193764,
        0.03431528682041923,
        0.08075868062197594,
        0.10126116522669135,
        0.0009365589616889304,
        -0.035062577594907725,
        -0.11081638878870179,
        -0.08331523971944116,
        -0.10407306930713994,
        -0.10146416857125407,
        -0.019681493385311784,
        0.007757250302234632,
        -0.028175748525781096,
        -0.041271417827903896,
        -0.02078020138797719,
        -0.011447079798033437,
        -0.022250760515520225,
        -0.011658583438897535,
        0.0032603402577372704,
        0.039318153643310115,
        0.04482195869659181,
        -0.020369349022916056,
        -0.007990261592771152,
        0.0014937289269180967,
        -0.11215557572690704,
        0.022161881225541347,
        0.021608564594103388,
        -0.010645601680874193,
        -0.028155758877791565,
        -0.042846754762509945,
        0.024864652955406824,
        0.019027233188419347,
        -0.042680641771765525,
        0.07817852536637217,
        0.0915386152874828,
        0.13498245724153654,
        0.0647679028745967,
        -0.12145544657743629,
        -0.10127383241074367,
        -0.016681828922028033,
        0.08615351376795446,
        0.03089437576788891,
        -0.05692117415890281,
        -0.12537460667789427,
        -0.11868029350800718,
        0.018184037865495516,
        -0.01326118310822863,
        0.020552009508781728,
        0.04778384060046044,
        -0.04914020130484029,
        -0.0023160436948868757,
        -0.03914295429026979,
        -0.03506969217693237,
        -0.10472101192499043,
        -0.07474599714872227,
        -0.06564521647697193,
        -0.15621326802043292,
        -0.16033853741141968,
        -0.06724386448690908,
        0.0760698399252516,
        0.13528754516990438,
        0.03351607151336911,
        -0.015949296498841838,
        0.09477897195993698,
        0.08642661569618612,
        0.02837880512617658,
        0.03872056097009299,
        0.01607314220729103,
        -0.01867233803562076,
        0.04206742054524527,
        0.06132017486134578,
        0.029353784348568095,
        0.0456872898161068,
        0.0021022860220917573,
        0.01759792584615791,
        -0.10243624866385626,
        -0.07699136194519063,
        0.04196335907806623,
        -0.032119854322547194,
        0.03484008703180768,
        -0.041253509770704286,
        0.012415764686306327,
        4.001039996629223e-06,
        -0.023309226158032326,
        -0.01768491159624437,
        -0.028838562073537348,
        0.005841429262707615,
        -0.02165832981204104,
        -0.013685217914480512,
        0.05074760357871775,
        0.014983982447554443,
        0.030525547902851932,
        -0.026406387165287558,
        -0.057178382128387745,
        -0.10605366429186959,
        -0.14322077947476006,
        -0.12474076593335824,
        -0.04134329331720503,
        -0.050334821774965385,
        -0.05783133777871283,
        -0.10966570382232095,
        0.019159268563927256,
        0.08977823748556465,
        0.13047919388960585,
        0.06321926100041025,
        -0.007172938714944736,
        -0.06102087627418236,
        -0.026408126493663878,
        0.07321522006226008,
        0.05739254102073356,
        -0.023943424647215047,
        0.004333927165716092,
        0.03802259695046813,
        0.02420933833275655,
        -0.0016721515075155374,
        0.08551052559098204,
        0.017526482031658807,
        0.027890807965491107,
        -0.05828275037058378,
        -0.07533105701789328,
        -0.04019394028371343,
        0.024492403691584244,
        0.06895614072505037,
        0.1633930120493589,
        0.014811524701927384,
        -0.14508527857645212,
        -0.10349620897720838,
        0.05546836619580351,
        0.04917144970499232,
        0.13594662270045021,
        0.03786191759468985,
        0.010009370865015119,
        0.08527915454981724,
        0.02719279698785955,
        -0.055425922152330526,
        0.020282498075321197,
        0.015194580093680687,
        -0.05661858772328575,
        -0.0032121494587801654,
        0.015194565036455455,
        -0.04158434258778866,
        -0.09812198428228122,
        -0.03915364073957865,
        0.00455454445074298,
        -0.03774637253666029,
        -0.07846754188282384,
        -0.003250088293874758,
        0.02497634752659933,
        -0.05703880143860078,
        0.008679448203421182,
        0.0405606742793942,
        -0.04537830074716158,
        0.015742046233982086,
        0.07224011615105719,
        0.0450377287463534,
        -0.18190717589728875,
        -0.10361477882359227,
        0.05363756466061906,
        0.013092803426871902,
        -0.012556922568059226,
        0.008792721071394533,
        -0.011480107579805516,
        0.027908705310154262,
        0.0439687398856176,
        0.008579841886624431,
        0.026215584192652634,
        0.044626145929125983,
        0.03114839879969144,
        -0.05941315615524419,
        -0.1301853477496189,
        -0.04218448517397877,
        -0.06402570076742256,
        0.004716934892795317,
        0.001092143497070686,
        0.020169755624257157,
        0.009185325755979114,
        -0.0035439283903411084,
        -0.007264641728079626,
        -0.041343272953377315,
        -0.054431281441812154,
        -0.03553920922288896,
        0.09282031325600926,
        0.006126000790413541,
        -0.036273746224765854,
        -0.035304379456615756,
        0.07110665872438938,
        0.05701043436981092,
        0.0653826412592468,
        0.0014363967504926745,
        -0.08246986849568383,
        -0.03521800093099911,
        0.04287067699490945,
        0.021968472509119645,
        0.026009139936576983,
        0.10729620152048566,
        0.0064500693410879245,
        0.07843286526379203,
        0.06313774820268667,
        0.06850390055989802,
        -0.012231014281562638,
        -0.049973595380141074,
        -0.05532489430841756,
        0.01029517833818309,
        0.051262513125373624,
        -0.027943786636242807,
        -0.06485614849952429,
        -0.011823827007195083,
        0.12062454290410363,
        0.1078944983510724,
        -0.025035095278682445,
        -0.0862763470231476,
        -0.0629677464842425,
        -0.027955904207458106,
        -0.016891466609386944,
        0.028889956807911652,
        0.03676702963302678,
        0.00998532503629212,
        -0.0630098351476499,
        -0.08274300389991746,
        -0.0025284431191073273,
        0.01120441378282027,
        0.05938065660658141,
        0.0973021129548699,
        0.1122906026025262,
        0.020247192573320496,
        -0.0011816460572103959,
        0.002061874093317331,
        -0.03000847167309751,
        0.05226310499352056,
        0.05274394868984359,
        -0.016900697414252125,
        -0.0774833329140143,
        -0.1454084043018673,
        -0.06729250515317042,
        0.05989527972761648,
        0.05313432931806099,
        0.07174807383224814,
        0.09771133890806225,
        0.07825746275191481,
        -0.020965994920885536,
        -0.08099054971969763,
        0.034399657341055614,
        0.10175965502530865,
        0.02819799026235672,
        0.03544190799270032,
        0.059516683439870696,
        0.13138507955562467,
        0.04797318323153085,
        -0.05363297383159246,
        -0.030353790804829903,
        -0.02517276894577379,
        -0.027331463123549525,
        -0.002040477661370004,
        0.004358232252801724,
        -0.05410686054446151,
        -0.05509924476940739,
        0.01626650838089825,
        0.014485976526702072,
        0.04399514661533213,
        0.10589138283364811,
        0.09358911832268896,
        -0.03630067015198,
        -0.11389352131011704,
        0.03302507367681536,
        0.15327288107057874,
        0.02220510670798343,
        -0.07684380379370348,
        -0.032200925972849376,
        0.06556615510923401,
        0.01161982797551369,
        -0.04395138131623032,
        0.024448886118636264,
        0.037457531261767325,
        0.0006208220397148054,
        -0.05452169518692017,
        -0.03226019100728705,
        0.024715085353225426,
        0.02451308348639604,
        -0.03077735280154053,
        -0.01924331878750143,
        -0.014000748707393817,
        0.003059684018644843,
        0.0005803463807519634,
        0.041260584625935126,
        0.014730093494745933,
        -0.04302131160392286,
        -0.06001028980528079,
        -0.07785036157104637,
        -0.06694817320397814,
        0.03444352030563336,
        0.04150753802442731,
        0.03268631750750725,
        0.03210337803702076,
        0.06731012424429934,
        0.04763541042959359,
        -0.014896098701914943,
        -0.031159463492422518,
        -0.028621214371540422,
        0.05029818094272283,
        0.10879607584339818,
        0.11117094852137285,
        -0.00828679967337221,
        -0.05116440330666425,
        -0.0903211910987459,
        -0.05626655931816883,
        -0.04929991528777202,
        0.016510558401968425,
        0.018437921001384274,
        -0.006570315067974505,
        -0.014651735505690445,
        -0.0002851668841687144,
        0.02087124788283464,
        0.03722016946491301,
        0.0030920393112158365,
        0.004279587923433626,
        -0.00799540666524246,
        0.024251146372424384,
        -0.0574613702877466,
        -0.02918255746565134,
        0.013208919164210874,
        0.032163864800455674,
        0.05543578267271332,
        0.05714565120105004,
        0.005844097835619621,
        0.04682590963167671,
        0.04348093858274848,
        0.023102445238808132,
        0.02884567727213375,
        -0.014111208403923485,
        -0.13765853131744735,
        -0.13254049966004466,
        -0.07117278164749044,
        0.08455108125239,
        0.1218801994750986,
        0.1536306033991569,
        0.13536428956541635,
        0.1692597252988348,
        0.11133016078217947,
        -0.0022818629126598283,
        -0.038686822453316644,
        0.04151644190068961,
        0.15537780046576527,
        0.1395972612577409,
        0.01774185750817732,
        -0.07681232801388425,
        -0.0617554628379071,
        -0.020104783813207672,
        0.008662178811656368,
        -0.014235959668524895,
        -0.009060431975863918,
        -0.00322874536500088,
        -0.007725446532976891,
        -0.035474647985307556,
        -0.04224848661449741,
        -0.037372891245191525,
        0.0048332201766911635,
        0.017229065917643848,
        -0.06765999721560129,
        -0.021924468729907158,
        0.05881019499642926,
        0.018813872992624808,
        -0.016013587729554718,
        0.0019674688286600538,
        -0.0060229687596114155,
        0.010508794325745079,
        -0.02190541048583143,
        -0.07806641903715916,
        -0.09250512771902443,
        -0.08169277382089762,
        -0.035613810799318274,
        -0.04211478076676188,
        -0.02845879304732377,
        0.021981774598815312,
        0.1168891562200217,
        0.039657441489905666,
        -0.04756867309474441,
        -0.07558544508367487,
        0.011873665161224387,
        0.04817640557093496,
        -0.0023030744193990745,
        -0.012723484553163168,
        0.025093648380995703,
        0.03346267810848119,
        0.06550305668449394,
        0.05346434323290874,
        0.012955584314325676,
        0.01396966997549184,
        0.033113609350286656,
        0.009484137630127988,
        -0.01726994280120653,
        0.07046570221367707,
        0.13827390613720353,
        0.19064632645992557,
        0.1388676993036051,
        0.11240198513211427,
        0.03386785923649767,
        -0.010207596695111378,
        -0.04155044247022231,
        -0.09499452270642889,
        -0.029861746341097062,
        -0.06955049715006324,
        -0.07105857513634808,
        -0.07442757625521038,
        -0.002098695539918071,
        0.13402694117340136,
        0.046526403664640725,
        -0.05485505185050541,
        -0.07755341614885913,
        0.006546468894649092,
        -0.02967941268956245,
        -0.06846049995215939,
        0.08862316720323662,
        0.20945243559661017,
        0.2146931300596226,
        0.20226183204366388,
        0.16136819326102847,
        0.013597846649969516,
        -0.02500322116906708,
        -0.0188437747549867,
        -0.0034951942193853494,
        0.009964395002832244,
        0.029057390539696186,
        0.01255320467388225,
        0.008953259336445012,
        0.05958506603889262,
        0.005572239479521677,
        -0.00788289465830477,
        -0.0813988257968924,
        -0.07472941370605789,
        0.04409337583923094,
        0.08976884413417838,
        0.012631626633008531,
        0.028882105523557893,
        0.08873917063512768,
        0.11079377042670577,
        0.07844170017464168,
        0.08374859189116443,
        -0.05269052198230804,
        -0.16920223038577964,
        -0.1301229669705812,
        -0.03482269999670912,
        0.014092135364143745,
        0.10708698934270452,
        0.10800919631666855,
        0.012064789200564271,
        0.008337933137435976,
        0.01489503844185787,
        0.037067433767595075,
        0.01267291924741134,
        0.011254376447619304,
        0.03485860146704198,
        -0.013833398988490992,
        -0.006267195343680467,
        0.04399233978930009,
        0.05733519466561833,
        0.025353299304640853,
        -0.05855849884297969,
        -0.06529783745956252,
        -0.03216401115733974,
        0.06501186871312711,
        0.10538621227232103,
        0.12214856699374987,
        -0.013262109255411995,
        -0.05304907598360528,
        -0.01890240705278061,
        0.030768967211892647,
        0.01166101832285209,
        -0.009349138545423616,
        0.020743315131260244,
        -0.03960862500075771,
        -0.05209738470091111,
        -0.12446519479323577,
        -0.13289771762004204,
        -0.162233547708653,
        -0.1555769829509677,
        -0.024375333024762767,
        -0.012249340099485792,
        0.05376181619749271,
        0.10392737081236081,
        0.08327778682783177,
        -0.0276352632224176,
        0.013436053456202256,
        -0.028484879018151974,
        -0.019184303949414783,
        -0.06469591494351093,
        0.005496217712782038,
        0.005285147909731449,
        0.012620359779334903,
        0.009140451113769876,
        0.009630551594469117,
        0.016846212249323964,
        -0.05478385743147659,
        -0.11546256476316825,
        -0.10360580822519153,
        -0.04053079694892822,
        -0.036645838539868025,
        0.0013257909378368057,
        -0.07041748587902343,
        -0.029331442888586717,
        0.038045721143655536,
        0.08538857814117912,
        -0.015202661323096917,
        -0.055558942564228705,
        0.08174544618125673,
        -0.0413396446348251,
        -0.13957322396463068,
        -0.10434889220531024,
        -0.03699892418689673,
        -0.10346253811160491,
        -0.23429690335599854,
        -0.21063339404506617,
        -0.07539989272141187,
        -0.0584947149497855,
        0.0300993371624461,
        0.02676769065987014,
        -0.026471232529254287,
        -0.03508600352161015,
        -0.017258456113985,
        -0.03849360039937898,
        -0.04713243887375804,
        0.025336881972944505,
        -0.0036514530080708806,
        0.06331647765206475,
        0.0033095259648479756,
        -0.06353920302099322,
        0.005027764094964534,
        0.013649032728934645,
        -0.07026699019095078,
        -0.0873000118807292,
        -0.06849550213440277,
        -0.061759306766350934,
        -0.03802395725229175,
        0.026184875867486496,
        0.1278421124520242,
        0.0484391811552512,
        -0.1771251208536944,
        -0.14901434736755445,
        -0.16301814270628173,
        0.03782827256891047,
        0.13811880106570873,
        0.06817941724868987,
        0.03663789343484354,
        0.13787131762723576,
        0.03238113157847418,
        -0.014805776214745717,
        0.029828510514502846,
        -0.01223127927595802,
        -0.001778365456021011,
        -0.004485916869367647,
        0.0170052938692469,
        -0.06681014608521693,
        -0.10354296227179141,
        -0.07773342693340861,
        0.06306990524628969,
        0.009420066190691866,
        -0.004516317038181005,
        0.008882537887161037,
        -0.011941259191531902,
        -0.03827669322502967,
        -0.008180167946551884,
        -0.0013361420853077103,
        0.029399655533823576,
        -0.01849925928666953,
        0.009850525052404212,
        0.039210459422314436,
        -0.0428349909731731,
        -0.08662396004934132,
        -0.06741379904000483,
        0.11065766497572968,
        0.010700811534324435,
        -0.04724542160475185,
        -0.08619100631327992,
        -0.01022120641463976,
        0.07063984809848595,
        0.1817476058393064,
        0.13611607862447,
        0.10389449398920196,
        -0.0027690702518052297,
        -0.10207345515280444,
        0.049570458293179444,
        0.0877592362680032,
        0.09237159458502667,
        -0.0125043841149237,
        0.007921317851452624,
        0.025171285703738548,
        -0.010663866081488099,
        0.054507865899982945,
        0.06167941445825984,
        0.11596888114405704,
        0.03932692179800502,
        0.06314221196914666,
        0.12521559804345772,
        -0.025272837334306977,
        -0.14557339554334564,
        -0.16138048459192572,
        -0.03429944184738783,
        -0.10754876607074934,
        -0.0008475157678244617,
        0.035919946769813554,
        0.01418030731512346,
        -0.02972290828410935,
        -0.07734818840398582,
        -0.06409490278861334,
        -0.07523726758734464,
        -0.036014561364569916,
        0.0013239355972411852,
        -0.021047126433651867,
        -0.03624948637298645,
        0.0008873810431615265,
        -0.004612402620213462,
        0.06082046717229264,
        0.05278714175801537,
        0.026015343956738046,
        -0.030519301840221193,
        -0.08841027563410858,
        -0.08023197196965776,
        0.04790148893813545,
        0.18023055768820284,
        0.14977472239171333,
        0.04784049330506697,
        0.03706172587128535,
        0.0074653826932914585,
        0.032189697473285095,
        0.03238178882562835,
        0.060911416564154656,
        0.02299081578641133,
        0.0425731980432159,
        -0.127113393941152,
        -0.15854572721136373,
        -0.13582135918248633,
        0.013077132304750223,
        0.06229814866318778,
        0.029681639375790866,
        0.04217081718234394,
        0.10132827942187081,
        -0.0015722471182115102,
        -0.034474494886811535,
        0.06473192216384596,
        0.23408143065596193,
        0.10181921039627759,
        0.10028041248543013,
        0.001602590244281163,
        0.09556062411262625,
        0.1229607488107691,
        0.09831681751092511,
        0.02566600781660318,
        0.037626767803156554,
        -0.0049616363644479555,
        0.006047698592610867,
        -0.028329544601054052,
        0.0444835069661605,
        -0.046568051809479705,
        0.01756293492632781,
        0.0187215855308642,
        -0.04499437716336678,
        -0.08830431332167102,
        -0.025137348630161503,
        -0.05257401746662915,
        -0.019024099997445296,
        -0.007468099437156987,
        -0.00794841918793588,
        -0.11530649364624958,
        -0.12521629117205613,
        -0.17864113534148368,
        -0.05881098261390072,
        -0.09524332325893027,
        -0.027224779371851623,
        -0.029081623007534103,
        -0.007997359761427257,
        0.030500126422060007,
        0.09955896245944067,
        -0.01454979130045514,
        -0.06122322140806012,
        -0.03637839805439888,
        -0.030173547858459805,
        0.03576215233514436,
        0.005490190475093831,
        0.014606716058764943,
        -0.0357008170580367,
        0.021460133770014163,
        0.06942534919882329,
        -0.010020824840556415,
        0.030239535680521654,
        -0.023969456436159393,
        0.07642912688515208,
        -0.014375026148837153,
        0.03149150755772135,
        0.03870106531867945,
        0.14991569033580154,
        0.0869923410730854,
        0.01620299213230375,
        0.04138738920771313,
        -0.010753520221803928,
        -0.04182368213648469,
        -0.04545957641986824,
        0.031087761090038673,
        -0.010390719098275708,
        -0.02455627451325425,
        -0.034338542896145796,
        -0.07131172283550781,
        -0.023495474420264166,
        0.031052342416467784,
        0.12647188523399436,
        0.005086138330792862,
        0.016551971883958974,
        0.08569470302305274,
        0.04763297971722645,
        0.07549731251601957,
        -0.03197239436292579,
        0.025721617500331362,
        0.018820668152276756,
        -0.0678286562452926,
        -0.061484034838648755,
        -0.025402025341883086,
        0.03579800000274318,
        0.08590543063568068,
        0.0919404752684351,
        0.19796004129611866,
        0.12568258210394814,
        0.08758853110526277,
        0.03572867780115801,
        0.011436556538408152,
        -0.0001820828062580233,
        -0.04913627984572832,
        -0.04273944246255251,
        -0.044650539344148574,
        0.0332691059922324,
        0.031050368328817874,
        0.04230692674031512,
        0.09458266496982791,
        0.08712498405912275,
        0.0732098201336839,
        0.049561530407516624,
        -5.6757587050683834e-05,
        0.009478853083541867,
        0.11431805281372426,
        0.03082338461746543,
        0.03758182666655994,
        -0.03728690732431348,
        -0.08227310569148862,
        0.040929479621691287,
        0.040245450328882375,
        0.014789216451460242,
        -0.03486854744324658,
        -0.03789514533999572,
        -0.050342560553513396,
        -0.0016326135848103906,
        -0.02031321290250534,
        0.016016773861377127,
        0.051314081920847375,
        0.11199074110487921,
        0.10077854775320481,
        0.052279832294635745,
        0.050939250234634095,
        0.03730289144254049,
        -0.022642980755150956,
        0.02603937748333086,
        0.016564319084624718,
        0.011473710724204944,
        -0.005881028903214356,
        0.05569522981189429,
        -0.03889389333814928,
        0.04821129284375019,
        0.019376899928188952,
        -0.03930706984958088,
        0.015685873404436338,
        -0.034855783187370246,
        -0.12279292282661555,
        -0.1315429792529062,
        -0.16882341109094876,
        -0.174998718879697,
        -0.19173441445417488,
        -0.14027356415259043,
        -0.044036317907727884,
        0.02598351720482163,
        0.07186386817609913,
        0.026690652715157796,
        -0.013677588117206107,
        -0.09525371539862479,
        -0.04034303154313583,
        -0.006758706872925738,
        -0.07863005345764718,
        -0.031101867890998183,
        -0.037322096799645786,
        -0.07436610887214705,
        0.015009878360798527,
        0.158439280961098,
        0.08125045246443006,
        0.06220925692625122,
        0.11577537897400922,
        0.08349571151914006,
        -0.03917648541131815,
        -0.05696834606282275,
        -0.016022497528883167,
        -0.09433921928915164,
        -0.08400342699707675,
        0.10955202836311076,
        0.06471659506704242,
        -0.016939442754664063,
        -0.04845723773722324,
        -0.010213381740732136,
        -0.03362760115685849,
        0.01625049678239191,
        0.026426098376494855,
        0.053841179765515015,
        0.18000339152142913,
        0.09488787084472283,
        -0.0260254585237069,
        0.024745468270734986,
        0.014910293965001802,
        -0.10790273814883106,
        -0.09142736790493375,
        0.0032492107090938867,
        0.10820861404959171,
        9.549678941985482e-05,
        0.08629345889935165,
        0.04561807254367471,
        -0.05999366820829132,
        -0.12632803628098946,
        0.03923159508057489,
        0.16069738660978022,
        -0.10225601805502113,
        -0.1951080287071961,
        -0.19232110288097604,
        -0.013811261935857085,
        0.06064558965647254,
        0.03949713953074846,
        -0.06964222802434035,
        0.0018330682790154785,
        -0.0012222698613692101,
        0.03258723569533532,
        0.02810158378532985,
        -0.006730183000552104,
        -0.016767028750333073,
        -0.011241409084926112,
        0.04377791898529747,
        -0.017007076481928785,
        0.025985999043797642,
        -0.019127852285145904,
        -0.03757892139134588,
        -0.06537745137251938,
        0.039795103382806354,
        0.023917354079580393,
        -0.009633678647272572,
        -0.13592357945206093,
        -0.1735769023389143,
        -0.14005068316269298,
        -0.0025310738256662984,
        -0.08145643982947876,
        -0.04962433490969881,
        0.03104386515740521,
        0.27457457189894485,
        0.22267280140637738,
        0.19621684504419154,
        0.19806394512137207,
        0.254328658903036,
        0.17475606705258628,
        0.0998294008641288,
        0.09056240300284073,
        0.06697808646646125,
        -0.02580596810766174,
        -0.029611742561995582,
        0.01550534164336241,
        -0.022213998895876004,
        -0.015676245617529422,
        -0.13028843312915522,
        0.02471507832639342,
        -0.004586681951187819,
        0.08209440418434666,
        0.053596323640315094,
        0.027687974008645574,
        0.10401104513972606,
        0.06594470648157477,
        0.06911321490138947,
        -0.01957635592542539,
        0.020600155604148285,
        -0.029803905766508574,
        -0.01470892241941825,
        -0.03612313175672163,
        -0.08125266651594762,
        0.0040080570356274,
        -0.04107158542681438,
        -0.04278998796311077,
        -0.03232171937071694,
        0.051188731572642115,
        -0.030752791969072782,
        -0.0608694622318372,
        -0.05466518287390618,
        -0.09847339227693622,
        -0.031113023370368764,
        -0.06536075704296113,
        -0.10277974963053275,
        -0.06276708860061089,
        -0.07389227838051335,
        -0.06751198207375927,
        -0.08997139122087032,
        -0.04086859875465381,
        0.07448271905439474,
        0.09167640157044074,
        0.08072429827046132,
        0.15895960315861865,
        0.14150085140039836,
        0.03161562425731657,
        -0.04848704230035906,
        -0.0037370774104570213,
        0.07097028695513788,
        0.023261594563429543,
        -0.017729398950702958,
        -0.07766327298786249,
        -0.08990565928733128,
        0.09317664178381546,
        0.14895396090408872,
        0.10294439370860062,
        0.013463329175664474,
        -0.03764964782911745,
        -0.06359478924979689,
        0.0011939710385965052,
        -0.037724097047399326,
        -0.011688548415795273,
        0.031640225096322264,
        -0.05699242430773513,
        -0.010801869372321735,
        0.08750533118452897,
        0.12993701405416472,
        0.00233716910036251,
        -0.04003978578420718,
        -0.004002090745521172,
        0.0065307281788090366,
        0.07063642748030023,
        0.08340589018857739,
        0.08710183326214206,
        0.058046299911554744,
        -0.049611281870792195,
        -0.0290788038157488,
        0.0006187626379120146,
        0.015772547525758383,
        0.032069830996621064,
        0.03967283508583447,
        0.015395637239641621,
        -0.015558161460400328,
        -0.05518528155951084,
        -0.07854683403157534,
        -0.0912398777991835,
        -0.08591864411751263,
        -0.0782126568743297,
        -0.0009110518362195739,
        -0.011279705414394266,
        -0.028775905246678307,
        -0.04886654644013546,
        0.0023697998858964848,
        -0.020344580904563946,
        0.010627027298660628,
        -0.0008154977690682699,
        0.006140581481542255,
        0.06815056508443973,
        0.04120257012303756,
        0.007882676790235563,
        0.030328526011258725,
        0.05594944815079536,
        0.08584371031575336,
        0.18566883970084383,
        0.11130186395467165,
        0.09255055643075241,
        -0.004420653471676739,
        -0.005817431424236011,
        0.0200694284409519,
        0.09391206697487335,
        0.19658338266876324,
        0.2086590736894945,
        0.18772094819060497,
        0.13068702842767124,
        -0.017553080305690555,
        -0.08000186745093338,
        -0.07151295766896099,
        -0.030647247860265094,
        -0.06483790163097007,
        -0.056123038376523965,
        -0.056859940469917214,
        0.05176469547084977,
        0.11664157163925234,
        0.027055001828371048,
        -0.058159260830999,
        -0.08182334709856769,
        0.004776422202189453,
        0.011791056001005006,
        -0.0048029638459899235,
        -0.08567178137672828,
        -0.06511973229890697,
        -0.05366750710829385,
        0.04783000793470394,
        0.09489719834372345,
        0.07608344313266288,
        0.16174746379110522,
        0.1354246906100911,
        0.09287721045326366,
        -0.018227959627032792,
        -0.02761135400228098,
        -0.023015844830061784,
        0.028770534928062495,
        0.03206979950045323,
        0.051142941009063414,
        0.040103423977542976,
        -0.020921432924779274,
        -0.06530866879445416,
        -0.04182172935713599,
        -0.01771528236621279,
        -0.014641844835880758,
        0.009246428513882323,
        0.10797480377374946,
        0.025507779603197413,
        -0.03254241553450689,
        -0.04287395893333581,
        -0.04311224856257363,
        -0.03351267701480821,
        -0.010340376426658809,
        0.03460535332712612,
        -0.0372517655849743,
        -0.011646849717701111,
        -0.05580296007066391,
        -0.017664489408410207,
        -0.010333778761945626,
        -0.022883193292110506,
        -0.008234128604305226,
        0.04524002093946191,
        0.09470778451373849,
        0.15571102703654946,
        0.1902109360246952,
        0.10031805955166473,
        0.09250920853385666,
        0.14986135540691475,
        0.11453238081098498,
        0.02536331140015357,
        -0.0838523156533515,
        0.00363811518206047,
        0.02107139402319222,
        0.019983689960752456,
        0.007049241728842927,
        0.011764435378454494,
        -0.0035173756352838226,
        0.007925226806193654,
        0.002385606428282493,
        -0.001758310331268614,
        0.07619565102990092,
        0.1941028628421398,
        0.11177848828637951,
        -0.021383223739960235,
        -0.1810018988870807,
        -0.086496208563728,
        -0.0031083042051302206,
        -0.01067630296695411,
        -0.05134841516555547,
        -0.016472875514325212,
        -0.005596864841395927,
        0.009503803633510374,
        -0.004769115207904513,
        -0.010695122021942085,
        -0.004750063814563609,
        0.014693394290627253,
        0.0038696789073825433,
        -0.025208708975688256,
        -0.05343319504254099,
        -0.05283251663170138,
        -0.0443749162901136,
        -0.01701661435251977,
        -0.003933400585701605,
        -0.003055859676210639,
        -0.003505975000092463,
        -0.004144548564272852,
        0.0014013691089058461,
        -0.012891340988967201,
        -0.025883816152235166,
        -0.0676202746802379,
        -0.08413687553996602,
        -0.0538053642311634,
        0.022279754991264968,
        0.04430773900106898,
        0.021661300157331954,
        -0.006400422707078369,
        -0.039235637250389324,
        -0.07759870143506285,
        -0.07215905018051044,
        -0.06702823913594447,
        -0.06006869986865577,
        -0.10892240599245047,
        -0.13835971861709245,
        -0.08868824349440937,
        -0.010659945514663753,
        0.03218256972729346,
        0.007352924644943357,
        -0.003541321895213782,
        0.013832663981657839,
        -0.006954484036336172,
        -0.01906616293434861,
        -0.0019547979856327884,
        0.00509287912209159,
        0.025823880638882402,
        0.023392095755847334,
        0.05125884087741599,
        0.03723884271909636,
        0.023236657010902335,
        0.04224242798731551,
        0.03138325712409927,
        0.030315302245569324,
        0.048528925398904466,
        0.02899455657717912,
        -0.04528988394332112,
        -0.08896536058970088,
        -0.12211772740319671,
        -0.12380617356952534,
        0.0037166822567452395,
        0.07466825108209493,
        0.10365512087700741,
        0.05266570121825192,
        0.041768082244209546,
        0.03267974035016477,
        -0.041602066152822206,
        -0.06755478497157143,
        -0.12790045267369668,
        -0.05725833408569825,
        -0.07183572458240282,
        -0.10549127412191031,
        -0.06900922257533425,
        0.07468552599055422,
        0.22352670816332904,
        0.17108145138441117,
        0.017596670368707275,
        -0.0576012554573567,
        -0.11824817524072623,
        -0.05497877914528856,
        -0.107031157908246,
        0.013241498846379679,
        0.2118935180816993,
        0.165048534880553,
        -0.0017180898638410654,
        -0.11651620854720261,
        -0.12546155458965846,
        -0.06698955107209742,
        0.025176299759496368,
        0.050272910459327844,
        0.05916533068210981,
        0.01968542344479542,
        0.0017192318935512728,
        -0.029332578289651225,
        -0.09811917179226567,
        -0.1625271862226378,
        -0.17542694429009414,
        -0.08019292723615068,
        -0.043770192174624564,
        -0.06639297102434052,
        -0.10951878942796621,
        -0.08516399814385445,
        -0.002742719541744863,
        0.012993944407562479,
        -0.08246810483914535,
        -0.08208570392953125,
        -0.12337571796621008,
        -0.1264654050685658,
        -0.0894403669107127,
        -0.011207780337341473,
        0.022058553802363476,
        0.062417431923040494,
        0.11072553369048727,
        0.09876950187354006,
        0.017090103589579207,
        0.042314424062369356,
        0.040045834877684594,
        0.07186496650957357,
        0.07684468960344032,
        0.05503158393894258,
        0.06576791085705802,
        0.07558057910978068,
        -0.015269015295994993,
        -0.03192096137743977,
        0.05279653314442938,
        0.1236368034061725,
        0.18439183998853453,
        0.12417021807023783,
        0.05652600697386555,
        0.06321057611639126,
        0.11315548298272501,
        0.0733529156043436,
        0.023564941688668056,
        -0.030746365022639822,
        -0.06052763020730063,
        -0.0598228031160261,
        -0.11044189298102819,
        -0.08235107102885927,
        -0.005916760684298352,
        0.06527239172110173,
        0.06995200534516136,
        0.038627160843048576,
        -0.030335442583127998,
        -0.013100277001073225,
        0.041364226971958365,
        0.09409819549465813,
        0.08588822195675413,
        0.02920743622276157,
        -0.024211501305694137,
        -0.0504360537311461,
        -0.03956203081607254,
        0.06466971931153394,
        0.08437557193386709,
        0.02846332593069843,
        0.012080564802811122,
        0.01640185644703582,
        0.012038486972584528,
        0.03511614413324122,
        -0.06288870061167103,
        -0.10012441711029704,
        -0.1446745967241958,
        -0.17289876006226554,
        -0.13970100119928278,
        -0.13137430082347482,
        -0.09796911191265091,
        -0.03819790623858102,
        0.06799878349262929,
        0.22973451923172572,
        0.1832001144302948,
        0.06032874178220149,
        -0.08784158855381119,
        -0.0654848490800296,
        0.06608694690002899,
        0.05224101481500623,
        0.01540844961789382,
        0.05548645445010577,
        -0.012373280886618675,
        -0.0690786040135826,
        -0.07143520784355954,
        0.012456476865767483,
        0.09567171259342318,
        0.029657261606836224,
        -0.05555986206438522,
        -0.047183866380520384,
        0.012721284682071564,
        0.04827552041342245,
        0.12365092772236776,
        0.10360216358670166,
        0.1474351489050071,
        0.10251006685172563,
        0.1280156680775948,
        0.16858529648710258,
        0.12056541635275314,
        -0.017651171836987504,
        -0.052150634656789874,
        -0.038526598749417704,
        -0.00536642149648895,
        -0.00044641672825124445,
        -0.05628216675279032,
        -0.031062527325368954,
        0.03163572136061758,
        0.006579109414362174,
        0.027427557351991434,
        0.042774997235175354,
        -0.03695207392281691,
        -0.058795188132697,
        -0.04418577442962616,
        -0.00993286967368891,
        0.035217371155652114,
        -0.001543655415975547,
        -0.025853038276819833,
        -0.10384860897553498,
        -0.18711873802605122,
        -0.1472956201091406,
        -0.00884227862792244,
        0.10945564255954074,
        0.07864916925757562,
        0.06323485374805712,
        -0.04291521508695102,
        -0.06873138412360746,
        -0.021872436987165556,
        0.044239136451535724,
        0.015554403963311042,
        -0.08866448649720808,
        -0.1560677571653526,
        -0.18395411973346326,
        -0.16954350279688007,
        -0.056502713373308575,
        0.06330766614818294,
        0.06398609101652603,
        0.04276368080954105,
        0.04691002336550572,
        0.009705068426271148,
        0.0020629428548162845,
        -0.04062503262046897,
        -0.09138591376097042,
        -0.10359533994271519,
        -0.08909095664169059,
        -0.023090918401122585,
        0.03473407686914131,
        0.07112028305114587,
        -0.018748877300359297,
        -0.006260317274058985,
        0.021001418843545627,
        0.11697466599696371,
        0.08164122134439442,
        0.0031439589842292117,
        -0.03493868159893582,
        -0.10820747988352822,
        -0.09301663522363487,
        -0.022296161633561584,
        0.04901123765834497,
        0.21684209166780483,
        0.20617475928644563,
        0.12688466044306074,
        0.006811697891672949,
        -0.04400149301363733,
        -0.00563389520823596,
        0.01756103821224711,
        -0.05163942840932041,
        -0.06432964886516829,
        -0.21156626675269774,
        -0.2271098266350655,
        -0.15442901283863847,
        -0.1324912875023002,
        -0.001792281569346815,
        0.08967000283208904,
        0.08574452551943534,
        0.018963615963019716,
        -0.017805360744968024,
        0.004191670198812198,
        0.026775208033045318,
        -0.04158746465824765,
        0.031346184061138316,
        -0.019859648060456696,
        -0.08571078797790907,
        -0.15304982168468403,
        -0.11426765793286663,
        -0.07186156787836992,
        -0.07441205935809182,
        -0.047417835811940756,
        -0.05565604279173888,
        -0.012164503295879293,
        -0.01883164443044333,
        -0.041935968037803244,
        0.03426648931033249,
        0.02891550691711081,
        0.05139368393796066,
        -0.012164290785195481,
        0.013203442630621908,
        0.018924647058387662,
        0.015357750350832857,
        -0.04625494767175432,
        -0.030705456363296153,
        -0.05063079341256937,
        0.03210452429597163,
        0.021760139377726036,
        0.01943127811902924,
        0.0739106152363298,
        0.012941593975883849,
        0.051628998253750176,
        -0.012152837326164026,
        0.03273929717424311,
        -0.03501741619592504,
        -0.009053920773372803,
        0.002530056518137808,
        -0.01513008805933254,
        0.008770524426891963,
        -0.026979142532162485,
        0.03686172763154858,
        0.01846334304847458,
        0.01388660122325479,
        -0.08641561414176528,
        -0.1717195412607709,
        -0.13185027199592136,
        -0.00810150680115777,
        0.057159971253389945,
        0.06429068153393731,
        0.06128355867305934,
        -0.06012308813798917,
        -0.12857837691849888,
        -0.11942866768119842,
        -0.04187130871426682,
        -0.02129755308533171,
        0.043011734103734336,
        -0.0048852727166261815,
        0.016164463625237917,
        -0.03498021029483389,
        0.009139655599890498,
        -0.06603171422458212,
        -0.005572686433932154,
        0.023639584578571224,
        -0.03156208761978975,
        -0.01686277624838093,
        -0.015320010372218605,
        0.009403881187051401,
        -0.01053495441423064,
        0.024647582628776712,
        -0.016989546954602336,
        0.032056737217678696,
        -0.07461041621976239,
        -0.08409223860264436,
        -0.0887211433400774,
        -0.03263848506974373,
        0.007359818951869126,
        0.02537349296174552,
        0.08394403126703331,
        0.11323675343054909,
        0.037012257407222277,
        0.07273491233640964,
        0.02567388587502558,
        0.021652029462762314,
        0.06224439872303779,
        0.044813357078308066,
        0.022623755599337055,
        -0.04565753896489638,
        -0.00336732367701549,
        0.009313150642731017,
        0.07254385548145652,
        0.019754086351218305,
        0.026890706813727395,
        -0.035034931204990974,
        0.060718031944596684,
        0.09124577150108816,
        0.06267462275488528,
        -0.02058222101920262,
        -0.050729199875536285,
        0.04619724983122087,
        0.06410931161094015,
        0.11395887792444223,
        0.018776689752582787,
        0.005175305599502705,
        -0.027453151063323918,
        -0.043843274032984686,
        -0.0793276028972271,
        -0.022030487387897164,
        0.002480036503348946,
        -0.01250204642374248,
        0.09683400437433498,
        0.12087465071461022,
        0.10538228803516761,
        0.12457610831839781,
        0.041816617631089195,
        -0.06543971755076422,
        -0.06617689492422611,
        -0.2046419584946968,
        -0.20915348306027326,
        -0.2005282474621548,
        0.042601632027479644,
        0.04357797594394902,
        0.0766274530869735,
        0.02266265919103335,
        -0.024732677575364976,
        -0.0018671293758708365,
        -0.02333144295223595,
        -0.051631520897409494,
        -0.01654169882179363,
        0.0015111643045067269,
        0.03962803774669775,
        0.17122944012820385,
        0.18781118685853737,
        0.1612558047242415,
        0.03570943709810041,
        0.03135268888515568,
        -0.0997039880599857,
        -0.08369749671293714,
        0.0024349758770867294,
        0.06535610554435314,
        0.07534123318391961,
        0.11466941164273793,
        0.050959254336419194,
        0.0519240311130911,
        -0.0327953973905902,
        -0.11162486769066948,
        -0.045885824480264646,
        0.03403813998510932,
        0.041232561898225065,
        0.058770664325452124,
        -0.03385580071172203,
        -0.07727371402799862,
        -0.012995854557130366,
        -0.09148602001666964,
        -0.04018344847068489,
        0.030445940384834638,
        0.09860095054955345,
        0.005919799152995865,
        -0.006572201830080949,
        -0.016230023780422997,
        0.09472194333391319,
        0.0413799387350533,
        -0.01188731024804523,
        0.0870613792884285,
        0.11299500443007299,
        0.05124052807911757,
        -0.013767431604198348,
        -0.04215844935233032,
        -0.004660121529566364,
        0.061488019597400155,
        0.00170834096971969,
        0.001786584109530197,
        0.007149522059926555,
        -0.06085018932228269,
        -0.06895441691834159,
        -0.04548542416657183,
        -0.029353253190517084,
        0.06076914959475053,
        0.03906079279116149,
        0.05434990445015382,
        0.08099522304967052,
        0.060186322079051294,
        0.04684121500907456,
        0.05884751659483595,
        -0.003300478869492276,
        0.062293560600702826,
        -0.050325171710755484,
        0.02011141696646775,
        0.05572058702668938,
        0.03578740506453959,
        0.016747000529385533,
        0.04760816721685271,
        0.09478807421929272,
        0.13097856438692163,
        0.025814077368692658,
        -0.10528447439295771,
        -0.11976284022218062,
        -0.12305834478054133,
        -0.045501388389433045,
        0.01051725591826336,
        -0.017777224357544377,
        -0.01034469307932176,
        -0.07701009505469177,
        -0.09752603194792815,
        -0.08091602268822351,
        -0.08533548283531428,
        0.04528353824641802,
        0.13130817663887942,
        0.22238407584145337,
        0.19917439707304757,
        0.06889019311212859,
        -0.0011802563497504532,
        0.021462612940862824,
        0.021019024814758383,
        -0.03542688742307078,
        0.011833173035970571,
        0.0005369455176064959,
        -0.049132188688251796,
        -0.04201977920210783,
        -0.012190392025149977,
        -0.0590416600161591,
        0.10566269349647844,
        0.04585472961960033,
        0.08034357479508897,
        0.002935318823925678,
        -0.07472675480794927,
        -0.020303114802220204,
        -0.1267713849884855,
        -0.01762674511938246,
        -0.02227358573073637,
        -0.02059876900039328,
        0.012377907112467671,
        0.0011632479849009057,
        0.010861494412077528,
        0.006384954115408524,
        -0.01202818940834885,
        0.05845522261310404,
        0.008936839505434304,
        0.0245476499262507,
        -0.012830497774629298,
        0.02407174703669596,
        0.09006800553413633,
        0.153790015655871,
        0.2055978367653621,
        0.10422917783677928,
        0.03694460089626351,
        -0.07544769076538191,
        -0.11531727355091728,
        -0.09317630327091332,
        -0.07284955232803153,
        0.006433750887739651,
        0.045271231562192434,
        0.07373955414988678,
        -0.01591963061590311,
        -0.043026009559782814,
        -0.01844458295289402,
        -0.03697117616506593,
        0.032977481502742524,
        0.011905022392088457,
        -0.012911686355558973,
        -0.0574173774340485,
        -0.11027023357525159,
        -0.0340683899394603,
        0.07939087459428221,
        0.10262779420704833,
        0.08117672375031815,
        0.08733260544189603,
        0.02810083282028243,
        -0.013741394490793028,
        0.04538549925223826,
        0.046138989778820076,
        -0.06285120475663378,
        -0.12444627513167286,
        -0.04362774422277639,
        0.10378043880411143,
        0.1450877370254978,
        0.047644005973701935,
        0.03228326180354547,
        0.008284862147424209,
        -0.015127397411937627,
        -0.010711129588808795,
        -0.04575851892816659,
        0.07420480707525615,
        0.048326960331104805,
        0.007829103115439082,
        -0.09294176282074619,
        -0.14154364951189252,
        -0.00023593376860180895,
        -0.006039811596586289,
        0.1216216443939307,
        0.021686483628231522,
        0.07145948783103502,
        0.053097195908554745,
        0.07701508632703896,
        0.1482686967326929,
        0.1755631199194103,
        0.2688612025893412,
        0.2210694837930238,
        0.08690913551349233,
        0.031672148275681704,
        -0.04153985482852199,
        0.012221662354951961,
        0.07572012295949697,
        -0.008128494898163119,
        -0.058380065919911885,
        -0.13077429904370308,
        -0.13173241413741396,
        -0.10645456130128035,
        0.025415406498409805,
        -0.006425470246083932,
        -0.07559126667586227,
        -0.10550420802927177,
        -0.056227463892167276,
        -0.044644913040202225,
        -0.11092127361070203,
        -0.03460571166533681,
        -0.004454286847296544,
        0.03086678885929789,
        -0.006449984957443608,
        -0.06621254964703284,
        -0.0660843276306399,
        -0.055676802364360414,
        0.00707897449633829,
        -0.03389717036280926,
        0.04922186711695922,
        0.0017996269141819028,
        0.03132089542015372,
        0.01896603917765518,
        0.13849345156689225,
        0.13742432660345394,
        0.16603180242082832,
        0.07263754288731547,
        0.008478837597421792,
        -0.04885520450717489,
        -0.05727805206747273,
        -0.027787758090232366,
        -0.04757559565785231,
        -0.002962397555181183,
        0.011065232998807024,
        -0.03407980464841391,
        0.022014933123462716,
        -0.013923113468036239,
        0.0688633396968296,
        0.05623998216111997,
        0.1287126124958936,
        0.08714459378078408,
        0.04353532130598707,
        -0.0006139421941032267,
        -0.02642626701401725,
        0.01679612808782853,
        0.0231709845895296,
        0.16543293189488895,
        0.07736055538782752,
        0.12215555529073832,
        0.0002976649184354708,
        0.07892402515698563,
        0.048590703755605376,
        0.11335647096207997,
        0.028474039481921988,
        0.03212411075991019,
        -0.05735432216483857,
        -0.026707604938361572,
        -0.11581201773404012,
        -0.13306941878856127,
        -0.05699364446920182,
        -0.001498473727955377,
        -0.05012932521792318,
        -0.03929109897337167,
        0.057128847539775554,
        0.10968084540103032,
        0.02593466940068548,
        -0.015064597568921418,
        -0.03208550281324064,
        0.07675189027178,
        0.045784660381699746,
        0.08784475937024486,
        0.10317897897427736,
        0.06526388818229131,
        0.0415893276200823,
        -0.03402836565855837,
        -0.008003963427880309,
        0.005979644055829575,
        0.0007147413096626445,
        -0.018872253669944765,
        0.06932103346272667,
        0.1311659136150935,
        0.19288178946894452,
        0.2524987674637526,
        0.16767744318909616,
        0.13710356212978275,
        0.09130839328926485,
        0.0657087197699626,
        0.012244017418373724,
        0.05496215907748552,
        0.03270493343426237,
        0.054934399017303584,
        0.04429948393974656,
        0.052139990886757664,
        0.08248345219030052,
        0.08050186436944866,
        0.008104718707811074,
        -0.03715559063893199,
        -0.015160133198951457,
        -0.03829248564030498,
        -0.011805671441571288,
        -0.032247625473934824,
        -0.0017913706725972305,
        0.004590206416305328,
        0.018733927858246034,
        -0.010806659212335227,
        -0.0238556860048997,
        -0.04980682893479695,
        0.010795558651438903,
        -0.017697940106474658,
        0.03775340941495364,
        -0.019965048134963997,
        0.030012253878597392,
        -0.007410203251924582,
        0.020754788375823764,
        -0.03218127516934785,
        0.00702764963649121,
        -0.020845751439850933,
        0.05026229669061531,
        0.08698127387707194,
        0.07509286253868674,
        0.01977690003072169,
        -0.06106631075495299,
        -0.10478160301860218,
        -0.09519677456023663,
        -0.002424891725453306,
        0.06683466311329903,
        0.062245501689128735,
        -0.037424131436393775,
        0.045451685395528366,
        0.005390302295162754,
        0.041759887125037,
        -0.01299008320397829,
        0.007300487901390561,
        -0.040423010061233854,
        0.02943600775314001,
        -0.044465757674604436,
        0.054228111750278474,
        -0.05323289969295544,
        0.12694018002330718,
        0.04551450124555932,
        0.16628980544999192,
        -0.015639944401631935,
        -0.046249936871266994,
        -0.1017424392163704,
        -0.1378743625748576,
        -0.0984392137879474,
        -0.0995359224022398,
        -0.0013546132013583906,
        0.06367689968295515,
        0.03281939221645871,
        0.007017703234967077,
        0.02130347135707296,
        0.1337260329901542,
        0.0912647807796243,
        -0.026251695494653362,
        -0.09006676611752434,
        -0.10398079091606299,
        0.06459418243726928,
        0.10351226382838837,
        0.13585164620867718,
        0.024844634900830775,
        -0.034383184790540915,
        -0.007670158143513371,
        -0.059947236953276875,
        -0.06418122579842608,
        -0.08290864204628133,
        0.09642129860047284,
        0.03897996591760927,
        0.07990947269413627,
        0.02323419266015645,
        -0.012686277539647565,
        -0.044423543654145095,
        -0.051191275140269416,
        -0.06845339681426822,
        -0.07008957267327495,
        -0.08211134148748175,
        -0.07709484672496703,
        -0.12368776335108611,
        -0.18061143703701105,
        -0.1712527792111929,
        -0.1470416251433518,
        0.043593660008237126,
        0.013653277278338408,
        0.07395630114674419,
        0.008976320561390187,
        0.006617687381087782,
        0.01750811045323918,
        0.02537781336314201,
        0.0037367029512671793,
        -0.07152974555553858,
        -0.028768839744599026,
        0.00868135176305381,
        0.10891663741063351,
        0.1036508757025219,
        0.10289351392505278,
        -0.011830270771088707,
        -0.0424618467213986,
        -0.0015089248938747254,
        -0.08068774299070659,
        -0.004464446851693796,
        0.003907735773972503,
        0.14133133224513722,
        0.09523009395678372,
        0.12466987527370746,
        -0.014930460928163658,
        -0.0182918251376901,
        0.009498410168881352,
        -0.12191323933702511,
        0.045758576404211784,
        0.17310222542188464,
        0.12395703253008541,
        0.1033789046023976,
        -0.04410185992204382,
        -0.006801066440392636,
        -0.1355048174264867,
        -0.0756117875941231,
        -0.15315007884533965,
        -0.08143884303677043,
        -0.08952326176192883,
        -0.10528830509934814,
        -0.01859531272351674,
        -0.06866303988164724,
        0.10584363799954274,
        -0.029586848064187873,
        0.10458869254323407,
        0.003493174374426549,
        0.025609029403381302,
        0.024182915260236457,
        0.05121340453984195,
        0.03947332689056676,
        -0.03743631265635784,
        0.07770931623136818,
        0.002022443655132598,
        0.11415042173713741,
        0.08764155253875595,
        0.031017192102344066,
        0.024689178392229002,
        -0.040140587841672584,
        0.03283234221631409,
        0.0016356534326801724,
        -0.007895344572196034,
        -0.04573823523958288,
        -0.09197411302024866,
        -0.009096509851714944,
        -0.030157430203594075,
        0.0009847701982696397,
        -0.039431511451502275,
        0.10383389740647776,
        0.14986993593259096,
        0.10304096882724165,
        -0.06752876545138278,
        -0.1478074003514916,
        -0.09503837005022386,
        -0.05842302301637532,
        -0.07282235954637366,
        -0.1069664656710853,
        -0.09407971171789889,
        -0.05171590073012437,
        -0.06196835298849994,
        -0.0876773351342284,
        -0.024950697201792056,
        -0.1263036083116304,
        -0.053926697081788266,
        -0.14942569609376527,
        -0.06649200340364794,
        0.01005116676450397,
        0.029934803715890447,
        0.027528426445895194,
        0.0956384577221534,
        0.13996946449910025,
        0.1000334364673725,
        -0.03242015196389481,
        -0.10678982931738375,
        -0.0941994950251354,
        -0.0594824229796208,
        0.0409293198604859,
        0.058262255630130974,
        0.08199327151911162,
        0.007767535235379596,
        -0.0897107014729556,
        -0.12990425773004516,
        -0.16929017374350955,
        -0.10147843691866454,
        0.13743503931411455,
        0.15357160118747207,
        0.10013672438127957,
        0.0016929827292941273,
        -0.01465397553992737,
        -0.0637861138385443,
        -0.0675027449682297,
        -0.06808267600088398,
        -0.08755537264825805,
        -0.07048918165339751,
        -0.06323430280739406,
        -0.12291483151196475,
        -0.016793203866752357,
        -0.02314476331060242,
        0.03573099246427147,
        0.139738848309583,
        0.009059720402265756,
        -0.012138194152441993,
        -0.000692009104355338,
        -0.04175388138454236,
        0.033549348358924064,
        -0.03464789188159139,
        -0.02812869354368475,
        0.042376677116041345,
        -0.07276886577041662,
        -0.031007960174590926,
        -0.023452586956767562,
        -0.024503400420118587,
        0.03363627264725946,
        -0.03631412075758781,
        -0.0054622598512008794,
        0.040194353247133906,
        -0.018027157833454842,
        0.053402594034111205,
        0.04802437941131365,
        0.046421953405782354,
        0.036894687914421145,
        0.06697294380664438,
        0.14112578359482292,
        0.144564139357168,
        0.013779941426614348,
        0.02892859235260785,
        -0.1029399998219873,
        -0.004489940319960842,
        0.0639894733083455,
        -0.012507909678020901,
        0.1255574321812163,
        0.08516393511853264,
        0.037754048187103526,
        0.11204511666468303,
        0.07472873501980434,
        0.03568936343575187,
        0.10706807791937253,
        0.026810320690955805,
        0.08087399486107266,
        0.061616521352751696,
        -0.05177429196449081,
        0.038033322375011794,
        0.012283654336158627,
        0.00961752383899398,
        0.030178637459876187,
        0.03322990893997341,
        -0.012179384561532013,
        0.022100005844216203,
        0.04011152999297517,
        0.09671078506038666,
        -0.030404848848198066,
        -0.057703518302043934,
        -0.01069115883192689,
        0.010090965014259247,
        -0.0015908963875626994,
        0.008435429028423796,
        -0.012494545474146471,
        0.017970492421572407,
        0.014378647300525812,
        -0.1386518901572505,
        -0.16332112913728133,
        -0.08135948105680911,
        -0.06203710271712504,
        -0.0014807206019678669,
        0.06243663389256267,
        0.00635094605023836,
        0.04604765552235203,
        0.08868682493833738,
        0.0016028994944821409,
        0.035847573307641926,
        0.05695568783534682,
        0.04664033273329826,
        0.02643687274829999,
        0.026424520492411584,
        -0.02086624280747062,
        0.028006700964290976,
        0.037664202012230905,
        -0.03146103131796078,
        -0.0050047212503839126,
        0.023098347960413455,
        -0.00374288144200281,
        0.04436835365924435,
        0.03486648573047993,
        0.05716583613672396,
        0.015944012766624847,
        0.11793393649668656,
        0.059900325466635006,
        -0.017373044409238012,
        -0.011938522832583995,
        -0.030141251721654404,
        -0.04261301846897522,
        0.06813757281914115,
        -0.049698269184495075,
        -0.03877434301226028,
        0.04495222090923822,
        -0.07659563379988892,
        -0.07899896478118368,
        -0.051208320796578166,
        -0.06920892916159926,
        -0.03153860954977819,
        -0.013106596560233245,
        -0.1315558478724074,
        -0.11427487723110694,
        -0.060169711672812445,
        -0.025418236780509446,
        -0.0294217564504952,
        -0.0697631854235184,
        -0.09587939859275163,
        0.023745888570254458,
        0.08401575604326794,
        0.017695399603770576,
        0.033654953613214106,
        0.1118020536309932,
        -0.0032374839068876524,
        0.004265692606386185,
        -0.04597508010860322,
        -0.11907488262010275,
        -0.07528341580866388,
        0.01710970746719585,
        -0.06992983922732107,
        -0.07930570740995373,
        -0.0813008795487011,
        -0.023374320220660473,
        0.03664909243234031,
        0.03859801076954873,
        -0.02445168995853784,
        -0.07905614522502713,
        0.01226589243932226,
        -0.029402163924121587,
        -0.09235657953663585,
        -0.05137900614917301,
        -0.14712501865715172,
        -0.16070597990271895,
        -0.11213119754086859,
        -0.07195573077834673,
        -0.03644790901229013,
        0.06753997532116217,
        0.06756634002092259,
        0.04162787592381717,
        0.028874357835982724,
        0.0865348067103198,
        0.07440685233603156,
        0.007611465972462969,
        0.10578542490840609,
        0.010376261192798697,
        -0.03168374641605611,
        0.019211832577525362,
        -0.0388675824346901,
        -0.07146992357035242,
        -0.08516775287246675,
        -0.08973267035768785,
        -0.13031601862676245,
        -0.01225103501785283,
        0.037856163479529616,
        0.07196818251128957,
        0.11305468067974112,
        0.08330490462547002,
        0.007725803332626577,
        0.0051503870273859765,
        -0.050138252667053886,
        -0.057587893342266855,
        -0.0333061805939263,
        -0.09283217812610782,
        -0.03475760710524742,
        -0.10627658744579953,
        -0.12957518455756944,
        -0.15373400313036795,
        -0.018052718758980214,
        0.03577207021931798,
        0.09363432503553815,
        0.026423304938527015,
        -0.06245780636577647,
        -0.042335478204957616,
        -0.0541535434749986,
        -0.03141203798167638,
        -0.15069190919990905,
        -0.1451272889716631,
        -0.08101587935417201,
        0.04676161664433831,
        0.09742539341961086,
        0.02475686333108005,
        -0.08370068635675734,
        -0.0038501085752635513,
        -0.05647740441472568,
        -0.08100787139320868,
        -0.0706414012640942,
        0.038035654193752835,
        0.07934336022897083,
        0.07320957035493689,
        0.06856180358754654,
        -0.00877616147040082,
        0.026294701405363052,
        0.08568537110908216,
        0.028758269964554828,
        0.1061663194031244,
        0.07427434475974529,
        0.1433076546488396,
        0.04279310613727724,
        0.05111435628692977,
        0.05246995940087439,
        0.058456651095802996,
        0.009985507454775333,
        -0.028284201636005826,
        0.024062956756664335,
        -0.0110212447167705,
        -0.01753852051658054,
        0.03336289197057216,
        0.054532612412961534,
        0.032931906972883146,
        0.026093016835436047,
        0.055791704228739344,
        0.0523715613600063,
        0.041185864427927404,
        0.006939390332632399,
        -0.039691406257692685,
        -0.04219771764339769,
        -0.05676836286209676,
        -0.005287044878228337,
        -0.019959449461215646,
        -0.03921737950035574,
        0.01694265524359569,
        -0.0051519046627459455,
        -0.07190620883707333,
        -0.06452523208945174,
        -0.018221961633123722,
        0.034305822192076646,
        -0.004494256825220923,
        -0.07016998383080912,
        0.02840808457947151,
        0.002409910283457809,
        -0.01617701308170578,
        0.03449837735905473,
        0.09854793370057931,
        0.07483368661255586,
        0.04874791129343031,
        -0.02026586723507339,
        -0.05727927553035324,
        -0.04765843678513188,
        -0.04859917430934102,
        -0.029360294160266566,
        0.006112549492674266,
        0.05088810918170379,
        0.032366872593569164,
        0.008423842821692298,
        0.02117282709746188,
        0.016338182799081193,
        -0.02581452500099434,
        0.1363615822465356,
        0.06204192687259939,
        -0.04580792613415166,
        -0.13703556139593698,
        -0.02638392721282836,
        -0.061239961215142365,
        -0.021776905993748756,
        -0.04250619537642375,
        -0.05483630306140626,
        -0.09325002753921106,
        -0.13048691786551864,
        -0.09625712892502973,
        -0.019155396139636065,
        0.007820796518007777,
        0.05701369077426281,
        0.018076271325390705,
        -0.008701792355844222,
        0.019946287986807233,
        0.050896598034542426,
        0.03709927096147933,
        0.061248939274207076,
        -0.021682360838248406,
        -0.03733292504491128,
        -0.069005185832989,
        -0.05778975217858308,
        -0.08009146334897438,
        -0.03466440374095102,
        0.024039574652794243,
        0.12527838701233907,
        0.023457369699913667,
        -0.06471410392131091,
        -0.07560141594847741,
        -0.07019198974233125,
        0.015333913770401204,
        -0.029303017751454337,
        -0.08459106802121635,
        -0.0281383856628024,
        0.0358862935420378,
        0.07531952376777648,
        0.1179569389908669,
        0.06378498006868974,
        0.06761503863420172,
        0.09131979159428742,
        0.11152421523110573,
        0.09350491418955259,
        0.03868874888827793,
        0.012208670445085473,
        0.006340208087548628,
        -0.0713803128837915,
        -0.0607049396896731,
        -0.07395056227247289,
        -0.04240299477801547,
        0.08706539324454851,
        0.13494658562045325,
        0.09571217886316107,
        0.01392739374437165,
        0.008061407811969613,
        -0.09912525895215413,
        -0.08959609455148689,
        -0.0703815330328103,
        0.00887001798425458,
        0.020059843143536905,
        0.03569907158048695,
        0.08009151844774527,
        0.02102888201963511,
        -0.0005747097254315728,
        -0.021219501225328997,
        -0.045518422804207814,
        -0.05987890180939695,
        -0.05622308494233831,
        0.001035504811902576,
        0.004329786502599785,
        -0.02270184517050703,
        -0.06444149560963319,
        -0.045815926288566844,
        -0.03251753312504908,
        -0.02647847644527135,
        -0.021994213140929076,
        0.006232964415613287,
        0.03185247152804886,
        0.0489580061322484,
        0.01394884397142117,
        -0.04596926682890043,
        0.038571984531107634,
        0.0996276616124922,
        0.19761664153274727,
        0.20338539496432317,
        0.16370148686143773,
        0.13923279344966474,
        0.1649090415638291,
        0.132932918814873,
        0.15599278196194344,
        0.12819794255961497,
        0.02376514313887239,
        -0.0012174556695893817,
        -0.08354071609675884,
        -0.05283799674825005,
        -0.017585150805307162,
        -7.077414503938909e-05,
        0.0021957062957666173,
        0.03749319140295642,
        0.07250957832382372,
        0.10288164848626244,
        0.146586887365913,
        0.13726799610132404,
        0.04968000225096168,
        0.021250181571917975,
        0.0030797542881192616,
        0.0050549228952692735,
        0.0344804695298708,
        0.0033577334447073776,
        -0.025223591438740298,
        -0.012122737201692442,
        0.05778291310315215,
        0.09027534735475012,
        0.08059644876587592,
        0.04166616242345821,
        -0.015122261904130522,
        -0.06986143856494922,
        -0.02561519897574719,
        -0.02293201826882888,
        -0.01544024553553707,
        -0.05336941904753657,
        -0.03519268904734584,
        0.021781442821791022,
        0.10152989995078374,
        0.11624679333068835,
        0.0483942365768793,
        -0.010132397180787168,
        -0.03756074979210051,
        -0.00451873530871638,
        -0.00932060019095312,
        0.04821331117726636,
        0.05930438125010848,
        0.03393693798769913,
        0.004010643543264825,
        -0.019607845446021475,
        -0.12476468883008038,
        -0.08744252402085007,
        -0.10588114376974497,
        0.03619131539064232,
        0.15202242807225713,
        0.007459727512314458,
        -0.0856675677818637,
        -0.12532966141057408,
        -0.16332853228219618,
        -0.11694728222292262,
        -0.05844554889217135,
        -0.017293623625850754,
        -0.02830258706236905,
        -0.008447283178537022,
        -0.048980617841522904,
        -0.019151369186180017,
        -0.07686202734016961,
        -0.018910800626989688,
        -0.018145766522432674,
        -0.01403019675454397,
        0.014207488839723354,
        0.005610237772330294,
        -0.04031691809640027,
        -0.06925478135315877,
        -0.05014245430147839,
        -0.09290362559433255,
        0.008448742047769076,
        -0.04787307148476358,
        -0.038006733819422475,
        -0.04633055486986739,
        -0.0060614684457393035,
        0.019830215884559944,
        0.025775440813567974,
        0.02303532866558578,
        -0.0731478924836067,
        -0.15416222431033466,
        -0.08444693394108105,
        -0.050267177704438476,
        -0.06547672142013598,
        -0.006780439127713402,
        -0.08258914039958612,
        -0.049431571832109195,
        -0.012191977480570538,
        0.04197501384036308,
        0.006298175804047139,
        0.02983797089296123,
        -0.10811486796401262,
        -0.11337966210195602,
        -0.1315829519147076,
        -0.09198577697365973,
        -0.03863601287823859,
        -0.033417026268482114,
        -0.1000345848098639,
        -0.07171823956367347,
        -0.0759361872351982,
        -0.038198617627971866,
        0.006656964896476515,
        0.04955926821620296,
        0.04457051951483822,
        0.07458164545135927,
        0.048224781775087155,
        0.014415511461800026,
        0.013912113273536092,
        0.01585519487736094,
        -0.05682004211460967,
        -0.08827288877039066,
        -0.12812576617474503,
        -0.1274518315112087,
        -0.001230891746667253,
        0.004081402490611112,
        0.0061571206454321,
        -0.06086969857179925,
        -0.08168935838592725,
        0.010280568078191527,
        0.0016175684919217121,
        0.08672829327192136,
        0.0678195879664863,
        0.10351442125910643,
        0.03329330423129315,
        0.04462534376395215,
        -0.005329972145935882,
        0.026681535588873484,
        0.04949921642370061,
        0.04445916142080486,
        0.045005148586846455,
        0.010783948952198643,
        -0.026716756636835516,
        -0.05065869811257199,
        0.03030348909883506,
        -0.013647751456502068,
        0.042898956800662,
        0.04215599955306526,
        -0.023909311139694696,
        -0.04251148756963351,
        -0.051203577518621,
        -0.07271267362641257,
        -0.0797580833752158,
        0.014902406619560991,
        0.006940626232795999,
        -0.049798539568866915,
        -0.09309991704512725,
        -0.03938398438241638,
        0.044759910604353574,
        0.04108928343290848,
        0.035124707270965616,
        0.03607916871952091,
        -0.08234989888551439,
        -0.16916067018586733,
        -0.12841417912537012,
        0.00460394938025621,
        0.020675145744866327,
        0.08997135036355267,
        0.038975882507578566,
        -0.05489518959572268,
        -0.07094140318698128,
        -0.0687571983810934,
        -0.06505086572797401,
        -0.08223949128998613,
        -0.07828472398935546,
        -0.09451867807650574,
        -0.026449402803448832,
        -0.010813760939805205,
        -0.02700777192548893,
        -0.003930735264706367,
        -0.01991997226085417,
        -0.02166560558552444,
        -0.10366385565267998,
        -0.07094715249587917,
        -0.019605548895496764,
        0.056823604985812216,
        0.14824642454235382,
        0.14128121078146505,
        0.02950295765928549,
        -0.004356903088993842,
        -0.031329913887737246,
        -0.03804245433567083,
        0.02533748876322601,
        0.13560334938669005,
        0.10864790666009078,
        0.005069604773741998,
        -0.07170372622562111,
        -0.05980370778704695,
        -0.07489955253959123,
        -0.03912724037107127,
        -0.044183475141011286,
        0.05273023650749645,
        0.07606758244130023,
        0.1533443347104505,
        0.14547524729730502,
        0.10806536620343277,
        0.10360924300053237,
        0.0551698416534368,
        0.01640063273807077,
        -0.028346992693547214,
        0.0010070685085795685,
        -0.030356457277996962,
        -0.016001971834178036,
        0.023569118914064505,
        0.02831608262182979,
        0.01618516864270487,
        -0.034062642809093706,
        -0.08488500785336693,
        -0.11158290914564364,
        -0.03143210640326057,
        0.0023524517054305583,
        0.058452652022770585,
        0.01173001791114032,
        0.013868659119839546,
        0.005674619788269182,
        -0.02788323739124457,
        0.015329694813934399,
        -0.06627159405638902,
        -0.07646839755820486,
        -0.012087407693882148,
        0.03263514775870188,
        0.07548249127393244,
        0.1415454280765627,
        0.088233164462094,
        0.06817024380291166,
        0.05782488147812956,
        -0.0025383221882986137,
        0.0249412120496237,
        0.02188844255255571,
        0.047708691702830396,
        0.00026073370915674816,
        -0.01857318500249233,
        -0.016023465828481798,
        -0.05357407326387528,
        -0.04861041442715898,
        -0.053189662730497966,
        -0.05454571711669929,
        -0.05362978050800304,
        -0.025780257818989138,
        -0.05132034372726277,
        -0.06514226235038777,
        -0.09568281785488301,
        -0.07757203309310934,
        -0.001968113488547269,
        0.04251221778509448,
        0.09118845734388636,
        0.04370645913410283,
        -0.026670693269153917,
        0.0008703928926103535,
        -0.02678874092030073,
        0.024585078326098082,
        0.030676412738841544,
        0.03173081896564442,
        -0.0028495029381407494,
        0.018825828575744198,
        -0.05738832777551683,
        -0.04088090440763925,
        -0.06803354090404581,
        -0.10099013609567153,
        -0.09966791638439876,
        -0.07888387784225839,
        -0.10623683519159312,
        0.017261885943010355,
        0.05968965884753201,
        0.08575867619754177,
        0.052183903183293516,
        0.05029152454279116,
        -0.012426563269122124,
        0.027232916768785545,
        0.020767402187239162,
        -0.059121816375860725,
        -0.06221771284043592,
        -0.006224095973412344,
        0.02980694963492072,
        0.0703808090181392,
        0.032399701286624755,
        0.008826599410867535,
        0.021478550106012406,
        0.01873242345815479,
        0.002319397661039393,
        0.06572880430332459,
        0.08025921945188666,
        0.03575915485342514,
        0.016793757711815793,
        0.016679184771360947,
        -0.009559636308603096,
        -0.0223547017043724,
        0.013347656360421118,
        0.03790417074877658,
        0.005530022273265159,
        0.07962384546554549,
        0.07253962567084193,
        0.018190688368366906,
        -0.1045238252415646,
        -0.08463182946106684,
        -0.09003110648820051,
        -0.07495786728746975,
        -0.0496921137526412,
        -0.01654212912107579,
        -0.056039367543679386,
        -0.06817788821876074,
        -0.1480670248396277,
        -0.1517281485808371,
        -0.04842903687171282,
        0.02005201470714969,
        0.07167776431808195,
        0.09922281704702418,
        0.06395848992176702,
        -0.022397083848744538,
        0.055698804026393704,
        0.09413827388153154,
        0.08659037567221174,
        0.006638418327038845,
        -0.022522010180163563,
        -0.029660536815151822,
        -0.040706611597493676,
        -0.04082909506320323,
        -0.06270963607664075,
        -0.06508631005617796,
        -0.005779263272643165,
        0.03743117704649063,
        -0.007259867253952468,
        -0.01514612602341364,
        -0.06064787521437948,
        -0.0076171158625218584,
        0.019585545929905065,
        0.05690045087567761,
        0.03779639374974817,
        0.028455273134039984,
        0.041734500868723726,
        0.04354461308765495,
        0.08244718465386139,
        0.08752787399325926,
        0.05309581793393624,
        0.0594031991371812,
        0.07809251097244174,
        0.052770814210606656,
        0.053431844329739506,
        0.037492631308117814,
        0.009473070090393516,
        -0.015908109533309314,
        -0.019560677918383854,
        -0.04057316640763944,
        -0.06245117538215626,
        -0.12204452084009268,
        -0.007670501963143531,
        0.07253976105736343,
        0.14872997812901395,
        0.13823300395778598,
        0.1313040441752174,
        0.04659075583856172,
        0.039161443214926664,
        0.04665644478527262,
        0.03626304450335324,
        0.04453166526210829,
        0.008372438008488298,
        0.006283835680455556,
        -0.019067579679245487,
        0.008019701782615768,
        0.008197988739556359,
        -0.012952431727972618,
        0.00877544605522611,
        0.013649540881351072,
        -0.04822971877066077,
        -0.04241869338883524,
        -0.08382783062559751,
        -0.1475374313068278,
        -0.154824602641082,
        -0.08988706570312083,
        -0.05501756585178851,
        -0.0044462114457818535,
        0.09977484876450574,
        0.11966143536210974,
        0.12889238085083327,
        0.1174624028162502,
        0.08680294790042756,
        0.016682397241295437,
        0.03495475147059611,
        0.0037789338946650573,
        -0.012966645446743665,
        -0.04607214446869663,
        -0.002687672914515895,
        0.06503223961687879,
        0.03347590556748173,
        -0.0014068606877803967,
        -0.029484571007000013,
        -0.10788468459281193,
        -0.06524576988887906,
        -0.019798587544278833,
        0.014591695460467975,
        0.0943209459453971,
        0.12786581634796124,
        0.08910505371487973,
        0.039010263932726844,
        0.01601938814398035,
        0.052039525446275256,
        0.057161378026796245,
        0.056132735150818666,
        -0.03982881111248178,
        -0.135342835664231,
        -0.07765251902436349,
        0.012281614097899919,
        0.10169608262849977,
        0.17577650954329216,
        0.14103672641803147,
        0.04923577555881373,
        -0.059889567863770435,
        -0.05159214692022782,
        -0.08389030333411165,
        -0.062119487067751805,
        0.003627969481970852,
        0.030000797330354236,
        -0.05767170363507654,
        -0.04349812973148741,
        -0.049852632211990225,
        -0.015471429386803412,
        0.043501528476965895,
        0.08010310802740667,
        0.03501546768649623,
        0.009945399487365758,
        -0.017602531196739307,
        -0.003067631243479475,
        0.012884005795495194,
        0.04413520447235986,
        0.03676693427969992,
        0.02367945504137535,
        -0.014453194649261685,
        -0.013565389882690845,
        0.025567494427454814,
        0.05256342211868639,
        0.04680970411790462,
        0.0692308148902854,
        0.03784474759620538,
        0.04467016052401147,
        0.008454949587471327,
        -0.040692570109319814,
        -0.06023739349240256,
        -0.06982065756521552,
        -0.0439861608173146,
        -0.022634989423119638,
        0.0012552318032307175,
        -0.005904634766475363,
        -0.03584718371679438,
        -0.04750729399739,
        -0.048551009171470184,
        -0.04988291655571074,
        -0.040483926071217646,
        -0.000763712552191813,
        -0.010229003712007353,
        0.008715559146648875,
        0.027217726759880354,
        0.025393029485255892,
        0.020140342792951037,
        0.008156737214303425,
        -0.006719020461627062,
        0.002114859880588133,
        -0.0047682636099673935,
        0.0239851089182739,
        0.015161439079283474,
        0.02280795832517998,
        -0.000547131120936637,
        0.026086471625007088,
        0.013769187297289305,
        -0.002005225471731954,
        0.06146272758734653,
        0.06836093983159841,
        0.030931556819806028,
        0.03872958329297721,
        -0.005869437461902707,
        -0.07032841498441808,
        -0.028377975874145554,
        0.09597768048378189,
        0.10477249543894604,
        0.09094013875749288,
        0.10942675066011531,
        0.04467778573775012,
        0.08439393624289365,
        0.1956094544534273,
        0.1918625227023658,
        0.1288738472808369,
        0.02261626410757952,
        -0.11035765619268656,
        -0.1380599941826526,
        -0.06990786171830587,
        0.0010528214263463905,
        0.053510349825876484,
        0.0500324062547248,
        0.07499662905924688,
        0.007165280541706682,
        0.020491386803819928,
        0.03492581032132282,
        -0.013570136883543183,
        -0.03095454897406611,
        0.062180935952590916,
        0.11038156472729055,
        0.0906633202455611,
        0.031516650941646976,
        -0.06017111177189904,
        -0.10383897910594145,
        -0.05984278221290028,
        0.07628670853610015,
        0.07202287032400657,
        0.01031154149389454,
        -0.06713390752461221,
        -0.19055786105080055,
        -0.15987115371199517,
        -0.17020040888176424,
        -0.13038491754718332,
        -0.07636313065205273,
        -0.05441745104893009,
        -0.09950341710851543,
        -0.06980646895009604,
        -0.0517148036771566,
        0.02877893346509576,
        0.09097545804048612,
        0.08400617015626081,
        0.058488731169524785,
        0.008797434616750935,
        0.0022368324530805217,
        0.008640329213341045,
        0.034167732305563706,
        0.005772610098788584,
        0.018816419027168334,
        0.0024356926704503087,
        0.01457260653250702,
        0.014267879169696024,
        0.003447412359213225,
        0.002219947294715757,
        -0.035954460091766935,
        -0.09194177571773585,
        -0.14219559401993342,
        -0.11590617527204179,
        0.014268389559849621,
        0.07760926303338146,
        0.06460230030270378,
        -0.05610604627697135,
        -0.12867948949151004,
        -0.13941788814276737,
        -0.10074605146699725,
        -0.04418738454392372,
        0.012479039070585733,
        -0.08680207653889495,
        -0.13164324277673561,
        -0.12767458739704712,
        -0.07344945663885744,
        -0.02751537586309164,
        -0.01880366109562628,
        0.00772982414863467,
        -0.03292428115053113,
        0.03843807066911804,
        0.058332491542840065,
        0.08494043437798499,
        0.0660967140988605,
        0.031159478552120062,
        -0.07056843893204687,
        -0.044444740598759115,
        0.04075111791034103,
        0.09054516702189236,
        0.033325805614506245,
        0.03839539910798358,
        -0.008434883832601386,
        -0.053901241323298675,
        -0.05481401724203107,
