{
    "train_site": [
        "DRIAMS-A",
        "DRIAMS-B",
        "DRIAMS-C"
    ],
    "test_site": [
        "DRIAMS-B"
    ],
    "seed": 270,
    "model": "mlp",
    "antibiotic": "Ceftriaxone",
    "species": "Klebsiella pneumoniae",
    "years": "*",
    "test_size_obtained": 0.0244672454617206,
    "prevalence_train": [
        0.9077669902912622,
        0.09223300970873786
    ],
    "prevalence_test": [
        0.8709677419354839,
        0.12903225806451613
    ],
    "sample_sizes_per_train_site": [
        1042,
        121,
        73
    ],
    "train_proportions": [
        0.5,
        1.0,
        0.25
    ],
    "metadata_versions": {
        "DRIAMS-A": {
            "2015_strat.csv": "56d646ce31a05dd704a4a6693aabc413a4e75f76",
            "2016_strat.csv": "d06fff6b6b60af9fc10fadc858cf5624808aaf3f",
            "2017_strat.csv": "a474ce364f6d3e201b3a527d8786e2c31bbc8577",
            "2018_strat.csv": "e650292c172f16845899c3a566b8f3c427b3e9c2"
        },
        "DRIAMS-B": {
            "2018_clean.csv": "27380b0a9a43a1e699b4b311235211ccfd2a76f2"
        },
        "DRIAMS-C": {
            "2018_clean.csv": "0e0d2a1ebdfeed3f39f7dae50f4000328e7da075"
        }
    },
    "scoring": "roc_auc",
    "best_params": {
        "mlp__activation": "relu",
        "mlp__alpha": 0.0001,
        "mlp__hidden_layer_sizes": [
            256,
            64
        ],
        "scaler": "passthrough"
    },
    "y_score": [
        [
            0.999947867513553,
            5.2132486446990024e-05
        ],
        [
            0.6224981873084667,
            0.3775018126915332
        ],
        [
            0.9995382359695162,
            0.0004617640304838606
        ],
        [
            0.9999517759489587,
            4.822405104137652e-05
        ],
        [
            0.9998497724807263,
            0.00015022751927374744
        ],
        [
            0.9985146559670351,
            0.0014853440329648604
        ],
        [
            0.9997519510820303,
            0.0002480489179697054
        ],
        [
            0.9943298065460326,
            0.005670193453967382
        ],
        [
            0.9969653067762061,
            0.003034693223793949
        ],
        [
            0.999914105870486,
            8.589412951397135e-05
        ],
        [
            0.9873924138459309,
            0.012607586154069105
        ],
        [
            0.999994429594459,
            5.5704055410674405e-06
        ],
        [
            0.9983298812542347,
            0.001670118745765238
        ],
        [
            0.9962146754823075,
            0.0037853245176925226
        ],
        [
            0.9997188816754893,
            0.00028111832451067686
        ],
        [
            0.9998293826004537,
            0.00017061739954624372
        ],
        [
            0.9999561005599079,
            4.3899440092140784e-05
        ],
        [
            0.9978924787903618,
            0.002107521209638248
        ],
        [
            0.9995337483496465,
            0.00046625165035354906
        ],
        [
            0.9999170007148802,
            8.299928511984056e-05
        ],
        [
            0.9992654989982812,
            0.0007345010017187748
        ],
        [
            0.8402616687973916,
            0.15973833120260844
        ],
        [
            0.9999238249034232,
            7.617509657677244e-05
        ],
        [
            0.9995634909172058,
            0.00043650908279426745
        ],
        [
            0.9998760863092946,
            0.00012391369070542375
        ],
        [
            0.9145788199973113,
            0.0854211800026887
        ],
        [
            0.9993884006198617,
            0.000611599380138341
        ],
        [
            0.9951212191647157,
            0.004878780835284239
        ],
        [
            0.9948954075032302,
            0.005104592496769708
        ],
        [
            0.8568384026021632,
            0.1431615973978368
        ],
        [
            0.9995235319638262,
            0.00047646803617386584
        ]
    ],
    "y_pred": [
        0,
        0,
        0,
        0,
        0,
        0,
        0,
        0,
        0,
        0,
        0,
        0,
        0,
        0,
        0,
        0,
        0,
        0,
        0,
        0,
        0,
        0,
        0,
        0,
        0,
        0,
        0,
        0,
        0,
        0,
        0
    ],
    "y_test": [
        0,
        0,
        0,
        0,
        0,
        0,
        0,
        0,
        0,
        0,
        1,
        0,
        0,
        0,
        0,
        0,
        0,
        0,
        0,
        0,
        1,
        0,
        0,
        1,
        1,
        0,
        0,
        0,
        0,
        0,
        0
    ],
    "feature_weights": [
        0.02028407595292841,
        -0.05913860624876237,
        -0.05708477111216237,
        -0.06792567366482552,
        -0.03235754386631333,
        -0.03874165525384566,
        -0.0653248630349482,
        -0.04194015789913841,
        0.009358693973194051,
        0.025981602936359288,
        0.13088819418182554,
        0.06044091310287365,
        0.048395869057246084,
        0.040897439396598755,
        -0.022893293042392907,
        0.01692956588997996,
        -0.012976046568909109,
        -0.01417763381408124,
        0.04080208280091637,
        0.000731551353295368,
        -0.06898798415774915,
        -0.03659271203787316,
        -0.010391276099454012,
        0.0446844546011046,
        0.08034330117181968,
        -0.07630087056996258,
        -0.04590746698955218,
        0.003382049032170661,
        0.014639133263611947,
        0.020003706397154413,
        0.019796839492129917,
        -0.013113610848764229,
        -0.0066111202040310315,
        -0.026928916580381858,
        -0.007635543047211611,
        -0.007365431818668949,
        -0.008869289440500451,
        -0.02913428340352538,
        0.018936109960925325,
        0.017522550483921692,
        0.038325106004826,
        0.016164164908839117,
        0.10413550579898094,
        -0.059741196403720914,
        -0.08340032827579788,
        -0.064908880285644,
        -0.05843944062823628,
        0.008746096921552732,
        -0.11483373036747432,
        -0.17225795878109196,
        -0.07530319916475331,
        -0.22618286022678763,
        -0.17843397005180323,
        -0.06731762400732162,
        -0.0015116431559486668,
        0.033431342147498745,
        0.08073052637209967,
        0.02785527590081649,
        0.02898878450162802,
        0.03400805287419822,
        0.0055267315766509405,
        0.04523915233505392,
        0.011137276575248057,
        0.03242775662665014,
        -0.048754763217062055,
        0.08085799728001297,
        0.02529849214595383,
        -0.0377607086837251,
        0.04174476704310047,
        0.012711562490592267,
        0.02560171481121511,
        -0.006921083960652405,
        -0.00174227996307065,
        0.03383744497507822,
        0.054270412073617644,
        0.06715522230760573,
        0.05291356763120096,
        -0.060728569873686564,
        -0.07117126192244688,
        -0.024056004588969893,
        -0.03283088632233536,
        -0.029367844585358308,
        -0.004347858824806036,
        -0.01171286318808345,
        -0.07301495717863984,
        -0.14584979530287467,
        -0.08113631576548147,
        -0.03398013315299632,
        0.05654794472688337,
        0.06660623303808841,
        -0.017768135519551385,
        -0.004484348555749355,
        -0.08539356925402455,
        -0.14946773544993008,
        -0.15127465040935065,
        0.01495613195699485,
        0.019885934982738145,
        0.06064932434181272,
        0.037230881184299944,
        -0.10780289077188214,
        0.016746812846259708,
        -0.02190363185035142,
        -0.06681934039256242,
        -0.004386741773066301,
        0.01822467333491329,
        -0.07550138633707074,
        -0.005283715809232966,
        -0.011290037728635571,
        0.013474267938085847,
        0.07326476229905204,
        -0.13804499156602312,
        -0.07001271954847506,
        -0.0077879264215354755,
        -0.025967473482131853,
        0.08692499884425628,
        0.12149389201281251,
        -0.004215947758176967,
        0.023428819696035313,
        -0.03787887951479153,
        -0.05627924011535232,
        0.05851195466433873,
        -0.014245351450009412,
        -0.014391063315202433,
        -0.010339117197798217,
        -0.12444706120304032,
        -0.181124535771771,
        -0.11044990914157773,
        -0.07313792152712151,
        0.07158267351625525,
        0.11312759163012062,
        0.004511541731636681,
        -0.058023567121131304,
        0.020338131861212434,
        0.011222286204434936,
        0.043077850138648566,
        -0.003396384268281416,
        0.005058132513362705,
        0.045571362425343834,
        0.06803556193459118,
        0.04591000940739595,
        -0.005493081052076178,
        0.028604626262955183,
        0.02910132014750011,
        0.0050810965231637695,
        0.015875713576794126,
        -0.0559482252981549,
        -0.02522231873792619,
        0.007826293587377575,
        0.05952626614271994,
        -0.04648086557260974,
        -0.05444476309166563,
        -0.0643468725205678,
        -0.03546909999464222,
        -0.002691312620299109,
        0.005578246065380733,
        -0.11620338039273373,
        -0.10042609280450618,
        -0.059869192788683474,
        -0.11703354736128205,
        -0.10463964217432203,
        -0.060959126618314485,
        0.010144585591400024,
        -0.06683887917379634,
        -0.06559723938998006,
        0.019053936755746206,
        0.024358948691254222,
        0.026215697672613662,
        -0.05906241296342272,
        0.0008954348415475325,
        0.0661076340410088,
        0.021560202325017513,
        0.003096106990701017,
        0.01971058526802753,
        0.007051617733039527,
        0.010194807392432488,
        -0.03457123918233582,
        0.002990019016900739,
        0.10911488300816267,
        0.16810290178272963,
        0.03658032295786077,
        -0.11353459501588062,
        -0.03000438893344577,
        -0.022512827599445395,
        -0.007668961908259653,
        0.038128937978660175,
        0.19763371728677134,
        0.1351221723476618,
        -0.023206901008229183,
        -0.10375815256118502,
        -0.07592024179427179,
        -0.03305098741101726,
        0.1429471503517391,
        0.05660816326745932,
        -0.009685220233968062,
        -0.034702387288439863,
        -0.10585918039108888,
        -0.004224330059253994,
        0.005785010013829751,
        0.011576386199968407,
        -0.015882332795059708,
        -0.017373992962199807,
        -0.011222087421382518,
        0.040504008513096705,
        0.03594503312277654,
        -0.0008206500931667575,
        0.06588048624363027,
        0.03422578341383416,
        -0.07830783718548132,
        -0.02687685140617664,
        0.03402712501976295,
        0.03284753829202875,
        0.06686475710426518,
        -0.0030245514129960383,
        -0.07057018486976957,
        0.032164642052408904,
        0.06322457698778125,
        0.030410496824140806,
        0.02954311766941861,
        -0.0010669334720526842,
        0.06462131724059245,
        -0.06745286735968564,
        0.03062778396646683,
        0.07791380114990518,
        -0.020015513995181047,
        -0.02846627024208827,
        -0.02964484522151386,
        0.030477019898239754,
        -0.027372077746670928,
        0.03390235082016628,
        0.036014711315182524,
        -0.02068500658879881,
        0.05611026672567871,
        0.07523801038640293,
        0.008534636778866282,
        -0.057698801188383365,
        -0.03409156657223667,
        0.023741332731879318,
        0.09663339888654496,
        -0.06128044260165948,
        -0.05031462425005098,
        0.028690175483865786,
        0.08454580498054186,
        0.012318096693064,
        0.04660927906766729,
        0.07386953387419312,
        -0.017809395042820052,
        -0.09318170027047426,
        -0.04793887331300881,
        0.013526836191526212,
        0.04805279129620118,
        0.021378881021407614,
        0.037406609514493705,
        0.028563736675062106,
        0.09440033609784707,
        0.03683185028852266,
        -0.0011909614932544773,
        0.0011485647660658916,
        0.010884200935541204,
        0.07781971124150427,
        -0.014684047759816212,
        -0.0761215872398208,
        0.054502541143067046,
        0.07093977426522806,
        0.04886666414763016,
        -0.001782335051347359,
        -0.030378096164546314,
        -0.014019397240062972,
        0.028816701808946098,
        0.03914833720405988,
        0.09950469330252486,
        0.08365085482219012,
        0.017412742261789044,
        0.013867673788672895,
        -0.006877337113377924,
        -0.012115200176745528,
        0.0007863076466708022,
        -0.024823642409716566,
        -0.021395503629235674,
        0.04447128405908088,
        -0.06530727666506969,
        -0.14597297917081797,
        -0.04907268917583962,
        -0.04923025051877271,
        -0.022386443856841833,
        0.010283726546358807,
        0.005094709143843,
        -0.03150405398345729,
        -0.0895490399345352,
        -0.1308852435512302,
        -0.0808610478269863,
        0.03809941255656633,
        0.06673241361451332,
        -0.027632295423904912,
        -0.09205662213842719,
        -0.06548029061597865,
        -0.09284904055208824,
        -0.07514915960355728,
        -0.0697910882604538,
        -0.04627662756717629,
        0.03222154754956115,
        0.0015121513229051154,
        -0.024552525862730063,
        0.006751971864567598,
        0.052254027361955856,
        -0.015262304749037893,
        -0.04663180516798778,
        -0.04910710834536735,
        -0.023801193130967194,
        -0.014722255609006878,
        -0.03464371134968472,
        -0.022270049066072085,
        -0.04281942520723801,
        0.03913370522061784,
        0.036340500503454984,
        -0.0747711101746093,
        -0.1926320020284189,
        -0.0613453014749486,
        -0.014946389958883638,
        -0.008776285251838928,
        -0.004763044407675385,
        0.006591100995513119,
        0.04495354098195628,
        0.052515685705797975,
        0.021869450958058183,
        0.0020945260109631737,
        0.008241715161373687,
        -3.496612519965337e-05,
        -0.01174373991843011,
        0.0518038299686058,
        0.0336914503200564,
        -0.010173770007326863,
        0.03770264391542409,
        0.017732844261939478,
        0.04629258357684335,
        0.005130658411611352,
        0.008536087691869785,
        0.01606696526525677,
        -0.021857304810317276,
        -0.09644454474656697,
        -0.07622624880739244,
        0.017495440276145975,
        -0.04737319537573767,
        -0.0925333745229519,
        -0.019510643051513774,
        0.06503877492417899,
        0.03971725780157288,
        0.05029356878794149,
        0.0034778344752635286,
        0.004219205801074641,
        0.08714462371864215,
        0.10760776887312103,
        -0.07391825884824732,
        -0.07730433154050334,
        -0.12660391812420174,
        -0.10039253284294972,
        -0.006848273392509468,
        -0.016025077827662885,
        0.005241042995931237,
        0.005016177313370341,
        0.004892709035237391,
        -0.01146438047597141,
        0.011924316228274959,
        -0.016818342000514543,
        0.044896706298885106,
        0.12164587879787794,
        0.0387756997968836,
        0.04966626586013141,
        0.00011563239103621822,
        0.004125918357801051,
        0.041113871005226336,
        0.08810650789773845,
        -0.06410628191931414,
        -0.06845488967091175,
        -0.13089470135511336,
        -0.08607952378904167,
        -0.0788477262197583,
        -0.11971035907094431,
        -0.01817713842911903,
        -0.006643665595814608,
        0.003426360878569011,
        -0.02093681011026651,
        -0.005824207914362224,
        -0.011365771369334733,
        -0.013827225907884067,
        -0.002983845021178433,
        0.00978128370192589,
        0.03957377273402223,
        0.05047577921515743,
        -0.012121351833775005,
        0.0034059031320775876,
        -0.0026190759841772217,
        -0.008289660438096319,
        0.0325508971844442,
        0.012892575281678123,
        -0.006046093760761914,
        -0.029163533368674527,
        -0.019403953961026964,
        0.0030196002715865583,
        -0.015199205285907185,
        -0.04189839804180445,
        0.03740529417582914,
        0.09080446841664198,
        0.08630849888185861,
        0.011909165150558173,
        -0.11244292286995536,
        -0.08840313300387603,
        -0.012115704809532373,
        0.09624494904706357,
        0.0329849339514249,
        -0.03752550928921722,
        -0.14835224971391386,
        -0.1288466775839965,
        -0.021859876190083,
        -0.0068292740608346374,
        0.05006078375980291,
        -0.0048474779326396905,
        -0.04892651510877785,
        0.002297605807695013,
        -0.05120824148081479,
        -0.04176571247354313,
        -0.04335167598199073,
        -0.004829884889359186,
        0.0024547283490544583,
        -0.13590867766830161,
        -0.12720234738168285,
        -0.09930849694126252,
        0.016248128331898724,
        0.11120063885725501,
        0.01626781016269796,
        -0.07412014898118575,
        -0.00013865057818588538,
        0.051716206570187495,
        0.009698496133542272,
        0.03765095085830379,
        0.034527460846131786,
        -0.00317443524222219,
        0.0022111091960045318,
        0.011955404251227911,
        0.01726407812888524,
        0.08234450401808707,
        0.004777248611209787,
        0.04772613980265048,
        -0.09542661738918212,
        -0.08952369321218998,
        0.05146654195104148,
        -0.017046048885295855,
        0.057507436551049326,
        -0.04492771046219999,
        -0.006708768605899882,
        -0.05963254463402705,
        -0.03603456900124794,
        0.01580251548073147,
        0.019572830614763795,
        -0.0188145639865881,
        -0.057811407840361956,
        -0.037093004574754784,
        0.01906706922050916,
        0.005342134144280287,
        0.03330025939217032,
        0.07568828448268491,
        0.0238352548105674,
        -0.08802189821219777,
        -0.08698061691675374,
        -0.09880767288278723,
        -0.05323812121811523,
        -0.054316508256734494,
        -0.07787291722966236,
        -0.13244445877948047,
        0.008636874350924029,
        0.037851836225188264,
        0.02297213177729942,
        0.030119023744762018,
        -0.0033972915137287715,
        -0.04230934548156261,
        0.038696328215649084,
        0.04944513971478501,
        0.044996274609276014,
        -0.006547052920076299,
        0.02946277147064667,
        0.03581289901572703,
        0.0392821426080658,
        0.01277709482777091,
        0.0935601681142569,
        0.020139244251988583,
        0.08321519575149669,
        0.0023150212790648264,
        -0.032672890326253874,
        -0.0423084827147364,
        -0.026247466425713864,
        0.042864383444299325,
        0.15895889038902747,
        -0.026410527322836393,
        -0.14620346616398838,
        -0.03849395081549408,
        0.10182349227064796,
        0.07010512325683224,
        0.13450647725572912,
        0.06166266852477605,
        0.05667479729122124,
        0.09672599963324462,
        0.00026992283547467547,
        -0.030297732821196185,
        0.014941982870613425,
        0.05098440742280383,
        -0.03054376265730082,
        -0.04942420457028718,
        -0.030784087903474432,
        0.05659872707993949,
        0.036559355960235254,
        -0.03658397886942495,
        -0.03979176318706537,
        -0.07768741460174887,
        -0.10616780299290682,
        -0.05712666301538198,
        0.012122299826425237,
        -0.06920947361785948,
        -0.06970061197983309,
        -0.021538671111486107,
        -0.058611906880826625,
        -0.05915749914364201,
        -0.027300666641251293,
        -0.002974806407145921,
        -0.1303824364536937,
        -0.10156760858957847,
        0.009621352532789337,
        0.011117732518483584,
        0.0033143708455425566,
        0.014674026908170587,
        -0.0008841581650983705,
        -0.009318153653860378,
        0.0023499989224647967,
        0.003578915529403383,
        -0.00728074664221602,
        -0.00040720994738683636,
        0.020733919950083092,
        0.00045752219918542784,
        -0.012787576041277433,
        -0.00907078429566079,
        0.0168659137936875,
        0.03569047909297555,
        0.011457996463343348,
        0.004548214822089369,
        0.019101878044631496,
        0.048465829083433755,
        0.007946452619535672,
        -0.011132482886006613,
        -0.07798940957924227,
        -0.05589115810229439,
        0.06072081782704727,
        -0.029819000560110026,
        -0.03711461683461305,
        0.048576667852433045,
        0.09815710891335164,
        0.024334914605091323,
        0.034674699177519176,
        -0.006984186585815278,
        -0.08525445370836535,
        -0.10008834104262634,
        0.017510166960877472,
        -0.022230283836886452,
        0.007628357118165154,
        0.07736293899720964,
        -0.033993601975212125,
        0.025284125082144,
        0.04992812774318573,
        0.0779669879525135,
        0.04696738742869362,
        0.06201108441471483,
        -0.042593418248313725,
        -0.03649843496252743,
        0.03132204961012121,
        -0.008035421105665044,
        -0.10432655044111647,
        -0.0925778113274848,
        0.08698071258925894,
        0.15146964496280071,
        0.013353014336740555,
        -0.06946591943246717,
        -0.011398595899263814,
        -0.001594124091047179,
        -0.03429006111292611,
        0.07243591254777243,
        0.13069925829900883,
        0.047486552592978924,
        -0.0823456472874145,
        -0.11114085502106719,
        0.032381718894088564,
        0.07632722860330764,
        0.054875056893804036,
        0.02202448723800212,
        0.0017736330749006635,
        -0.003672138843968391,
        0.01965791167406765,
        -0.003352198985239645,
        -0.04420281851989605,
        0.04318887451950862,
        0.09050883008939173,
        0.02710456634296775,
        0.008844936575921477,
        -0.03153745868269093,
        -0.06366649882858841,
        -0.014382366343580148,
        0.06642151342642524,
        0.15628869539002666,
        0.12217803957836487,
        0.07070974337157142,
        -0.030604036800300195,
        -0.07663121800468306,
        -0.013494385808896997,
        0.053062375089142216,
        -0.011290373970307419,
        -0.008605977122112701,
        0.035365316926294285,
        0.11414335692671758,
        -0.055786586328632995,
        -0.03261929250511842,
        -0.01793484367046823,
        -0.03414132271723738,
        -0.029385120924292803,
        0.024105511930819834,
        0.04699459381980002,
        0.000650422952408798,
        -0.00485603953289918,
        0.02028562535826539,
        0.0056753775073625935,
        0.019296396383933,
        0.11370094992545457,
        0.13061738715023957,
        0.03869813656475005,
        -0.0708344764259794,
        -0.03168470008379616,
        0.037393197567048904,
        0.03969812969961996,
        -0.060819191462367604,
        -0.043553873983865024,
        0.009441056408132076,
        0.012386558310995908,
        -0.027379427178464786,
        -0.031950829040497085,
        -0.012131351292937551,
        -0.010422779359691154,
        -0.05439138511718436,
        -0.048070278551468074,
        0.03166561738590212,
        0.08464872821566745,
        0.005874678453791303,
        -0.008685922989640004,
        -0.018424018954814356,
        -9.668755671034669e-05,
        0.033188548194686696,
        0.06897233547346424,
        0.012457117717540123,
        -0.06168878547574877,
        -0.07132202213925107,
        -0.07532933859120171,
        -0.04453001625809549,
        -0.02568822858173332,
        0.02065252987983434,
        0.04564823956539406,
        0.06359462293647457,
        0.07320099240167671,
        0.04469859191367769,
        0.02134709671010493,
        0.059749751364496194,
        0.10335364318162621,
        0.05728734983078438,
        0.03886921113754197,
        0.10611161776034259,
        0.06980484704803645,
        -0.006884226292000802,
        -0.12688805155054556,
        -0.12559346623889725,
        -0.0995027375148597,
        -0.027746263635291736,
        -0.0627148360899106,
        -0.049022754900730554,
        -0.034888635146204806,
        -0.03373303982291248,
        -0.056777340579261995,
        -0.0568730003046582,
        -0.035983066043007425,
        0.05132239062380868,
        0.06978687013612198,
        0.04807685178968204,
        -0.09019082425292685,
        -0.073648292790214,
        -0.0016926072906023452,
        0.013648760787404946,
        0.010715999558477095,
        0.009493243293324172,
        -0.03046494480799645,
        0.06642211111010302,
        0.08815603510943223,
        0.06369386485514374,
        0.03556342909833232,
        0.03557666008701985,
        -0.05429179949414179,
        -0.046255893744879754,
        0.028585771726079116,
        0.1063659999236621,
        0.05099565499424455,
        0.06907828690390463,
        0.11756876465239763,
        0.13213369296255068,
        0.038815227954135195,
        -0.02771633774348508,
        0.004297324116368783,
        0.08654264374677038,
        0.1703324706160655,
        0.10833486136581752,
        0.013977303556598118,
        -0.03199065252004757,
        0.031555447421438766,
        0.034370469514563406,
        0.016592430055853175,
        -0.015795462329090168,
        -0.031323985016527424,
        -0.03878150694587009,
        -0.019542572514803874,
        -0.04262723356189537,
        -0.025763755766217922,
        -0.03196762083611322,
        -0.012201368899779432,
        -0.039485911778579144,
        -0.06422530162435619,
        -0.004049476631571574,
        0.050040131082286395,
        0.006845041078452843,
        -0.028521426965337507,
        -0.011879092868132633,
        -0.017362510803031445,
        -0.01723217841194054,
        -0.017112505169272346,
        -0.06701304705930222,
        -0.08604293208915156,
        -0.06245171460188515,
        -0.04425525053392731,
        -0.062044446434461054,
        -0.027999406755330747,
        -0.042366415291679727,
        0.004272418317204098,
        0.030416997298164588,
        -0.016188622155949735,
        -0.01429860104362036,
        -0.0015045686637571996,
        0.03198270493073197,
        0.03840327682362365,
        0.046512640182746444,
        0.008217176476369305,
        0.11524949200319964,
        0.22297296056097698,
        0.19847307067585962,
        0.06621795032314509,
        0.06275525946257467,
        0.1511002583916059,
        0.15115604604997027,
        0.014241185077239924,
        0.042850189861464855,
        0.14519744641789387,
        0.2036403756050208,
        0.15669270081989436,
        0.12194234721278399,
        0.060565571873462204,
        0.05799670029215056,
        0.06512148231931175,
        -0.017369990760051354,
        -0.013981210575990747,
        -0.05518608591681952,
        -0.05240477490474729,
        -0.025422017753072096,
        0.06255034560032324,
        0.11061846530218017,
        0.03849102817638645,
        -0.034769520829813536,
        -0.0663885620155082,
        -0.004729010446667855,
        -0.035955131284035075,
        -0.04496240011496386,
        0.10635474554934315,
        0.20652016288175606,
        0.22847232113885418,
        0.20768270894855975,
        0.1771665288238183,
        0.03208783594876506,
        -0.01836954309732137,
        -0.03549246811490342,
        -0.012959714826380551,
        0.01595773487641082,
        0.047473156767924955,
        0.008405762139344243,
        -0.012621725444217583,
        -7.697026945352459e-05,
        -0.018213134525172682,
        0.024186269587141068,
        -0.03256047666497944,
        -0.023606284536980986,
        0.07337026106398171,
        0.0505402416061774,
        -0.0005065405507639572,
        0.05676343928798394,
        0.11568021940529225,
        0.035571817688154296,
        -0.0002991016007588901,
        0.013370254201541035,
        -0.1073067860312443,
        -0.18079695678759045,
        -0.10432782398597099,
        -0.06685937961798571,
        -0.05484857659436629,
        0.035646138981897335,
        0.03855514028621292,
        0.0056732744098091665,
        0.005608970466819449,
        0.01694432096970204,
        0.031021102021181555,
        0.013275995957455195,
        0.004571563515767905,
        0.02906834780081466,
        0.002937269300647117,
        0.004061759402029203,
        0.06680056691864902,
        0.0838125871580794,
        -0.0011992595701000254,
        0.011009555219056838,
        -1.6467175824913592e-05,
        -0.02973045302267692,
        0.042205116535346456,
        0.10582022583337988,
        0.10159622118348205,
        -0.007550183296167279,
        -0.035714539649148586,
        0.004654531753382577,
        0.010116095243405572,
        0.02013128629458299,
        0.008612455908330579,
        0.074391402008888,
        0.03677217819276563,
        0.0762315912901741,
        -0.00991213131215014,
        -0.06348690341467011,
        -0.11034673463098361,
        -0.10284867912593909,
        -0.057296305279598655,
        0.021370515448122563,
        0.03626532714293653,
        0.04378660793191025,
        0.06423498900415846,
        0.046185074160949885,
        0.01928969158727017,
        -0.03736983433979524,
        -0.0563769855065563,
        -0.054231902627233264,
        0.008548718702265347,
        0.009557080326834264,
        0.0037149693583587015,
        -0.030663926791715212,
        0.0049080425261070525,
        -0.01901642014566249,
        -0.06231573645449595,
        -0.08753282653710791,
        -0.0771850463024849,
        -0.07129160635977366,
        -0.06286098257786041,
        -0.0293113826973897,
        0.01752860774885585,
        0.09791687446264818,
        0.15645234418909543,
        0.13548011346275593,
        0.03345981950632686,
        -0.045639413862361665,
        0.07147452371961022,
        -0.022556952232744315,
        -0.11044174995332663,
        -0.11065358107079497,
        -0.021863125720573393,
        -0.07846953666186089,
        -0.2406332086024674,
        -0.2239264819568592,
        -0.1324809523795593,
        -0.08162893721159326,
        0.013214114810076252,
        0.006465867056812971,
        -0.007830912791606545,
        -0.017631381307469288,
        0.02153282109821546,
        -0.014988815819207323,
        0.0013528934679605878,
        0.13327705750341656,
        0.07377276092232415,
        0.0553294814064505,
        0.007613311280564265,
        -0.05459908520149678,
        -0.019494769018884663,
        -0.020175935872438884,
        -0.08217220992369673,
        -0.05308744840587701,
        -0.00974353902335735,
        -0.027741570911779458,
        -0.08590188769556746,
        -0.04364580375097538,
        0.06211446367375417,
        0.08089136501581064,
        -0.130410747178963,
        -0.13244583446534355,
        -0.15929324883844734,
        0.00864796866389619,
        0.13102294990295696,
        0.08073075213540161,
        0.010778912444362451,
        0.08397199504610707,
        0.00597668902257027,
        -0.0363969258045163,
        0.012691137492577154,
        -0.023976816705173418,
        0.02427580940754193,
        0.0025995672774656847,
        -0.013980544606348306,
        -0.060102062149173935,
        -0.10063979867592376,
        -0.06406571941285231,
        0.06841649282195614,
        -0.01057611822056138,
        0.012903027166543606,
        0.001397844891977216,
        -0.020740982345582137,
        -0.007423236645888294,
        0.023621113364558955,
        0.0012048188743110488,
        0.05452898492888658,
        -0.02066304687201828,
        0.005062529740789544,
        0.0750508680277126,
        -0.07556467167594709,
        -0.0653122337192131,
        -0.021217977372722102,
        0.1473142638661039,
        -0.023915993842069272,
        -0.07368415521394968,
        -0.0727243921071418,
        0.019658364425672342,
        0.09481659758029252,
        0.18514685969894829,
        0.16238985150657173,
        0.13560863959741604,
        0.022543664798871148,
        -0.05498145494253344,
        -0.0287110842493126,
        -0.09288202739801849,
        -0.017933170321427997,
        -0.04827650002648426,
        -0.019712747956287094,
        -0.023797368495026703,
        -0.0648879644043661,
        0.02680830639092277,
        0.0021662681600878326,
        0.07044404094191367,
        0.08627724674623977,
        0.10603900130822203,
        0.03598718980132415,
        -0.1186951283484911,
        -0.08810107395243894,
        -0.04610333595962038,
        -0.01760917001338885,
        -0.13604902726653378,
        0.00809451851022224,
        0.15378598408336122,
        0.06385417926156355,
        0.039569735080656754,
        -0.007478690444954635,
        0.04225167904766432,
        -0.005872885889067578,
        0.016046918794470594,
        0.028063454837039377,
        -0.06860478020237143,
        -0.08164297851013291,
        -0.04461636502098397,
        0.049703892030820006,
        0.13102856508753613,
        0.15665821124588997,
        0.10562027129149439,
        0.08270993663954616,
        0.04458408393456413,
        0.05368390138650073,
        0.07517186305407311,
        0.17966206232766,
        0.1069419773591913,
        0.026529140063608157,
        0.033737100541553856,
        0.013156774863129626,
        0.10669707212319268,
        0.10134785549308034,
        0.11677776528094733,
        0.000626714350895246,
        0.0567292943673405,
        -0.010767509061150728,
        0.02848227802502922,
        0.00909755218737747,
        -0.012225586378308824,
        -0.09137741469973623,
        -0.1256127514098782,
        -0.021299230105631138,
        0.10008575987280582,
        0.04842013896954044,
        -0.016605747321321498,
        0.08188272113279674,
        0.23323991003366512,
        0.12196832971081575,
        0.0778937942687377,
        -0.002754695051589032,
        0.10417178092899729,
        0.17251526764870356,
        0.08392506321641371,
        0.07031183817030409,
        0.012033628971160532,
        0.015113191567898492,
        0.013284662263913146,
        0.03719038881243257,
        0.03780507017594374,
        0.009522289306649421,
        0.046634238604817836,
        0.035027056306613374,
        -0.09425903522982942,
        -0.08526159659624451,
        -0.050273373596107916,
        -0.09169742257267315,
        -0.0725768235518347,
        -0.027902321198796133,
        0.03573512920834768,
        0.012831873161487204,
        -0.010259742133677677,
        -0.1660078776350467,
        -0.03524737901016067,
        -0.004577802305100019,
        0.06283518064773785,
        -0.027614689935952896,
        -0.0401968317414821,
        -0.006926041661526888,
        0.12126459941038106,
        0.09086642780748948,
        0.029076333233737622,
        -0.04064434521985109,
        -0.03186943859808828,
        -0.03562102797884442,
        -0.043536959685963265,
        -0.03227628079079492,
        -0.014334686787165872,
        -0.013998177241871312,
        0.05724903706098062,
        -0.00705961761636978,
        0.04594152433835738,
        -0.009925636813963395,
        0.07039254271920273,
        0.017271610571269344,
        0.022207000463780074,
        0.03484456097726628,
        0.1279479967094147,
        0.07751786361896831,
        -0.01802970877113364,
        -0.04749714311326808,
        -0.10760988854850079,
        -0.1658733740249531,
        -0.07351392301300332,
        0.004650436110230926,
        -0.05635893699482475,
        -0.15248249623877033,
        -0.06451716555128324,
        -0.08725488273517201,
        0.046741500366341754,
        0.08274452020537759,
        0.09974083179698273,
        -0.09148675522066979,
        -0.05469655502635884,
        0.06093721635568104,
        0.05585353455413514,
        0.07790815376007282,
        -0.026729838313026076,
        0.04887744911986631,
        0.013328282581668648,
        -0.05178593362670657,
        -0.01951234596950111,
        -0.015756952254652578,
        0.03290188050355175,
        0.09973242431042892,
        0.13279796272473696,
        0.2118093849572913,
        0.13031309338871358,
        0.06645544330525585,
        0.030122857989044013,
        -0.012973925959805354,
        -0.009291538835972255,
        -0.01431764377702674,
        0.05071020166816182,
        0.02924883147242665,
        0.06135019009085346,
        0.018234721588297496,
        -5.7936510794374865e-05,
        0.031839785336166396,
        0.06985300813778839,
        0.03374372760691376,
        0.07492954119114373,
        -0.012496299700106564,
        -0.020372347888957566,
        -0.052940323989318985,
        -0.11290166748032732,
        -0.15687836832850893,
        -0.15799555986666097,
        -0.11626062900046899,
        -0.024553871731748805,
        -0.09438637279614753,
        -0.09816074316031399,
        -0.07857231859733091,
        -0.05232642784624075,
        -0.0732255337369857,
        -0.03288016540106696,
        -0.052224754996710414,
        0.0014502789863158764,
        0.022967152264584074,
        0.03353908733738229,
        0.04677456749738613,
        0.06887503991122093,
        0.06008007914523619,
        0.01193389662411845,
        -0.04286267354416287,
        0.009439001846326879,
        0.017151497542906305,
        0.06874111881370029,
        -0.003976312642024221,
        0.06251892817544888,
        -0.04201994498365237,
        0.049453621857257435,
        0.000958911910057012,
        -0.02603663258360054,
        0.05034167701327975,
        -0.034957718389801704,
        -0.15927593704170168,
        -0.19068750228916045,
        -0.20779429806758717,
        -0.21466583788824622,
        -0.18807420041705694,
        -0.11629021450706935,
        -0.06706398013673331,
        0.04788096054049165,
        0.05572684899287478,
        0.02074739028827482,
        0.018229255180097787,
        -0.047489722328736106,
        0.0227537819633966,
        0.07555113167884212,
        -0.0313917263050222,
        -0.03334825027794174,
        0.0072811129796172365,
        -0.027543137692144594,
        0.04955632543681368,
        0.1460485230008271,
        0.046419434453149,
        0.10116300797285205,
        0.16861312102645182,
        0.14125580828708037,
        0.021042184147988946,
        0.045260831830179094,
        0.004904121929324608,
        -0.07132101839606426,
        -0.037622388933144214,
        0.06292149306765096,
        0.03789339547433661,
        -0.03235580060341375,
        -0.09154345282266707,
        -0.1411230747363758,
        -0.10255188446300012,
        0.0263616003280319,
        0.06564923160408445,
        0.04016115528799957,
        0.1058224557702119,
        0.033717841135012985,
        -0.05546967841360406,
        -0.02260441705998547,
        -0.0007369453713559036,
        -0.038312090588734665,
        -0.04307679591318479,
        0.00036374093342556393,
        0.036041258298865814,
        -0.0446103161996759,
        0.07987949234849151,
        0.07313407938392355,
        -0.038244935698659124,
        -0.12838422534486602,
        0.0014842175744755525,
        0.09150823868737518,
        -0.07235455123044193,
        -0.15009142579204943,
        -0.09595430105033732,
        -0.009115158843246129,
        0.007580597698335597,
        -0.0023755743990523243,
        -0.026670897877437427,
        -0.033284378515506086,
        0.031425378336041615,
        0.08170429225694531,
        0.12608658713625656,
        0.04960409823255127,
        -0.06535883836730728,
        -0.04803435173283627,
        0.0546044951604851,
        0.031721521109009596,
        0.02025449356893552,
        -0.017386629340645558,
        -0.02187053348725016,
        -0.04094858813993761,
        0.07768909474062743,
        0.06380727755159055,
        0.01383449273345104,
        -0.0773939228075599,
        -0.06606778569455461,
        0.021601055507734716,
        0.0870234784711245,
        -0.039666819986002584,
        -0.020546573432619234,
        0.08099846608763314,
        0.25948400889918083,
        0.19988053166680542,
        0.14357257043693805,
        0.1433037077233748,
        0.19006321437540666,
        0.15730650861156542,
        0.12584455139223522,
        0.09439894760163424,
        0.06306652818147804,
        -0.012150534185202504,
        -0.007531724182675503,
        0.07293376051086739,
        0.054900675819300804,
        -0.014098253117263823,
        -0.10300392135158738,
        0.03662687693157708,
        0.019713172962618618,
        0.07580145395190242,
        0.0033389041079685483,
        -0.02462213188700129,
        0.056016474197466026,
        0.05374333362757176,
        0.01477975249195294,
        -0.018035909113740943,
        0.014682743042650494,
        -0.02817162745389529,
        -0.028443619386805213,
        -0.10430840160208193,
        -0.10402390393409354,
        0.03368760817254425,
        -0.02490701827285745,
        -0.09476414832294247,
        -0.06687522046986735,
        0.07764137283333924,
        0.0347773031125663,
        0.0018203336428022784,
        -0.019737445122753425,
        -0.04753667568107455,
        0.0060150181277126725,
        -0.047036216502601744,
        -0.07311766240872233,
        -0.0489633827969144,
        -0.05694595907013451,
        -0.04273946184145058,
        -0.09545963663929509,
        0.011333316936709952,
        0.10533621459678497,
        0.10230362134202428,
        0.07782875846107487,
        0.13998148096109747,
        0.06054115024439686,
        -0.006192181675352731,
        -0.07420544936090054,
        -0.01862520305397184,
        -0.011394722220878572,
        -0.03947572569247114,
        0.02919696129660294,
        -0.021257513390215737,
        -0.051989127559913376,
        0.08308785591443987,
        0.13640294315888563,
        0.07639102286285003,
        0.0010105327341553803,
        -0.04498491497908003,
        -0.010220518219207985,
        0.03744577964849991,
        -0.011210097616073073,
        -0.04768787771654655,
        -0.03376637707808055,
        -0.07503805061296392,
        0.02001978540035991,
        0.056982903221649374,
        0.08460696078441421,
        0.0350199866346934,
        0.03672335671512533,
        0.06536383359360634,
        0.06301475089131303,
        0.07421213299165963,
        0.011052501787095274,
        0.008368199869180828,
        0.05287480502362969,
        -0.029980932429497786,
        0.0013000100117305142,
        0.02853352467302524,
        0.07612322553404766,
        0.0648292903996328,
        0.14326408859909084,
        0.09624800434708201,
        0.06866623133358031,
        -0.004430679115901253,
        -0.057369182661185514,
        -0.04995289301374666,
        -0.07341817825660843,
        -0.10546067455526864,
        -0.01987274903301778,
        -0.02744129084545667,
        -0.04610714052519618,
        -0.0830835980605151,
        -0.022003853285272566,
        -0.07368863077477358,
        -0.0417801813589163,
        -0.063334489644188,
        -0.06170127279142132,
        -0.0060482822423783104,
        0.07613234876499221,
        0.03265991867399239,
        -0.05340398949312421,
        -0.06342317034498701,
        0.0408028238557111,
        0.1484105280349807,
        0.13255397991960693,
        0.13796793042291217,
        0.12537635582244447,
        0.06534536133753116,
        0.028668499145428128,
        0.05427132235151579,
        0.1414853394945642,
        0.19011294458706623,
        0.12373422910053995,
        0.02950407223491358,
        -0.03754278185563066,
        -0.061565928139394224,
        -0.054751587891626735,
        -0.056888916191675395,
        -0.06362415124466461,
        -0.04085582512427925,
        -0.011052627745886801,
        0.060917224035215434,
        0.025824660153727353,
        -0.0941602655237871,
        -0.07969143308853194,
        -0.053832737206444756,
        0.022120868366193997,
        -0.03828997363214158,
        -0.08463593559414931,
        -0.11953837085214322,
        -0.08476785695574172,
        -0.035098813383143135,
        0.04824851060018831,
        0.11034065709048982,
        0.08113343249152655,
        0.18159830299268265,
        0.1535914441038288,
        0.11243251318267031,
        -0.047648072748990154,
        -0.07537624540194267,
        -0.009972163157723564,
        0.0874994987277097,
        0.09823018055531613,
        0.1277811607082216,
        0.09609842485543625,
        0.05024084807172913,
        -0.048496148829702865,
        -0.10653983108512512,
        -0.1289034683112118,
        -0.078390231265279,
        0.011444915589323177,
        0.04344898957700295,
        -0.03914477191621718,
        -0.055296665016183896,
        -0.04546055922111247,
        -0.027198979771503616,
        -0.027244650715887823,
        -0.013940423955921325,
        0.04352521118511235,
        -0.004889122300581147,
        0.00405359362220279,
        -0.021830771402232822,
        -0.02924238869271721,
        -0.05354870392633686,
        -0.05050366285519151,
        -0.0015083075741339597,
        0.06735768810259779,
        0.07720413160434524,
        0.13350933045493085,
        0.21274660393212488,
        0.1540940801428587,
        0.10092211530683243,
        0.13926636086274186,
        0.14774709624838495,
        0.08440968584741518,
        -0.037687583275986605,
        -0.006209159142708115,
        0.04193498765693621,
        0.006475212271973678,
        -0.013200252479702343,
        -0.011188866300375615,
        0.0022457802951915385,
        -0.00944001396941021,
        -0.07584306621817152,
        -0.12181051611668357,
        -0.05287373421691455,
        0.0839817047146312,
        0.08708328791807303,
        0.07779367302337488,
        -0.13022207088848534,
        -0.1291026996178068,
        -0.06567307271175475,
        0.010600020261416893,
        0.052598843006824984,
        0.07250290734441946,
        0.029854839931677955,
        -0.002716324454557486,
        -0.03315563138886439,
        -0.0326101392459241,
        0.0009874466330888542,
        0.01485896205935575,
        -0.0047606568895058,
        -0.006809953352223772,
        -0.039615736384866776,
        -0.05263907106429213,
        -0.04532151348481234,
        -0.0020022625499335404,
        0.017740314414484065,
        0.006733869456732881,
        -0.00039588960470057126,
        -0.0008870786929067774,
        0.0003284396482795156,
        0.0015282831254760255,
        -0.0024993882667762083,
        0.005447272440154795,
        0.024909188000528402,
        0.06619741392981858,
        0.08254341536397597,
        0.059877710827434594,
        0.03134209552274922,
        -0.009720659653772598,
        -0.029170194375151844,
        -0.07784416759406344,
        -0.0852180329152517,
        -0.09588686798064339,
        -0.058173317692652715,
        -0.1079877028036847,
        -0.14152014408601973,
        -0.11526755525278125,
        -0.033799912601846595,
        0.037726786521161265,
        0.011640840831661114,
        0.01470310144000396,
        0.014447892046423699,
        0.012240805211114031,
        0.01273922219523611,
        0.019000126766276867,
        0.006335490844600457,
        0.00963797218503701,
        0.0023406832789932336,
        0.014737613536535079,
        0.023596486842839368,
        0.06716204713776275,
        0.08755641273162906,
        0.045421037448884594,
        0.0288431747340313,
        0.0515128230432073,
        -0.008188805161768755,
        -0.12301406276133708,
        -0.1392943629554336,
        -0.09866994275600346,
        -0.049000286495400766,
        0.012070645291902993,
        0.028976039694710236,
        0.07373437246077752,
        0.06425039982597458,
        0.06910356457096858,
        0.05686028921945702,
        -0.03335212189455789,
        -0.05229817612141684,
        -0.10608377090778576,
        -0.055986716519722105,
        -0.08847489083461015,
        -0.1175769240479756,
        -0.02413361645691308,
        0.06913337237810126,
        0.1243818406115729,
        0.06515780423694609,
        0.04575828037177756,
        0.06561646201845794,
        -0.008806002133461614,
        -0.019513855254260228,
        -0.06930102172294422,
        0.0009926506940327881,
        0.15736451699687062,
        0.10546912867064018,
        0.023295244599342044,
        -0.06497572327277922,
        -0.08690680988022559,
        -0.05481379990587125,
        0.0016529321757089836,
        0.03867578129130281,
        0.03860471542516487,
        0.036235746457433694,
        0.03317385154933733,
        0.0024465115141679332,
        -0.06139631357008809,
        -0.11027379297316761,
        -0.05929205323948786,
        0.04686245127100412,
        0.053386006045992564,
        0.013276672186598164,
        -0.051108526442610644,
        -0.006849093805190073,
        0.02759634407889748,
        0.052197149746046174,
        -0.03208278414040472,
        -0.056172688408755236,
        -0.13827187370298377,
        -0.15011924209645722,
        -0.13596392697224524,
        -0.091922197679279,
        -0.08947400131135749,
        -0.055523896604202344,
        0.031813994881008535,
        0.09232290004663213,
        0.038016979488206794,
        0.015570716677782865,
        -0.030514403416225192,
        -0.011001423179325603,
        0.005507292235005543,
        0.030199619615463632,
        0.04865536169073717,
        0.07853116260857888,
        -0.0477289995290375,
        -0.09677825841071125,
        -0.018702640425857748,
        0.06558443317396188,
        0.16336018389089524,
        0.08802540661387168,
        0.02134592519222772,
        0.04371170587060873,
        0.09673230722997653,
        0.06643956503788932,
        0.00603720402330256,
        -0.0934317907150392,
        -0.11979590115913008,
        -0.09071038167491033,
        -0.12508357637465892,
        -0.08815195902085318,
        -0.06462463437286653,
        0.017429139309678942,
        0.019460887092373064,
        -0.054394415896241666,
        -0.08147998980939694,
        -0.034247871751732654,
        0.040439188926925766,
        0.07914687798392978,
        0.08820301428887509,
        0.08299139942152714,
        0.04138720260274775,
        0.024894589554368934,
        -0.0009746024292692612,
        0.08831374895666354,
        0.12687827882125818,
        0.050764572308585165,
        0.02304893747654796,
        0.007668768106135066,
        0.028192588209268107,
        0.08623817965933349,
        0.04164338850543332,
        -0.08102194188449235,
        -0.12118882929814714,
        -0.17730328351967656,
        -0.07912917623968135,
        -0.05774181516489883,
        0.011033554440623693,
        0.05167077545110014,
        0.06598121764043774,
        0.18030650835043283,
        0.09957803805496873,
        -0.019996385525091444,
        -0.1259382527112582,
        -0.05950857763136319,
        0.12493708359821304,
        0.159309440271368,
        0.05901796812711768,
        0.014359656014271327,
        -0.054439963267519216,
        -0.08763358619026029,
        -0.040256179986830704,
        0.05755108522572047,
        0.12051682106028816,
        0.06096519944523922,
        0.00405696316351364,
        -0.003386343381843349,
        0.0627442460050707,
        0.09230098449560648,
        0.11075727624733928,
        0.10502194896145516,
        0.13935915780134916,
        0.13408744128079755,
        0.16798857695185757,
        0.17469955655861477,
        0.14530350273247467,
        0.012366980065223902,
        -0.011775345755587974,
        -0.009809358702902504,
        0.0024706704713728833,
        0.005620062885854713,
        -0.03395421530020108,
        0.013862159187816574,
        0.06635919816143235,
        0.004548479693184927,
        -0.004284094935118263,
        0.009225885963244734,
        -0.04013409272584365,
        -0.03312424285633871,
        -0.021071512743873432,
        -0.0012343924181041003,
        0.012587170573298579,
        -0.04543274136769709,
        -0.00987703553259387,
        -0.03423908129177916,
        -0.10750258208464755,
        -0.11231355341903031,
        -0.03060926625958551,
        0.0960997779848631,
        0.1418532747267756,
        0.177944057502596,
        0.0757940083206835,
        -0.016903599330608438,
        0.002231128803273742,
        0.07873975476244384,
        0.06454506953041327,
        0.01691661599539748,
        -0.09128524219056738,
        -0.12825550964873145,
        -0.15043653030572315,
        -0.11616330264620728,
        -0.006460145172596637,
        0.00974295044939713,
        0.004345007036388866,
        0.0766823195361008,
        0.03675398987526926,
        -0.02113084959131556,
        -0.08094418734515162,
        -0.13420467768097533,
        -0.12489012535415431,
        -0.11990088387792991,
        -0.0534434977241479,
        -0.011656839276392108,
        0.1051579528737489,
        0.10273135536399058,
        0.09915253869891046,
        0.07692613103761603,
        0.08971170232409859,
        0.05308046423679284,
        0.021599000729012847,
        -0.02414687991445085,
        -0.057566219239723194,
        -0.02026373405112677,
        0.06951381295090564,
        0.06014665476019971,
        0.09419204120459725,
        0.04431817685152392,
        -0.012179965020040946,
        -0.04441912341019288,
        -0.03851707376695066,
        0.01956641557094828,
        0.03335823156968659,
        0.029233289976382706,
        -0.020549048908996385,
        -0.1687393514115179,
        -0.1968311589835184,
        -0.09894361039278907,
        -0.06384625220585358,
        0.03884747003045928,
        0.08479806631550399,
        -0.0025972149298021828,
        0.003782402189075506,
        0.02648839377566453,
        0.0869759969802743,
        0.10441218666076937,
        0.002530225476290251,
        0.005155328400511399,
        -0.07305351451597934,
        -0.12362601881229161,
        -0.0833885563566596,
        -0.020585797829461343,
        -0.041597748329506454,
        -0.08685370588086135,
        -0.08770512210386408,
        -0.050842657213863614,
        -0.037489779156791636,
        -0.07784074798880186,
        -0.06982206202709196,
        -0.009196478463315876,
        -0.02253175195031055,
        -0.013176198378868072,
        -0.057333735606883,
        -0.01863867358543319,
        0.020314244499054813,
        -0.01783744141270005,
        -0.0886466618959484,
        -0.06228320178801182,
        0.0013058065046720538,
        0.09574316046978618,
        0.08821938665788859,
        0.05972237757278048,
        0.06451825323988708,
        0.04237806284441172,
        0.10000887611136539,
        -0.02278970254565163,
        0.003806370341943027,
        -0.03998585992691205,
        0.0054880564956308105,
        0.02470095175051635,
        -0.006205653120222237,
        0.02250336281541588,
        -0.007886795291640204,
        0.04084977339911698,
        0.011948054311852547,
        0.04218387401537917,
        -0.06271384060642315,
        -0.15886975166140505,
        -0.14645767990211217,
        -0.10412813002365626,
        -0.05730895231255267,
        -0.035964962595950015,
        0.03307007241299173,
        -0.027497136795599054,
        -0.06427232190394161,
        -0.09874724833309896,
        -0.02352575731978112,
        -0.014706412766900745,
        0.021640428503154337,
        -0.008881545263141534,
        0.011180590808591604,
        -0.02127375166754148,
        0.03611723344804908,
        -0.004661786417334734,
        0.0018240555338258236,
        0.012761339020913181,
        -0.01984992616310751,
        -0.015350900346126281,
        0.008733599907256074,
        -0.030353982742274598,
        -0.01985795705143506,
        0.02936666967881076,
        0.017324337947060873,
        0.04428180896809547,
        -0.005259058125094838,
        -0.0297395393155738,
        -0.02286983707842663,
        0.0585560976389557,
        0.06862019569507513,
        0.04333899454908147,
        0.049581596613155185,
        0.03305126592039956,
        -0.039498273177325974,
        -0.007472665830064691,
        -0.09628646027059312,
        -0.024166652987554306,
        0.007340652887015713,
        0.05575210732690496,
        0.03797802688662377,
        -0.04160270705712706,
        -0.055859907484747756,
        -0.05853963085576469,
        -0.000729888092583159,
        -0.02447732196894265,
        0.008592690084177257,
        -0.035239545671254154,
        0.030219820326521058,
        0.04754656390024661,
        0.02251011046499355,
        -0.04052312194049079,
        -0.01901045468739857,
        0.05185076165827584,
        0.1115171118845398,
        0.08034519897123538,
        0.03965614271365958,
        0.007380716518379094,
        0.01566387494872375,
        -0.013143273824085089,
        -0.059876355414199084,
        0.0007849917551289549,
        0.01967480585206221,
        0.013824503019693766,
        0.0698785133862864,
        0.1040109115053808,
        0.07408492040774173,
        0.07243464048487164,
        0.06408347547996615,
        0.02500311429798737,
        -0.0015020347843411478,
        -0.1322061518297536,
        -0.13360942804043502,
        -0.1717399774465463,
        0.011861802675440822,
        0.04381205702452875,
        0.07875924105547712,
        0.02857599383369473,
        0.013512916820845345,
        -0.03176293150777843,
        -0.03447527290616334,
        -0.04059906328912097,
        -0.10016899513752742,
        -0.07713421957948814,
        -0.09981637895506427,
        -0.0252942342982366,
        0.09521660345069843,
        0.0639078010073172,
        -0.02461790535330903,
        -0.04353764150704792,
        -0.14802088774335673,
        -0.1530459292949456,
        -0.058371828508022416,
        0.03285918852114801,
        0.07554100848461592,
        0.16336919309602216,
        0.1280575144006354,
        0.08006372915269325,
        -0.05073548262142563,
        -0.0971517509741348,
        -0.0527241928936113,
        0.02486888495165728,
        0.01206953089083309,
        0.05025284099269474,
        -0.025861727715979263,
        -0.05015640594136645,
        0.04130259022078111,
        -0.0046761140222902325,
        0.03158890099987207,
        0.06026903533768335,
        0.1204654080912913,
        0.11082865244328344,
        0.15773388447861914,
        0.08888122938772398,
        0.1297429673396908,
        0.09516105650407981,
        0.04873519120928921,
        0.1007857745087993,
        0.1160651016634902,
        0.08292275216286066,
        0.027163060610891666,
        0.05214693962703805,
        0.09830987730000343,
        0.07710231429408154,
        0.0030369975515089458,
        0.025513423293717717,
        0.03683514214866057,
        -0.026048619804555546,
        -0.06406678497655312,
        -0.07094467539333951,
        -0.03564568753456284,
        0.07369566915766732,
        0.06750326551602139,
        0.011014093522225174,
        -0.03250430260304678,
        -0.03882165968523544,
        -0.003798959839846491,
        0.06798918144500742,
        0.02590015402337472,
        0.033692316921079976,
        -0.032095290141890796,
        -0.0254543621450899,
        0.04474834034734619,
        0.01791836079903012,
        -0.02980573389657651,
        0.011160860717855159,
        0.13022381568974323,
        0.16919472948552855,
        0.09890471577452047,
        -0.06018723455109499,
        -0.17110505773395512,
        -0.16240133758257963,
        -0.06990362691283673,
        -0.038712894915297086,
        -0.019469626780720117,
        -0.028233288102680255,
        -0.08752848672547953,
        -0.09114673384080549,
        -0.07414181982569507,
        -0.13538308972725513,
        -0.09364640400387274,
        -0.06674541695946931,
        -0.019337095100955708,
        0.03845536476847015,
        0.10884040935041125,
        0.034168330293098,
        0.08129827614810112,
        0.08973245264871013,
        0.0636606022119148,
        0.05414375732556266,
        -0.03466971577235593,
        -0.023951732621707716,
        -0.02135030142783384,
        -0.038955812121971786,
        -0.03401717727338668,
        0.06591905050886741,
        0.07887548279950118,
        0.1217197909884215,
        0.021086061396089945,
        0.018559260748365433,
        0.09014362034919804,
        -0.022324261190752155,
        0.03650362818624745,
        0.007611535713894625,
        0.006736878310981832,
        0.021144263904547253,
        0.013150793051756472,
        0.012823845513008298,
        -0.017015540059141035,
        -0.02918965589006877,
        0.02969510045307045,
        0.047338367392707525,
        0.02351742006523362,
        0.04880760627570708,
        0.0249780414032313,
        0.05648552418271714,
        0.11999591710369123,
        0.11793766123088784,
        0.09463918901511295,
        0.03779159884736391,
        0.016771285227465745,
        -0.02028813380533727,
        -0.041472374091592566,
        -0.05402745182875493,
        0.04621310165154609,
        0.11482395884371477,
        0.16804882875761878,
        0.08989976876264728,
        0.05416237107644943,
        0.05535681121594557,
        0.03383820101944102,
        0.04142440039499809,
        0.0368547355919572,
        0.0006992218958928408,
        0.035484475336657176,
        -0.04576080365342251,
        -0.00589106313334709,
        0.05954830503880765,
        0.02382110382150597,
        0.08330622803660546,
        0.05806428939751817,
        0.019223387484228756,
        0.03754115804771889,
        0.10037072794434426,
        0.14706366254690162,
        -0.010001538163534156,
        -0.09647996321593016,
        -0.09518966761372816,
        -0.010848316097776586,
        0.051431599245115686,
        0.00469824199006994,
        0.006412749913121042,
        0.02680799157989569,
        0.011352324062841571,
        0.030267564490852404,
        0.027912643601896308,
        0.027992183792125213,
        0.0389988185286847,
        -0.026337297064404238,
        -0.09279681775748627,
        -0.14709924310317307,
        -0.05321867699600243,
        -0.017143943672867406,
        0.0022506192436371735,
        -0.06435830767107228,
        -0.04845042787289043,
        0.003962733757995744,
        0.12853075597931632,
        0.17132980359643357,
        0.15924195408161657,
        0.2516508752831351,
        0.20376522806324762,
        0.07531655360250963,
        0.00913309575538385,
        -0.06949618859234785,
        -0.015732031867976344,
        0.013183353306051207,
        -0.05143270703679739,
        -0.09061708685697345,
        -0.13910925327997653,
        -0.14612037331560368,
        -0.0734546891809852,
        0.028608661033807787,
        0.03890885737052713,
        -0.020662296869460414,
        -0.08590929822004438,
        -0.061174289257474423,
        -0.05610962991748722,
        -0.06728271555328605,
        -0.03621865674887305,
        -0.0671365060769254,
        0.021265108597264732,
        -0.0037058036545567657,
        0.04444356953907946,
        0.05394752202270438,
        0.011709536202745431,
        0.040334071837430756,
        -0.04252280871480397,
        0.040198879431030385,
        -0.01835333048558926,
        0.004508137071040535,
        0.00026764324182109995,
        0.12524171545844207,
        0.11976921700206579,
        0.1435657459514075,
        0.09546625804861991,
        -0.024450407765193423,
        -0.004037854440295705,
        -0.09045943953129051,
        -0.010203084364145302,
        -0.07402657353439535,
        -0.03526420711079485,
        -0.04173389057386615,
        -0.04214296095263752,
        0.058735898027242335,
        0.06804086375176306,
        0.12059280189427646,
        0.10845396368816193,
        0.16070030164885896,
        0.11756412983352711,
        0.07288520188526054,
        0.05733979763630163,
        0.013663752481196643,
        0.07830892925276792,
        0.04002153373728465,
        0.13964318629384764,
        0.002801259085083398,
        0.008168217571992155,
        -0.09138272099384251,
        -0.026547830919090402,
        -0.0189438495629382,
        0.022691854075791034,
        -0.020650805261855604,
        -0.0035510317291353472,
        -0.03679933036266193,
        -0.0543690199679813,
        -0.09272768970881279,
        -0.16630841002036956,
        -0.10001435442494544,
        -0.019900745542862693,
        -0.03472958432703217,
        -0.015404466230972667,
        0.031833853332800775,
        0.0899755186013097,
        0.005424126658950952,
        0.015476448217272051,
        -0.030623267771353883,
        -0.04562904646967577,
        -0.059802163701150574,
        -0.029962259667574338,
        0.03190404943979783,
        0.04622828918643315,
        0.0209243139325168,
        0.017499438726098056,
        0.05541081892061678,
        0.010967790892099274,
        -0.033235723288852645,
        -0.0811558669294411,
        0.04911416727557345,
        0.13323584210133427,
        0.16627023949723532,
        0.08889192828114167,
        0.00972437469869216,
        -0.006542564732806571,
        -0.003520317217204547,
        0.06480827411278453,
        0.035075225342743696,
        0.06163148952316884,
        0.030943914482508723,
        0.06134838193248515,
        0.01971884197530282,
        0.01796432393518506,
        -0.009153321218914386,
        0.0130296408815504,
        0.037885954416007825,
        0.021264623704695545,
        0.003457006287392815,
        0.01815557957465008,
        0.006363488598575917,
        0.05133819629459533,
        0.03859729964420662,
        0.061030973324229604,
        -0.0037949927329563554,
        0.012050277446444841,
        -0.06445463292528714,
        -0.05017119545443767,
        -0.06286090570799677,
        -0.01950864280769025,
        -0.009120984979201758,
        -0.003599366743729059,
        -0.006481338500350375,
        -0.015432434188666137,
        -0.024017435480020437,
        0.0033800517523927087,
        -0.01595891531330971,
        0.026665359744340533,
        0.022862817502000327,
        0.11529574993327638,
        0.06348446396244742,
        0.08176679638412586,
        -0.06863406584144675,
        -0.08444648325293866,
        -0.11793320409201292,
        0.04243225689333946,
        0.1028464252413804,
        0.09731534754464227,
        -0.0689568833263068,
        0.05710499205373816,
        -0.007654448475039223,
        0.0841466700368933,
        -0.033476970552462404,
        0.011052025449002613,
        -0.06766174873760947,
        0.03716241197273834,
        -0.04374785227884069,
        0.06613406642143678,
        -0.04711973421786848,
        0.1017677797145091,
        0.031531244316922946,
        0.13748508499098394,
        -0.02044070454037309,
        -0.03455429854457044,
        -0.07247264564684738,
        -0.10218358112312595,
        -0.06114237506909102,
        -0.03782436324079086,
        0.07476691652309111,
        0.10408482530472019,
        0.09807279423100562,
        0.04820815772840356,
        0.051331778540776585,
        0.14640724624676388,
        0.09635127178523803,
        0.013162762494744512,
        -0.03210167137158539,
        -0.05322964068177204,
        0.08395379226286798,
        0.1445720851989234,
        0.16873770690374112,
        0.006411021402657968,
        -0.037671488172825535,
        -0.06937833149146175,
        -0.0932594239372197,
        -0.0928237695649062,
        -0.10849592036285899,
        0.0452530351162861,
        -0.008806077351885247,
        0.02097082573442341,
        -0.0375921765297019,
        -0.05057694459518437,
        -0.056805731885460294,
        -0.002395103274558256,
        -0.010496342292864475,
        -0.054436358962568196,
        -0.12414126847595613,
        -0.10485344490516085,
        -0.1010387353835871,
        -0.11897628249028741,
        -0.11340436658936771,
        -0.11361076590649113,
        -0.01585781815559858,
        0.009879053223093102,
        0.05906463274143708,
        0.035993571282858156,
        0.034406375745446395,
        -0.0035283021968504484,
        0.04550835341499937,
        0.07754329345888553,
        0.010625726147438775,
        0.035835624907879865,
        0.008862246690040727,
        0.07737512317022183,
        0.07536941080062917,
        0.11773990514150874,
        0.01540396832063537,
        0.009005991023329184,
        0.057871098311504554,
        -0.03783922578537391,
        0.02714366614073087,
        -0.06258409564631905,
        0.0035194871974866763,
        -0.008098943386948552,
        0.04045451437002441,
        0.034125514873847136,
        0.04768794076916068,
        0.06118783137087074,
        -0.0637020763866538,
        0.03338370883453293,
        0.14686540604389847,
        0.06849455899287654,
        0.05921353200371136,
        -0.06581840397552248,
        -0.019304648897814636,
        -0.11950574983317176,
        -0.020559096169996512,
        -0.062463467245531645,
        -0.008600463606130548,
        -0.055804646499117636,
        -0.11830124967397126,
        -0.09200658126881597,
        -0.1193468304174077,
        0.05679887164113983,
        -0.0037929205881637945,
        0.12765870412529232,
        0.017059497122159456,
        0.0429875837050295,
        0.04090627405130142,
        0.06568121473711695,
        0.05903274855347988,
        -0.029086700694828403,
        -0.008027972689671092,
        -0.12291830343970318,
        -0.05321489981811719,
        -0.0556241822073072,
        -0.07511290178806038,
        -0.0008863035608114565,
        -0.042868796670757464,
        0.055835681801556694,
        0.03065516191201329,
        -0.03433910948974429,
        0.0022545611205361427,
        -0.059519377950624765,
        0.026861556190788352,
        -0.03836109409995611,
        -0.0777189662440739,
        -0.08008246251873341,
        0.08364563583583089,
        0.12007504675807396,
        0.08941144817566983,
        -0.09745415282278473,
        -0.16938599292378076,
        -0.13542114521196302,
        -0.0821036220459723,
        -0.07193144579460144,
        -0.016015370644200153,
        0.013768749041366109,
        0.0244266581784765,
        0.04298514462959466,
        -0.023521501930061556,
        0.0546322688336231,
        -0.08597734970417514,
        -0.04544210217683251,
        -0.10381070877511511,
        -0.017599584340726504,
        0.06330002819501312,
        0.06026033091804618,
        0.0893986834286285,
        0.10553709432140732,
        0.15766624250752287,
        0.08086939309837851,
        -0.05453168075772465,
        -0.14230940944516957,
        -0.10771689209237129,
        -0.00797524528368449,
        0.07514952828301202,
        0.09634548391864589,
        0.041428135384966855,
        -0.054669707250724627,
        -0.05867079987838143,
        -0.07104090946215436,
        -0.02870564036409425,
        0.054193987735390955,
        0.21739380252994595,
        0.20636458431155408,
        0.12177849925845113,
        -0.002188246280641372,
        -0.020180341949750435,
        -0.06923378373064247,
        -0.06344616167920838,
        -0.061799130927227955,
        -0.07751917579821957,
        -0.08243358874723201,
        -0.09418513243997227,
        -0.1759915873158414,
        -0.07481193496803368,
        -0.046619464169691024,
        0.013025749990948524,
        0.11544767648563947,
        -0.012180222285895602,
        -0.038010930623847465,
        -0.011094954612411626,
        -0.04771023176247334,
        0.03947362222977774,
        -0.029238791739611764,
        -0.01655744592011157,
        0.077276771213974,
        -0.07567612008751878,
        -0.015372621287859307,
        -0.038046294406130485,
        -0.01437731895866391,
        0.05604196584075605,
        -0.005024656403759802,
        0.0016439115358926038,
        0.10039100403758848,
        0.050040110056698464,
        0.10993516533148964,
        0.1106598933830435,
        0.1166360857061457,
        0.06276424787113612,
        0.02353520198772205,
        0.06761822111322968,
        0.0894028649313574,
        0.04723702464276965,
        0.024443661420959002,
        -0.03986247676736035,
        0.011021799677723172,
        0.09200545078138014,
        0.02561480123025373,
        0.09879025096893701,
        0.07698954364552449,
        0.013285888218769028,
        0.0440154994464817,
        0.028139751699219426,
        0.023852920931647852,
        0.1013959081941276,
        0.05420760664669331,
        0.08989819579895095,
        0.06676749155523215,
        -0.05766907872807828,
        0.038945231623925394,
        0.013682255210502788,
        -0.014735360709378267,
        0.07647066479077502,
        0.0632396611631083,
        -0.0044101880820799294,
        0.046823887158543756,
        0.04005343129284407,
        0.08011075467138609,
        0.015588743455424742,
        -0.05928570662329814,
        0.003731469230259219,
        0.038687164727373366,
        0.0107161687721899,
        -0.013036768802215389,
        -0.054960310232465004,
        -0.015384385516615355,
        0.015244522659585168,
        -0.048880823739686274,
        -0.01780138824255629,
        0.023979231970102724,
        0.007977174104643825,
        0.03175251536713759,
        0.06339808728845706,
        0.03554984630822784,
        0.04793111316026127,
        0.03271231370236862,
        -0.008411159831341056,
        0.0001491870077426674,
        0.02880000907376531,
        0.046973807559744035,
        0.034355053110141476,
        0.052546056435253244,
        0.012310249171008727,
        0.001428564345137108,
        0.015816889064825673,
        -0.01427574887162459,
        -0.021984467154394907,
        0.004879386063519276,
        0.003681532422418936,
        -0.014921590238097275,
        0.0227050642103949,
        0.026059990924753397,
        -0.0053271445887469356,
        0.056032973368158434,
        0.034267595282263405,
        0.029215429377310944,
        0.028565971248883992,
        -0.05526982929537068,
        -0.033529683523146406,
        0.05976507832235544,
        -0.057500367412288346,
        -0.041187452747229694,
        0.05002959128347325,
        -0.08358757335169606,
        -0.08757928343563844,
        -0.0015410671486571557,
        -0.06080332515121388,
        -0.04601738608157644,
        -0.0082251433675197,
        -0.12339152471375174,
        -0.10229088133606339,
        0.03014999225223071,
        0.0303506760563698,
        0.03966595890386924,
        0.009886716763282134,
        0.03106198910066434,
        0.1549739210647268,
        0.16566850133445185,
        0.06691228652188516,
        0.041549622262202976,
        0.10369750580108938,
        0.04746584733466096,
        0.02328248660448938,
        -0.03583971962093219,
        -0.09990338727922841,
        -0.03312115806307446,
        0.047764124287036656,
        0.015450603121270105,
        -0.032082075595995525,
        -0.056473338532547254,
        0.02179282340509102,
        0.021861142113927708,
        -0.003417459531973895,
        -0.05430033769988306,
        -0.0932705566469004,
        -0.048531385427484974,
        -0.05345383589113581,
        -0.07062006436567372,
        -0.06395888178182814,
        -0.13789430686236642,
        -0.16674886642719072,
        -0.14753034770373108,
        -0.10407265809196786,
        -0.07189555763579838,
        -0.019303689198710235,
        0.05210494113959884,
        0.09089162925426356,
        0.11460835012828444,
        0.16921695198506742,
        0.12589791850776394,
        0.026104170951716105,
        0.1384197469672412,
        0.10299783432346579,
        -0.016738375139494426,
        0.04747462154074984,
        -0.005476291694925434,
        -0.07180850176108407,
        -0.10271925751376951,
        -0.04992448033021407,
        -0.0024823742569050023,
        0.0863878295782797,
        0.15354241610225444,
        0.2067972497349979,
        0.10936844824202487,
        0.07033177811675562,
        -0.002752207475937459,
        -0.044631072639551,
        -0.08348698520731206,
        -0.06165744457136463,
        -0.02113087307042847,
        -0.0744050738491567,
        -0.02732730782046807,
        -0.12472350717742633,
        -0.19306031949590774,
        -0.2337140513321112,
        -0.11797098238560062,
        -0.05396984559679671,
        -0.028164051634992332,
        -0.10519267259168133,
        -0.12033876043164825,
        -0.05198687344381235,
        0.0005260635127283947,
        0.04490456339858094,
        -0.025271514633005823,
        -0.05306061229355421,
        0.00220802700585627,
        0.05151501824742641,
        0.060459227016061476,
        0.0685345036823259,
        0.027116649522167545,
        0.12955338623125642,
        0.1060282983722157,
        0.04496756745401631,
        0.04811313515490288,
        0.06059632620538243,
        0.08755912652983892,
        0.06667779242358413,
        0.05974534119281932,
        -0.0448473539520771,
        -0.01572249881160849,
        0.07683007378676081,
        0.06067837206838797,
        0.09530980625977892,
        0.08404876935832455,
        0.12403282319690688,
        0.048858817982702134,
        0.04989721554622101,
        0.08997933217780495,
        0.07944478416842872,
        0.04550961120862114,
        -0.014866642459504555,
        0.037097607846183,
        -0.007798736232629404,
        0.00035686794829869854,
        0.04717182168807818,
        0.07291868363319359,
        0.008408677452404801,
        0.023556008692469127,
        0.021724769986994637,
        0.01206346220130379,
        0.009583060496654432,
        0.0071494199596363545,
        -0.03780957443259199,
        -0.056776339472766474,
        -0.052984586296867864,
        0.008930135774332347,
        0.002462032833557681,
        -0.012045729076599555,
        0.05143439027177141,
        0.0067166048037140096,
        -0.029974347851861587,
        -0.0436061629578038,
        -0.022351396260646778,
        0.02933658772623552,
        0.016990754405544775,
        -0.046818121590951334,
        0.048134615782196306,
        -0.0004116302531497725,
        0.003673920962285495,
        0.008364241104497173,
        0.07406568105676323,
        0.07810140683979888,
        0.08272106679254755,
        0.02873258291909858,
        -0.005714993270527434,
        0.007549486026552983,
        -0.022848837127049205,
        0.04661634402001484,
        0.0475796043381755,
        0.048619879959172004,
        -0.03330018318140605,
        -0.05608503710614193,
        -0.039677577445068,
        0.06797066322019968,
        0.07675891232833902,
        0.14942922668191275,
        0.08074597981794526,
        -0.010881952692104513,
        -0.11084853259289684,
        -0.05144053457285883,
        -0.08373723350540778,
        0.026841337228846608,
        0.0021106675522747894,
        -0.03795558371955671,
        -0.11562974857397514,
        -0.15395511612919544,
        -0.1371764090263532,
        -0.0626314370281642,
        -0.01163342038975015,
        0.019718808526795577,
        0.015744922506383326,
        -0.02021923085459079,
        0.038481994106386766,
        0.09664376625569143,
        0.11480620363516758,
        0.08939365549510965,
        -0.04509499976071621,
        -0.0581514581009368,
        -0.05328340780892838,
        -0.018024350646801697,
        -0.018048102084518937,
        0.027018187629510297,
        0.02233623789692988,
        0.03754872803436849,
        -0.004996874954345918,
        -0.05091821383041294,
        -0.05665671508124591,
        -0.05829578438957473,
        -0.007439127393352915,
        -0.047984052312664616,
        -0.07225821292921464,
        -0.043904984983512856,
        -0.007160950783662415,
        0.02085290139203273,
        0.05057425767058415,
        0.00431637360259522,
        0.0309873386787861,
        0.06818437368258332,
        0.06337347299155652,
        0.07758522726283427,
        0.01902104558618664,
        -0.0034846470022202748,
        -0.006368101364158012,
        -0.05704734579375606,
        -0.03723083555741094,
        -0.04291450417814306,
        -0.021484176097163996,
        0.09312174904606652,
        0.13800109591384524,
        0.09986539528676414,
        0.08444006224922876,
        0.02011021736870596,
        -0.05974558513556453,
        -0.03747190196707892,
        -0.04580597717324915,
        -0.018471909517768878,
        0.00014709268064613877,
        0.04877586363947274,
        0.03101554251183677,
        0.05704275281849816,
        0.04436404371360724,
        0.030071446687772715,
        0.012246196082438855,
        -0.022793152311012845,
        0.003529636906944694,
        0.051533776286481925,
        0.04912698931739152,
        -0.03610770567205983,
        -0.053985762505817755,
        -0.013254699951712714,
        -0.0027534450447248603,
        -0.025867336591222295,
        -0.06944964958945485,
        -0.057001519686162946,
        -0.03812008521380918,
        -0.005081352257738211,
        -0.01239029849626201,
        -0.05026921919948565,
        0.047210923463039296,
        0.14852978277080864,
        0.2496563328418109,
        0.24153369552862855,
        0.17848867767269638,
        0.1714044594216827,
        0.13270246124892843,
        0.133463721444684,
        0.1547059412558248,
        0.19566508672672842,
        0.16794149151092946,
        0.13065927732015026,
        0.053008229728943264,
        -0.03764431141221751,
        0.023239135233517907,
        0.027573064777011488,
        0.0580408201489142,
        0.10321801843489928,
        0.137180324237142,
        0.1290768185902048,
        0.15278508962357912,
        0.1295807647070062,
        0.05081520939135271,
        0.04215022334805444,
        0.011044637049020067,
        -0.014257597160603746,
        -0.002511706129637907,
        -0.001496325802641746,
        -0.029199077697213024,
        -0.05325714347726723,
        0.0038741484071890906,
        -0.0020446126102313766,
        0.05325744078668662,
        0.0745439321466327,
        0.007392775043777889,
        -0.06116836454898042,
        -0.04792360892091351,
        -0.0504851275912101,
        -0.04211834791529965,
        -0.05262389337445638,
        -0.04501756711868138,
        -0.04006762003073971,
        -0.006728613339931945,
        0.011880522795644688,
        -0.058407585719624976,
        -0.04111429659251742,
        -0.03698843998267447,
        -0.035640616668569186,
        0.01698426879794513,
        0.05652570673085883,
        0.05359784933462752,
        0.04863343544124884,
        -0.008419527405641421,
        0.004757590183911046,
        -0.09235410768559857,
        -0.06820128178480832,
        -0.10992244727862903,
        -0.04477003694980606,
        0.010435967961638874,
        -0.02011604619396832,
        -0.061953373872001345,
        -0.08369261828772617,
        -0.12721935794293537,
        -0.1021024140579164,
        -0.06459936604117257,
        -0.03341633683058842,
        -0.034787389182349915,
        -0.03755209644325225,
        -0.03463207764201032,
        0.002356571794778476,
        -0.0402165254853563,
        0.005914175193187935,
        -0.02903677689148652,
        0.0004935921554040855,
        0.013346963559198085,
        0.011000580217023055,
        9.067704796007217e-05,
        -0.04746620916553049,
        -0.05581065154599753,
        -0.050672742232815045,
        0.02647971361988764,
        -0.0064198236113309935,
        0.00612826716046881,
        0.014081619742821343,
        0.059395740326887075,
        0.10354727693095545,
        0.10672835569679479,
        0.04599616755831426,
        -0.05146518875633567,
        -0.11931155452930997,
        -0.069976354509028,
        0.030493733373804247,
        0.05835347456485492,
        0.07085297466167356,
        -0.011214236751722707,
        -0.04993805060543081,
        -0.045320104240426186,
        0.018917517519709173,
        0.03997479121959327,
        0.09558244738013356,
        0.008539646958882739,
        -0.013819882344838254,
        -0.06790752494073934,
        -0.06273120551318777,
        -0.054798365444969306,
        -0.05402304504803763,
        -0.0490310219972382,
        0.07528166908809317,
        0.03153999281581614,
        0.015379796728972866,
        -0.02517532013172799,
        -0.058058148925809606,
        -0.05251884630798888,
        0.007583676465787667,
        -0.018869386892044798,
        -0.07419366242922161,
        -0.0657145139719642,
        -0.054264290079182494,
        -0.08442796385998727,
        -0.0856768020946852,
        -0.07954290408525212,
        -0.054928348022370885,
        0.037891934448056844,
        0.04425092767401287,
        0.005939111449355804,
        -0.08384919132190953,
        -0.10021780346779818,
        -0.022550762484202895,
        -0.05740671565597621,
        0.026627270398887157,
        0.009682272243397502,
        0.031847138758303174,
        -0.02489090527594045,
        -0.0024952112522544697,
        -0.046768050172353665,
        -0.02596936546581452,
        -0.0149658624170493,
        -0.002312533416423814,
        0.015905362077547204,
        0.008591694664238442,
        0.00633708398992939,
        -0.05642182422379563,
        0.013651822602928562,
        0.0005618681015473511,
        0.052101571566129316,
        0.046169553515103615,
        -0.0012129499157923387,
        -0.0073839698992104255,
        -0.011375384458065928,
        -0.03689197211954151,
        -0.05776085248733248,
        0.009326449380206346,
        0.0315615079537591,
        -0.011838429013901043,
        -0.07629343796082852,
        -0.018527197498723193,
        0.0396067144792959,
        0.043152168356682216,
        0.06433279623826979,
        0.014326629570964899,
        -0.06803377158977919,
        -0.08358415735291919,
        -0.0593775035545306,
        -0.04049785848751558,
        -0.03679832822032909,
        0.036792482352712694,
        0.050779393251076374,
        -0.0030815497111894314,
        -0.06571997440647198,
        -0.061273839935116765,
        -0.07605728724309627,
        -0.064463292898506,
        -0.02464629560763574,
        -0.0090219204855998,
        -0.012154271972056707,
        -0.02444618906114674,
        -0.060271987248203644,
        -0.036158608835885446,
        -0.06141507604479396,
        -0.08154868635374729,
        -0.12753571702552696,
        -0.07579912243327973,
        -0.0007580753786143736,
        0.07026195767331855,
        0.15348568866986673,
        0.1369453204876653,
        0.028115282286378045,
        -0.045699047966564606,
        -0.12169825884265432,
        -0.11785114092932734,
        -0.07885508109860141,
        0.0013460024170345029,
        0.0286789998438699,
        -0.039862834092712546,
        -0.09232789217154108,
        -0.0623030986953793,
        -0.09258527239424899,
        -0.053422914696899255,
        -0.06678293216301273,
        0.012435863001130802,
        0.07794098641964686,
        0.14862785882529853,
        0.12358278440400303,
        0.08565085955977472,
        0.049527391695147804,
        0.025776350074385876,
        0.06794612475787909,
        0.04408001762663963,
        0.0318962755840141,
        -0.013118715474703987,
        -0.011724239910628029,
        0.025892662871115246,
        0.018948607727037152,
        0.0017108398514740107,
        -0.07705920342947217,
        -0.12283822283746686,
        -0.10658579574591637,
        -0.028309425473036828,
        -0.002102082237021606,
        0.032852151979071514,
        0.02411505328124034,
        -0.01005197379052671,
        -0.014463985662147036,
        -0.02858142023249871,
        -0.0015778636456578407,
        -0.06884990708202615,
        -0.0786827591648294,
        -0.04597300139683342,
        -0.02334522394388565,
        0.032966852510788694,
        0.0866758735673712,
        0.04493973059404816,
        0.027456406394297195,
        0.05335339491141116,
        -0.024104504374743912,
        -0.014428383112973769,
        -0.007292847895411158,
        0.024444178280153293,
        0.017370879149791726,
        0.035287291903823625,
        -0.001622815475737218,
        -0.06925076006017125,
        -0.020727385383506294,
        -0.049837136627237905,
        -0.034294566822509955,
        -0.005008649911177049,
        0.011924891753800548,
        0.009854968489434655,
        0.00018294401535329566,
        -0.043232273810620156,
        -0.05466397776161195,
        -0.013160414349908075,
        0.07045749644431636,
        0.06604936299664908,
        0.03190150861981624,
        -0.016716508538818765,
        -0.009940800193701055,
        0.0335649146759476,
        0.06490623283129741,
        0.06151039636797355,
        0.09491413087672831,
        0.09414117797024367,
        0.07378571411886944,
        -0.01734047195272291,
        -0.06258333172076261,
        -0.09223086898390111,
        -0.143707742281252,
        -0.12772164064516783,
        -0.09668617167187113,
        -0.08970066711138525,
        -0.008882752482796328,
        0.0004635906659730361,
        0.028556920672277088,
        -0.02024140213919219,
        -0.018801659043899188,
        -0.03650649462382802,
        -0.004440023160961026,
        -0.0030052743411224016,
        -0.05518085499809696,
        -0.04255468246764581,
        0.02710147480021547,
        0.07596033961988383,
        0.08722204602051362,
        0.015532266712080744,
        -0.04059502785724684,
        -0.01762592310744187,
        0.018674647789767983,
        0.037833961143705595,
        0.05010899682723029,
        0.0648078595166843,
        0.036276468718900653,
        0.02150649199406251,
        0.03347899559627409,
        0.03534435646637743,
        -0.023783406599830012,
        -0.0022114434708523853,
        0.032055851621500014,
        0.036704816206449616,
        0.10577285093573054,
        0.08357072896671312,
        0.024100046123489212,
        -0.11311551688974017,
        -0.11952393346178446,
        -0.09211699045539043,
        -0.09256399651158446,
        -0.06060453961976056,
        -0.006739864597224549,
        -0.023500079129267375,
        -0.021299131201041946,
        -0.0692631021771555,
        -0.07635261834676288,
        -0.00017345710462348106,
        0.07375573344355829,
        0.08942334507288541,
        0.07691435099075514,
        0.03659593572525918,
        -0.007991072619833275,
        0.06161766732853553,
        0.1174235155320233,
        0.12521890080664616,
        0.0651009150135349,
        0.04558567998843756,
        0.0030349932488796653,
        -0.028291889362381684,
        -0.04248217715323567,
        -0.04635678935974844,
        -0.06458782783257953,
        -0.0277243294137091,
        -0.015432500354582383,
        -0.06699227138129901,
        -0.040243642534654775,
        -0.016765717351259722,
        0.021288715251605896,
        0.06726699328336352,
        0.07588764932431664,
        0.06108902342601386,
        0.048169662115784,
        0.04480940975697014,
        0.055063444036945595,
        0.12147261399098037,
        0.15524560511231167,
        0.148429579238313,
        0.14635854969948303,
        0.13822331170378077,
        0.10222296505044087,
        0.0721280306772101,
        0.060622378010182644,
        0.06539598500041971,
        0.03515060064448983,
        0.0064583925620431745,
        -0.04275663396011041,
        -0.06424128219434068,
        -0.06389335309135771,
        -0.00017579855320898482,
        0.024517569157415854,
        0.039404298791351135,
        0.030487645587689037,
        0.06811372664425958,
        0.07300524785419123,
        0.0938331560753975,
        0.097415744271876,
        0.056458559268156086,
        0.03266273327257076,
        0.014382908519946523,
        0.051755183684098566,
        0.05984134641075986,
        0.053935164724423126,
        0.0471542140126056,
        0.02400690482955089,
        0.04919978724302961,
        0.09354754176833505,
        -0.006785107295130235,
        -0.03794085722911328,
        -0.07147093505725141,
        -0.12215463731992358,
        -0.07197173219032543,
        0.018429911253685205,
        0.027663752363420432,
        0.04067273541173204,
        0.08652762751385368,
        0.05320550050568646,
        0.06116790645579774,
        0.08819567789529255,
        0.03726525267018123,
        0.018410233300010268,
        0.021793047161738254,
        0.009969129561953335,
        0.007143337687015741,
        -0.023181784324193346,
        0.01315997920592393,
        0.08649217301472134,
        0.05384245866220942,
        0.04959974880823466,
        0.031696003895587896,
        -0.03257579315329996,
        -0.007652623808949256,
        0.0312540101850292,
        0.042713217250764074,
        0.06865838980918586,
        0.06948659474209357,
        0.021516850952960007,
        -0.053766115944760905,
        -0.042887808516297934,
        0.042335014519475814,
        0.03524892681470369,
        0.03941207145426687,
        -0.01414824302944866,
        -0.0811071908593731,
        -0.047729921148609175,
        0.017099598599337424,
        0.047255573387940494,
        0.11773634515761125,
        0.11841038927732467,
        0.05922087071091876,
        -0.03411621681708217,
        -0.03452729044930111,
        -0.04738043062635269,
        -0.00033553002988721126,
        0.033097990327569785,
        0.03421074958990812,
        -0.06862118650061774,
        -0.09175972554080224,
        -0.08710415718867992,
        -0.051946966419054046,
        0.010380137866075395,
        0.09832318413468966,
        0.06415823774105398,
        -0.0032969395911677983,
        -0.006642245718013041,
        0.0034673621196565207,
        0.033254954625755034,
        0.06484048525047573,
        0.056590078022751844,
        0.024978745857826605,
        -0.010166872922995297,
        0.023956519017518524,
        0.08343184024975307,
        0.12328618273528551,
        0.14607013763941878,
        0.1419761415076855,
        0.08585589986627909,
        0.049591977129077335,
        0.009715701135315958,
        0.0060216850496874995,
        0.01900093380109992,
        0.015600868018404199,
        -0.015239617846593848,
        -0.03443663094412085,
        -0.06275995496899203,
        -0.06441992815124706,
        -0.057577425719244145,
        -0.03269726076874098,
        -0.03869195129848365,
        -0.03942480932403754,
        -0.0483011759287167,
        -0.021172698220478608,
        -0.03171465348629436,
        0.003914324812769527,
        0.01992984674335642,
        0.04833231146511065,
        0.06677148183309126,
        0.029156942315874068,
        -0.02729080027347908,
        -0.06955388259317347,
        -0.08936533989902254,
        -0.07150838143326044,
        -0.048745347841369684,
        -0.053003225303618284,
        -0.08167579067216535,
        -0.046083491278664374,
        0.03676167550944559,
        0.01892211845543068,
        0.06270467190344595,
        0.04987918907894424,
        0.044806471436916046,
        0.0644980507393173,
        0.05673795581011295,
        0.00228720558074806,
        -0.025060465727025447,
        0.022701753518006275,
        0.047516368551015264,
        0.006334979943907992,
        0.042557504989977936,
        0.0461544571880121,
        0.05890232580839422,
        0.09774509749935639,
        0.11156987527126211,
        0.03415609604992424,
        -0.04736215596842025,
        -0.12882905382716273,
        -0.14257696952270602,
        -0.06281118910603738,
        0.013505525105242886,
        0.0743812099243711,
        0.062088574251026665,
        0.05829599678113598,
        0.015229198887038511,
        0.024711628808999853,
        0.0237260445393312,
        -0.038280780070909834,
        -0.07233956341296433,
        0.03241310652135769,
        0.1328869685451668,
        0.15765582630599484,
        0.09948136699397808,
        0.008183767805177402,
        -0.04749274324778449,
        -0.02624820556230857,
        0.08300587696069311,
        0.09669565240892908,
        0.013259940940299291,
        -0.06473495401976559,
        -0.14194752937015387,
        -0.12075794248981979,
        -0.1150500523937612,
        -0.09119131148394494,
        -0.08458408651882302,
        -0.0671201112222252,
        -0.109991686769886,
        -0.05540030365093483,
        -0.049331864840250206,
        -0.024661376264316144,
        0.02549505318652428,
        0.007998348190371308,
        0.011993761301965396,
        -0.005625064124021529,
        0.0005863361860407447,
        -0.0039624793765202105,
        0.032927505971154986,
        0.003841318464387577,
        0.008469368638964862,
        0.014284875933160508,
        0.020676032594492966,
        0.017733214816916934,
        0.03020095009992161,
        0.04823546695161826,
        0.004077361452038493,
        -0.038059718947572097,
        -0.09304184663071902,
        -0.08265216359934702,
        0.04813856797047407,
        0.08722087575860459,
        0.061233678788445725,
        -0.01288168680692924,
        -0.07763645940343356,
        -0.06761354214715803,
        -0.038257053504329716,
        -0.04250413027870158,
        -0.023292646060194606,
        -0.04071860598389013,
        -0.02807361920378885,
        0.017779853733055087,
        0.05100902647752027,
        0.02954890046672107,
        -0.018025595177082507,
        0.0017437966247320288,
        -0.03232990302322702,
        0.0562417373449393,
        0.0964665632339692,
        0.12682184133494898,
        0.07648111942289823,
        0.0549572376548607,
        -0.07411801797945101,
        -0.05177904681470958,
        0.007503149418738668,
        0.02217142791252312,
        0.017064463815680192,
        0.09043892804806483,
        0.05696154451229048,
        0.036881315882080254,
        0.033838808649135715,
        0.014617008690038395,
        -0.029732721253944123,
