{
    "train_site": [
        "DRIAMS-A",
        "DRIAMS-B",
        "DRIAMS-C"
    ],
    "test_site": [
        "DRIAMS-B"
    ],
    "seed": 545,
    "model": "mlp",
    "antibiotic": "Ceftriaxone",
    "species": "Klebsiella pneumoniae",
    "years": "*",
    "test_size_obtained": 0.01673866090712743,
    "prevalence_train": [
        0.9071938495332235,
        0.0928061504667765
    ],
    "prevalence_test": [
        0.8709677419354839,
        0.12903225806451613
    ],
    "sample_sizes_per_train_site": [
        1554,
        121,
        146
    ],
    "train_proportions": [
        0.75,
        1.0,
        0.5
    ],
    "metadata_versions": {
        "DRIAMS-A": {
            "2015_strat.csv": "56d646ce31a05dd704a4a6693aabc413a4e75f76",
            "2016_strat.csv": "d06fff6b6b60af9fc10fadc858cf5624808aaf3f",
            "2017_strat.csv": "a474ce364f6d3e201b3a527d8786e2c31bbc8577",
            "2018_strat.csv": "e650292c172f16845899c3a566b8f3c427b3e9c2"
        },
        "DRIAMS-B": {
            "2018_clean.csv": "27380b0a9a43a1e699b4b311235211ccfd2a76f2"
        },
        "DRIAMS-C": {
            "2018_clean.csv": "0e0d2a1ebdfeed3f39f7dae50f4000328e7da075"
        }
    },
    "scoring": "roc_auc",
    "best_params": {
        "mlp__activation": "relu",
        "mlp__alpha": 0.0001,
        "mlp__hidden_layer_sizes": [
            256,
            64
        ],
        "scaler": "passthrough"
    },
    "y_score": [
        [
            0.9893640240483642,
            0.010635975951635764
        ],
        [
            0.999873766462888,
            0.00012623353711200421
        ],
        [
            0.9996816869535148,
            0.00031831304648516546
        ],
        [
            0.9997106127092158,
            0.00028938729078421306
        ],
        [
            0.9657470738497262,
            0.03425292615027381
        ],
        [
            0.9999932177753218,
            6.782224678201888e-06
        ],
        [
            0.9999671110755962,
            3.2888924403812165e-05
        ],
        [
            0.9955086182032513,
            0.004491381796748692
        ],
        [
            0.9594054749717071,
            0.040594525028292916
        ],
        [
            0.9998342620343011,
            0.00016573796569881275
        ],
        [
            0.9998648560982782,
            0.0001351439017217709
        ],
        [
            0.0017796355990249424,
            0.9982203644009751
        ],
        [
            0.9995823586666691,
            0.0004176413333309033
        ],
        [
            0.997331640724139,
            0.002668359275860911
        ],
        [
            0.9925474870565353,
            0.007452512943464666
        ],
        [
            0.9998437624095193,
            0.00015623759048067365
        ],
        [
            0.9999912087199728,
            8.791280027143645e-06
        ],
        [
            0.999990308566669,
            9.691433330973512e-06
        ],
        [
            0.9999869748630669,
            1.3025136933130392e-05
        ],
        [
            0.07541634186650492,
            0.9245836581334951
        ],
        [
            0.9987129795057939,
            0.0012870204942061966
        ],
        [
            0.8917935526893278,
            0.10820644731067217
        ],
        [
            0.9974461592246947,
            0.002553840775305318
        ],
        [
            0.9997032743159827,
            0.0002967256840172784
        ],
        [
            0.990767623046004,
            0.009232376953996077
        ],
        [
            0.9997616876233525,
            0.00023831237664747584
        ],
        [
            0.9996743864743133,
            0.0003256135256866694
        ],
        [
            0.9999948082658001,
            5.191734199911222e-06
        ],
        [
            0.9998797233383044,
            0.00012027666169560747
        ],
        [
            0.9942322751950708,
            0.0057677248049291
        ],
        [
            0.9998476047676824,
            0.00015239523231755107
        ]
    ],
    "y_pred": [
        0,
        0,
        0,
        0,
        0,
        0,
        0,
        0,
        0,
        0,
        0,
        1,
        0,
        0,
        0,
        0,
        0,
        0,
        0,
        1,
        0,
        0,
        0,
        0,
        0,
        0,
        0,
        0,
        0,
        0,
        0
    ],
    "y_test": [
        0,
        0,
        0,
        1,
        0,
        0,
        0,
        0,
        1,
        0,
        0,
        1,
        0,
        0,
        0,
        0,
        0,
        1,
        0,
        0,
        0,
        0,
        0,
        0,
        0,
        0,
        0,
        0,
        0,
        0,
        0
    ],
    "feature_weights": [
        0.03510155235945655,
        -0.006140040411937843,
        -0.03535735708281174,
        0.07950776551403699,
        0.07208619745089698,
        -0.0010790017878272594,
        0.04453621922398117,
        0.05866800808901107,
        0.05423525018905348,
        0.027226370013582826,
        0.07066306437137068,
        -0.00930535237776594,
        0.006860654642763123,
        0.06216269728626438,
        -0.012851027675078914,
        0.009888890649898377,
        -0.003967716975404929,
        -0.01138200985044793,
        -0.04744695327744227,
        -0.0290537657542168,
        -0.03972383881879897,
        -0.038013473319704255,
        -0.03317624135242688,
        -0.016730488584812842,
        -0.026066714064428634,
        -0.16205641844823232,
        -0.010925176430335564,
        0.025098915815706075,
        0.011933747244711728,
        0.03393977429378574,
        0.013852445368090965,
        -0.06869181810538989,
        -0.025896085988276866,
        0.013067637928152558,
        -0.005793728726522762,
        -0.014345005508955875,
        -0.001924978532561317,
        0.04574308570584089,
        0.07899130905564872,
        -0.010933862848042276,
        0.0010189131461495885,
        0.00507444115743338,
        0.06385723563458369,
        -0.05705215796571758,
        -0.059517981845768404,
        -0.038025808900522116,
        -0.058823055459989296,
        -0.0353516321891918,
        -0.03381900554559614,
        -0.10119434438394666,
        -0.08161129524639238,
        -0.09897891883655839,
        -0.12208317594061498,
        -0.03122666873422106,
        0.01941072283167331,
        -0.023221259697572223,
        0.07396449497614856,
        0.063198507831857,
        -0.03660564414600436,
        0.034706571639767175,
        0.035446669824316136,
        0.03272934987723759,
        -0.01694037271068803,
        -0.04697795795237858,
        -0.037917221698396675,
        0.10764635295874339,
        0.04560113960097307,
        -0.019326924573802057,
        0.0406904462022111,
        0.09418478395619737,
        0.060987157847909805,
        0.006507701244804771,
        0.04092466686306455,
        0.038434687525687614,
        -0.020683029412588805,
        -0.013112547768681867,
        -0.018683172016039896,
        -0.02372955231343965,
        -0.07476823005919435,
        0.013750649021069972,
        0.05134657812107049,
        -0.0037509426583519113,
        0.03147696607962103,
        0.025194756144843723,
        0.05373969182517765,
        -0.035075678526438975,
        -0.058402974489814984,
        0.041897562871619345,
        0.1055036702525863,
        0.0830940403349473,
        0.014075832311934468,
        0.016743633503459768,
        -0.07577186841663446,
        -0.1267708874321848,
        -0.07083335346152606,
        0.04250900363368821,
        0.02899133721963858,
        0.09711727476078329,
        0.04479036199994697,
        -0.01412413003469717,
        0.041717041811439495,
        -0.048710932131322576,
        -0.028813040601614083,
        0.04089471030409861,
        0.002311561128833836,
        -0.03630324702835296,
        0.005069735350323798,
        -0.020943821935117145,
        0.025914409699339738,
        0.16283893886441506,
        -0.03700426085118533,
        -0.05853272210634128,
        -0.002971981641911752,
        -0.04332394355546919,
        -0.0006214267687641236,
        0.03466494012890965,
        -0.0023411750376232097,
        0.002810338563625239,
        -0.0527300401039582,
        -0.04428917717572245,
        0.015239916315800676,
        0.00843941819956865,
        -0.024893766886015675,
        -0.05194912822733347,
        -0.08746360357674648,
        -0.08356083622752017,
        -0.05205577627103308,
        -0.05179553681645294,
        -0.001033278131428899,
        0.08324849180108068,
        0.10506061923744413,
        -0.0059793817681893955,
        0.0053911459793247185,
        -0.029309136132360067,
        -0.02242536473512856,
        -0.01190065537718383,
        0.027425665293528738,
        0.009613123851953115,
        0.029055907165900924,
        -0.0031605237019303664,
        0.006260745009574627,
        0.013393635946423472,
        0.06403770179487951,
        0.004681616894339737,
        0.023029337433251626,
        -0.026318253317683747,
        -0.01294591061884428,
        -0.026065490736995864,
        0.04606926681687294,
        -0.05417434945914747,
        0.020920715231776008,
        -0.014970342792006536,
        0.03959593652366691,
        -0.09999747629872469,
        -0.1024041650073825,
        -0.07059494292817262,
        -0.02516915280477336,
        0.052670207133729524,
        -0.04671592928535206,
        -0.10505707967589228,
        -0.06681086675797004,
        0.0063250500503538075,
        0.0277232990336184,
        0.029459238850284283,
        0.03355412365372598,
        0.014149610031900526,
        -0.023833549446304093,
        -0.030146442967209856,
        0.02150792272612741,
        0.0446088749109514,
        0.03668656511373479,
        -0.01964650794313941,
        -0.029484339462345553,
        -0.013782425038601526,
        0.012250333500996368,
        0.024983833897395787,
        0.03654159190285349,
        0.05533461872319292,
        0.037372926611604844,
        0.024601039466563446,
        -0.015832170272610854,
        -0.04914382693223443,
        -0.020887879663836977,
        0.0012933806535235443,
        0.037082284286077405,
        0.10819990521693912,
        0.11768417852243844,
        0.09981845400474149,
        -0.03525155324422375,
        -0.04004027397229576,
        -0.031151626138061647,
        -0.028000697936632377,
        -0.015566127854575172,
        -0.0005909565360777342,
        -0.005377585067629138,
        -0.035309146366715755,
        -0.027770858050363292,
        0.010121763391317437,
        0.011429136295660468,
        -0.010157974011927444,
        -0.0018101626209249158,
        0.012109686809268643,
        0.10949044703341296,
        0.04851444843277518,
        -0.010876439372678529,
        -0.03284596985853098,
        -0.04482952370870866,
        -0.030576780002364422,
        0.034346076377230944,
        0.03970627837099228,
        0.044808573010384836,
        0.037162312059767305,
        -0.008582426209992403,
        -0.0686120375107761,
        0.10445152096277593,
        0.01616670359165749,
        -0.054824180666479136,
        -0.01315135743904847,
        -0.017415204637853957,
        0.09373851853502521,
        -0.05091918623160274,
        -0.0012812048971725543,
        0.12093111430624748,
        0.02726658503656785,
        0.006065424167607837,
        -0.0421252741176566,
        -0.03367854237366541,
        -0.03294904378483651,
        0.043756571712231705,
        0.03543370401676253,
        -0.0027318222424738223,
        0.0005971487282139672,
        0.032487201129501764,
        -0.040164087581227206,
        -0.12321019982893054,
        -0.07121747052922935,
        -0.005968914702343657,
        0.006580674370733792,
        -0.04054546249038358,
        -0.019456874330851734,
        0.010593739228004592,
        0.031081620145894995,
        -0.02384827838682098,
        -0.008964102803654264,
        0.08101930633016409,
        0.0777940955055264,
        -0.010662810723951508,
        -0.012358488190270626,
        0.00482451042076449,
        0.06420826884093772,
        0.04353849153140803,
        0.006302610692255179,
        -0.04540258446131046,
        0.07761887832016401,
        0.016985710858706468,
        0.03267608715197873,
        0.047092259596090105,
        0.09307094483109113,
        0.15104805449453163,
        0.03108013860512254,
        0.008505212331397172,
        0.07862942440133658,
        0.03045363538572663,
        0.00691919060064275,
        -0.005177346537923826,
        0.032275202753866236,
        0.0015518281477487313,
        -0.02126652110552149,
        0.015053514151777449,
        0.02783034731699932,
        0.04363241405077904,
        0.039594165048739596,
        0.01946617611715159,
        0.012883818735251781,
        -0.050701042675461536,
        -0.07181974755563901,
        -0.04922851670701926,
        0.06328597416406828,
        0.06997785248370945,
        0.03013508645946754,
        -0.07979118109452274,
        -0.04831521435445446,
        -0.08496622299217318,
        -0.0355214594965671,
        0.03846967694012083,
        0.019343880615970435,
        -0.05374926778246418,
        -0.11524633724002409,
        -0.06342119002033708,
        -0.026495280767506603,
        0.017606325212636123,
        0.05703381849498575,
        -0.00026475572091570895,
        -0.06381401455101661,
        -0.07534039051255625,
        -0.0783017960109463,
        0.002052901556636015,
        -0.1599683187514066,
        -0.18435493325221933,
        -0.04928785271906606,
        -0.017829838513342487,
        0.013041987333294255,
        0.044599594060058007,
        0.08690238460547084,
        0.011468988858413734,
        -0.012275813504306543,
        -0.043245926492389807,
        -0.05600215151549746,
        0.024231416102157406,
        0.001430231651605149,
        -0.03286571640042636,
        0.007910287559371256,
        0.04428387824453575,
        0.050086468113423085,
        -0.013255347132813719,
        -0.06894449299813664,
        -0.03895881748996302,
        -0.011054153963015392,
        0.007823569448079189,
        0.025622796180905315,
        0.015618088409331925,
        0.03096681782175394,
        0.007832985087438245,
        0.033897920278509325,
        0.0007426397507644702,
        0.03988375564644821,
        -0.009687423174283795,
        -0.02140563559559008,
        0.004586375459271569,
        0.040769156383786406,
        0.021761683838741636,
        -0.006953546620931639,
        0.018772446562561333,
        0.03099639667943851,
        -0.016044737684257397,
        -0.006019979180695294,
        -0.0011850532919758256,
        0.0020881872858975778,
        -0.023002435738125604,
        -0.017329212095573136,
        0.04528298812424289,
        0.0794217652005973,
        -0.0034599320343849166,
        -0.014833824120374378,
        0.03473774989366532,
        0.042900069085868964,
        0.10574606459499716,
        0.047781494808583236,
        0.07137850384614958,
        0.1028004694210915,
        0.05489564612931498,
        -0.0819739793456635,
        -0.011011311768394321,
        -0.06585791761651322,
        -0.0486425315853664,
        -0.033705175153924224,
        -0.026786207992913327,
        0.00739678386519654,
        0.021497810469842796,
        -0.026233974626429728,
        -0.01436133094112772,
        0.006859369052320083,
        0.04490966353401624,
        0.02098938234123957,
        0.014178883515509555,
        0.024834060680312423,
        0.07900305778784024,
        0.008419781416432475,
        0.062116425476299086,
        0.01579685110163283,
        0.05051566402702974,
        -0.002798994924527025,
        -0.0433070819250352,
        -0.15566617957028428,
        -0.1108175509164641,
        -0.08318853556570975,
        -0.06426303543821862,
        0.06533657657292324,
        0.012738832162961528,
        -0.02767339140141457,
        -0.0036532429533215017,
        -0.01365220647554297,
        -0.026239022419045452,
        -0.037304165829952676,
        -0.001943934102984595,
        0.01160557810049546,
        0.05252624725258291,
        0.08586264872511644,
        -0.013205273130371764,
        0.004308857370096862,
        0.01899872354616293,
        0.03601241441058857,
        0.05011398657174086,
        -0.000428344692080451,
        0.001014116364508854,
        0.01077404071231789,
        -0.01220480646007593,
        0.015118982405124874,
        0.030524781968787176,
        0.031361315342923274,
        0.058993447078569676,
        0.133175023102396,
        0.11088617181090606,
        -0.0007548299435224705,
        -0.06971827551955057,
        -0.018724389847322172,
        0.001464771710499275,
        0.004028681224118247,
        0.03680735521559722,
        0.013223066821528167,
        -0.022995581974823487,
        -0.006448298963855986,
        -0.0018410639186995062,
        -0.016710660691549247,
        0.02086673481133455,
        0.036841936628039626,
        -0.08353197908719986,
        -0.12689973087374304,
        -0.05338129898571034,
        0.09218728614574759,
        -0.08409370431153415,
        -0.11792753592706992,
        -0.024910085697178577,
        -0.09252491725746839,
        -0.1824106775928557,
        -0.030914849670899858,
        0.08366720395976837,
        0.15718276414168159,
        0.13677569663007627,
        0.03155666454221887,
        0.07034604480415946,
        0.1648561448792908,
        0.09459823431281511,
        0.0184320518670451,
        -0.029280309467814174,
        -0.0004961623948116779,
        0.03894548178996886,
        0.06604455000197963,
        0.00783295623220314,
        0.02904605960696857,
        -0.017059004010594278,
        0.04544416018800919,
        -0.0010380698814962614,
        -0.017207663153014557,
        0.020018060996255763,
        -0.027008313321916062,
        0.06162096024657823,
        0.0035638638839230806,
        -0.018671760394453327,
        -0.03585642996945573,
        -0.023163263610277728,
        0.023768782267053465,
        -0.058866007736242607,
        -0.031707976304369015,
        -0.04929254888231395,
        -0.00510429559208846,
        0.008871213947487598,
        0.04813608036353498,
        0.07354952216165911,
        0.002763062542987039,
        -0.024286919788351395,
        -0.0777724865556827,
        -0.09660413972500793,
        0.017107147356802237,
        0.09701439254094942,
        -0.01678191061026383,
        -0.14009462710597248,
        -0.12352097537500174,
        0.060709712674998174,
        0.16822110029767315,
        0.12310059243585325,
        -0.016759634093002053,
        -0.005454544766575432,
        0.029083740415628227,
        0.014263523538124618,
        0.02785831080531003,
        0.010732051322749186,
        0.04142541155247779,
        0.09603594361428192,
        0.11953046716824084,
        0.015911942770933656,
        -0.029637198588455756,
        -0.015692684120859453,
        0.020129961597113433,
        0.09803918954615806,
        0.004731513350150313,
        -0.06272159725017479,
        -0.07985136154847519,
        -0.03965822614413044,
        0.011730177456585729,
        0.1403882740578871,
        0.08718334620612953,
        -0.07507348579880825,
        -0.02406987272389556,
        0.004465253518931097,
        -0.04859197174742373,
        0.02785707833088196,
        -0.018452075034148734,
        0.01618199093632459,
        0.10373982417590141,
        0.051858112333786774,
        -0.07583281737974479,
        -0.09860966258449413,
        -0.0119656071715364,
        0.0029486874543447963,
        -0.05799775014601995,
        -0.09823673148766186,
        0.014509332158191609,
        -0.007963004407715506,
        -0.04502748792373892,
        -0.008728405054304547,
        0.03483690322469599,
        0.05093454151189393,
        0.10588208481932558,
        0.06337297488022936,
        -0.13537065225747952,
        -0.08040190538720901,
        0.039234319113871215,
        -0.017084818455403463,
        0.026870109714953273,
        0.07991837633594658,
        0.0303143051282589,
        -0.05385438060519104,
        -0.04438958220020291,
        -0.025699961042816476,
        0.004211609020364545,
        -0.0018125559680860495,
        -0.0456242312481625,
        -0.00300930433206446,
        0.022991921224741724,
        0.05337008971444893,
        0.05253827016720574,
        -0.07328731122317451,
        -0.027896599139954924,
        -0.007528728013495965,
        -0.06125718572371681,
        -0.13846269246001197,
        -0.06308776777539152,
        -0.001350619936597179,
        -0.019857683825056295,
        -0.020160720725424314,
        -0.04979588418043024,
        0.008413476094141304,
        0.04472308439447838,
        -0.051475748315413614,
        -0.06503861603183603,
        -0.07075890747299793,
        -0.012222900520075875,
        0.04915985045586013,
        0.066803868846465,
        0.04091062332738862,
        0.05989999926939999,
        0.032241773627171615,
        -0.008804426236287967,
        0.02807799996470763,
        0.007809337558618701,
        -0.02255836100066818,
        0.0067010649445419,
        0.007629952248106922,
        0.0023904744309646017,
        -0.01702143048893815,
        0.030800426378223854,
        0.0006479841543110259,
        0.06229322687454185,
        0.038232372959439286,
        0.05616070803325531,
        -0.01396733397630406,
        -0.04083741530477426,
        -0.03789803475829154,
        0.00228301375312055,
        0.016011514744158704,
        -0.034236006843366834,
        -0.12598705931766285,
        -0.09648157634543066,
        0.08785745483778326,
        0.16453908301195463,
        0.008308182619071024,
        -0.0792994863365504,
        -0.05392425867379273,
        -0.032037336198315454,
        -0.07162663697459623,
        -0.013165298158315313,
        0.07949370353309387,
        0.12122709915150268,
        0.026738182703237273,
        -0.06923714054784644,
        0.06069838959659303,
        0.1445815669298313,
        0.0916035337271885,
        0.11080897169549865,
        0.07041347496099049,
        0.038103312340660736,
        0.06496817676459711,
        0.019245408593600813,
        -0.03297603072311071,
        -0.03900429367287052,
        -0.10805149076411422,
        -0.1026571703958829,
        -0.13041046002757592,
        -0.10220732153257295,
        -0.05212134550403629,
        -0.027905899242570968,
        0.01894171122126227,
        0.1271674132098146,
        0.07615958835477657,
        0.02793571814490245,
        0.02720984659098398,
        -0.027906283459770018,
        0.003893539831050231,
        0.05409740147538437,
        -0.03291458464324251,
        -0.0405869021261888,
        0.014509666695568833,
        0.11765710402533248,
        0.04504583267496748,
        -0.021425800758312456,
        -0.017428760900230822,
        -0.008142857722992886,
        -0.010128954992654135,
        0.03176369891424113,
        -0.012898333539356389,
        -0.0793675348810528,
        -0.03673375140781723,
        0.009280064431595328,
        0.006042880041117863,
        0.031671242481365665,
        0.06997679553542933,
        0.0471757365443836,
        0.06889318533975625,
        0.05744573077777866,
        0.069229232578804,
        0.03519761654955647,
        -0.056259770795601974,
        -0.10109513986111592,
        -0.012160859055960701,
        0.0655553167990929,
        0.056958720208292055,
        0.059223601826676235,
        0.04636877350367039,
        -0.002284090471822316,
        -0.040421608516368265,
        -0.03888907967478143,
        -0.03996110930721038,
        0.07148281562761256,
        0.07771734498037762,
        0.04169277364927589,
        -0.007995954480902918,
        -0.009394677033276578,
        0.004594191162150258,
        0.04983098058650223,
        0.03708279476575577,
        -0.008961009981856616,
        -0.056164757934219336,
        0.012074587322534016,
        0.030249964053603348,
        -1.025549989799564e-06,
        -0.10019244255179904,
        -0.06376455822881105,
        -0.043933142206414415,
        -0.02154122961321921,
        0.009211768042676838,
        -0.07089188335889554,
        -0.10500538064546559,
        -0.04692711483137349,
        0.02980073145957006,
        0.09072669325465307,
        0.010506778990240894,
        0.056893243696227155,
        0.013132467854755293,
        -0.07571273276590429,
        -0.09062226516227027,
        -0.048806130571649356,
        -0.056803285293895035,
        0.08086974417557813,
        0.14856844835929145,
        0.021413135710998524,
        -0.013103542592159834,
        0.020978946829478397,
        0.04951878741678651,
        -0.010807222038043265,
        -0.012351679967614024,
        0.009910541085715256,
        0.03564168386778967,
        0.06687935862031792,
        -0.017280858300821426,
        -0.014445800675904064,
        0.03996081978685587,
        0.0514964632149834,
        0.05178711261413235,
        0.10008547985841855,
        0.08031089257344164,
        0.05076218817009068,
        0.0230624979959942,
        -0.041929403479225996,
        -0.06924672997840427,
        -0.036525116925918755,
        -0.07330585128084169,
        -0.08352848676498811,
        0.005233993471551162,
        0.0869657254546349,
        0.031190457715095772,
        0.0670536639291588,
        0.1019460398008723,
        0.08247906151521,
        0.04592731149167436,
        0.06754544059752172,
        0.06113949077673893,
        0.04107627611846378,
        0.030155630402731108,
        0.029711471878180715,
        -0.005110788515944617,
        -0.07817581267274365,
        -0.02841987620696566,
        0.03963299423417033,
        0.043346570439773455,
        0.02789494669412567,
        0.004338079969166972,
        0.005296330693991444,
        -0.007000166750807939,
        -0.03371295246951335,
        -0.04611396059157861,
        -0.03196978048384714,
        0.025157475205970184,
        0.03959194241024619,
        0.07156034662183171,
        0.08026690353375923,
        0.0673946217638858,
        0.015021845267265903,
        0.0037657699958185513,
        0.022135277120529893,
        -0.009300667033594438,
        -0.021901827882787647,
        -0.024255866027577847,
        -0.05256408819681495,
        -0.07803542064466686,
        -0.05810812240140388,
        -0.030846903247051295,
        -0.02536216118838565,
        -0.07139483161218077,
        -0.0883002032962838,
        -0.010915855684759113,
        0.006807278516459753,
        -0.035560401012650476,
        -0.03301284095412191,
        0.04304262597828419,
        -0.01733603654674653,
        -0.12520638094094036,
        -0.05225742813599986,
        0.01536055639367154,
        0.025680767662373122,
        -0.0056083209414796095,
        -0.018369198388619855,
        0.0423203450562737,
        0.089182826951914,
        0.048353645125600364,
        -0.05151440178265959,
        -0.06586599015641242,
        0.06737375247897942,
        0.20579399902612863,
        0.2611233098881609,
        0.027421984638387242,
        -0.015636437812693194,
        -0.004442723025935442,
        0.04477342865829731,
        0.049992209934135515,
        -0.01380230140851412,
        0.007151315834912777,
        -0.007756292528132182,
        -0.006894382990354354,
        -0.011143338694021471,
        -0.0017631727060147106,
        0.14529944664247313,
        0.1484352118167634,
        0.05956703716429425,
        0.050180136783813646,
        0.07305571137395747,
        0.01636661463350513,
        -0.02271307148924558,
        0.0684033158826061,
        0.14278238923836567,
        0.1514628210873188,
        0.1348976062889122,
        0.12251354900478531,
        -0.013394419218545593,
        -0.005706249621740065,
        -0.025597910516971356,
        0.0008993583700868263,
        0.019397822761195595,
        0.021937331274794275,
        0.015956322604944742,
        0.021272875246220187,
        0.057656908294429154,
        0.04681426920192196,
        0.035494371618857455,
        -0.08774215487018872,
        -0.07884048003573463,
        0.003491457395644311,
        0.02310616810081194,
        -0.009445258940270191,
        0.052642694228657444,
        0.08615060287672663,
        0.10161136987081443,
        0.07080852091284037,
        0.046290366004508254,
        -0.11749412906236938,
        -0.1977976340282092,
        -0.11674976322044403,
        -0.04108879124617733,
        -0.005496200823163137,
        0.07195278446998604,
        0.06996315920982116,
        -0.015843294624509358,
        0.013587387841524093,
        0.019120331027475464,
        0.0005580576135688253,
        -0.00554828183128563,
        -0.021437693621121388,
        0.037819541920378,
        0.01600967937340082,
        0.014691278828195754,
        -0.01672283873991261,
        -0.013090746824144364,
        0.03622182401248471,
        0.10520377753313317,
        0.007646942815965357,
        -0.05409561839629185,
        0.04762221181497053,
        0.10453860096334334,
        0.08879667879282784,
        0.007277489252847874,
        0.01262631731186465,
        0.03628074266565692,
        0.012356472334714808,
        -0.015872562628533222,
        -0.03716653968087846,
        0.039912626128712374,
        0.015657739397723996,
        0.0416277252213257,
        -0.09287150567350821,
        -0.09957996518139457,
        -0.02439914899750486,
        -0.03977326280377886,
        -0.04295943383612817,
        -0.014786079376841843,
        0.026987746378125056,
        0.07587448326697899,
        0.016066641236842007,
        -0.05294591597531844,
        -0.0028222055289629927,
        -0.018992623530845493,
        -0.036854532297724146,
        -0.07271174976590315,
        -0.0007069269114643921,
        0.04505978965042566,
        0.05539883104989822,
        0.009116464904639614,
        0.024914428466188056,
        0.042272738316938285,
        -0.042832916596064335,
        -0.09028582260436337,
        -0.0942217727584681,
        -0.05505309085030671,
        -0.09038385513141735,
        -0.030073927925286927,
        0.0008904275783157188,
        0.0033899771423024708,
        -0.0022391135413855454,
        0.11043643793182559,
        0.039761501270157165,
        0.009172251620365779,
        0.07004806494555625,
        -0.053629344646620246,
        -0.09915834167951404,
        -0.14046210251033042,
        -0.10851661395255567,
        -0.08655680088551176,
        -0.12564887755210163,
        -0.11171631127074179,
        0.040570292651119305,
        0.010479349753593386,
        -0.027867361228651525,
        -2.9271642656246888e-05,
        0.004570150692587252,
        0.006316902127386994,
        0.00879318011922662,
        0.051591562065554014,
        0.06278428148877632,
        0.08565547851864948,
        0.06496776057544026,
        0.05396105881447054,
        -0.02809203436262895,
        -0.09723432127204393,
        -0.08026264329226962,
        -0.04860375433133812,
        -0.11493670897931721,
        -0.08639260256562803,
        -0.0703340138364444,
        -0.007989364156882705,
        -0.054575170175363924,
        -0.007042232739201189,
        0.07716570014494838,
        0.08965733587691674,
        -0.07131506674304144,
        -0.138541141314717,
        -0.13082532032336364,
        0.093216338142361,
        0.12725442375778862,
        0.08200644912069244,
        0.02998359166462738,
        0.07201199700966207,
        -0.016697487803348447,
        -0.032240579907448566,
        0.009696299856775357,
        -0.03481498462322856,
        -0.0030232749083995277,
        -0.020257288378440198,
        -0.021011992037073247,
        -0.021279045943280568,
        -0.047349096221213825,
        -0.05724523044000783,
        0.024518023938994694,
        -0.024557462370694776,
        0.006786294565082738,
        0.005044040737828069,
        -0.03209288320895417,
        -0.03844217361147449,
        -0.006912640388943604,
        -0.0033803718733126918,
        0.03066777244801453,
        0.013497363617612066,
        0.0326593511641855,
        0.13379344341305607,
        0.012068148870459094,
        -0.04480895538182442,
        -0.08255591048440893,
        0.15730285003973124,
        0.02315683261601434,
        0.010360147759515586,
        -0.06349746352181679,
        0.02329359670148145,
        -0.00041159945083878526,
        0.09241792433113585,
        0.1330475948077718,
        0.07311975820252321,
        0.02810093084257423,
        -0.022118974409634944,
        -0.04016704192904573,
        -0.05784506743545754,
        0.012257154536581785,
        -0.031014517562456566,
        -0.08767478629527356,
        -0.05531855571663813,
        -0.052360783049155195,
        -0.0004021355812460275,
        0.07429407942136973,
        0.15060854450989536,
        0.07627103540464199,
        0.07785887357562768,
        0.056861969338702086,
        -0.053943497159458974,
        -0.05409258817148134,
        -0.040070212680659814,
        0.09774360182323469,
        0.07660718513103779,
        0.08365286231892982,
        0.02277659040110836,
        -0.039402764956028194,
        0.014146873002684694,
        -0.06845761829796455,
        0.005522154264715182,
        -0.06499169267771271,
        0.04255336483873647,
        -0.010810061894912138,
        -0.013798157213965883,
        -0.05564185725625413,
        -0.023242306999440306,
        0.0604661549335164,
        0.09952144675434438,
        0.11331744725373653,
        0.058467987167964766,
        0.01440025406002282,
        0.008181250948965631,
        0.03295304215347393,
        0.10510155066355914,
        0.11955982969089593,
        0.009088173281565772,
        -0.0799618034949531,
        -0.019920190026287286,
        0.03843135473259181,
        0.02296859886468653,
        -0.023557512367121128,
        -0.029972636376433125,
        -0.06252241715984598,
        -0.02538970817548601,
        -0.07780074632139264,
        -0.056492715958657486,
        -0.10874144865071791,
        -0.0973380537373499,
        -0.055551276570939785,
        -0.04999755664512634,
        -0.11165116449281295,
        -0.03639310285687092,
        -0.029402317482605984,
        -0.05688908685942045,
        -0.02918588581893862,
        0.05668139810845456,
        0.06043101978760674,
        0.04037789073137975,
        -0.041435692993187806,
        -0.013239957853399882,
        0.03317817732094592,
        0.037827367238527004,
        0.024004329613911624,
        -0.03929462993842543,
        -0.014770107018648863,
        -0.03124274468414401,
        0.023792728618660573,
        0.017064370196166155,
        0.00926346399429555,
        -0.0016529327773071934,
        0.06523561190856392,
        -0.06951522752048515,
        -0.023995764335448345,
        0.025499475115033435,
        -0.00845329807546875,
        -0.02885941088855874,
        -0.047332550557520336,
        0.0120515994120679,
        0.11294515246533388,
        0.14457260770662222,
        -0.035736330358783305,
        -0.09986211246594792,
        -0.06853379246514729,
        -0.024747349120736797,
        -0.05066803725587876,
        -0.023740886520961943,
        0.041122771909078315,
        0.09948321821342555,
        -0.005457963912161315,
        -0.04119076639951631,
        -0.05079405177017014,
        -0.05325531677871507,
        -0.04881389522944306,
        -0.07712815094929992,
        -0.04602110577928842,
        -0.023315201561698085,
        -0.019663779579177483,
        0.030752668864274076,
        -0.018464793533065606,
        0.028880920333258002,
        0.014779643483051812,
        0.078099492493463,
        -0.007249358965081997,
        -0.02616171695677562,
        0.017479625913692676,
        0.054906262274113465,
        0.025332554365870452,
        0.03621329577549094,
        -0.016227411662576623,
        -0.02714488902757692,
        -0.06397741324303993,
        -0.03343248265388102,
        -0.016711216581033125,
        0.09295035381772096,
        0.030964328304078702,
        -0.0063903145202860705,
        -0.06988836655984106,
        0.06359751132238721,
        0.10515687893406914,
        0.10501065759860491,
        0.004692536972696202,
        -0.006134874327024945,
        0.07857695320363267,
        0.011538253816346742,
        -0.02277946203315374,
        -0.01176409065463118,
        0.041501295660354015,
        0.024322507508794538,
        -0.07832235830255191,
        -0.04551082850154725,
        -0.044509576258278415,
        0.005475952258925823,
        0.038853890933931746,
        0.1007541224207498,
        0.1889507281235835,
        0.16193439557746364,
        0.13998711711788855,
        0.06558369525673068,
        -0.01262188245249959,
        -0.050559758324422895,
        -0.12503643181981403,
        -0.038905662970735104,
        -0.010186102556698018,
        -0.0027707652800218856,
        0.04860461289243978,
        -0.05097783715074803,
        0.06549359427152962,
        0.10645687539175142,
        0.04860180005401454,
        0.17102385132290576,
        0.0388446179013194,
        -0.03053738559664025,
        -0.02514323494583586,
        -0.10007661281589345,
        -0.10901999003902405,
        -0.07508828391812614,
        -0.00954152833307859,
        0.05909507917385984,
        0.052509649580572665,
        0.031477984564518,
        -0.02463381658693868,
        -0.0916579496640387,
        -0.07618000208954906,
        -0.02145494126391499,
        0.05940826683494425,
        0.07722071758078702,
        0.07540945914439143,
        0.12843826226726734,
        0.11562068478210394,
        0.07198500305831125,
        0.025014951610070363,
        -0.01611023000061389,
        -0.05171690367800329,
        -0.01859731515692483,
        -0.030719929727969473,
        0.04789558949018864,
        -0.022590716119438407,
        0.08806842531601725,
        -0.02763639203364362,
        0.04665273469183341,
        0.05056251721128729,
        -0.01511663331301586,
        0.03462590628109233,
        0.015131408033170025,
        -0.12938953684864693,
        -0.17295906468266337,
        -0.16562486461814963,
        -0.20042347212018408,
        -0.19952726067011156,
        -0.11420518645229011,
        -0.10713088763525215,
        -0.048992351360410025,
        -0.0005793817102696004,
        0.016629971566469268,
        -0.03506115350159415,
        -0.08386409660024835,
        -0.11218672639314041,
        -0.01238958472618766,
        -0.10658303540796035,
        -0.1081869970013477,
        -0.04773618812430728,
        -0.05134633187857929,
        0.014079335435688609,
        0.11954388735928596,
        0.10289452301966051,
        0.08762951502169522,
        0.0916278547833174,
        0.03929951981096402,
        -0.05816326651357993,
        -0.04640417579305719,
        -0.035099990012571136,
        -0.09428306939925124,
        -0.11434180099396271,
        -0.013961641185167701,
        0.005840634477360879,
        -0.06272958136117657,
        -0.06830458848676263,
        -0.08164755779316171,
        -0.0557697559343537,
        -0.008769891025293571,
        0.052088103387862364,
        0.01472232007139796,
        0.06665220261323423,
        0.11584875274575157,
        0.0670945608203333,
        0.08209904000695824,
        0.12346203205178558,
        0.06072533019777283,
        -0.047998413123293865,
        -0.06437895389681411,
        0.031356669304407864,
        -0.005843598445503534,
        0.06070802076973055,
        0.03742324399464861,
        -0.06537630767849265,
        -0.1296775992536269,
        -0.03246625998792866,
        0.0616901743197024,
        -0.15327317673874047,
        -0.23527198648415149,
        -0.1989873705671238,
        -0.07943195137680706,
        0.01469454545347935,
        0.012983670644825751,
        0.014702686145656157,
        0.027938730398043614,
        0.024704139576825795,
        0.03787775286996844,
        0.028752218703734192,
        0.04485075959525949,
        -0.09363426584521935,
        -0.09938620182448965,
        -0.015207671823701235,
        0.023592704024306854,
        -0.00885358499065012,
        -0.02055974152980726,
        -0.03980067251151855,
        -0.03730889355244723,
        0.01435398359080925,
        -0.014024031786338702,
        -0.005141170301426154,
        -0.11209512177860162,
        -0.16800563922845896,
        -0.120492607779659,
        -0.07599457654485489,
        -0.08020217781427631,
        -0.02677550728613302,
        0.0356956560218209,
        0.07758332850411295,
        -0.05362561625140252,
        -0.0840014991377627,
        -0.00904727851631391,
        0.09422066571318057,
        0.14248005728244773,
        0.13117402742091105,
        0.08738877610612972,
        0.003130958312805819,
        -0.10868353325616234,
        -0.08152211973325815,
        -0.06644871642185135,
        -0.01237765501121572,
        0.022575546082462764,
        -0.0353978523941017,
        -0.025686496678907943,
        0.007927126143720572,
        0.06769449384136457,
        0.06595064015045579,
        0.09346732911585295,
        0.12513538726705734,
        0.0737469139430181,
        0.030967744218101594,
        -0.03832212883713918,
        0.004056064185433565,
        -0.02545812408836431,
        0.02765267845758728,
        -0.05719812470691209,
        -0.09458162160251882,
        -0.0069387572346932365,
        0.061434165107502256,
        0.10314662883245901,
        0.020016192984817813,
        0.035919147334688976,
        -0.04873917698861573,
        -0.04743901677422441,
        -0.031611775029660005,
        -0.05486199440132766,
        -0.0021851371605543404,
        0.005300051234159331,
        0.03268332799704124,
        -0.007331920065377471,
        -0.049162965455914205,
        -0.07359148170596388,
        -0.08305943148137557,
        -0.08682897695309807,
        -0.016373888901134264,
        0.049583117762346175,
        0.19176160703343992,
        0.24464833482991444,
        0.0844378100256872,
        -0.11509098588929273,
        -0.12017188142512988,
        -0.019405645754075586,
        0.07058987292528507,
        0.026315350774047543,
        -0.030941970390732182,
        -0.05990679867040291,
        -0.08492675206763751,
        -0.014242652622889977,
        0.03700845748994756,
        -0.023060414569110302,
        0.010014388821282649,
        0.0014850773301370484,
        0.0500515731822756,
        0.05063270220069708,
        -0.05664376353319331,
        -0.031191223072640717,
        -0.007581629862286466,
        -0.006019715324732081,
        0.09047573480574853,
        0.1489558835320178,
        0.11242212621826071,
        0.07336958132741125,
        0.02545638141226058,
        0.0762092333076786,
        0.01774678294916484,
        0.0223411114497959,
        -0.033660313044521606,
        -0.09788023487914552,
        -0.07122793146885456,
        -0.0507925608471179,
        -0.03687709757711741,
        -0.09135607190439966,
        -0.06099375326936189,
        0.0028087480483982674,
        0.08244746466548332,
        0.04686319993181259,
        0.04578438801253395,
        0.0015790151970290992,
        -0.0743284966332864,
        -0.0680229459472702,
        -0.09755981291413894,
        -0.0395093068134187,
        0.04754652715115618,
        0.05013860647029277,
        0.015126337577381835,
        0.02704908433229761,
        0.008629919779420785,
        -0.06744268741254608,
        -0.003122587959139289,
        0.04134826371964984,
        0.07910362940066369,
        0.09111606698355244,
        0.022412047821196462,
        0.0084162828088525,
        0.004183284314739907,
        0.005254149739989291,
        0.010262685307098847,
        0.07290637098740144,
        0.0719288669120745,
        0.08129624176551249,
        0.08678182441988644,
        0.09111229279524784,
        0.0501521346338229,
        0.08107375611129206,
        0.1475603114161082,
        0.17590882500639526,
        0.15466574450227422,
        0.1880183056696645,
        0.06994435023955248,
        -0.017467905532841447,
        -0.06435118788316505,
        -0.04886918917405355,
        -0.08551702985305065,
        -0.076784123426769,
        0.018757333517623775,
        0.14999124528236546,
        0.11232148410213405,
        -0.049195480916086484,
        -0.0629407154198901,
        -0.12479588869677605,
        -0.04528026070298091,
        -0.04117827257102544,
        0.05423470875551701,
        0.041776843266059294,
        0.005052383073029965,
        -0.05354118185847864,
        -0.013362127295431542,
        0.03742579410980658,
        0.0598445256358162,
        0.09196478697094845,
        0.05859420088419192,
        0.02760438025978975,
        -0.011490449532203732,
        -0.023231770517189207,
        -0.03768435687811492,
        0.016258982581877787,
        0.004806393258627799,
        0.05809814671818814,
        0.044192247190738616,
        -0.029650030440071515,
        -0.08328982142402691,
        -0.06395218180361559,
        -0.029652037470861183,
        -0.10981737109668327,
        -0.07238137072667455,
        0.012240015130771411,
        0.040652509740434564,
        -0.013056218923032104,
        -0.04450308332281848,
        -0.038004286920053074,
        -0.004067659705801875,
        0.04498099447500317,
        0.042132285386381835,
        -0.03158876369673362,
        -0.025783643982019537,
        -0.02495460028114312,
        -0.010499575980133787,
        0.013501661699695912,
        -0.0037160006254400406,
        -0.014116105994559414,
        0.00750563355197099,
        0.03364262995335848,
        0.10426382091378772,
        0.19546164102130276,
        0.22194404515838279,
        0.1941141668208352,
        0.19066522852493833,
        0.14944632949351783,
        0.10903544652482369,
        0.05844983657351946,
        0.037421255282628005,
        -0.009356081252299555,
        -0.04978994511456515,
        -0.023788281717819434,
        0.026490125479248724,
        0.10849338497143976,
        0.1419198539653133,
        0.05104908306074192,
        -0.03966843058556059,
        -0.014684615012068778,
        0.03458561064522453,
        0.01059436480444951,
        0.0771309762809193,
        0.11596171799026801,
        0.01049295099940745,
        0.009829449056247228,
        -0.05302194289936861,
        -0.020602618978701616,
        0.04656437878259892,
        0.054668351920978284,
        0.03419309044785435,
        -0.0047789801244636256,
        -0.002202211769060737,
        0.03751420017512712,
        0.029545835924829934,
        -0.022524065420769908,
        -0.031316506729954396,
        -0.03927084103276174,
        -0.021657586456456435,
        -0.023825652109460027,
        -0.006062513715483733,
        -0.0036833682178335223,
        0.0027267273119670043,
        -0.011495566794669319,
        -0.030598593760768223,
        0.004545416732880983,
        0.009134736644248992,
        0.018328906802814175,
        -0.0033364246365975275,
        0.01611034160817404,
        0.04085882530540677,
        0.08959873032464125,
        0.06855204122475643,
        -0.006980160013811732,
        -0.04782349732425142,
        -0.027272125188457494,
        -0.055880939731371225,
        -0.10238832587373692,
        -0.13347801889978161,
        -0.060808255898715885,
        -0.040157515499119,
        -0.048937730540660904,
        -0.06877082319582659,
        -0.0024515175543583676,
        0.0759173435609482,
        0.11238313250199924,
        0.12887757824494156,
        0.10337455148568014,
        0.008975155279861724,
        -0.004480376390257829,
        0.010283860549963966,
        0.007360889049620906,
        0.022318809466549384,
        0.02392825616590927,
        0.04461930961343374,
        0.03199087058912427,
        0.017921622569778323,
        0.008872115046983702,
        -0.022067161182351983,
        -0.09468106715238876,
        -0.07286159080970576,
        -0.016857562464056022,
        -0.016903835898620517,
        -0.05611327573117196,
        -0.07806905967377292,
        -0.00972178187909283,
        0.06110147872227916,
        0.049772957550160694,
        0.03395901731614988,
        0.04795445636353005,
        0.036827477031699016,
        -0.03094758091836664,
        -0.08755610824983362,
        -0.06269483244894018,
        -0.08420580350195332,
        -0.07604670362386806,
        -0.05610587496530149,
        -0.02853661830948833,
        -0.014514112681146643,
        0.030335475864335937,
        0.12524005298870583,
        0.1649282689129123,
        0.08051327268352751,
        0.012882939858772764,
        -0.009938392684820297,
        0.03039778279461118,
        0.03127948780239699,
        -0.0047792039284944125,
        0.03843477267850382,
        -0.000905383510316312,
        -0.0482639761859395,
        -0.06978339961182789,
        -0.07384816449756273,
        -0.0013739954666902143,
        0.0800151504439108,
        0.08115223754342574,
        0.08055107833514605,
        -0.0025196191122105437,
        -0.03306671393693017,
        -0.09586979285477175,
        -0.0936214510654427,
        -0.12233073885600992,
        -0.10544392094458234,
        -0.023592162562474067,
        0.02871168279148663,
        -0.008199616479764624,
        -0.10623294120678792,
        -0.16980926723549272,
        -0.11315368359689977,
        0.02247794833597836,
        0.002035457586820839,
        -0.11269021585105508,
        -0.20387799707313425,
        -0.14396005197938344,
        -0.06232917833180263,
        -0.02628634802217855,
        -0.024137731413490047,
        -0.0034928117245250634,
        0.035982821710409826,
        0.07743104115837247,
        0.061440199423592676,
        0.05459950604969921,
        0.034293888836581396,
        0.04205444090313866,
        0.056118356053346814,
        0.01109933181232903,
        -0.06891992796845081,
        -0.05909253769622523,
        -0.06931636376570176,
        -0.05636863871885481,
        0.02485074136060083,
        0.025061308096166333,
        0.10517289501659297,
        0.10608191921290777,
        0.04559223026778971,
        0.03279220881100668,
        0.0026466390348109012,
        0.021694248850028817,
        0.016380261072987554,
        -0.000790555887828377,
        -0.018531218913185956,
        -0.07522413028633801,
        -0.09595185822812476,
        -0.025281286511574564,
        -0.00498038873403682,
        0.028798659950287502,
        0.027314972337086657,
        0.03060799370540982,
        0.036073586978424735,
        0.024991130850152646,
        0.06976907045492473,
        0.06719343289934507,
        0.0072923027614386765,
        -0.02759148688720064,
        -0.07447356412233049,
        -0.02771343368468203,
        0.0545306392215293,
        0.129553974547802,
        0.044644867405807476,
        -0.08821990132512528,
        -0.04288889520208343,
        0.06811773574534755,
        0.054105870551499936,
        0.030630657869967496,
        0.011520086796666645,
        0.04230347874210765,
        0.002879683431690984,
        -0.07264827269870174,
        -0.02918286576309226,
        0.00528708705637399,
        0.06208403797844009,
        0.10202015750386859,
        0.06692101804267891,
        0.10107122051940662,
        0.055690440132963315,
        0.09597316594489655,
        0.11951192364420929,
        0.0914334936795956,
        0.09937220100805626,
        0.07433230757434023,
        0.06128292810337875,
        0.02432043408829756,
        -0.05013535510191523,
        -0.015686503167235435,
        0.09188099796216684,
        0.0739085559363209,
        0.059116466430907844,
        0.00804844136232917,
        -0.07691685665189843,
        -0.07049865307471033,
        -0.09571579287040256,
        -0.020592504012883255,
        0.0634704668008258,
        0.07585838086650185,
        0.0425998278435962,
        0.00901301113480456,
        0.026144008815188233,
        0.1078360638672675,
        0.07905367679480856,
        -0.013375156207085603,
        -0.012116619684378114,
        -0.017520611337593504,
        0.03846568388315085,
        0.03641713745790855,
        -0.03217842353594462,
        -0.05172663616719967,
        -0.02227505105790125,
        -0.007546103636016341,
        -0.04135058833784677,
        -0.025508152803094597,
        -0.07098838033265456,
        -0.06301520924668416,
        -0.0401754593538363,
        0.02164202986671418,
        0.07215541692083309,
        0.029319369719799093,
        0.015360966932816461,
        -0.0457970068810382,
        -0.10423967576701967,
        -0.09822498181523087,
        0.007197579759514306,
        0.052731553557684094,
        0.10103014191078297,
        0.1304699279808378,
        0.07184190646155657,
        -0.06125343376344278,
        -0.08797961093871809,
        -0.0171417877125228,
        0.008891609545578247,
        -0.08433833869369248,
        -0.21495791584220098,
        -0.25273847998443677,
        -0.2979640563204749,
        -0.17213748807298784,
        -0.05908711528587959,
        0.007594616143791837,
        -0.011910678732688303,
        0.018363858208198997,
        0.012150275005742797,
        -0.01788085946701782,
        -0.07122788269410275,
        -0.11480734520934477,
        -0.09783234640919641,
        -0.057107739113414574,
        0.02191079579127775,
        0.06952326218333148,
        -0.01041948571832477,
        0.010753793469094287,
        0.016046787077649248,
        0.06718258662185811,
        0.11849540832881744,
        0.03993329586991568,
        0.09675467102446172,
        0.06822382253225714,
        0.051303361027203606,
        0.06160824975268038,
        -0.01093820235305556,
        0.045549176143381394,
        0.1262702661877279,
        0.11076575125965368,
        0.07482948552028894,
        0.041403244386667606,
        -0.01987756466016865,
        0.013569033836725053,
        0.015788972618074423,
        0.017382122990535175,
        -0.009528476996674062,
        -0.11859028438124149,
        -0.18072601786262824,
        -0.11566559179466807,
        -0.11500609422846139,
        -0.009439751958291255,
        0.0729507503805101,
        -0.006357993386628405,
        -0.019225961914892335,
        -0.02538467831839532,
        0.07840028753851512,
        0.13404395439154848,
        0.10400949272197381,
        0.07966692358376753,
        -0.022016269702249187,
        -0.08352984094228766,
        -0.11712167100471096,
        -0.01802457865277519,
        0.024676693654618165,
        -0.024332987878254376,
        -0.1111118850474841,
        -0.10648452822023147,
        -0.0366527582944384,
        0.010100262048095127,
        -0.0033572981368037848,
        -0.019700876714139032,
        0.008719974980309424,
        0.030467900970785777,
        -0.010011970198883249,
        -0.032897697553390406,
        -0.06550774480762228,
        -0.09552031816898823,
        -0.13288027869100327,
        -0.013863486130809366,
        -0.01871617258931596,
        0.01462515056687861,
        -0.007812221063483181,
        0.0015356758112480557,
        0.03529913663542254,
        -0.02253293489715838,
        0.01996742620731456,
        -0.04116123154707482,
        0.02578762480170965,
        -0.03571595342509131,
        0.007869317826023004,
        -0.0012986748118200436,
        -0.004477175418963699,
        -0.01039299928132118,
        -0.03285603891727361,
        0.023082103117493674,
        0.01037001436813378,
        -0.01414662093647381,
        -0.08323197419756023,
        -0.16282551832728176,
        -0.08088047339170762,
        -0.017439955019828715,
        -0.03370703491448443,
        -0.04833955611029089,
        -0.0237534729137041,
        -0.04505861270040214,
        -0.07352220900249307,
        -0.07181920658168482,
        -0.047050792175519066,
        -0.025634880198084815,
        -0.007659537849708999,
        0.044487944786271556,
        0.05223152672320249,
        0.0412180427418668,
        0.006662120949449209,
        -0.07001727920365042,
        -0.03568980155972917,
        0.0050013027411623286,
        -0.03484927442178526,
        -0.03330452383968546,
        -0.008781051700025279,
        0.0025401407769332107,
        -0.012565148999871581,
        0.036858320645011836,
        0.025423584216158274,
        0.005127956809698025,
        -0.04496460016173008,
        -0.10877848401614562,
        -0.04673501654187995,
        0.03922434240532653,
        0.05315433773884678,
        0.1485653953571346,
        0.21380335349163027,
        0.13959341495090466,
        0.009223809044565028,
        0.024843323662936734,
        -0.0033521590776543165,
        -0.03404646718265918,
        -0.0009463079499218253,
        -0.02030445746266195,
        -0.024514743012226572,
        0.004737330779302948,
        -0.0018569562994387384,
        -0.018291021460063776,
        0.045728587278563305,
        0.006361820858034866,
        -0.023307589360228708,
        -0.006621341611712265,
        0.08883161741371458,
        0.05139593430296331,
        -0.008110693488805547,
        -0.009058054891557369,
        0.012504652074986147,
        0.11401843540784193,
        0.08690732366877951,
        0.06354051613586739,
        -0.037927055632918205,
        -0.01980912640950375,
        0.03445288596780082,
        0.021443490904437666,
        0.034280342305888396,
        0.050577419710705444,
        0.007859464226321038,
        -0.02330374138895565,
        0.06945620739222197,
        0.06844642429703698,
        0.04198992917235256,
        0.09833992381240766,
        0.0020209608352538544,
        -0.056115738757348904,
        -0.06506345446232113,
        -0.14821531850217295,
        -0.1695150314442424,
        -0.22842462034759617,
        -0.11434114076132831,
        0.0016111566442935056,
        0.08316025238429907,
        0.025051343678622003,
        -7.014756854492696e-05,
        -0.022639002254659594,
        -0.0201286838483781,
        -0.022276258803407483,
        -0.026187396821655266,
        -0.02313551411116737,
        -0.013696282162244855,
        0.12115520725442697,
        0.10923606736238181,
        0.06459676103593306,
        -0.05524685140035433,
        0.021352371470207483,
        0.016672921626588868,
        0.015774365563642354,
        -0.005613112339069807,
        -0.01850694743239243,
        0.020504044523525212,
        0.11939442666561643,
        0.055355741915951155,
        0.02933376200048225,
        -0.057961630567617786,
        -0.14092412240531788,
        -0.07933199983778733,
        0.04376760268777494,
        0.1305585742794981,
        0.24228091575332428,
        0.058800489376236595,
        -0.06664527424264666,
        -0.0240186163529025,
        -0.0592774090972102,
        0.010382845226230421,
        0.028943712804220575,
        0.05117587303024621,
        -0.08553735707250099,
        -0.07341778227849682,
        0.0005369118456959974,
        0.02709392469518107,
        0.08957409111465262,
        0.08314382987712556,
        0.03989845873499369,
        0.03883033213573496,
        -0.06708920594888615,
        0.001178243405894852,
        0.023759886369665337,
        0.0334694784732261,
        0.11605999889246701,
        0.04577281850903907,
        0.06066547337812965,
        0.16464112118169058,
        0.053134472629545175,
        0.01644656094688861,
        -0.011746377025300469,
        0.019698618544876922,
        0.08747927748828221,
        0.10401764330063201,
        0.06515247598281662,
        0.08448134638574126,
        -0.0041076240926998745,
        -0.026337929796266646,
        -0.04065093994298813,
        -0.02706945610522454,
        0.0798409492561109,
        -0.0015387178203836774,
        -0.000857445816796919,
        0.06173418787945089,
        0.03634408893336947,
        0.03460163881587004,
        0.05220907659194203,
        0.02255533397882853,
        0.02071623288365327,
        -0.00776828011336418,
        -0.1213408442672328,
        -0.11543602971156673,
        -0.013666082961202386,
        0.04738566535125771,
        0.019788057161974133,
        0.010264428981012912,
        -0.05683614414410179,
        -0.10436923868454773,
        -0.09864966070921427,
        -0.13279674971128994,
        -0.16240417645259167,
        -0.07255877344154092,
        -0.021681226086222062,
        0.012886943121699879,
        0.009938520982354093,
        -0.05511796715370205,
        -0.07418065164008476,
        0.0691690724599356,
        0.07561195649460165,
        0.023476252527954104,
        0.03243744623950934,
        -0.005278745642509283,
        -0.02811705711403525,
        -0.01642972872316654,
        -0.041739594514794066,
        -0.0339843984202226,
        0.03390739014254929,
        0.01810497623247021,
        0.0980597295969651,
        -0.005420952836508883,
        -0.03805507159340812,
        0.007167604728251353,
        -0.09370380278583039,
        0.009173280084908095,
        0.022335628195645642,
        -0.0033621306182276605,
        0.06019372967818416,
        0.0037272511676577427,
        0.01962657206341538,
        0.019835267571986483,
        0.04010444423510692,
        0.07928713094129941,
        0.03387242399709624,
        -0.018943146048806293,
        -0.034240063084283665,
        0.07294306732971123,
        0.09334468602662205,
        0.14728772507927984,
        0.1356001787924824,
        0.085771315899167,
        0.08110869529663019,
        0.02218726493949736,
        -0.04398081430498721,
        -0.020696632577782734,
        -0.06056214844006807,
        0.034479883565131084,
        0.09712296342121782,
        0.13332484222419377,
        0.12698247857325567,
        0.13001314093491162,
        0.09335615307229618,
        0.06179357280380835,
        0.06474426435711059,
        0.04193992979529658,
        0.0031851158830059297,
        -0.01724327648215087,
        -0.022998794439053373,
        0.007491986493367664,
        0.04560470998091753,
        0.04573444675547437,
        0.08023967034751507,
        0.03439840265590099,
        -0.012683992090815749,
        -0.015006011732590339,
        0.025638391612650344,
        0.05560001999397551,
        -0.014009521991462506,
        0.0008692248188298912,
        0.041107497652108485,
        0.11577375665307041,
        0.14605181241536466,
        0.06339113057426021,
        0.07808368890130196,
        0.0683458581605035,
        0.03206699597855761,
        0.013327598277026127,
        0.002426057487898276,
        0.05836154489555442,
        0.049008840530660396,
        0.052106154233275324,
        0.015404547988253702,
        -0.026052542840307204,
        -0.03868368259703647,
        -0.06143868073011791,
        -0.08856697364982864,
        -0.12215597622314792,
        -0.08394478715794693,
        -0.07114069015123234,
        0.03875931286429786,
        0.12437274444387322,
        0.1576679433369101,
        0.2228759273553398,
        0.16231538321665295,
        0.08694133483250713,
        0.011732865868323231,
        -0.005652323448056182,
        -0.06608109422492309,
        -0.0931532492436791,
        -0.10022309653101841,
        -0.142948014962082,
        -0.1240142314199677,
        -0.13211015418235245,
        -0.14395401208175165,
        0.015119609747311212,
        0.047769358816875426,
        0.05524588993563787,
        -0.003611184284393472,
        -0.03387923725581894,
        -0.01421867708208206,
        -0.07965700319859019,
        -0.05091440871816016,
        -0.07536723278043557,
        0.017820261779236554,
        0.01861790577798822,
        0.07271336766608202,
        0.11276552115455261,
        0.03460478636664665,
        0.04822281374711075,
        -0.08739483347194209,
        -0.05378272853653279,
        -0.099233997719054,
        -0.06163108349710908,
        0.0010048228200177296,
        0.07430228585447562,
        0.08779428498854577,
        0.13794398296761284,
        0.03831806746683014,
        0.005135213536610776,
        -0.05198348198013461,
        -0.05160465210150854,
        -0.0362596010598696,
        -0.10709644081428682,
        -0.060431717666089346,
        -0.03412730311389226,
        -0.05715980611236468,
        0.03796724050750287,
        -0.05379266750389721,
        0.0008091951697077222,
        0.0005894058832260636,
        0.060628844226118694,
        0.0795477327624731,
        0.05332867217919457,
        0.06079437277112574,
        0.04256740801328011,
        0.09931100431230601,
        0.018429458304570392,
        0.04042585247297528,
        -0.03492447863993766,
        -0.007745590116671236,
        -0.034872473380196306,
        0.011090453780040541,
        0.03415274936930393,
        0.10478358974520754,
        0.06220088786876086,
        0.08158503298354475,
        0.035157946714228304,
        0.040603565606703584,
        0.003792392883812231,
        -0.04310081625128828,
        -0.05228370446602243,
        -0.02907898598294671,
        -0.0046009495753414655,
        0.03282263893372315,
        0.07033295927219446,
        0.06343212193277949,
        -0.031191836013793252,
        0.013689404746458609,
        -0.010766986238869937,
        -0.029162432223240553,
        -0.04624153219757651,
        -0.02379842461685356,
        0.044796720383612224,
        0.036354186858485224,
        0.07744003658428109,
        0.010265359842949096,
        0.03874762488016657,
        0.02659390664616326,
        -0.00644121178928104,
        0.006341813788423576,
        0.11736528788308886,
        0.1799425776901063,
        0.13792390384372769,
        0.07652715693967943,
        -0.02566556317377839,
        -0.03337503698865725,
        -0.059686003044114866,
        -0.04438161405842429,
        -0.041670476706104576,
        0.11633007863220597,
        0.11324811372105198,
        0.1303187991952024,
        0.10811278080229494,
        0.05737766134429507,
        0.05420995648888273,
        0.08799729851132597,
        0.05211463390343666,
        0.08907593623393714,
        0.03788377676245412,
        -0.0066751348610470315,
        0.020522252357832678,
        -0.0070471920694852065,
        0.08365717540340992,
        0.036231757136109814,
        0.10176538285298374,
        0.04181470778989191,
        0.06064999854063721,
        -0.026497548958174525,
        0.011655817787330113,
        -0.023749218250293913,
        0.02358012507695713,
        -0.044674050561832684,
        -0.0036581523575674466,
        -0.011460354593029808,
        0.012101260328050598,
        -0.012502003669921095,
        0.022522662796747445,
        -0.022721823326553852,
        0.029645052339634274,
        0.024270170535856655,
        0.0404062148389207,
        0.014505898693956595,
        -0.03634228100813125,
        -0.08839375990368536,
        -0.02715001716541126,
        0.09894755633797211,
        0.126706792300883,
        0.03003743430712298,
        -0.043190565763889965,
        0.0226593172015487,
        0.03356596531882925,
        0.04339811400668882,
        0.005278481262562864,
        0.014727299539420792,
        -0.019602817112223267,
        0.04343378016879243,
        -0.01818354971969317,
        0.04790293197073215,
        -0.028537111624332808,
        0.08795044010709037,
        0.03211202818219879,
        0.07637331448928483,
        -0.027846730761263806,
        -0.07620919277533264,
        -0.0860421633801875,
        -0.15779110746614552,
        -0.08835547344369013,
        -0.14557459954257806,
        0.009632837225319508,
        0.008994600552996584,
        0.1043712126642012,
        0.015261653162570221,
        0.02581979797921819,
        0.086445704317412,
        0.07462314342529525,
        -0.010744534651453795,
        -0.0402476773952429,
        -0.05946897951844854,
        0.027030047570099948,
        0.02220006234978433,
        0.04016098806900318,
        -0.025051189565460943,
        -0.05422729867956627,
        -0.010460057681605893,
        -0.01737529910489704,
        -0.03226277825282218,
        -0.09085475735958354,
        -0.015430279649981572,
        -0.0391054202742737,
        0.06583812565490405,
        0.010314490919243347,
        -0.015820802584143326,
        -0.09027399453131198,
        -0.05621432580838435,
        -0.04855343915875786,
        -0.01650579605328523,
        -0.14254281292659562,
        -0.16600754565244713,
        -0.15150903730665688,
        -0.08682147606861518,
        -0.06880154424268645,
        -0.10556004335604299,
        0.0032798976441278894,
        -0.00849535726132266,
        0.06104575626477691,
        -0.04104634915388946,
        -0.04445710501955511,
        -0.04658869188078269,
        0.025220024659180544,
        0.04809385152617618,
        0.0249700991819267,
        0.06137313705154983,
        0.0610401391698206,
        0.06036833067622603,
        0.02209874613969024,
        0.025932824316110187,
        -0.0419948019741057,
        -0.03908915136481875,
        -0.014158394336548173,
        -0.05557751220493079,
        -0.0762156101547822,
        -0.07080805529815645,
        0.032853603360908784,
        -0.0037347464846470913,
        0.039835853874218716,
        -0.04253189002537653,
        0.021567307517789718,
        0.04258074853676702,
        0.002421926089148878,
        0.08015046298550571,
        0.0952974516470911,
        0.0701748060370036,
        0.03998769818299406,
        0.009059558681216426,
        0.06836535135403167,
        -0.002714524986996059,
        -0.0032683796020432686,
        -0.08934820729881576,
        -0.058711202467700965,
        -0.06859254268363138,
        -0.06499833680530562,
        -0.11389824465882195,
        -0.07746938484209828,
        0.03491395757307734,
        -0.008181113737127103,
        0.09387876822076008,
        0.07152242541012951,
        0.023990509565893006,
        -0.00686102973833737,
        -0.02068672474031873,
        -0.009186736092557454,
        -0.05455151730470861,
        0.001628247825494205,
        -0.009658302069914488,
        0.07338769644030588,
        0.07715937463080033,
        0.01691224018782258,
        -0.019064607194138508,
        -0.05942541267206966,
        0.014120892152624836,
        0.03739102799765526,
        0.03893406919202911,
        0.035762506167900304,
        -0.03570718828192771,
        -0.010472790161367155,
        -0.05147466795848086,
        -0.014668032347294746,
        -0.020639691570047893,
        0.03667604305213215,
        0.06565577199647316,
        0.021239387084887963,
        -0.029529309246318424,
        -0.1064044735322416,
        -0.07271892659446907,
        0.0036316047648026137,
        0.023217601375410495,
        0.059395503265297876,
        0.029506888381342918,
        0.08383715100031254,
        0.0712916725676634,
        -0.009563837122886859,
        0.037237958941202826,
        -0.09679839427870873,
        0.009428753656412218,
        -0.0077472267052451,
        0.011758907126940447,
        0.06692282360911825,
        -0.051424570929057334,
        -0.07666686631547806,
        -0.04907055950008999,
        0.014327543307815974,
        0.04556223828608835,
        -0.033038129623788805,
        -0.039700736396243747,
        -0.029732675152906445,
        0.03808334157380669,
        0.14778922241949466,
        0.09793281319375877,
        0.08674157790767366,
        0.02568062949225534,
        -0.05329502712171667,
        -0.03875228453424212,
        -0.04428237055079112,
        0.08015404642004414,
        0.10327248209027876,
        0.1438090676326957,
        0.06060731060853587,
        -0.0012327698797725672,
        -0.02384558622154394,
        -0.1070830536993334,
        -0.11179512292195717,
        -0.10541391738040942,
        -0.13556656294777802,
        -0.05971782578947034,
        -0.10612906748464798,
        -0.13391600310035529,
        -0.06863918905917282,
        -0.032456085698052535,
        0.04456963791349165,
        0.09855075373248003,
        -0.02286129915969443,
        -0.03800106652520756,
        -0.01607183030826271,
        -0.032545246319260264,
        0.033301688991924955,
        -0.038825483818855464,
        -0.022978265718677827,
        0.05243962300032756,
        -0.04481113935758562,
        -0.053967449434962525,
        -0.027953997028623535,
        -0.008155251068117764,
        0.001476628423751419,
        -0.03209572482168113,
        -0.013406015689797171,
        0.006068227276347416,
        0.015563166623378796,
        0.061265008675208434,
        0.0963743214302584,
        0.13643257850131868,
        0.026344895582154366,
        0.012345686806806401,
        -0.024826666937675008,
        0.04839467052548273,
        0.07815341336590002,
        0.06368775506105677,
        -0.011739652246650608,
        0.02338514249334774,
        0.047309907814493096,
        0.022583248547822524,
        0.06283156219273071,
        0.07170902863277467,
        0.03248395039434619,
        0.041058178271464074,
        0.05783544367692649,
        -0.009631378115356512,
        0.10204092162161074,
        0.06854075334110635,
        0.06075199259626274,
        0.08193462832787642,
        -0.03489862089457393,
        0.003820476555780759,
        0.03837596685745504,
        -0.01705548106522084,
        0.029953461144614595,
        0.05060921749238591,
        0.0007205682184500806,
        0.08735948430521973,
        0.07863277114546338,
        0.10018521886508007,
        0.02151025519057259,
        -0.07403877401268312,
        -0.012033798725609605,
        0.017618315466283826,
        -0.023540237533945553,
        -0.014206925522438463,
        -0.0039619135506986786,
        -0.0073964221377769875,
        0.02139353556522688,
        -0.030233028741839727,
        -0.03208607504880426,
        -0.008145815529090045,
        -0.06729999381406097,
        -0.016618248906010533,
        0.025964095333681794,
        -0.030260068270992337,
        0.01279000107492442,
        0.03614299564863701,
        -0.010799476685683122,
        0.07836564513492741,
        0.081740281341049,
        0.028211978723472742,
        0.01582441515627436,
        0.004574608108719191,
        -0.014766604239114784,
        0.05518809224422902,
        0.02939197592606643,
        0.006535411341971227,
        0.04441715256751627,
        -0.009525790139920942,
        0.00862942027731921,
        0.03341199631501783,
        0.009623342610188036,
        0.02248509635771642,
        -0.008087399443849527,
        0.04309038050200713,
        0.036501149697590086,
        0.015948472920159842,
        -0.021060095884691418,
        -0.011463966146463164,
        -0.006584282765621499,
        0.05897064642217349,
        -0.028531167178025806,
        0.009099053022193625,
        0.06636358201489582,
        -0.041843651972813464,
        -0.08887682558381918,
        -0.028886606814628346,
        -0.02972293598146986,
        -0.0634134159157907,
        -0.04169787295839247,
        -0.09925544792043037,
        -0.017718092389624757,
        0.07973704442274394,
        0.03479670643763314,
        0.0377771048183472,
        -0.009747082055207927,
        -0.04320085442107372,
        -0.009595602865788519,
        0.047503459014811386,
        -0.016690300426162017,
        -0.00034586073893705014,
        0.024424168372191638,
        -0.0681559015504796,
        -0.07418123961087904,
        -0.054590239357259665,
        -0.09409404724638828,
        -0.00931083646662279,
        0.027146605197574225,
        0.004829260559923586,
        -0.015547339391458461,
        -0.0871918205738217,
        -0.043758942530835905,
        -0.0221224268798317,
        -0.04156360888193119,
        -0.048577937661413786,
        -0.059102880611151834,
        -0.009235871551466893,
        -0.040598138439967874,
        0.0011680597036559624,
        0.0697735702566144,
        0.03434714151678934,
        0.007577454423337238,
        0.017822087814953758,
        -0.00924222866544969,
        0.052327810212149925,
        0.11304914442205359,
        0.15514802474405376,
        0.182588428795173,
        0.07419158220904705,
        0.07146569778406014,
        0.10328868068310675,
        0.004066015245642313,
        0.08459245770394018,
        0.10152785953580801,
        0.011884558127050152,
        0.03269440167924326,
        0.001270452463341226,
        -0.01881304734850203,
        0.0037921196506393363,
        0.05528720064710152,
        0.03619934695451468,
        0.048055664098278494,
        0.06871839170826084,
        0.09123939528653408,
        0.07447271233818342,
        0.06906133811705858,
        0.06582951350416014,
        -0.13903601922719525,
        -0.16955030544248273,
        -0.10570520877516569,
        -0.056520831805288795,
        -0.09454174276656,
        0.009154186601465835,
        -0.02553895467176719,
        -0.017073685662404647,
        0.07950991381763105,
        0.1504082211677455,
        0.11714973042703819,
        0.04443121984537462,
        0.05143200326940446,
        -0.01262800685186909,
        0.025591006861273895,
        0.058257083243299285,
        0.11977906550691753,
        0.09041401785160619,
        0.06186564797565768,
        0.05321350932553595,
        0.04911266434534731,
        0.02867082214300965,
        0.07882103519009291,
        0.005472828250760857,
        0.09603217498712796,
        0.05895136415743713,
        0.03643764236997697,
        0.024049068523042942,
        0.05592789372107189,
        0.09880574328827074,
        0.05409467982156313,
        -0.015016644405009352,
        -0.04180360063488672,
        -0.022426278513690417,
        0.00683695868669819,
        -0.005298215581966208,
        0.05893558202477234,
        0.041325852789842396,
        0.059233696113954834,
        0.06272638819289619,
        0.10005114685483085,
        0.07710477770905398,
        0.06113830407736524,
        0.05778590671837576,
        0.0027210980547210193,
        0.007786655755253158,
        0.01731112023103789,
        0.024653991538663822,
        0.011405970117447364,
        0.021871427699768124,
        0.02883130213212865,
        -0.021834113726455242,
        0.0051142233665053705,
        0.00881221493006706,
        0.033294122228805165,
        -0.017581237992606892,
        -0.0355186200544427,
        0.040860548500688834,
        -0.006826903029410421,
        0.048105059450260335,
        -0.05764029043884294,
        -0.012186092971150819,
        -0.015400653201020412,
        -0.014575208005820859,
        -0.045239184514097544,
        -0.03652128256686463,
        -0.013142431376051946,
        0.0098192862471133,
        0.018868742234436967,
        -0.07408687016500458,
        0.022398420954542413,
        0.00048300875604996216,
        0.015150056224624463,
        0.01681565431378683,
        0.06955148416685106,
        0.060487110608256914,
        0.08488321880608189,
        0.03126797055868064,
        0.03916126338899031,
        0.06817239770778537,
        0.015625973371233986,
        0.06313706911404562,
        0.06690988441364858,
        0.06151307454010546,
        -0.011804808303124959,
        0.009226909957976832,
        -0.037410787513964136,
        0.0017341324916681344,
        -0.0121004329283955,
        0.08745132826274608,
        0.10940984236798132,
        0.027208452882990758,
        -0.07245594326874116,
        -0.03359882923553249,
        -0.08894015472385894,
        -0.05397397616446446,
        -0.08343764379758711,
        -0.10595440992988382,
        -0.10394474846318902,
        -0.054699296202530376,
        -0.05455463569664283,
        0.04758396999282241,
        0.07695414277403609,
        0.06952576333008437,
        0.020357550446338125,
        -0.06508636249241406,
        -0.019836662857041772,
        -0.03644490838394884,
        -0.04193467896247713,
        0.03672109672191055,
        0.019885908002334897,
        0.03753744214264291,
        -0.010365692332231719,
        -0.04299859379867313,
        -0.0362191582475903,
        -0.025298389272544786,
        -0.024422517810177888,
        0.002146964845258393,
        0.012410561924235227,
        0.00751409583991928,
        -0.019898984618792165,
        -0.035685126084149685,
        -0.01528878921647426,
        -0.049957501258837196,
        -0.08334321379515354,
        -0.06865386671850221,
        -0.013717854314940253,
        0.057733863401009666,
        0.06650409366544736,
        0.03403587209212907,
        0.02282627676842534,
        0.05350488473258334,
        0.02597650988506891,
        0.03424393226287935,
        0.03353335876576574,
        0.09279206101054686,
        0.07036161125398001,
        0.003418114410873564,
        -0.05871191651257625,
        -0.05198677949055083,
        -0.02217151132144393,
        0.11003581990869954,
        0.11523275089064036,
        0.07865971174897046,
        -0.00018305542678176163,
        -0.022983799822067545,
        -0.014997539536443106,
        -0.010568892685366408,
        0.0011103486224083824,
        0.004850630976200915,
        0.03193631573138358,
        0.0972170870995759,
        0.04824436077005012,
        0.008443870015756307,
        -0.005300426921716667,
        -0.05192948178245535,
        -0.03779735319407236,
        -0.08137587915688299,
        -0.08801265731061995,
        -0.028248327726724094,
        -0.040381412487356765,
        -0.06788048645635945,
        -0.06913623272863526,
        -0.018045397742213573,
        -0.023139750014372792,
        -0.020566515151461497,
        -0.06432347023903777,
        -0.034615662334131894,
        -0.039569646265382674,
        0.0035254947988589257,
        0.022883750537273637,
        -0.033516704414395165,
        0.006494163314749078,
        0.11024942259164926,
        0.24527842423383156,
        0.20706155761955547,
        0.13455003529156176,
        0.0415972647208359,
        0.0936898655653168,
        0.12788297565969736,
        0.1449883562383958,
        0.15474563552163123,
        0.08901270349481614,
        0.09984784768854349,
        0.02784049364283881,
        0.021830715516334247,
        0.05390011262115628,
        0.03693877151378051,
        0.07062222703223801,
        0.0590007612894904,
        0.11382076049667726,
        0.13615000844319652,
        0.1975736730949506,
        0.22619171605605168,
        0.1400573905439042,
        0.03268565220578199,
        -0.03969537720492236,
        -0.05461346647147779,
        0.0003771506652618662,
        0.0090199564297039,
        0.014013585809839964,
        -0.05003034180358221,
        0.004538942564814975,
        0.08898266535429605,
        0.038971633443313204,
        0.05322070857607297,
        0.043577250631544946,
        -0.038460114531415505,
        -0.04177528408980617,
        -0.059166164808445706,
        -0.0854282040313771,
        -0.07665928405226773,
        -0.014567073341151445,
        -0.009564726827088262,
        -0.035335290728789756,
        0.037322246232998825,
        0.029862412415890313,
        0.059561416484137715,
        0.062235772497859165,
        -0.017454064108359875,
        -0.09994110672884644,
        -0.02984526101025342,
        0.06173983962267367,
        0.0653192310944749,
        0.0496228869236685,
        -0.007936873749501831,
        -0.10766541907610527,
        -0.0622210278758302,
        -0.03806840364543502,
        0.006561018160423749,
        0.0644494109542623,
        -0.009953251689867038,
        -0.027771044057043188,
        -0.02200002085562297,
        -0.1044331819703443,
        -0.04357409745972981,
        -0.06316531958654904,
        -0.03233431437987831,
        0.023872624674655764,
        -0.004593328005414583,
        -0.06503731374978225,
        0.021297886631310013,
        -0.07703395987500355,
        0.00430170532209059,
        0.01788568258007888,
        -0.059127910667132966,
        0.02648619769408515,
        -0.014952809227410995,
        -0.03456066322022596,
        0.003403516034935441,
        -0.018108246426581032,
        -0.028645302639969613,
        0.07070802670862975,
        -0.00436999922925429,
        -0.015314918054023394,
        -0.04826045924077183,
        -0.07657333016807562,
        -0.030152027928470278,
        0.0016378636139052641,
        0.033742266124076464,
        -0.016230686256946,
        -0.12118736268887859,
        -0.08540837239523144,
        -0.018997126536732592,
        0.023334475840069112,
        0.03619286958231525,
        -0.04544421168982474,
        -0.05789319955067601,
        -0.03446547228506844,
        0.024252850297052743,
        0.03938337761103702,
        0.07400521413346077,
        -0.007259716341094239,
        -0.024592364313549872,
        -0.06621533277136749,
        0.0012948788534443817,
        0.049035776349750246,
        0.0473013519566905,
        -0.03032400648739238,
        -0.01580449092302317,
        0.04742172964195525,
        0.07219556058507245,
        0.035299783786517464,
        -0.008119402905459164,
        -0.06455711247845178,
        -0.009452104855302028,
        0.08836793490363504,
        0.02573157975547216,
        0.012847424012390207,
        -0.07604991037097696,
        -0.09596083719252706,
        -0.1193728724600501,
        -0.06438162900653549,
        0.008926774963306416,
        0.05719936815741512,
        0.07595584560336668,
        0.08517733376833186,
        -0.023328650016230926,
        -0.03436548783708139,
        0.012365021420297804,
        0.010639155041959872,
        0.09921240742932132,
        0.11060753487255284,
        0.09640418750291016,
        -0.002265612446591117,
        -0.0021648123147990205,
        -0.08620201465995096,
        0.004442491882013969,
        0.05441832556230593,
        0.07567156715355308,
        0.06741990911384085,
        0.021208256586984196,
        -0.011353014569044981,
        -0.06668238112250321,
        0.047971506650893794,
        0.019267550517027304,
        0.05523855057842496,
        0.050612730219085036,
        -0.013469863497274144,
        -0.030212667662389232,
        -0.0328603816046253,
        -0.03423203482498939,
        -0.056725415407854696,
        -0.02967013216521674,
        -0.01644408913054505,
        -0.05447160648552242,
        -0.03906927869576782,
        -0.018062050877504735,
        0.02911013342393462,
        0.014019602460535283,
        -0.03944447605844174,
        -0.04018438568428583,
        -0.04625974115603994,
        -0.059162081303933925,
        0.04545047536102058,
        0.061815253770152276,
        0.07644966989802915,
        0.07704021037910509,
        0.03388318303594373,
        -0.015424460310678716,
        -0.02688838472314103,
        -0.004597160774138518,
        -0.000705071942278804,
        0.09036418593164938,
        0.07329040330999552,
        0.05903876595251907,
        0.0604944025811785,
        0.04008779672326486,
        0.081784215240477,
        0.10052329327724241,
        0.025507837285492288,
        -0.010649787391742358,
        -0.1066114386205412,
        -0.06850863243990382,
        0.02871163267906031,
        0.04936869553342249,
        0.0659610543249316,
        0.0399677458093239,
        -0.02537735683684614,
        -0.025685846117088545,
        -0.06714052185654512,
        -0.09603541323051862,
        -0.07023818663850741,
        -0.004000629010693287,
        0.002352109983216178,
        -0.03507316494290932,
        -0.06167741648439821,
        -0.06514948289912786,
        -0.021515840992074844,
        0.0027707544929847583,
        0.0032491261038053647,
        0.037743840439528956,
        0.06295456322744647,
        0.08579907364011674,
        0.04661907342127304,
        0.004168997707015199,
        0.021943143085891455,
        0.007921631994722627,
        0.07231814594151574,
        0.048358101436539576,
        0.02250354218636383,
        -0.005074528794001633,
        0.008195913434004581,
        0.004036217008646775,
        0.06567319096940123,
        0.041643646175694715,
        -0.016978804022315826,
        -0.042704646033996096,
        -0.043869827095786296,
        0.018801477540018204,
        0.06318158279904226,
        0.08368743510227436,
        0.05281200190726816,
        0.04829300692390811,
        0.07819078023164835,
        0.09656089263286455,
        0.09842381141941837,
        0.025693022862383768,
        -0.021416907327612065,
        -0.032133349130769165,
        -0.061365559188313504,
        -0.060677620153378714,
        -0.036123287671834675,
        -0.012895294017845275,
        0.02771912381053835,
        0.05721507930527153,
        -0.020726043237142312,
        -0.01702138261593062,
        0.005039067774745257,
        0.058858814618839704,
        0.03368736830259772,
        0.005918054391684864,
        -0.02933233808157457,
        -0.1044556553276147,
        -0.053404700932657534,
        -0.02203672111020657,
        -0.05063172694301707,
        -0.04889168663228427,
        -0.07870003520323557,
        -0.09719826505830848,
        -0.06564409962220497,
        -0.06368830925525228,
        -0.04405803265484222,
        -0.02505910615912936,
        0.0023826974491491975,
        0.04130506741089067,
        0.046814622585946555,
        0.04359717713694462,
        0.05905931207978027,
        0.027715831484821006,
        -0.020695401735195733,
        0.027558085357342665,
        0.07973039319391624,
        0.07977886424937079,
        0.086890609967143,
        0.008215859774332441,
        -0.03071258775959163,
        -0.014170903598413869,
        -0.002288704802934937,
        0.037357871028443915,
        0.008808702232381069,
        -0.05537031913538708,
        0.006205391666602755,
        0.007458023998967649,
        0.07185368663953515,
        0.039445575002619554,
        0.011468691903763446,
        -0.028357267901739355,
        -0.0049383827064155275,
        0.03834396269295401,
        0.06726129670856712,
        0.05723899571374698,
        0.06466159231141563,
        0.026903957365505948,
        0.016033931987481702,
        -0.015497806427119853,
        -0.04228611017059067,
        -0.05573879405280554,
        -0.05735935126790466,
        -0.03650513726215482,
        0.05021752992232559,
        0.06763583255249928,
        0.05673247449455736,
        0.03386517733977429,
        -0.02600240670881155,
        -0.0239283720795135,
        -0.05480848999050261,
        0.02843337669792514,
        0.040939091593722846,
        0.053629104763744564,
        0.08562817145813723,
        0.06393991027953676,
        0.024646166664324294,
        -0.05222793212626843,
        -0.0719783015610195,
        -0.06173044272904685,
        -0.05253686007668837,
        -0.039019073435802194,
        0.01960749416958265,
        0.03658161020468079,
        0.024071225106275004,
        -0.029813289866667283,
        -0.04241985004380676,
        -0.023985335006612846,
        0.027871640124864996,
        0.0457303307314743,
        0.07699401737329363,
        0.053849027502585245,
        0.02114669959637044,
        0.06871574566262706,
        0.06369525004341449,
        0.025672114067073665,
        -0.022068296260267004,
        -0.00048625310997475475,
        0.033052633635030436,
        0.05306284387232728,
        0.015400103599078603,
        -0.046434575956387766,
        -0.08783270472508474,
        -0.10394998259150862,
        -0.041702938757273475,
        -0.004409081358645936,
        0.026634332254295155,
        0.030841452469940685,
        0.04315063959051196,
        0.06597224116789391,
        0.062329565980413996,
        0.05973586351680721,
        0.05750116440011268,
        0.043750898648319034,
        0.03429421160665144,
        0.07595071856538582,
        0.08401361979111041,
        0.04315896656537399,
        0.049971750563366266,
        0.08364338545188306,
        0.01267858610611904,
        -0.03538907686033169,
        -0.09327776890549457,
        -0.07465161031371376,
        -0.06620038752004416,
        -0.07760298225545306,
        -0.0735399532538221,
        -0.08737050087418474,
        -0.08636675398305596,
        0.0077962871287383904,
        0.02583642729578287,
        0.06183817201177162,
        0.1140301618060837,
        0.16409330103309208,
        0.1676950594008189,
        0.14762114956605102,
        0.08479168276797666,
        0.08171797866449823,
        0.08444683805817409,
        0.07074910627530925,
        0.05398778209222515,
        0.039924961151231425,
        -0.007139878014535218,
        -0.0025107983637064294,
        -0.035113752297346285,
        -0.0071312200731606466,
        0.03045454435074286,
        -0.0018034131775492468,
        0.0003724283091627439,
        -0.030155260479068843,
        -0.06471435692312784,
        -0.027108239168462906,
        -0.005748877157786055,
        -0.013410692967264434,
        0.0326644839315333,
        0.04055257577340956,
        0.03014473681124083,
        0.03190782974670027,
        0.07998149902724827,
        0.08468289687996286,
        -0.00029798281406151516,
        -0.0654117657701472,
        -0.06796924413016125,
        -0.02769672987301585,
        0.06445521783115897,
        0.10582135318241977,
        0.09092777788825836,
        0.038505000304442344,
        0.012905797510560457,
        0.00311391571206812,
        -0.0374189414955103,
        -0.05931930633329046,
        -0.0509528050672432,
        -0.03172577528378517,
        -0.009580138862633186,
        0.029905401213592853,
        0.04044774392512373,
        0.04619228415825283,
        0.035749359043385054,
        0.046360627057786104,
        0.048056568258883235,
        0.013291147289719297,
        -0.031245575843100514,
        -0.0665344459440197,
        -0.0331126337316259,
        0.01640400661197115,
        0.07204171118766939,
        0.06307782046162225,
        0.0006675804514895823,
        -0.07590082384778163,
        -0.15365619732077312,
        -0.1099331885389988,
        -0.07644053301515766,
        -0.021999502836311566,
        -0.014442454603931832,
        -0.037297471868133446,
        -0.11156825857189454,
        -0.1286276082925296,
        -0.1337954982910094,
        -0.11387658619781768,
        -0.06242270940121754,
        0.01662500507112144,
        0.007096083072689302,
        0.0012115594394294877,
        0.0019895799597615294,
        0.018798490598072353,
        0.0001658599202834488,
        0.008856019180993633,
        0.010330578011969892,
        0.050751754080923875,
        0.09372437383017977,
        0.1107137688128026,
        0.059411885418546875,
        0.05155417022089612,
        0.03995788449119986,
        0.010237326631603847,
        -0.0029610705436866874,
        0.004084561528313732,
        -0.008201939818873844,
        -0.032967099684070245,
        -0.033504139988225184,
        -0.06642055170383139,
        -0.04802776644614409,
        -0.013885818693457118,
        0.012029546332825833,
        0.0029006284001701146,
        -0.015270983070166349,
        -0.048262112832796786,
        -0.05018922911949839,
        -0.037036435874984605,
        -0.06996822849861203,
        -0.027618982496097576,
        -0.03351972216467031,
        -0.004175893395055718,
        -0.008563117554537033,
        0.0028914757095758418,
        -0.038271811123634626,
        -0.08739794062392951,
        -0.10407876642915358,
        -0.06237291822685718,
        -0.07283080394635198,
        -0.05327209794506953,
        -0.0308896024553092,
        -0.022363960890056215,
        -0.03531143906493533,
        -0.02446483777401947,
        -0.017292682520215312,
        -0.029014961127269718,
        0.044396522972154566,
        0.11686991291621338,
        0.1050555883556114,
        0.0891246099237584,
        0.011377359430785744,
        -0.04545286472101799,
        -0.014974141276641675,
        0.07403865656714377,
        0.09400026007160116,
        0.07980897363705834,
        0.07513937194010947,
        0.05764096322759199,
        0.0792915679814985,
        0.16217886292227804,
        0.22430190122471683,
        0.21706054005838768,
        0.10772687803241429,
        0.010001258578561465,
        -0.07635874245024085,
        -0.05686400587475545,
        -0.010541449920491696,
        0.027284594915871624,
        -0.018124406655752774,
        -0.0025747025871303737,
        -0.0404587459772578,
        -0.005867670845593493,
        -0.030068674030608162,
        -0.06845125083970681,
        -0.08284486544150023,
        -0.0569061524856431,
        -0.0056764940613785505,
        0.0390272635254412,
        0.07379877472754842,
        0.0433727461792657,
        0.0329259991843318,
        0.016620792895792172,
        0.06877500349029148,
        0.05221286932790308,
        0.046169973465379946,
        -0.01655934059077521,
        -0.11422934254673162,
        -0.1182813476773544,
        -0.12574818697902312,
        -0.09411749655980317,
        -0.031341641127978784,
        0.01187000894925514,
        -0.0061545853686362974,
        0.02771731667642305,
        0.017175977554391854,
        0.012533336041188047,
        0.017491303520533286,
        0.006620181774929436,
        -0.020395522701369313,
        -0.03680762705195167,
        -0.0321558663452247,
        -0.033462668297635584,
        -0.006847538618655277,
        0.008179843119517754,
        0.024118577873421927,
        0.031690656680370896,
        0.03224084557404705,
        0.03670586869063701,
        0.02821047612772157,
        0.02947912845029014,
        -0.025457939573910106,
        -0.03452137624728145,
        -0.05400272022657342,
        -0.008727842233341292,
        0.0637482249836816,
        0.04062974742339722,
        0.027302025693095387,
        -0.027112637439289183,
        -0.031494155177330854,
        0.010358273814724367,
        0.05458949548646038,
        0.06569708294706425,
        0.0932031564683918,
        0.042894311811166805,
        0.005980818201968597,
        -0.03418804261421251,
        -0.05727160477422783,
        -0.028814335741597343,
        -0.018164045637458163,
        0.021902035782716822,
        -0.0029305262333873365,
        0.07352815953462298,
        0.10553047131028663,
        0.14034237945061073,
        0.0871257390711124,
        0.0381496485511775,
        -0.07284528146330013,
        -0.04314723225808127,
        0.04702450347152419,
        0.13615719701103798,
        0.15947414725285014,
        0.12119859446204312,
        0.007444486550457261,
