{
    "train_site": [
        "DRIAMS-A",
        "DRIAMS-B",
        "DRIAMS-C"
    ],
    "test_site": [
        "DRIAMS-B"
    ],
    "seed": 480,
    "model": "mlp",
    "antibiotic": "Ceftriaxone",
    "species": "Klebsiella pneumoniae",
    "years": "*",
    "test_size_obtained": 0.013152312261349173,
    "prevalence_train": [
        0.9092863284608771,
        0.09071367153912296
    ],
    "prevalence_test": [
        0.8709677419354839,
        0.12903225806451613
    ],
    "sample_sizes_per_train_site": [
        2090,
        90,
        146
    ],
    "train_proportions": [
        1.0,
        0.75,
        0.5
    ],
    "metadata_versions": {
        "DRIAMS-A": {
            "2015_strat.csv": "56d646ce31a05dd704a4a6693aabc413a4e75f76",
            "2016_strat.csv": "d06fff6b6b60af9fc10fadc858cf5624808aaf3f",
            "2017_strat.csv": "a474ce364f6d3e201b3a527d8786e2c31bbc8577",
            "2018_strat.csv": "e650292c172f16845899c3a566b8f3c427b3e9c2"
        },
        "DRIAMS-B": {
            "2018_clean.csv": "27380b0a9a43a1e699b4b311235211ccfd2a76f2"
        },
        "DRIAMS-C": {
            "2018_clean.csv": "0e0d2a1ebdfeed3f39f7dae50f4000328e7da075"
        }
    },
    "scoring": "roc_auc",
    "best_params": {
        "mlp__activation": "relu",
        "mlp__alpha": 0.0001,
        "mlp__hidden_layer_sizes": [
            256,
            128
        ],
        "scaler": "passthrough"
    },
    "y_score": [
        [
            0.9994331518492272,
            0.0005668481507727682
        ],
        [
            0.9998451265264163,
            0.0001548734735836464
        ],
        [
            0.9997127853673698,
            0.00028721463263018624
        ],
        [
            0.9996531217514241,
            0.0003468782485759028
        ],
        [
            0.9995919975981766,
            0.0004080024018234246
        ],
        [
            0.9734793577861233,
            0.026520642213876722
        ],
        [
            0.97323885889078,
            0.02676114110921999
        ],
        [
            0.9520236789138006,
            0.04797632108619937
        ],
        [
            0.9998976519438975,
            0.00010234805610253796
        ],
        [
            0.9996359602375242,
            0.00036403976247581103
        ],
        [
            0.9998217791208355,
            0.00017822087916456776
        ],
        [
            0.999568623918508,
            0.0004313760814920257
        ],
        [
            0.9999844336989897,
            1.556630101027172e-05
        ],
        [
            0.9949866726615708,
            0.005013327338429132
        ],
        [
            0.9482289348458762,
            0.05177106515412382
        ],
        [
            0.6865815154922762,
            0.3134184845077238
        ],
        [
            0.9999830203762214,
            1.697962377860792e-05
        ],
        [
            0.9990932762346094,
            0.0009067237653905878
        ],
        [
            0.9842777561581179,
            0.015722243841882193
        ],
        [
            0.9999914250416091,
            8.57495839085409e-06
        ],
        [
            0.9987952444922988,
            0.0012047555077011616
        ],
        [
            0.999425504363338,
            0.0005744956366620476
        ],
        [
            0.9997950301527107,
            0.00020496984728933277
        ],
        [
            0.9056373763310154,
            0.0943626236689846
        ],
        [
            0.034741904131219026,
            0.965258095868781
        ],
        [
            0.002773705173695018,
            0.997226294826305
        ],
        [
            0.8948379295110489,
            0.10516207048895106
        ],
        [
            0.999991816925676,
            8.183074324026923e-06
        ],
        [
            0.9562502852106118,
            0.043749714789388126
        ],
        [
            0.9968072886658137,
            0.0031927113341862776
        ],
        [
            0.08496448873783025,
            0.9150355112621698
        ]
    ],
    "y_pred": [
        0,
        0,
        0,
        0,
        0,
        0,
        0,
        0,
        0,
        0,
        0,
        0,
        0,
        0,
        0,
        0,
        0,
        0,
        0,
        0,
        0,
        0,
        0,
        0,
        1,
        1,
        0,
        0,
        0,
        0,
        1
    ],
    "y_test": [
        0,
        0,
        0,
        0,
        0,
        0,
        0,
        0,
        0,
        0,
        0,
        0,
        0,
        0,
        0,
        0,
        0,
        0,
        1,
        0,
        0,
        1,
        0,
        1,
        1,
        0,
        0,
        0,
        0,
        0,
        0
    ],
    "feature_weights": [
        -0.010693462610364465,
        -0.0492892321647116,
        -0.09585227739293498,
        0.039400070999871556,
        0.07818100000566669,
        -0.02121578909676834,
        -0.005690806440513509,
        -0.038038728118951724,
        0.01034364863903526,
        -0.0389597045937298,
        0.05294531632470606,
        0.013469339077540934,
        0.021828192830946554,
        0.04035945128863175,
        -0.04004522314957086,
        0.00822947075650883,
        -0.028933268113065135,
        -0.036363939271643456,
        -0.018720364780146426,
        -0.06567776077891058,
        -0.032103316392275184,
        -0.01281023063394592,
        -0.025973117189398785,
        0.030188814028033438,
        0.17376749599087882,
        -0.018572249566660756,
        0.007117248360089239,
        0.011691848714824964,
        0.04806388676173025,
        0.049411207969691784,
        -0.0029085772907027573,
        -0.015082947298261973,
        -0.009132758705704284,
        -0.029453134343602246,
        0.009427987315165363,
        -0.000855475786526534,
        -0.0007451477006195311,
        0.013054258280607932,
        0.01777972779484518,
        0.012972991006241278,
        -0.01374078199900189,
        0.01961785964036327,
        0.08133667842086251,
        -0.06334409185208945,
        -0.06840390754219364,
        -0.07237116225777955,
        -0.09106480729578148,
        -0.04621226485925763,
        -0.05577973338816799,
        -0.003956138488660278,
        0.00033002438966502935,
        -0.102809312466046,
        -0.08995128253595877,
        -0.007222547486557703,
        0.01838178413461178,
        0.018387078197990937,
        0.07345296430548506,
        0.01355427309126052,
        -0.04660827797887284,
        -0.001872298627191849,
        0.02008039030269606,
        0.03742380227950741,
        -0.01118743097248555,
        0.0016670444618767785,
        -0.06944937652261887,
        0.022534757203778528,
        -0.03245820755587639,
        -0.05089383790849336,
        0.047566583891426525,
        0.017952256649170134,
        -0.018918552748126087,
        0.009207214295632562,
        0.04938453489298737,
        0.0565865102621457,
        -0.018365444155602997,
        -0.054268320893840274,
        -0.1355294705743935,
        -0.030072179140432545,
        -0.038230267419671976,
        -0.0013674124439008127,
        0.034527787674757456,
        -0.013958001544606996,
        0.05600019419191893,
        0.01428460668223581,
        0.05713871031054167,
        -0.013111405821130401,
        0.029685982430370694,
        0.05233644267407926,
        0.09939340610015124,
        0.09220659577665127,
        0.019360540242754812,
        0.0499717308087399,
        -0.05498039780119364,
        -0.14535125441832053,
        -0.10449521781026537,
        0.042569101487276384,
        0.05938250582768669,
        0.1156132470928364,
        0.05696944619662775,
        -0.013646365593978395,
        -0.0035614649475112625,
        -0.04561534542601737,
        -0.029717119829265656,
        0.060040276989736886,
        0.06656530968618697,
        -0.055902828532330216,
        -0.015862045412108755,
        -0.029185277373522518,
        0.02107148363492739,
        0.11607490469429789,
        -0.05894738414316344,
        -0.08147997996407183,
        -0.0320709536354289,
        -0.0557121546181126,
        -0.046098168986033305,
        0.08256238923623106,
        -0.01151140775878964,
        -0.014137665665237836,
        -0.04505338191289793,
        -0.04971102631923459,
        -0.006141512747581232,
        0.017039843996934145,
        -0.0014876485670742533,
        0.005483364644623537,
        -0.09791105239763885,
        -0.11804106786137333,
        -0.005712918990392274,
        -0.0416764165880145,
        0.013152561867427894,
        0.07395664957215606,
        0.019178211190385118,
        0.05632261447196496,
        0.042729696146678056,
        -0.004769505414694442,
        -0.03136285352911637,
        -0.020000365125019633,
        -0.02625808567997571,
        0.004766779044810874,
        0.022591030995058776,
        0.033925494241121276,
        -0.005672493269071951,
        0.027977453713233985,
        -0.009997252622137784,
        -0.020847685355678797,
        0.0028788455564636582,
        -0.02139376994386287,
        -0.006064284147335499,
        -0.01242458301070204,
        0.01906130693552017,
        -0.041860064292237306,
        -0.019070546132377013,
        -0.04458048586586964,
        0.010644740284359811,
        -0.06917394010441,
        -0.06795788129413749,
        -0.05851493351239227,
        -0.011903352234103416,
        0.02412341669656732,
        -0.09054611136037649,
        -0.09485189755067316,
        -0.061019801821490374,
        0.027327015560049538,
        0.04339528744775499,
        -0.011151092664093542,
        0.03305176643387386,
        0.022614506978313152,
        0.010854692329477002,
        -0.02775670311030992,
        -0.0606022498804971,
        0.0165506890086832,
        0.008674828047027591,
        -0.0020459223991352174,
        0.08229111435152658,
        0.03333623411072052,
        0.03983736742795108,
        -0.017926222831515515,
        0.0011800163889475817,
        0.033349555352573834,
        0.05474065349549587,
        0.004418287612650727,
        -0.06057051084609049,
        -0.08856733763263612,
        -0.014062343184828829,
        -0.029864428429432065,
        -0.02190174216795448,
        0.10307245119778174,
        0.1375958094267105,
        0.08459462089527614,
        -0.06946606465238697,
        -0.03726069384890526,
        0.015996943818029553,
        0.08325228049355268,
        0.06659994343959419,
        0.027944095845371057,
        0.059729586471887,
        0.00959296876232198,
        0.003327823399782967,
        0.014675459874654387,
        -0.007583409453177925,
        0.00032876864650464003,
        0.025494585008730947,
        0.02299594588550352,
        0.06622625731173191,
        0.019584779183518287,
        -0.01812200782831748,
        0.0027731950541703423,
        0.039455389021729945,
        0.044112415542979344,
        0.032922116102607576,
        -0.01039170676616513,
        0.0521873327759806,
        0.009406896321412894,
        -0.0882434086735574,
        -0.021817796567374873,
        0.10792347269543955,
        0.0072413902982790945,
        -0.018878816117924975,
        -0.08076495618184576,
        -0.04160820718354224,
        0.038266146558890726,
        -0.14236295436131707,
        -0.04323545919784652,
        0.12216101506148196,
        0.07474763690675455,
        -0.0007373632708633714,
        -0.050634677072002865,
        -0.027558434709020987,
        -0.026477908620861475,
        0.022555178807205895,
        0.018427025045424095,
        0.011648671656628442,
        0.04520799126489012,
        0.03304759374274012,
        -0.045726827873456305,
        -0.07984042217920796,
        -0.05265449810917835,
        -0.002884182502450883,
        0.042961708728939244,
        0.02438918466854874,
        0.00540222314051673,
        0.03457082295777145,
        0.033909493041374944,
        -0.0052774991446083094,
        0.03228129575410556,
        0.019518277765988103,
        -0.055065850837171394,
        -0.07801018505777949,
        -0.04966195518517504,
        0.013895936414712264,
        0.05246876561917278,
        0.00670494542786506,
        0.020880845003597742,
        -0.03749222900548636,
        0.05376121167034773,
        0.018598391492730126,
        0.01673773956790697,
        0.024102773327426913,
        0.03418791915451712,
        0.11318459236695874,
        0.036649041271816826,
        -0.010451449184546657,
        0.09572587911217463,
        0.05867257485054851,
        0.03960643991203647,
        -0.0015269820627006997,
        0.010561365138378282,
        0.010977708129869267,
        0.02432081787172668,
        0.018842844221194095,
        0.00644959556134461,
        0.04627565868984093,
        0.01947735482110013,
        -0.010743370429552531,
        -0.021803334372868837,
        0.017507444436488013,
        -0.004737673839215315,
        -0.05084713479314673,
        -0.05443172679372714,
        0.004670302126348011,
        0.05479268784159823,
        -0.03144998871216277,
        -0.0735031274722307,
        -0.04638158538428436,
        -0.04604844527600502,
        -0.039445062625159365,
        -0.02407903232673373,
        -0.03608263486607505,
        -0.04075902337316402,
        -0.08968317506766678,
        -0.11123762630825745,
        0.03835634015270319,
        0.06867461724975525,
        -0.009371855907081958,
        -0.012331384436047643,
        -0.009017705252654093,
        -0.06256694492369712,
        -0.03731705718369427,
        -0.12277788202104388,
        -0.11568252650257564,
        -0.03057531751599937,
        -0.03009499387461563,
        -0.07204840753492812,
        -0.03413425640273134,
        0.08401211693160249,
        -0.005478934287122997,
        -0.018247056185696414,
        -0.07125666814022082,
        -0.03633326733038002,
        0.0575972830223102,
        0.024650842886657268,
        -0.05012625024812299,
        -0.03491863368146536,
        0.059664059762039486,
        0.06256736902603696,
        0.0023415675730248326,
        -0.11540572618742055,
        -0.03226953186185426,
        0.020657029200376195,
        0.014853000451896125,
        0.011186500623783437,
        -0.002790813031430539,
        0.023295246122784666,
        0.016200299595940375,
        0.06636960537696232,
        0.014824690602247908,
        0.017433184651600216,
        -0.029115169644919246,
        -0.025245194795427826,
        -0.004801165401967663,
        0.03990937936523497,
        0.0236554231268208,
        0.011932007159731244,
        0.014569721938482808,
        0.03466862816784911,
        0.024075796368723697,
        0.014603736721811823,
        0.027267361692453092,
        0.01764218449505115,
        -0.01723189749735556,
        -0.024167535257356074,
        -0.030662289512540984,
        -0.0449167144742733,
        -0.01705201514328425,
        0.0445227253893153,
        0.06636928989031443,
        -0.024749889986062593,
        0.020521120451071337,
        0.0563814283432948,
        0.08096963479390797,
        0.09598629054371051,
        0.032257661760185186,
        -0.028050663623535185,
        -0.05091345321163842,
        -0.1264726501016079,
        -0.041156717605617045,
        0.019876317826295748,
        -0.028792960876144986,
        -0.010021695800280556,
        -0.004039775652826469,
        -0.008915108508857142,
        -0.00011917443859871442,
        0.017951677491518072,
        0.0387126277357665,
        0.09174017295484299,
        0.0609167964070268,
        -0.01756324023564966,
        0.04946478454728906,
        -0.008152216230601441,
        0.015067840936624168,
        -0.03140775939546622,
        0.02665409440698889,
        -0.06532255350135771,
        -0.049034368269232506,
        -0.09599124246898591,
        -0.10699312589505927,
        -0.12237868651259111,
        -0.10063485508795181,
        0.07237277552505207,
        0.044602764926398655,
        -0.01742945859296677,
        -0.03274684531065995,
        -0.034428857307582175,
        -0.008354579807370853,
        -0.036169758579977465,
        -0.016556307577730175,
        0.009407674568972495,
        0.058494491059191835,
        0.06829269665906842,
        -0.05159399007481384,
        -0.017741050510389267,
        0.025916769100667106,
        0.05624323383135523,
        0.07483666339508774,
        -0.0028622402002137304,
        -0.013609653958227282,
        0.007492307238606281,
        -0.01859118925745567,
        0.003741919933130033,
        -0.010102841332601767,
        -0.004264622690328736,
        0.10198536568635341,
        0.15908238738060648,
        0.13790899587787409,
        0.006645610129019208,
        -0.1418657255238844,
        -0.0597942321105112,
        0.036405141246114534,
        0.06333747419462149,
        0.06964912219608621,
        -0.008846952654747537,
        -0.08241131471541369,
        -0.08421506117326596,
        0.011201316667650903,
        0.00646539351391934,
        -0.022659825132429298,
        0.0037677842923481497,
        -0.06228618258721386,
        -0.035493119001112114,
        -0.0023699064401695403,
        0.01654411656626128,
        -0.021171102082030303,
        -0.014210467459262854,
        -0.05330126107159871,
        -0.10942955508291681,
        -0.14502293738977975,
        -0.08755017512271218,
        0.01687529790755709,
        0.12995506073498503,
        0.11495200859855612,
        0.0018751369778053776,
        0.06748885602158114,
        0.08141184289999973,
        0.05593201196264606,
        0.011398018992093105,
        -0.014950312061602473,
        -0.00010927343763759913,
        0.027368700252054054,
        0.07878118578367428,
        0.04582085081199673,
        0.030467305470299924,
        0.001385702436616217,
        -0.009504049996803501,
        -0.10222774593431931,
        -0.08513915628879276,
        0.030410883296767218,
        -0.03785347330418104,
        0.04649696065330039,
        -0.08709927795858781,
        -0.03496922754422081,
        -0.06163796725531405,
        -0.015794353834576207,
        0.0016005385194245282,
        -0.02276108614056513,
        -0.06752810680956613,
        -0.04879341005536375,
        0.041654833039081594,
        0.09633170599979321,
        0.0159049865264317,
        0.0034082113615956427,
        0.02951942739140355,
        0.0035937104036059043,
        -0.06917456568392362,
        -0.07397620955533506,
        -0.025840750417463615,
        0.010770562576897933,
        0.01830012368497487,
        -0.11783750689077996,
        -0.1637280728989379,
        0.02766048755234584,
        0.12791234618380096,
        0.19140595858827497,
        0.026018096441014847,
        -0.04079811954951604,
        -0.03633659097340711,
        0.02093718775052019,
        0.061835820690256504,
        -0.007981749544445168,
        -0.04229122656640895,
        0.018355513745179408,
        0.05699728728139938,
        0.01478579841224588,
        -0.03405509895723719,
        0.06397669640662412,
        0.05256314245860644,
        0.040264332311448464,
        -0.01067695316267733,
        0.022518360706372174,
        -0.025494598939697542,
        0.038273261991873656,
        0.08199366528697004,
        0.2133638760888747,
        0.05271259074559192,
        -0.1862118915189652,
        -0.07325811984625537,
        0.054895647135995054,
        0.03267557925521122,
        0.12341603720904912,
        0.11992864813459314,
        0.06811021437738535,
        0.03153247396073772,
        0.042699864724487724,
        -0.08675202623428699,
        -0.05051939790552601,
        0.005496767410998875,
        0.015759815848458036,
        0.05070219382719709,
        -0.03332848712963024,
        0.024977186439457275,
        0.05771585989478379,
        -0.010957949782492142,
        -0.03090552361830831,
        -0.03671908153590844,
        -0.0024611988319356384,
        0.08838956335793208,
        0.15597636225036035,
        0.010838783347009464,
        0.033380141599683846,
        0.024863554830601826,
        -0.0044581735985414995,
        0.1115691356123259,
        0.22230143329398894,
        0.09527763430759831,
        -0.1459981606551664,
        -0.07817355601970244,
        0.010871789236881884,
        -0.014596889042639389,
        -0.0023348441191659453,
        -0.009225319000827601,
        -0.00959340683123256,
        0.026698774999966167,
        0.06469301977078808,
        0.053115071819364396,
        0.016433086791266177,
        -0.001236141073720967,
        0.061003789248802856,
        0.08065269705442235,
        -0.11808613360047407,
        -0.1381749759980736,
        -0.040455715386697746,
        0.0014957029375452144,
        0.0075301246733572354,
        -0.011386217535575094,
        -0.009328369716889509,
        0.017838480523483247,
        -0.029754103585582458,
        -0.047063683635414,
        -0.0725520185360228,
        -0.031168813248772242,
        0.012696635605009405,
        0.007977224936721792,
        0.02360272327522596,
        0.0020641256010702144,
        0.01386166964079338,
        0.02801498768594805,
        0.030293264089859467,
        -0.018479218306917847,
        -0.03618343453099785,
        0.023348384771649085,
        0.012717855985184292,
        0.04374981362413339,
        0.027761832683147483,
        0.07372266305573458,
        0.02282679022478242,
        0.07038238265938139,
        0.050983240731344234,
        0.04074895446581821,
        0.005922205686954476,
        -0.019657938922395674,
        -0.005217380096634262,
        -0.013574895605398409,
        0.02868929813657935,
        0.01970602661611375,
        -0.030031971263011645,
        -0.09326172135633673,
        0.03426078061073451,
        0.15797254093605279,
        0.02141538819695167,
        -0.12209948657997441,
        -0.15725402845121345,
        -0.0914102303311087,
        -0.1121261315921932,
        -0.06435300186856723,
        -0.0024804121537312348,
        0.06610866212353073,
        0.02647978114133167,
        -0.09842254506149635,
        -0.0758988152876651,
        -0.006343108764106142,
        0.027914723849112387,
        0.06434610975032624,
        0.02933569741951692,
        0.00559923307267821,
        -0.04353183603205704,
        -0.053595052044464984,
        -0.0905149846221662,
        -0.01989673406647468,
        -0.007468393615907896,
        -0.025728412739917904,
        -0.07710475078278518,
        -0.1622085415936633,
        -0.06182100491954589,
        0.05977317769511027,
        0.05141986200313722,
        0.10463450353498485,
        0.11490945761078133,
        0.04833655560652816,
        0.04913701332085221,
        0.014839191162831254,
        -0.03673188544125695,
        0.056333069961653714,
        0.011209608484120625,
        0.0341710773974638,
        0.05224038935369361,
        0.09009499925298098,
        -0.02631627751392788,
        0.03168022816781901,
        0.0008571691335066442,
        -0.016018229488031846,
        -0.012893619256078667,
        -0.004526482657290946,
        -0.036403027352787026,
        -0.06025871653221496,
        -0.004698549118602907,
        0.006460289760223206,
        -0.010199107007500641,
        0.005553237838923676,
        0.09725400792172242,
        0.09250566777472516,
        0.058982191384433634,
        -0.0373818680199529,
        0.04511330183067165,
        0.12389838510555733,
        0.037940715097245475,
        -0.09236003701221171,
        -0.05898631957447987,
        0.03768834498159627,
        0.009094039625363792,
        0.00284107583460492,
        0.06574825074292828,
        0.1240584670540488,
        0.043372533649998685,
        -0.014910371554283314,
        -0.013096990471860553,
        0.08701773267350563,
        0.04341083743308735,
        0.039549988902496974,
        0.013801042820422492,
        -0.01709567894679579,
        0.0038006526933105963,
        0.012615289791652991,
        0.03667053372092778,
        0.04428602980184577,
        -0.03511887634252441,
        0.0093485170421314,
        0.021969971812040946,
        0.003432744666717996,
        0.016776241309075846,
        0.049019967973178924,
        0.020518978101757412,
        -0.01437353363149172,
        0.041370693471874456,
        -0.008519951941394606,
        -0.05802842029619523,
        -0.03493648727418935,
        -0.020457734497070553,
        -0.045027445129849464,
        -0.06595329010000488,
        0.01988534727540665,
        -0.016810212823418484,
        -0.07954848609182635,
        -0.06022606084169184,
        -0.03563580711416418,
        -0.10620027928304661,
        -0.03994520170067618,
        0.1186600328884128,
        0.11636630772178891,
        0.02906408277570225,
        -0.02717952257541352,
        -0.05251669528343255,
        0.010201580842074752,
        0.025270120200807857,
        -0.000333469751814161,
        -0.04654012107635747,
        -0.0015079608543188613,
        -0.06372231557009407,
        -0.04140661340333026,
        -0.006547765355807201,
        -0.00143076685843402,
        -0.03264483561440321,
        0.008033471022058423,
        0.024646261386346353,
        0.02413355163088096,
        0.0030292975531903098,
        -0.012898798839685182,
        -0.03677215991478726,
        -0.03373810288234289,
        -0.09754090759489381,
        -0.08563032543559199,
        -0.020444406130482616,
        0.12693148911022806,
        0.09468995248688558,
        0.06127653774101753,
        0.0531980817225121,
        0.1015144107116574,
        0.09463969088736782,
        0.02210888835325489,
        0.008272050659152383,
        0.0823456016709933,
        0.10294487939103684,
        0.032259721617590276,
        -0.04684778871676222,
        -0.10109544230089657,
        -0.04301812077596773,
        -0.020068753497213127,
        -0.0032856392657525913,
        -0.03708075511963936,
        -0.005810091947147705,
        0.021518358708850334,
        0.012265737733372459,
        -0.04585528419458004,
        -0.06856662770469113,
        -0.044479260996115225,
        0.002097818499236459,
        0.0322524755255337,
        0.035340890862909036,
        0.02194827341698876,
        0.04330399894952326,
        0.02059117650991003,
        0.008316244672887576,
        0.028970277740393523,
        -0.009985040256182383,
        -0.03345832037812194,
        -0.022289780115811855,
        -0.03289829771508903,
        -0.026603126885081416,
        -0.045340851698218755,
        -0.025786037586647242,
        0.014827768797433437,
        -0.011554323288150887,
        -0.07063409924107779,
        -0.02124145665310309,
        0.070787107468026,
        0.0007159271764529529,
        -0.06661363815561806,
        -0.05542036709142,
        0.019927924722584443,
        -0.027273621441345434,
        -0.014904953475852013,
        -0.06343654188098724,
        0.001540129877648199,
        0.08726387800841198,
        0.0633419301137994,
        0.05131818816809611,
        0.0718042755392493,
        0.03076180262947193,
        -0.08559927305330066,
        -0.09354673738282969,
        0.02965541353502507,
        0.1598343617737264,
        0.22553789242787234,
        0.08038423200684532,
        0.04918456189046484,
        0.020144361998019077,
        0.05498404206543276,
        0.018792581987613043,
        -0.07933796688604483,
        -0.06116991334477865,
        -0.08420478120004185,
        -0.06341209214248754,
        -0.04690455543239195,
        -0.015692427260551124,
        0.1117065424168664,
        0.06695062173351216,
        -0.0445412853234129,
        -0.058755685221788756,
        0.010334632512101889,
        0.04468363267811355,
        -0.015550790488407651,
        0.05243607198147302,
        0.05267457299714658,
        0.07539458321475864,
        0.14813148492116565,
        0.13080006682169945,
        0.004722855361217049,
        -0.0011774268937311423,
        0.011973114559651912,
        0.03824225879223814,
        0.04486925428070771,
        0.03540084724057105,
        0.012871094199150626,
        0.0005252166301268829,
        0.09719775073128566,
        0.07303212749530934,
        0.06443499001636631,
        -0.08579819541732202,
        -0.12427102508175084,
        0.044664619872743686,
        0.1405246959697603,
        0.021736021533114325,
        0.056738918698551646,
        0.11542884107015197,
        0.09189502665793445,
        0.06639778806386307,
        0.07488040213519705,
        -0.014727652210692183,
        -0.038518065302153945,
        -0.006266345631401565,
        0.04214974568613274,
        0.009398567239327343,
        0.07927253682709581,
        0.07557718204452134,
        0.020671983798367894,
        -0.008000810685022433,
        -0.003573123969479352,
        -0.007132055727334677,
        -0.01888075766336468,
        -0.022067534356595267,
        0.02091237111620271,
        0.015371215117566272,
        -0.02462979942521963,
        -0.0241738716123633,
        0.03529092358786925,
        -0.003452613590604504,
        0.05872584684480258,
        0.03533126067604618,
        -0.03570801370783972,
        0.01564624961732656,
        0.06835274565254747,
        0.05214972662538271,
        -0.05823030853436083,
        0.012239963406387725,
        0.00045599404760360995,
        0.024219514470177294,
        -0.009291458078824779,
        -0.07032274879396022,
        0.00579312815998021,
        -0.009462109101954858,
        0.03006581328817253,
        -0.08786135188492429,
        -0.0779805952722469,
        -0.013182141835665528,
        0.0029253960543354973,
        0.11520386945307126,
        -0.028067089048784064,
        -0.030749711638871524,
        0.007252173805214885,
        0.03561638228840763,
        -0.019292187304084038,
        0.019718641009827384,
        0.00927543159115991,
        0.003573555030119397,
        -0.050553505116576566,
        0.0027276552402734507,
        0.04108551173564173,
        0.014629661024305114,
        -0.0009170153338902376,
        -0.002407931832100975,
        0.056746152685750124,
        -0.06376952747893244,
        -0.09334501028122752,
        -0.06198092960255753,
        0.03452887146287195,
        -0.0076308252457047525,
        0.020249767649242384,
        -0.021612337500310785,
        0.0484231462171201,
        0.11858648420049267,
        0.14832869090439293,
        0.003063173405097507,
        -0.06357362004175823,
        0.0521692958021975,
        -0.01866053764832925,
        -0.05534352854248897,
        -0.03154059188437567,
        0.010599137378142668,
        -0.0777887222526539,
        -0.18908318803073224,
        -0.12178554133141503,
        0.013911841192804407,
        -0.07286173058903228,
        -0.058361151768750924,
        -0.002248882870413222,
        0.01933935686522806,
        0.0025338311997755306,
        0.00918662011439981,
        0.06709332442838281,
        0.007788015117665137,
        0.022483930820839958,
        -0.012172292198247704,
        0.013828837435123965,
        -0.1105135226284294,
        -0.22279548344451047,
        -0.16167588022890161,
        -0.009668815412782248,
        -0.028170224683676696,
        -0.036667205967626855,
        -0.04909239860677047,
        0.03437032188298468,
        -0.0036490169822441646,
        0.03837821432800918,
        0.12367169067334821,
        0.12209832701455567,
        -0.08928044369706953,
        -0.10721666345135959,
        -0.08260729544762459,
        0.1476560937408087,
        0.17078379943267213,
        0.08202539974890875,
        0.0003775899875186708,
        0.13389566375666967,
        0.02079088992305911,
        -0.021880415283003336,
        0.0436663714187434,
        -0.009304825698299837,
        0.02572185760405262,
        0.034268158323598946,
        -0.00444663586345228,
        -0.07071134781025204,
        -0.09819901744973683,
        -0.0736507247514381,
        0.009288003305367535,
        -0.03252117770033683,
        -0.016670025293433845,
        0.01669098373463441,
        -0.006614368748787514,
        -0.05837241793342324,
        0.008323981582877019,
        -0.017881019602569763,
        0.01998401463129564,
        -0.030809740740877993,
        -0.027846413138963133,
        0.0493170148757775,
        -0.0300954448542794,
        -0.037526015465536355,
        -0.0029964260136148887,
        0.0903670095573938,
        -0.046972291496090335,
        -0.04381410481230699,
        -0.09566920768899928,
        0.03644022023688838,
        0.042345980574592476,
        0.11142989477540517,
        0.11038863484716782,
        0.04745759567431837,
        -0.0539864076442511,
        -0.05092943588640296,
        0.03140721050379576,
        -0.08470505649885604,
        -0.04484390299305335,
        -0.05424397393578316,
        -0.00683933009822643,
        0.01722682506039413,
        -0.013778812852845414,
        0.06951020056368609,
        0.08911127189935132,
        0.10598407890905202,
        -0.00132850093403681,
        0.025925982706849156,
        0.05448992769521975,
        0.011507340114333627,
        0.04284011865067337,
        -0.04833381097554586,
        0.05178924308999561,
        -0.005480467643082263,
        0.11939767660292912,
        0.013279738831707747,
        -0.0013316408022659443,
        -0.027366065852436915,
        -0.06389280246786017,
        -0.012629628615826175,
        -0.06254354470865918,
        0.027928717747533856,
        -0.015936172062487826,
        -0.049352846527683014,
        -0.060269978849054995,
        0.014699875882919232,
        0.1027713531160853,
        0.1372834716365048,
        0.09773431406906188,
        0.041707780476425926,
        0.027544386428060848,
        0.017195158012167245,
        0.057608156536164745,
        0.1510997211597081,
        0.20842237628255342,
        0.15942346238168292,
        -0.013555140980233108,
        0.015991115403647338,
        -0.06000097822957159,
        0.02152380783965443,
        -0.03941800069163051,
        0.011292309317400146,
        -0.01225205559461524,
        0.06771556616148539,
        -0.10510838525595004,
        -0.131242674009925,
        -0.13841596527094663,
        -0.08744112354575269,
        -0.0024557181639117236,
        0.09286263319260604,
        0.0860825819870282,
        0.04323192756186276,
        -0.007728759873647621,
        0.03911907816651059,
        0.16099894987962404,
        0.1827313898479103,
        0.04682861772077603,
        0.04165936650900928,
        -0.035911523101828505,
        0.04086177706605838,
        0.07749434457719315,
        0.07405154565138257,
        0.0262581822124682,
        0.006710525453770608,
        -0.052291736810102435,
        -0.004686744461375413,
        -0.036060928100385775,
        0.06151016835641151,
        0.0139505520689658,
        0.05697111390413793,
        0.008638392308170423,
        -0.07168956372260477,
        -0.026449326349775083,
        -0.019579030373274534,
        0.005998691723731412,
        -0.009306611924256879,
        -0.05144840066169992,
        -0.030625342591478064,
        -0.016570501804822516,
        0.010509196808814163,
        -0.06361315007229848,
        -0.04618144516660219,
        -0.047741364016926066,
        -0.003896740379849108,
        -0.10689356196766175,
        -0.08043905766433726,
        -0.003397666247777204,
        0.10970893664747178,
        0.06736131593620276,
        0.0036734330655264526,
        -0.024671334630723858,
        -0.005106762475110523,
        0.06671612665690409,
        -0.007076516614131567,
        -0.03919151345965881,
        -0.06408079323607513,
        -0.03345857805508473,
        0.04090171128905894,
        -0.022572603021946764,
        0.029782358901380458,
        -0.006911620922527591,
        0.09535161760579519,
        -0.002657803853329436,
        -0.02163053473914679,
        -0.04080785015842864,
        0.0734798447065311,
        0.02791047402962448,
        -0.005005256300603531,
        -0.061198692653332123,
        -0.15722490453848303,
        -0.14581727576885814,
        -0.09362129088145484,
        0.07448390817512315,
        0.09259686330471728,
        -0.031765946529171724,
        -0.052157494252070065,
        -0.134202305581809,
        -0.002010887642840147,
        -0.017533690054224636,
        0.09406327848718274,
        0.044212346925662005,
        0.12976113017365584,
        0.14182068638114353,
        0.031663778557264904,
        0.006879649761949536,
        -0.03950280668225088,
        0.019858299090564767,
        -0.016894524600802187,
        -0.10296672762712451,
        -0.03633449305726213,
        -0.02147071190638552,
        0.07453326373366295,
        0.08827899341206086,
        0.16210665727444587,
        0.19701169993359507,
        0.07582913737415299,
        0.11869325670702248,
        0.03504136608292333,
        -0.01658968150858461,
        -0.04059446974622038,
        -0.06822053740844244,
        -0.01629423677443339,
        -0.03023227046803125,
        0.004389958250713485,
        -0.0021046250910141395,
        0.04507720840427609,
        0.08240750483861758,
        0.13902335305103358,
        0.12019456531721326,
        0.13217396006832485,
        -0.014746492417200404,
        -0.008971016410620015,
        0.052207836718758824,
        -0.11643953284412548,
        -0.2023835841550031,
        -0.1561432768598034,
        -0.06601996679314137,
        0.06700266210594552,
        -0.009368321674802487,
        -0.050014332434003356,
        -0.09615895527144475,
        -0.08632676695174687,
        -0.07690078619244192,
        0.010592416870742744,
        -0.005658330846721783,
        0.004898147555799434,
        -0.007623545613972202,
        0.07008342603570958,
        0.09100132519121852,
        0.06413302202203008,
        0.032468248174008854,
        0.00553239115418704,
        -0.047058369778207876,
        -0.003250230087096543,
        -0.019192767913110087,
        0.028479775807363897,
        0.015806096027032795,
        0.06315978586334889,
        -0.02892498734541353,
        0.05492492641530192,
        0.05348985562772851,
        -0.012028504623832637,
        0.025232126734170048,
        0.034909968621045256,
        -0.09303662263332438,
        -0.13544306698885544,
        -0.1689838827437083,
        -0.1700832693434059,
        -0.15143859187508446,
        -0.0762419614545768,
        -0.03988587853385965,
        0.04532996056489132,
        0.04682522738104611,
        -0.014212579042841338,
        0.022794409938031952,
        -0.03588525248279434,
        -0.016552817174658577,
        0.015758213372395677,
        -0.07970457751219298,
        -0.08193890529825723,
        -0.11723386144700162,
        -0.11407119461047664,
        -0.022374046797470345,
        0.06946045309754151,
        0.03429289439844285,
        0.06575703508145231,
        0.1060290394497147,
        0.022307812267154697,
        -0.13167176537056036,
        -0.11563745707447809,
        -0.12082140521013465,
        -0.12169493271570012,
        -0.04007099178264102,
        0.1287096195716789,
        0.1312109411621921,
        -0.004700183925476522,
        -0.08584268012504194,
        -0.1172185978905569,
        -0.0763344305171274,
        -0.019395417631920944,
        0.00813428971997109,
        -0.01068641568578288,
        0.06529400769997215,
        0.059184009316687776,
        -0.024290394934459045,
        0.02712861288780475,
        0.04930901655575243,
        -0.04413306971298002,
        -0.11460879416627243,
        -0.07760748439387583,
        0.02525284955076746,
        0.001974329287686907,
        0.0709810480969372,
        0.01622434653855265,
        -0.13946251122963296,
        -0.1887839177471821,
        0.0011588337252880505,
        0.17167735921694388,
        -0.04888432267341862,
        -0.18642068235696238,
        -0.16722777129414537,
        -0.061230009133774674,
        -0.0357086257526225,
        0.022478699169561144,
        0.015081923202973673,
        -0.02377392547470946,
        -0.0896334041782033,
        -0.0674599532636394,
        0.00443905064392139,
        0.017768800660468983,
        -0.051303407284902174,
        -0.06367035853528555,
        0.009208939913822257,
        -0.021404109167821157,
        -0.015896635014461973,
        -0.025441886787614623,
        -0.05930771361354703,
        -0.08933519122756203,
        -0.06505344874233966,
        -0.051617571205424206,
        -0.026339301853832733,
        -0.12194196793952593,
        -0.13854687381606057,
        -0.11156330894529506,
        -0.05915955220086627,
        -0.08355123070367035,
        -0.03463030900636734,
        0.05482891671815898,
        0.13428742740830935,
        -0.05411978056268513,
        -0.061024122229740886,
        -0.0430025846886509,
        0.13600012011009657,
        0.19291827846329418,
        0.10379206863037377,
        0.056377921720003416,
        -0.02294823123299472,
        -0.14829897760964939,
        -0.0915132378047957,
        -0.006309179576400725,
        0.06145739796947836,
        0.04438162215189041,
        -0.11031203250336588,
        -0.005289781198626837,
        -0.019175448111332934,
        0.057707934314392355,
        0.04828747088677997,
        0.06753645597256215,
        0.096704790651753,
        0.06847019913988994,
        0.029867720307539196,
        -0.042678420186428034,
        0.014586724794114072,
        -0.02649200137095031,
        0.012148606594719334,
        -0.05952656402019155,
        -0.03822025906508527,
        0.04606385402430496,
        0.09892140074646688,
        0.1211767993798572,
        0.03983501863113493,
        0.036798349977361644,
        -0.0731992486513807,
        -0.0779620017374801,
        -0.08303407545244942,
        -0.09572292828790263,
        -0.04121723936268139,
        -0.10119879514261171,
        -0.024685195307943095,
        0.028273329482287418,
        -0.006974696233389681,
        -0.00556475247751426,
        -0.11586621118828191,
        -0.1817560189482143,
        -0.10918965024149288,
        0.045703607526267925,
        0.18121216500411963,
        0.21338868858494803,
        0.08482995552634356,
        -0.06325959981019864,
        -0.12118292656163276,
        -0.12245086442425379,
        0.016905314745967993,
        0.0020023187989870635,
        0.008665294204538192,
        0.027269593778667146,
        -0.011189464580783492,
        0.01736126865785032,
        0.00690277558542101,
        -0.02135554086029301,
        0.03624075335015156,
        0.017780074764004363,
        -0.006161756431862143,
        -0.010734318177918247,
        -0.08702508343192751,
        -0.02950055814380763,
        0.0525118671922569,
        -0.00499593427313668,
        0.0711649110796454,
        0.2181898461943229,
        0.13914197588683158,
        -0.014976738641083683,
        -0.01676622014420348,
        0.038492824528828656,
        0.006356425048295903,
        0.07145950329868317,
        0.0273379467120638,
        0.03301265051392999,
        -0.011529767607155541,
        -0.03926819325836938,
        -0.03973047638696481,
        -0.05628247605056922,
        -0.013240981126546113,
        0.028648268223172443,
        0.10596510789312866,
        0.04045481985590025,
        0.025566476054501082,
        -0.020617971474787937,
        -0.061521984966361964,
        -0.06614630627817124,
        -0.09302198451890795,
        -0.0952845770020897,
        0.00924592863704965,
        0.022752827438289127,
        0.015073610912877025,
        0.004577247299389577,
        0.04981187681805701,
        -0.015020074113567705,
        0.04729239230157009,
        0.038808927382373015,
        0.046143640454141356,
        0.07182853570047021,
        0.07790367322052388,
        0.11294325221785878,
        0.09159024617987899,
        0.06424289984469461,
        0.056594843154235436,
        0.15236086005334917,
        0.1503060188563002,
        0.08875821882953823,
        0.07655617407821173,
        0.09470597708427198,
        0.12858694263797743,
        0.17157703737084062,
        0.18141944274948757,
        0.18776082828833024,
        0.14571404375774927,
        0.16001569646831723,
        0.023575008800787597,
        -0.038805870229345805,
        -0.023436646216123225,
        0.0014941180884545681,
        -0.0506255274267739,
        -0.01300598114921507,
        0.04100984976430183,
        0.09256528182485078,
        0.005214960069818655,
        -0.1261112865500829,
        -0.1025990046476968,
        -0.11698676611110846,
        -0.08203954514310399,
        0.0004130407583205865,
        0.060209421612149996,
        -0.09625379884274388,
        -0.13381683997379717,
        -0.08225473754568277,
        0.026429697302687696,
        0.02032201128960582,
        0.009033862125605694,
        0.08032438912373269,
        0.06245997262817847,
        0.05608986098619817,
        0.012691012586452981,
        0.06651504619050749,
        0.047392484465489215,
        0.05542685181617276,
        -0.0018685086122668712,
        -0.000623960701404675,
        -0.0024019016701582914,
        0.02506820097278342,
        0.012233980451104444,
        0.008888126049835724,
        -0.001003387947157047,
        -0.04625814293055972,
        -0.034491442050822996,
        0.05689443669363062,
        0.07323350134935346,
        0.0074016167389126825,
        -0.011118052558506272,
        -0.020289631750885776,
        -0.04334862429184034,
        -0.030636048672327353,
        0.017366549539510584,
        -0.02852423340831859,
        0.0018378701241781581,
        -0.01200004397480368,
        -0.01746798464562063,
        0.029993070879952018,
        0.04295613769628996,
        -0.006463560047476935,
        -0.015259753464951826,
        0.05490066185182575,
        0.19204910349512655,
        0.22431679140727886,
        0.1689691548160151,
        0.1723998682230149,
        0.18253836713596688,
        0.12445139729817105,
        0.03277462803358599,
        -0.03211743293596625,
        0.05465163848647007,
        0.024995810686015224,
        -0.013020295730019709,
        -0.015746816502848312,
        0.00452128348534766,
        0.033484761735551344,
        0.011399001299233118,
        -0.1310963487993623,
        -0.13667895015401646,
        -0.03625705658163822,
        0.01604745445603788,
        -0.04939619497170612,
        -0.02869706193173942,
        -0.04840575739558303,
        -0.05828462542900344,
        -0.024077323379556276,
        -0.0900160987880213,
        -0.09355295205175282,
        -0.024089047499291902,
        0.009345627781429187,
        0.002762708558512521,
        -0.020658223770982836,
        0.0011633873376196415,
        0.03462854447440715,
        0.043796779065940795,
        0.0021689405684748586,
        -0.025754189348129328,
        -0.05099622339270641,
        -0.021543234358596022,
        -0.015882435315323563,
        -0.0014072518107826086,
        -0.017237174082613056,
        0.010933830498777282,
        -0.0018979318671455741,
        -0.005504887321971524,
        0.008843921303376412,
        0.007185227877521275,
        0.010721115785806938,
        -0.04190965360527958,
        0.03276046898602349,
        0.24387120286170857,
        0.28844307369780825,
        0.13344499120804437,
        -0.04293746325362955,
        -0.09554157974363411,
        -0.08859947168257895,
        -0.06393489235845443,
        -0.0727556724700495,
        -0.10873910967478365,
        -0.0794159512916856,
        -0.05154981068733895,
        -0.035543369747343824,
        -0.012280343775665972,
        0.05211400176855547,
        0.0900433157876958,
        0.08278285055459911,
        0.06100426039807587,
        0.04449720065859705,
        -0.01794284787800436,
        -0.02163736906376138,
        0.006436478307030456,
        0.012293007457556692,
        0.022335539535001274,
        0.016148824208545406,
        0.04540353894880934,
        0.005546843245198687,
        -0.012723185496912889,
        0.01738380391373496,
        0.041142606463900784,
        0.01897988273878154,
        0.020061889082932625,
        0.01197538124858164,
        -0.04154003861997384,
        -0.08303547222586571,
        -0.07940118700559737,
        -0.06941642131199521,
        0.013154270338027355,
        0.009384750234679082,
        0.03711909121063562,
        0.014961123123516874,
        -0.007394130532679937,
        -0.036412224245922414,
        -0.05375571652537954,
        -0.009721385682019664,
        -0.0652403663062614,
        -0.08840912440908938,
        -0.12770227096939468,
        -0.11690786512005458,
        -0.09106169514478991,
        0.008891079858604352,
        0.12994824649270442,
        0.14753647942980985,
        0.0675818506720755,
        -0.02745561833253694,
        -0.11770229316252925,
        -0.029753092826831123,
        0.025682756972402764,
        0.06254487476588425,
        0.12183514594401576,
        0.07755176454980056,
        0.04646515412404779,
        -0.039746709672674324,
        -0.0924311819998887,
        -0.040564179587467754,
        0.08041976409769244,
        0.09929332549093399,
        0.09467639895597349,
        0.023807901552110565,
        0.0010931540380759424,
        -0.03501221298310885,
        0.042718835597372856,
        -0.01630543030936465,
        -0.05073049524680258,
        -0.0070261753486336054,
        -0.002708633917460864,
        -0.017306905992542306,
        -0.10077278360398982,
        -0.06545593257626017,
        0.04839309982754389,
        0.12033699142514365,
        -0.035696274602466035,
        -0.15070173106489754,
        -0.2241701828812235,
        -0.20896222379961205,
        -0.14264040400968886,
        -0.07687235327241872,
        -0.012566818452360299,
        0.029263489731529785,
        0.07870645696390291,
        0.056740928660994054,
        -0.0505811056725748,
        -0.04648465773737065,
        -0.04611604593146673,
        -0.006227243924734866,
        0.031590718065250906,
        -0.013223226521185004,
        -0.025851384532924206,
        -0.005042105114244771,
        -0.010422237635084,
        -0.015088926592115595,
        0.004520003560048358,
        0.04100925186201737,
        0.07035544252618439,
        0.06397961609623104,
        0.0041366232741570945,
        0.00041179204350036663,
        0.018211476790938024,
        -0.08927906369760777,
        -0.13000469453017205,
        -0.11356356858771013,
        -0.06742964603913018,
        -0.07979152143994302,
        -0.08328554654384861,
        -0.05680271626560345,
        -0.06499320880660939,
        -0.021951759306615415,
        0.02812811276213758,
        0.057680827134544546,
        -0.01091950579654956,
        -0.10036411961775175,
        -0.07591221312226902,
        0.02936998828743779,
        0.04053835364587272,
        0.010984825461756782,
        -0.017300772614291124,
        -0.012633711053269627,
        0.04172426631759646,
        0.16340257176066117,
        0.12873846393566912,
        -0.0019290404197499357,
        -0.06266443553915058,
        -0.060033931796563036,
        -0.004692678243310887,
        0.1394888133007281,
        0.10866750807547132,
        0.009066579231343689,
        -0.07838911906303497,
        -0.16174767124770892,
        -0.0820407750916591,
        -0.06950437363762828,
        -0.024381759564076948,
        0.09838812858257245,
        0.06026444642011883,
        0.13345981129963436,
        0.1355780654068824,
        0.1976449331076256,
        0.1728614782263188,
        0.07435343084694804,
        0.11002811488452022,
        0.048881440419399874,
        0.05017682602037229,
        0.05353658245464495,
        -0.01171018356793654,
        0.011766796571562581,
        0.035861444377861186,
        0.04551290741974887,
        0.035368745912262425,
        0.0013912932912040646,
        -0.0899195034344124,
        -0.09751821692720307,
        -0.02388207658475993,
        0.036847085757804036,
        0.10460231048936233,
        0.07077211014359348,
        0.05209918486165993,
        0.04740111227806573,
        0.05986684878042768,
        0.14510595669276577,
        0.10658254679017527,
        -0.06041452269519639,
        -0.0852223018602905,
        -0.0560242567144236,
        -0.017978321273964645,
        -0.03410633406658735,
        -0.09701864874380466,
        -0.06817884740108553,
        -0.03197465592735528,
        0.03349348936697159,
        0.05135595756504194,
        0.07093651113699179,
        -0.05298437170901109,
        -0.14155096483183516,
        -0.11237002931876361,
        -0.04893819841503659,
        0.03675311984108516,
        0.08765147823907053,
        0.07676797731522172,
        -0.00890409130779295,
        -0.0890525996161042,
        -0.034826319022517385,
        0.0833204099137897,
        0.1146902768940351,
        0.10671161561344153,
        0.10388145416447747,
        0.0552881757253741,
        0.008019190015853241,
        0.019240060128252023,
        0.02977986479013816,
        0.07542069984524206,
        0.026424777354198528,
        -0.07039333967625022,
        -0.13890962299637982,
        -0.1849931663274718,
        -0.04692411800663088,
        0.08468161177927608,
        0.1363339818982004,
        0.0776013623266977,
        0.06923482910503363,
        -0.003616363910294824,
        -0.061612284129847955,
        -0.050321791455377754,
        -0.10883474304077093,
        -0.08324669556026819,
        -0.034077990702296765,
        0.038700816581860795,
        0.05076298645938182,
        -0.03395661744912819,
        0.002184002716205012,
        0.059203646910836835,
        0.1179502633356089,
        0.1526083409548913,
        0.08393449417925403,
        0.003099647524021684,
        -0.08151632117971624,
        -0.1387700882433168,
        -0.08835890732157284,
        0.019927229590857992,
        0.08964706761794522,
        0.18799724933859097,
        0.19116234518552144,
        0.17382655922173598,
        0.07175723121765787,
        -0.004114338113946087,
        0.02648645791251966,
        0.04180547200273184,
        0.03207099299037455,
        -0.0057321680895000395,
        -0.1444758740127843,
        -0.14840168334329423,
        -0.06749812847327837,
        -0.12282754488285341,
        -0.09182142834168822,
        0.05336459054035783,
        0.08882178571528965,
        0.04599616795816111,
        -0.012046335744979157,
        0.05639929964482435,
        0.0900851355438502,
        0.04973762553739726,
        0.011235160925064875,
        -0.169511465236295,
        -0.24470407912536746,
        -0.2426523432868415,
        -0.1627095223863561,
        -0.0892141898841755,
        -0.12131692645038497,
        -0.12209632600606476,
        -0.07552668261604263,
        0.10670160721956869,
        0.15048132196091868,
        0.03327943895304267,
        -0.07701014636862571,
        -0.07412566728136545,
        0.04893372167598527,
        0.024564192911327824,
        0.021190623643902604,
        -0.024943027129215086,
        -0.0339370128587536,
        -0.06440136574383645,
        0.009863005720230182,
        -0.00835894238682857,
        -0.0036252403175687994,
        -0.04457624180615417,
        -0.034955274749913404,
        -0.01510165397947378,
        -0.03299470860609849,
        -0.010586128287938762,
        -0.017332037446590034,
        0.012596655006981932,
        -0.0316886298904791,
        -0.0029587587864904736,
        0.019194014144487404,
        -0.018481663393147593,
        0.013076347487952068,
        -0.022233132130770727,
        0.04353315510232188,
        0.017769928608175972,
        0.03674627581853344,
        -0.02657885183622225,
        0.015692615680465073,
        0.15346955666859136,
        0.1271765427073104,
        0.023959713802433332,
        0.004594441590967195,
        0.03925238753830315,
        0.009971305376309688,
        -0.08380781160051792,
        -0.07840558216411019,
        -0.025840528505198093,
        0.04184498961980551,
        0.0496120595276027,
        -0.010862175689428382,
        0.031189924386750254,
        0.033836124747415944,
        0.029835264556629958,
        -0.07727111957478806,
        -0.05113019362955086,
        0.0214499243512803,
        -0.02050048006559726,
        -0.025883359820661755,
        0.00047983313339781464,
        0.01807806124162747,
        0.009250619491232941,
        0.036899432813474325,
        0.010135031166917653,
        0.03325480743173004,
        -0.06583231781137697,
        -0.14233657377443,
        -0.09689958797371415,
        0.036835305650065424,
        0.0581580841049569,
        0.05061094441649533,
        0.09823565072034282,
        0.04696527724464136,
        -0.005580084560449605,
        0.03336576459138078,
        -0.029184299474162338,
        -0.07109766579694424,
        -0.01781464744126987,
        0.009930882322192285,
        0.007933746361306754,
        -0.0014461067586381891,
        -0.00672448343113843,
        -0.03827613652860884,
        0.047604303479451104,
        -0.030528477697547577,
        -0.08179022540113097,
        -0.13241751899892998,
        -0.021523593614151147,
        0.08010584897805262,
        0.05016640771178052,
        -0.043466962448521426,
        -0.05354871403903222,
        0.05575615359600776,
        0.1721062704732389,
        0.21195582965543447,
        0.06664583522470015,
        0.01944222812155884,
        -0.0030790083522090656,
        0.0008456329061015681,
        -0.0207546977532142,
        0.03661121491276197,
        0.042712845606296304,
        -0.008625444579322286,
        0.05256043177798765,
        0.08472600374416961,
        0.045335925277562715,
        0.04160501391426618,
        0.01769862115794187,
        -0.06659868473660287,
        -0.07775967207430892,
        -0.1869069375434764,
        -0.14374037990014424,
        -0.14997751294671596,
        0.053822896371593126,
        0.09828828945848907,
        0.10314569088079892,
        0.06516956241598149,
        0.036555206243401854,
        0.002720828031926597,
        -0.019452395516161576,
        -0.02349187518391484,
        -0.04043975768868701,
        -0.018044776316621727,
        -0.036143944609035625,
        0.07288457207075674,
        0.13869668750866834,
        0.10778316428880527,
        0.04863695001366082,
        0.06604757181262796,
        0.0739113303142607,
        0.060896555806844735,
        0.05310119631820023,
        0.07926420518759172,
        0.060389303238500155,
        0.07165657822815968,
        -0.048650239847699464,
        -0.1382840449521357,
        -0.11720485662645112,
        -0.1277224697916519,
        -0.1111567572664027,
        0.03152481273584745,
        0.0778708044031931,
        0.12090244640210367,
        -0.0014240165316651004,
        -0.03896189699512366,
        0.043573583377860964,
        0.046522621541787997,
        0.13359386243643045,
        0.10548356073149491,
        0.13904288607856718,
        -0.018856483764332597,
        -0.09228227656033008,
        -0.05480647426661165,
        0.008089593934933411,
        0.07461608926552196,
        0.055143926709034896,
        0.06780822930454944,
        0.03435263297035029,
        -0.07883222637485438,
        -0.0030504523244347984,
        0.01479519041138705,
        -0.0009856478167632834,
        0.11525076025042474,
        0.03183011630734375,
        0.046714383411893184,
        0.09137950879612214,
        -0.007969864367880414,
        -0.045565701201785755,
        -0.03542341932409865,
        -0.0026140509790531317,
        0.09875130255414451,
        0.12836931516248434,
        0.0669942689466285,
        0.07627667506167524,
        -0.011985590264145415,
        -0.0033623930201457505,
        -0.00937537080821415,
        -0.020350669456027953,
        -0.003765868274776432,
        -0.12269263652860649,
        -0.038757627413703505,
        0.05304033645629663,
        0.06580328621704991,
        0.07435648402095169,
        0.04955641193505453,
        0.09196623520528562,
        0.0683374835508116,
        0.06511890699963309,
        -0.04901696743698591,
        -0.07324433455485946,
        -0.050489419931328404,
        -0.014118578095142817,
        0.045984626154563495,
        0.0023289902634597466,
        -0.01758178971755528,
        -0.055499594890590906,
        -0.07262101680985746,
        -0.09847891465281401,
        -0.16951741177711088,
        -0.07286462599390481,
        -0.03080039858222215,
        0.026269533017204055,
        0.04027826409840006,
        0.028395770137965,
        -0.036853658585606755,
        0.07769120157711128,
        0.045413792817638576,
        -0.014515980406641772,
        0.022525808519326493,
        -0.004262598356345368,
        -0.005517179260766441,
        -0.03456101016430777,
        -0.01778431781471544,
        0.004132056489437766,
        0.08071817995017799,
        0.06169605633043056,
        0.0755398606135437,
        0.028310665900622277,
        -0.026602595216963162,
        -0.01428023005134699,
        -0.10574474897460169,
        -0.008546888161497875,
        -0.008134913068789421,
        0.0016074580997019116,
        0.010910194091953894,
        -0.004353322565163334,
        0.016565097386649276,
        0.04937953378398266,
        0.05545593412094596,
        0.11461624413734263,
        0.06380041637849793,
        0.03381457724128589,
        0.06063566737591599,
        0.11267802762149356,
        0.1846626243475274,
        0.22154345537208103,
        0.17930169393528067,
        0.06223749992748974,
        0.022695188517330742,
        -0.05885370944709377,
        -0.06295645194447486,
        -0.11308785724125682,
        -0.045156653361164305,
        0.011993166332233404,
        0.11206426965148678,
        0.14079801635260186,
        0.03563149981941166,
        0.118499929504815,
        0.10693177093829451,
        0.06121102109814269,
        0.061239399694150924,
        -0.0062360502349962646,
        0.016377475379931606,
        0.03551446305553286,
        -0.05028628864186869,
        -0.026200768959311935,
        -0.0005904828160918867,
        -0.015137497659806081,
        0.060041571477731016,
        -0.011061503371698344,
        -0.07993270590622417,
        -0.06235120496080958,
        -0.049887778619703255,
        0.008070902999791244,
        -0.15706337798821376,
        -0.1389328929343871,
        -0.08471693856306811,
        0.035847366104452126,
        0.08762783335052758,
        -0.03642628968213028,
        -0.014501565622119395,
        -0.006493100851671085,
        0.011723477442390282,
        -0.013337054329227218,
        -0.022150637859148174,
        0.06010169266306766,
        0.05634125464546665,
        0.07156180612965038,
        -0.04919338704416878,
        -0.12424895780725567,
        -0.045642947186601154,
        -0.028064948571509457,
        0.02261933527710385,
        -0.08947493962796119,
        -0.03946424398888337,
        0.025223174461429916,
        0.11672979750702098,
        0.18916569800749378,
        0.17097280212614407,
        0.2632337758974484,
        0.18665571498377756,
        0.09909319013497207,
        0.04884601862742394,
        0.004761065665892146,
        0.015487942639813903,
        0.022345098772597626,
        0.021943868057886146,
        -0.04978945275710253,
        -0.10142099255426658,
        -0.11932604199471653,
        -0.10585445553888116,
        0.1005765778796216,
        0.04602465470983813,
        -0.003994259849582684,
        -0.09327715402479751,
        -0.08669500497138308,
        -0.04779510662145971,
        -0.1052122885716597,
        -0.09113973459831984,
        -0.13655143141175388,
        -0.10327041122754112,
        -0.06730822290717,
        0.026258738107053353,
        0.10314977299784861,
        0.06407682829336012,
        0.04614405081427261,
        -0.016059750822630753,
        0.010199966171106554,
        -0.02797627798069501,
        -0.01752202880449642,
        0.029175498968863726,
        0.13641413852698664,
        0.12085701963122002,
        0.13803442312335146,
        0.04196093925604592,
        0.021409146079390966,
        -0.0008859504429769691,
        -0.012689356385191792,
        0.003771131970319019,
        -0.04622708249093452,
        -0.00760043151075684,
        0.019732111943363894,
        0.001966287580850742,
        0.04242151738107074,
        -0.04404550180726163,
        -0.0011773297319911304,
        -0.039840999243448756,
        0.05329410401725204,
        0.03807191700956455,
        0.029809499373069145,
        -0.008370959015701843,
        0.0055543327490784195,
        0.07056906403058653,
        0.06470352793455558,
        0.15392063756931904,
        0.08134973492525338,
        0.07295943330749174,
        0.01907645062859782,
        0.03853297431655604,
        0.06025604533465881,
        0.08360539148267186,
        0.04998855737230887,
        0.0035988473416494705,
        -0.0813211318442103,
        -0.09124911629131567,
        -0.07729965273392708,
        -0.1065187963543667,
        -0.12409089725687442,
        -0.11982898781809823,
        -0.07236537364844803,
        0.0020108889407419303,
        0.14526407450981277,
        0.07588245332197142,
        -0.00019701897309989686,
        -0.0769747946143513,
        -0.08890330297697507,
        -0.10937233991219517,
        -0.04546875972686745,
        -0.07673017341042282,
        0.06505330190216974,
        0.03337606730753685,
        0.10828692893713475,
        0.046585878328474495,
        0.11681041799433489,
        0.12838555662879522,
        0.07849780460781834,
        0.021804190949476263,
        0.09313566997279488,
        0.13182318414075095,
        0.13637664992059062,
        0.0862391273987988,
        -0.01996204208423906,
        -0.0067543577202869715,
        0.002358762688551034,
        0.033265248508862644,
        -0.008306588650566236,
        0.05786199112953751,
        0.017975747230520544,
        0.08507756828603047,
        0.09314858144607763,
        0.035447008052279294,
        0.051286120566896944,
        0.005120992006230518,
        0.027094096332793832,
        -0.0056719443824637785,
        0.0642825547242217,
        0.020230714116270185,
        0.06150097067149763,
        0.03166458485741574,
        0.0575461407641912,
        0.035011246148201836,
        0.011272341744438346,
        -0.008018258105976273,
        -0.0006192631971262018,
        -0.025598872959842048,
        0.04121533151421507,
        -0.00747890667533798,
        0.019453523756167025,
        -0.05214618185157882,
        0.00791597934093328,
        -0.014514066214915133,
        0.03224150331929464,
        -0.029435426889403368,
        0.0412472114694291,
        -0.05743453795912816,
        0.05287065325542455,
        -0.012203361951169403,
        0.008821194120667255,
        -0.058535883919491896,
        -0.06317804576349495,
        -0.10269408469977026,
        -0.025228221195607234,
        0.04855625032815114,
        0.07993196852678364,
        0.017528534267103345,
        -0.050480548748502246,
        0.032000656430441234,
        0.004340542385162812,
        0.05729239665158853,
        0.010739131277300168,
        0.0043348991700900286,
        6.0084652486195204e-05,
        0.016434425242626203,
        0.0012102690595169475,
        0.0587360705238621,
        0.01829362810045889,
        0.10493811950184292,
        0.057720238158597115,
        0.03571157871073416,
        -0.034345200514043106,
        -0.06177528155492508,
        -0.056386840753797816,
        -0.11041201336849028,
        -0.04400511140717989,
        -0.09296705755702674,
        0.03934563438821402,
        0.026520143682302412,
        0.06865603541452239,
        0.029809361783309007,
        0.08349738480446312,
        0.1497599121025078,
        0.05977118770796084,
        -0.046720175409202244,
        -0.10774379938879845,
        -0.06406996890491382,
        0.04517863498560892,
        0.012717150881286136,
        0.011346375689875817,
        -0.0368347783286756,
        -0.04874128813138629,
        0.008875930554059537,
        -0.03254274635885239,
        -0.013042917880405201,
        -0.07650360513052769,
        0.08804790821396749,
        0.017530462343472615,
        0.0632345523742242,
        -0.04350831563513158,
        -0.045688519039569817,
        -0.08875891502234545,
        -0.06625565164503057,
        -0.11339461542138113,
        -0.08616899092933074,
        -0.1717620503562638,
        -0.18182150124927288,
        -0.22107947482763043,
        -0.22657835836444404,
        -0.152520315598367,
        -0.07250332847622536,
        0.15146300319612094,
        0.09727799126566977,
        0.1378849846679427,
        -0.028059958676002694,
        -0.07927963521830336,
        -0.06572250176464096,
        -0.027452744178185693,
        0.05425944845181846,
        -0.03622534304605966,
        -0.02223097242005264,
        -0.051722739188002693,
        0.019142970030419294,
        0.08832860367833076,
        0.1196961224474898,
        -0.08546414419332321,
        -0.12961552462617662,
        -0.10518360218556293,
        -0.053731519344996974,
        0.06897875987143537,
        0.04624595536189599,
        0.07769937913983928,
        -0.017623957155091442,
        0.011531052481301249,
        -0.03821713177142043,
        0.05371652286493782,
        0.08560751982639506,
        -0.02474453265770417,
        0.12309016906063698,
        0.20331704118686472,
        0.1502947296355811,
        0.09417778324223655,
        -0.02407029377894728,
        -0.008273879868183278,
        -0.11349870938256067,
        -0.0016089013497487712,
        -0.08023353748208657,
        0.020664932980126328,
        -0.005905633190335676,
        -0.03797481559887928,
        -0.052675269366595924,
        -0.06701508109062146,
        0.09037741579785,
        0.02679306706432456,
        0.15566308384821562,
        0.08222254511224483,
        0.06316837225828605,
        0.05661449291034468,
        0.017465775122335468,
        -0.007195242045480336,
        -0.08145464250415622,
        -0.012231729124640368,
        -0.052714281201958785,
        0.07584793142441613,
        0.10737439358341817,
        0.09710611880608867,
        0.11511601476936457,
        0.04894466697226298,
        0.06338897353275963,
        -0.01665948552630531,
        -0.050262198657645515,
        -0.09230427074226383,
        -0.13049020844506556,
        -0.07944586605478092,
        -0.025365553853436557,
        0.053380568904530724,
        -0.019113176883499138,
        0.02147331644066342,
        0.09499200399452022,
        0.06574721337801767,
        0.02216850975985432,
        -0.14294217081829086,
        -0.14846348570379198,
        -0.02662568814994971,
        -0.044123920363153254,
        0.054766570657777125,
        -0.02991317377183654,
        0.006275827896519837,
        0.01007369786758574,
        -0.10758677581420426,
        -0.03390358586969832,
        -0.1314195743687957,
        0.003188328020691491,
        0.009183373652690454,
        0.008454021874373906,
        0.05037958259000398,
        -0.006843650841774104,
        0.09620849699378511,
        0.1265629396610743,
        0.10119426284535564,
        0.06421790461146966,
        -0.045874801603312976,
        -0.10594617122434143,
        -0.05002657920988409,
        -0.015726558068099368,
        0.06733898703214455,
        0.07004029711339929,
        0.028444451611376372,
        -0.012468568473429895,
        -0.09810470836212318,
        -0.15123481191833613,
        -0.14580152064243718,
        -0.06098487313007137,
        0.14674706716522795,
        0.18775565938844688,
        0.06964190556950202,
        -0.02530837065146225,
        0.02705533825139691,
        -0.025259237909322774,
        0.0185560239149316,
        0.0018723546334569146,
        -0.13917204841143738,
        -0.10440799385026743,
        -0.08637177663289336,
        -0.10948290345876424,
        -0.015259920736074812,
        -0.022020639690027446,
        -0.008626254901913225,
        0.09058240561902911,
        -0.015847929234245956,
        -0.043352677313743315,
        0.004568263014438087,
        -0.050310999057344666,
        -0.0003558802385412081,
        -0.04548011564377388,
        -0.02995141268401001,
        0.03938969313205736,
        -0.04862137746543142,
        -0.060419059339510146,
        -0.04094286631622474,
        -0.0022433283596658823,
        0.021732450857747047,
        -0.01179244346517245,
        0.039526502483862025,
        0.03934130727282693,
        0.03977194216032377,
        0.11267631840580355,
        0.17822475549824246,
        0.2379214501541097,
        0.15917479534259296,
        0.11962482459469702,
        0.11638483407231466,
        0.1236921505895044,
        0.06010109142947294,
        0.08333891618875197,
        -0.013413519319123036,
        0.03602398024499511,
        0.10311198309609212,
        0.006006303195722233,
        0.06886796354215835,
        0.04215685063491444,
        0.0005049746568070129,
        0.06554920320784477,
        0.0922565719506282,
        0.06359734317422554,
        0.14140067305548637,
        0.05630684601954142,
        0.0533953343476794,
        0.06666036094343752,
        -0.04063373176453066,
        0.04545870076400713,
        0.025561673232734818,
        -0.005771277146897834,
        0.03713431705286662,
        0.041736209268777906,
        0.017726359003459796,
        0.07047389429305885,
        0.10360105996524428,
        0.12298417309490536,
        1.153518343523295e-05,
        -0.0376589988968753,
        0.017543097009285694,
        0.03546472594622732,
        -0.05061570813628333,
        -0.03889388296037743,
        -0.10911422017137704,
        -0.05495697803571763,
        -0.1020160023552025,
        -0.09730004193433212,
        -0.13914251819860887,
        -0.06967541809311953,
        -0.10037712478985225,
        -0.05961425037913645,
        0.001556265143434063,
        -0.05714228033573779,
        -0.022432582833332756,
        0.047953975518147285,
        -0.02439206757313575,
        0.019450823479734675,
        0.06176253618190224,
        0.012119859550139738,
        0.0514295745571,
        0.03200464177530486,
        -0.007266190241152387,
        0.037111916689145846,
        0.03351989514450147,
        0.0030841680910483724,
        0.046849024828841276,
        0.02263602539784316,
        -0.005598706058442062,
        0.025627848064791955,
        0.04288184078944034,
        0.062472755353571635,
        0.027807074756783706,
        0.07581544348094466,
        0.026930529771661545,
        0.011088819267884499,
        -0.001727816340034452,
        -0.013590317215342405,
        -0.03057545815138215,
        0.039246543016174806,
        -0.026305818177212562,
        -0.0027731790245392033,
        0.06705761204441951,
        -0.04889546504881913,
        -0.09101967059522885,
        -0.08606301052328597,
        -0.08854552834011277,
        -0.05633036313978309,
        0.015746626935308504,
        -0.09346139239452517,
        0.0005210058789018824,
        0.10298446286883339,
        0.07736583897982793,
        0.0917446835634354,
        -0.012120741012361843,
        -0.0833220014349267,
        -0.009248491835698543,
        0.006416148646689783,
        0.001867977914969422,
        0.032345535041240214,
        0.09855356729079505,
        -0.008245435316265197,
        -0.058252868927957197,
        -0.07331782788316767,
        -0.1220971253721084,
        -0.09550845010791971,
        0.02453674815373885,
        -0.02212573403875408,
        0.015699139293684824,
        0.023750704466168907,
        0.09109922759448896,
        0.07540161616133359,
        0.017422541735129846,
        0.0013279827407304823,
        -0.053676490246618705,
        -0.052237495985475405,
        -0.056533096772130656,
        -0.07823260745319913,
        -0.03357839567164778,
        -0.08004981436174381,
        -0.10388130843176552,
        -0.011029021200597396,
        -0.05399525290657221,
        0.0019766218762588272,
        0.05548335941828454,
        0.009633116603085723,
        0.0551760072656855,
        0.03483894254708897,
        0.029767313411516495,
        0.09070588526590478,
        0.0047425225422321506,
        0.05845476241074017,
        0.04716909101623225,
        0.017094355243333824,
        0.041165650614857295,
        -0.014102249538249177,
        -0.04434600791097075,
        -0.08398486841681749,
        -0.02767004447814187,
        -0.056095081809465666,
        0.03307946042070764,
        0.07883385189654718,
        0.12457867762666419,
        0.11592887679774606,
        0.07430160210723467,
        0.06357986340169691,
        -0.048833556790870244,
        -0.17574812245982174,
        -0.201994163586724,
        -0.1868912399155268,
        -0.18807125827737442,
        -0.035022076745038995,
        -0.09090912943865777,
        -0.1383377065154724,
        -0.11106745111272301,
        0.0201318830798899,
        0.12936025912917537,
        0.12339078688567992,
        0.06835800391743047,
        -0.003305461615776473,
        -0.017576581200428234,
        0.0966301616944805,
        0.09719038233817967,
        -0.03641317989058795,
        -0.05085836002568208,
        0.00279626481991025,
        0.05397338595092048,
        0.07509288582980132,
        0.08602445803842243,
        -0.05006693616587847,
        0.07113912660857288,
        0.024091334048777915,
        0.04477350882863744,
        0.061083498054983504,
        0.09525669906180556,
        0.07782816691951615,
        0.06321338730911805,
        0.06394174263656142,
        0.02827031183842254,
        0.04087940130607102,
        0.06342081055126733,
        -0.021597770206568615,
        -0.022920280512194725,
        0.02170233939835272,
        0.059371495386943786,
        0.05595443694255782,
        0.08024021011075362,
        0.08305788205530648,
        0.07511186524117941,
        0.018126623234574424,
        -0.002374620916652233,
        0.008832638824696702,
        0.006589343606403937,
        0.014822346025809802,
        0.028779986899745872,
        0.043239519160549314,
        0.019217311804736983,
        0.0099969727407852,
        -0.0058550495185872116,
        0.017699213238783207,
        0.04583083245669517,
        0.12076750177999782,
        0.05176193785738831,
        0.032589184831083584,
        -0.00949559713536002,
        0.030593681915906785,
        -0.02098173716451198,
        -0.03264272454115133,
        0.05027496543805519,
        -0.02240069984231434,
        -0.05290803203827037,
        -0.08031185546339117,
        0.016328278450744596,
        0.021400856818722218,
        0.00973451999622103,
        -0.07761592552081,
        0.02366229604908339,
        0.005133664475497589,
        0.010650785034882874,
        0.025876149726913357,
        0.060180462095935604,
        0.06404745390437859,
        0.036867041318584176,
        -0.010626711782169205,
        0.005463477623327792,
        0.0337253910682814,
        -0.012207463221390668,
        0.04886383735514952,
        0.014980829719562975,
        0.05638815640367642,
        -0.010654918274403628,
        0.0650280595240067,
        0.08544232823819711,
        0.09456541996775458,
        0.05890345689576359,
        0.09109483193865042,
        0.08151630294428241,
        -0.030978524956969886,
        -0.1108237255819492,
        -0.048159179429070414,
        -0.027727251068519587,
        -0.006110232623909689,
        -0.04643325032638056,
        -0.06372123025164825,
        -0.05738308758032262,
        -0.05187498778190912,
        -0.02675015701514797,
        0.04342415266848853,
        0.06700038210618799,
        0.04732072344563358,
        0.04426388555735089,
        -0.0018194456102825507,
        0.05580904799170622,
        0.05418925450296189,
        0.009380251256105645,
        0.021523088074787394,
        -0.009714351058652001,
        0.03590312385219932,
        -0.016409912972685008,
        -0.02961595942447602,
        0.015339333993015139,
        -0.0028534866739095346,
        0.033359607736339045,
        0.06722461777032038,
        0.03228126052008819,
        -0.0435449104790872,
        -0.06098774950275533,
        -0.050688165038430565,
        -0.02311599347440732,
        -0.07027994576550965,
        -0.08786101597320078,
        -0.0638724463981692,
        0.08332328805625093,
        0.17814237495594287,
        0.24812328812138912,
        0.19338587386562409,
        0.15796058645162792,
        0.09297904830479728,
        0.06303045666798102,
        0.06467267527609638,
        0.045291780970669916,
        0.05394291128414087,
        0.011812132289976596,
        -0.07875299983141558,
        -0.04405842956000115,
        -0.027253220841789008,
        0.00864466887982918,
        0.16764971559687633,
        0.13020552042256045,
        0.059794461482898915,
        -0.05485124368083648,
        -0.05174259185573361,
        -0.06209346828159994,
        0.00753165119419002,
        -0.010452276349683185,
        0.03670989212944348,
        0.03986397476231273,
        0.07116258536209599,
        0.040964349543313544,
        0.022310184417925153,
        0.03342581398128047,
        -0.012681094735487975,
        -0.005547816840539932,
        -0.02585203158149655,
        -0.030438568181183887,
        -0.013419343542093986,
        -0.047175948027915526,
        -0.048477544471628914,
        -0.0029592201841988587,
        -0.016624391507359268,
        -0.03761299466943237,
        -0.01644243794452726,
        -0.03447438788735055,
        -0.0533854227805555,
        -0.09267521378079663,
        -0.0337584995937686,
        0.024449208867671803,
        -0.0020746247561242923,
        0.03151320048630914,
        0.09198533285520095,
        0.19992337977100308,
        0.16574740580305594,
        0.11965616073554548,
        0.07400523577460816,
        0.10855432740932695,
        0.12528630568935906,
        0.13879683304377863,
        0.10759747112758666,
        0.04114789296232656,
        0.047817453617560034,
        -0.017599096331175842,
        0.011057977395103304,
        0.009367509302057032,
        0.0023606452199506447,
        0.03632141391343383,
        0.008276501517733795,
        0.09485362571445527,
        0.08450054138877511,
        0.14357077510177574,
        0.13996201114392015,
        0.07259008149747995,
        0.033519236041839005,
        -0.02966965648277227,
        -0.055850812894448904,
        -0.036300549116601355,
        -0.0661024633657832,
        0.020084521708218082,
        -0.04320411618962276,
        0.043137594374618726,
        0.0872723077075297,
        0.022333102977280812,
        0.009236513951468173,
        0.045065877659648604,
        0.006375060142375842,
        0.0032510072108508847,
        0.038127279515199064,
        0.010964871920120984,
        -0.04994897270257308,
        0.03378154818280732,
        0.03372622588591041,
        0.014447754569040183,
        0.020102245834418272,
        -0.016961908750807882,
        -0.012122450008323397,
        4.064675923940423e-05,
        -0.03902254446571811,
        -0.0871916062826689,
        -0.017947270362504753,
        0.04718359797401592,
        0.043536681679200245,
        -0.010184966832349093,
        -0.06838646397641078,
        -0.11332241947274604,
        -0.023264202177493837,
        -0.010514354036135274,
        0.09086923462580208,
        0.14737771045526016,
        -0.06360649387025141,
        -0.07850336033576122,
        -0.11211757080778131,
        -0.18243516126135512,
        -0.1265444038024255,
        -0.10075146861018343,
        -0.07935646218239706,
        -0.016964722706766345,
        -0.0405681870209693,
        -0.06539951334557942,
        -0.009336396272976919,
        -0.060805680293105194,
        0.025428855995443336,
        0.00019125512167054892,
        -0.055674911792013906,
        0.014058842436181232,
        -0.037038303388631226,
        -0.06901070140956703,
        -0.03550758131334626,
        -0.04823826254405685,
        -0.04460827462798849,
        0.026690466524133295,
        -0.0459181629739651,
        -0.06999137596547009,
        -0.06819127201194501,
        -0.06457784500837574,
        0.03764153840938939,
        0.033391869676683096,
        0.04307448491997566,
        -0.007358641072122085,
        -0.12969859613924073,
        -0.06068001579547414,
        0.024808361802706215,
        0.02846984132094939,
        0.013836274798004504,
        -0.10661474007900298,
        -0.10921719688353937,
        -0.12627255650024216,
        -0.03299534700224559,
        0.026742828220440083,
        0.07730120830442677,
        -0.09304857499936184,
        -0.07158464714922345,
        -0.11153445422280334,
        -0.006457805349849168,
        0.07370774493851848,
        0.12625588581549868,
        -0.041048443748461685,
        -0.009727135206253068,
        0.044410774405250264,
        0.05349473147399675,
        0.035758257153326894,
        0.028101735473784705,
        -0.05397152760691207,
        -0.00811771869587995,
        0.062956322339244,
        -0.017553156581804848,
        0.0028094734523203507,
        0.007397381953447161,
        -0.041875949463856144,
        -0.05290075731609904,
        -0.05864065922094053,
        -0.009759416365270617,
        0.022896276662555046,
        0.0681514089984962,
        0.03941724962689972,
        -0.06850825533834973,
        -0.1354014900391074,
        -0.03612055082229839,
        -0.050931169895921606,
        0.0632557103272739,
        0.06071974714139366,
        0.12160013413585638,
        0.029337882283555022,
        0.00384781398956863,
        -0.04690958731506374,
        -0.01835486826307073,
        0.030200326187559877,
        0.03810041870458165,
        0.05825651253927099,
        0.009232802144486001,
        -0.001854502635461747,
        -0.04948786564659263,
        0.04286500992134622,
        -0.011303410173519001,
        0.058693722134493434,
        0.035713121141630604,
        -0.047228607277574525,
        -0.01097594357789488,
        -0.00689100299596839,
        -0.012732584784790979,
        -0.061709913551180565,
        -0.014218999233642515,
        0.009350234458729918,
        -0.03098598323035623,
        -0.06807618419810152,
        -0.03143443260552409,
        0.04210115972247511,
        0.0070796390822719345,
        0.004651030699220057,
        0.009111861373286515,
        -0.08678177986393121,
        -0.12278043649188097,
        -0.06575001905924902,
        9.907472736981666e-05,
        0.05053058400840313,
        0.10681306911668303,
        0.05955692578399446,
        0.02976906118603926,
        -0.012152442137842638,
        -0.003820264652055258,
        -0.029046777434811256,
        -0.018458072528179742,
        -0.025511528202583025,
        -0.051134694809404496,
        -0.013566375160707085,
        0.010489678787920304,
        -0.011560755256345579,
        0.03719660715598894,
        -0.019208088891419672,
        0.0070716166044780615,
        -0.06584832119918356,
        -0.017517131105772864,
        0.02662695701521897,
        0.026782458697392975,
        -0.014022047297529478,
        0.029242965356295423,
        -0.007450504317113198,
        0.056052263830932446,
        0.014286230696114713,
        -0.0055202685798580705,
        -0.008576864674857188,
        0.10744718931798108,
        0.06389220191996958,
        -0.014803357353146022,
        -0.0871320339671755,
        -0.06085549479207525,
        -0.014049905938689029,
        -0.05063089999805926,
        -0.04484625764831144,
        0.02633257493614825,
        0.048373579569050494,
        0.12619392556625314,
        0.09876733185131717,
        0.049202064934783046,
        0.10140205616311032,
        0.04572150196955987,
        0.06694033613368114,
        0.012786927526093235,
        0.0426204533099602,
        0.03139556518276877,
        0.03972868695006378,
        -0.012665354769489438,
        0.0007103373490462414,
        -0.02474071921969899,
        -0.02787443207418737,
        -0.04991220750543837,
        -0.09867540211484666,
        -0.038256458417137984,
        0.011126958277448728,
        0.09305529501955394,
        0.1029709139596714,
        0.10293386701015825,
        0.05476706029677353,
        0.08382225863931603,
        0.09350941423479522,
        0.022147048037339773,
        0.02587090319814249,
        0.011581144752806511,
        -0.04483065606090038,
        -0.060704551518107455,
        -0.011728808216932408,
        -0.0023480187826752123,
        0.03760369670745098,
        0.0505417259772061,
        -0.030666222324135215,
        -0.07977216499638515,
        -0.018808503383841546,
        0.02388595145306062,
        0.05403285603840681,
        0.03316057138689453,
        0.030393533655611937,
        -0.07795952626515174,
        0.006632935361347949,
        0.022544750516331147,
        0.004424293502152229,
        0.0006206082146496215,
        -0.01156204920433844,
        -0.10446508613223804,
        -0.08954457195298982,
        -0.11349019454846673,
        -0.1190368955061448,
        -0.029033411995021192,
        0.07665959696230049,
        0.15041861948489674,
        0.11016995711618788,
        0.05916799263361322,
        -0.0013029256421405943,
        -0.01055808463970516,
        0.027481946841749955,
        0.09855837257165606,
        0.17753223724570308,
        0.1540948606404166,
        0.11636409953544852,
        -0.03333135756909654,
        -0.08869175620869485,
        -0.09165702178851984,
        -0.08463721609783728,
        -0.023363392388075502,
        -0.018527748483635524,
        -0.05176278033565432,
        -0.006636821569898784,
        0.01392590881573052,
        0.09176769357749813,
        0.05645847488742815,
        0.014585267797962487,
        -0.06021496838335362,
        -0.01836922289299907,
        0.0235055007090587,
        0.01419896414198996,
        0.0380494066749184,
        0.06915637920889531,
        0.07645365124707137,
        0.0685212453782611,
        0.08126696594445988,
        0.03288877981421047,
        -0.013719362030586681,
        -0.07809451551020796,
        -0.07155653231757045,
        -0.01364359541792241,
        0.0024339967681600494,
        0.01345446927770552,
        -0.0028828814110450018,
        -0.04839229552307851,
        -0.03557494519424403,
        -0.051936923996173,
        0.018449034874469118,
        0.047926829431435586,
        0.019389381673800866,
        0.048309606875055554,
        0.02601787592160804,
        -0.046609624944798395,
        -0.1338150271402379,
        -0.07675178574975594,
        -0.04235404120254947,
        -0.0413826487277251,
        -0.05551999824381999,
        -0.036155068216694064,
        -0.04599520323551523,
        -0.026013000852930724,
        -0.05323265806099935,
        -0.06647029798499107,
        0.014822072933520412,
        0.10038275413318928,
        0.08857075947267379,
        0.05803228942689575,
        0.04210752745075914,
        0.021559148122094793,
        0.14110515979110475,
        0.1900364068503456,
        0.1469989669677594,
        0.0276866430628981,
        0.035398705653923536,
        0.03546151182353116,
        0.024232887756979814,
        -0.04581435061961804,
        -0.07025260821064935,
        -0.0803807099133852,
        -0.01764906242479385,
        0.011592679269577667,
        0.02640737913220851,
        0.029731018757017544,
        0.05129733415795462,
        0.0568415514842586,
        0.07104181230852966,
        0.11100723565381895,
        0.06933309463495463,
        0.06353808030350093,
        0.02345435662252862,
        -0.011396511919220757,
        0.03641002685531765,
        0.10510775270895614,
        0.06419928820898857,
        0.07971834374418077,
        0.07780393767728686,
        0.01290172781485855,
        -0.04239907807169032,
        -0.07714360304267115,
        -0.05417439528334411,
        -0.03781682862555173,
        -0.06715859334059023,
        -0.10108847553675662,
        -0.15832576116247538,
        -0.15369433344761668,
        -0.021782785435263727,
        0.0036036349925993006,
        0.08208288863915492,
        0.11165184764592748,
        0.08092662773479803,
        0.05266722583639978,
        0.05763869514465737,
        0.03068893344774857,
        0.04687870939737234,
        0.07237715065601354,
        0.011044286562829853,
        -0.027669477471562128,
        -0.026917126240692205,
        -0.06483006220486372,
        -0.02338694589435143,
        -0.07309301968440099,
        -0.0490472860191515,
        -0.03472440467688228,
        -0.08989738947506709,
        -0.0937212374864558,
        -0.09273724409848634,
        -0.14813172612180645,
        -0.0883293911039703,
        0.038080550293527055,
        0.06497273995294883,
        0.06907416428108178,
        0.037743336744562025,
        0.006900112595175454,
        0.011365054533536903,
        0.03411179965489636,
        -0.0023964278446374724,
        -0.07957686194279892,
        -0.07476117869827459,
        -0.047687340552583,
        0.06150572483710865,
        0.1529136746135093,
        0.15921022462528747,
        0.13379847826930297,
        0.03930623817742605,
        -0.02666732639177101,
        -0.05233976411150202,
        -0.05429045379597759,
        -0.02775540252743497,
        -0.0058221988275856135,
        0.0238572638962503,
        0.07002117745370443,
        0.09401522214264856,
        0.07646445855290453,
        0.039578887909935204,
        -0.019111378052771414,
        0.0076224815114801035,
        0.030468081702667828,
        0.021554382915797622,
        -0.030046020720673403,
        -0.08047089889978981,
        -0.030551522241573346,
        -0.005118619686387069,
        0.047000371464031916,
        0.08016129046335625,
        0.0657999805553811,
        0.008045624554532792,
        -0.04902275643787658,
        -0.044471665523569445,
        -0.030287195418120628,
        0.006697418246473678,
        0.0003350455754596416,
        -0.020179010587648358,
        -0.12439958405810225,
        -0.1331123757137454,
        -0.13777652725990291,
        -0.08641106908330659,
        -0.03204825269488002,
        0.032637192680356336,
        0.017907373344694135,
        0.0276331326280894,
        -0.002507891945956296,
        0.04073072642579338,
        0.024996060653530904,
        0.04561606791691357,
        0.0017268227259671122,
        0.0033994285423231234,
        0.005412831202657112,
        0.015466907712303161,
        0.014187378829106043,
        0.03040834298490047,
        0.024516161419861023,
        0.04322336890329485,
        0.07270389007937589,
        0.06415627869581426,
        0.02945580302237427,
        -0.019963378966110296,
        -0.04952659297685591,
        -0.054921119241245916,
        -0.030751214309430525,
        -0.04646518563775656,
        -0.04975499339716659,
        -0.04955680178813933,
        -0.06392247005669836,
        -0.06788171513164212,
        -0.0717556575573972,
        -0.06105422038339163,
        -0.07721564747405071,
        -0.04106784929822719,
        -0.034844071530298934,
        -0.014143514096360131,
        -0.016242550227915098,
        -0.007727031382436135,
        -0.024539469299456697,
        -0.05532149453445448,
        -0.043116183991032314,
        -0.016127356389994206,
        -0.07097635264805727,
        -0.07914570817821345,
        -0.04771394849205655,
        -0.024002466985090183,
        -0.012335927208417172,
        0.0016982144858742124,
        0.010145113406078845,
        0.010082950770897957,
        0.07593056973265157,
        0.09960516337376837,
        0.062478031995651676,
        0.06389905645351654,
        0.02712306504605992,
        -0.04686944942244886,
        -0.018316895386866268,
        0.07003377458978144,
        0.08036333458623916,
        0.05887100970708799,
        0.06806350270210025,
        0.0306280221563644,
        0.08908440317190747,
        0.16540540689108224,
        0.18322404348494656,
        0.15270310577857849,
        0.04723168340762325,
        -0.06434811944170296,
        -0.1351757384250979,
        -0.10025724799880566,
        -0.03318077734087735,
        -0.020873646921534407,
        -0.03668137970307661,
        -0.014074651040991863,
        -0.0879265396607062,
        -0.026029273689806624,
        0.03068711270134132,
        -0.039202882246603205,
        -0.08767171517108725,
        -0.04899291661046247,
        -0.03679185882158298,
        -0.022955926363426922,
        0.004772723349857923,
        0.020635614939629347,
        0.03902231812732368,
        0.06194815380308588,
        0.10545186503162754,
        -0.018949449280771066,
        -0.13001227170919286,
        -0.21558479177948386,
        -0.25748785207693015,
        -0.18928355568226876,
        -0.17228243067558527,
        -0.12752945963095005,
        -0.06164131308074485,
        -0.022570349455564746,
        -0.047039888080530286,
        -0.014279844364986576,
        -0.011072487842602202,
        0.00655554565046334,
        0.060998397849544674,
        0.05088712365701184,
        0.027744460123290092,
        0.018605675358129486,
        0.01833356913960013,
        0.006049756065092851,
        0.029205801274100746,
        0.018220653352244362,
        0.03118076211608939,
        0.02302091192825918,
        0.03469852193371786,
        0.03131568541375343,
        0.038981760819922,
        0.06523566700984632,
        0.03919429503327928,
        0.004204689608175744,
        -0.05735453865955761,
        -0.03053981206461025,
        0.07203348649815625,
        0.10857947222632526,
        0.11334959150327795,
        -0.012840600021141572,
        -0.08686254521721301,
        -0.045224773355436745,
        0.03620096802785812,
        0.07124768290285793,
        0.14316102810580028,
        0.03711934347364927,
        0.0013484084456813678,
        -0.02353868418949436,
        -0.03277460787068298,
        -0.01651779791885357,
        -0.04189295634971296,
        -0.04629907818627989,
        -0.09647133543126873,
        -0.028899839574218066,
        -0.02147560909531491,
        0.038179486490204015,
        0.03846250697850796,
        0.023615700754222244,
        -0.09202094857893556,
        -0.03405723929441752,
        0.04738975602367198,
        0.1079014518122583,
        0.14192465542946384,
        0.12451646598313273,
        0.07494577492617961,
        0.015612165078486045,
        -0.009309112158106925,
