{
    "train_site": [
        "DRIAMS-A",
        "DRIAMS-B",
        "DRIAMS-C"
    ],
    "test_site": [
        "DRIAMS-B"
    ],
    "seed": 35,
    "model": "mlp",
    "antibiotic": "Ceftriaxone",
    "species": "Klebsiella pneumoniae",
    "years": "*",
    "test_size_obtained": 0.5081967213114754,
    "prevalence_train": [
        0.9,
        0.1
    ],
    "prevalence_test": [
        0.8709677419354839,
        0.12903225806451613
    ],
    "sample_sizes_per_train_site": [
        0,
        30,
        0
    ],
    "train_proportions": [
        0.0,
        0.25,
        0.0
    ],
    "metadata_versions": {
        "DRIAMS-A": {
            "2015_strat.csv": "56d646ce31a05dd704a4a6693aabc413a4e75f76",
            "2016_strat.csv": "d06fff6b6b60af9fc10fadc858cf5624808aaf3f",
            "2017_strat.csv": "a474ce364f6d3e201b3a527d8786e2c31bbc8577",
            "2018_strat.csv": "e650292c172f16845899c3a566b8f3c427b3e9c2"
        },
        "DRIAMS-B": {
            "2018_clean.csv": "27380b0a9a43a1e699b4b311235211ccfd2a76f2"
        },
        "DRIAMS-C": {
            "2018_clean.csv": "0e0d2a1ebdfeed3f39f7dae50f4000328e7da075"
        }
    },
    "scoring": "roc_auc",
    "best_params": {
        "mlp__activation": "relu",
        "mlp__alpha": 0.0001,
        "mlp__hidden_layer_sizes": [
            512,
            256,
            128
        ],
        "scaler": "passthrough"
    },
    "y_score": [
        [
            0.9300818937929511,
            0.06991810620704889
        ],
        [
            0.9283182324583562,
            0.07168176754164379
        ],
        [
            0.9253120271927551,
            0.07468797280724497
        ],
        [
            0.9287087430790844,
            0.0712912569209156
        ],
        [
            0.9296936222530954,
            0.07030637774690461
        ],
        [
            0.9291151963877786,
            0.07088480361222135
        ],
        [
            0.9285032380372176,
            0.07149676196278248
        ],
        [
            0.9288617714677142,
            0.07113822853228578
        ],
        [
            0.9277518191759561,
            0.07224818082404397
        ],
        [
            0.9300475778330881,
            0.0699524221669119
        ],
        [
            0.9291379727614275,
            0.07086202723857253
        ],
        [
            0.9281559141073354,
            0.07184408589266454
        ],
        [
            0.9285954900248605,
            0.07140450997513952
        ],
        [
            0.9266228693711083,
            0.0733771306288917
        ],
        [
            0.9291956780797086,
            0.07080432192029142
        ],
        [
            0.9304532004861941,
            0.06954679951380592
        ],
        [
            0.9240264504127503,
            0.0759735495872497
        ],
        [
            0.9245809020284517,
            0.07541909797154836
        ],
        [
            0.9295446275201272,
            0.0704553724798728
        ],
        [
            0.9267484868711973,
            0.07325151312880275
        ],
        [
            0.9263396927802613,
            0.07366030721973875
        ],
        [
            0.9284275783388256,
            0.07157242166117438
        ],
        [
            0.9283578225388321,
            0.07164217746116786
        ],
        [
            0.9272198411730698,
            0.07278015882693024
        ],
        [
            0.9291493763655625,
            0.07085062363443755
        ],
        [
            0.9282018198953992,
            0.07179818010460087
        ],
        [
            0.9302567184812645,
            0.06974328151873549
        ],
        [
            0.9274349525980609,
            0.07256504740193914
        ],
        [
            0.9285512400184113,
            0.07144875998158869
        ],
        [
            0.9291859412456013,
            0.07081405875439868
        ],
        [
            0.9263084886705214,
            0.07369151132947863
        ]
    ],
    "y_pred": [
        0,
        0,
        0,
        0,
        0,
        0,
        0,
        0,
        0,
        0,
        0,
        0,
        0,
        0,
        0,
        0,
        0,
        0,
        0,
        0,
        0,
        0,
        0,
        0,
        0,
        0,
        0,
        0,
        0,
        0,
        0
    ],
    "y_test": [
        0,
        0,
        0,
        0,
        0,
        0,
        0,
        0,
        0,
        0,
        0,
        0,
        1,
        0,
        0,
        0,
        0,
        0,
        1,
        0,
        0,
        0,
        1,
        0,
        0,
        1,
        0,
        0,
        0,
        0,
        0
    ],
    "feature_weights": [
        0.0023178279436376166,
        0.0019402436334662288,
        -0.004976211125925539,
        -0.00330554007824812,
        0.00351397828342999,
        0.005293528539070717,
        0.005037695299655415,
        -0.0014864085948248676,
        -0.004043478690242284,
        -0.005125219210167717,
        -0.006170967515065913,
        0.003827604007985871,
        0.004567343792666944,
        -0.0026849727666392476,
        -0.00023099575299338393,
        -0.0006773659239277954,
        -0.007472695007538027,
        -0.0032574256761975194,
        -0.0016124217230043137,
        0.0042677210427006776,
        0.005743727055598894,
        0.006367925955227427,
        -7.092568428620545e-06,
        -0.007236861348016163,
        -0.0005887282474670192,
        0.003421955905209174,
        -0.006305574731923299,
        -0.0065884122726451964,
        -0.000915982241327078,
        0.003466891587863891,
        0.005105933298865429,
        -0.0005379604799081611,
        -0.004305531841195286,
        -0.0029514531094344872,
        0.004133109286527869,
        0.005194231638911081,
        0.006347720323674052,
        0.00017206211906612662,
        -0.0012708765447879587,
        -0.0027454489402989404,
        -0.0016723635993517595,
        0.0025743218257584305,
        0.002519593250970179,
        0.005285100809615206,
        0.0032074284487455967,
        0.0005344468347845158,
        0.0024026164025907843,
        0.0030893279457682252,
        0.00577102228526177,
        0.001332865045928622,
        -0.002224717169818726,
        -0.007648098904702291,
        -0.007125769325088509,
        -0.002043911271052074,
        0.003064791440488987,
        -0.0015617206498953601,
        -0.006613900945471805,
        0.000536327539699617,
        0.0012207819583469938,
        -0.0013631072594456589,
        0.0005384647336313883,
        0.002272026527522403,
        0.005873053781990097,
        0.0024898409236450065,
        0.00027002904897167554,
        -0.0009676998872560444,
        -0.002680546465424036,
        -0.0006045916077986302,
        0.006510072879848856,
        0.0036611381558411885,
        -0.0009041571768215082,
        -0.0032174091989662194,
        0.0028990283162143205,
        0.004071165572198419,
        0.0027476758458354613,
        0.0012317068773904085,
        -0.0007067903323603546,
        -0.006631270089525876,
        -0.004098664985311627,
        0.00265446744429511,
        0.005864581705937181,
        0.006567892956254739,
        0.00544688661902742,
        0.0039398175040724626,
        -0.0032791905209770965,
        -0.002881270997292785,
        0.002780696990148015,
        0.002018862827528215,
        0.0006252994137845476,
        0.003211897033644602,
        0.0061271954218701415,
        0.004328167098845032,
        0.0007999737195403117,
        0.00022305332499254987,
        0.003062998403714418,
        0.003605291262764288,
        6.800256775960962e-05,
        0.0021716795605655824,
        0.0018902111995764248,
        -0.0005219950910432489,
        0.0004867903307215157,
        0.001219230433415494,
        0.0022859640995691374,
        0.002098719918673096,
        0.004342195335292343,
        0.0022644907239546415,
        0.00041063501921463397,
        0.005492196076851642,
        0.003975798960550817,
        0.004170857074496857,
        0.002698170498834648,
        0.003205869122131974,
        0.0005635563077824219,
        -0.0017436086715939781,
        0.0030598371664099697,
        0.004595338946462912,
        0.002066366385416317,
        -2.6376921576505002e-05,
        -0.0009732545649280681,
        0.005626208458384645,
        0.006347549759589359,
        -0.00022391780291731458,
        -0.00015016130735904848,
        0.003662291108404588,
        -0.0038588476341200077,
        -0.0022907194502478734,
        0.0001721785567812693,
        0.00048816967933608087,
        0.0035637460329007572,
        0.0008266558115383036,
        0.0015324772259351863,
        -0.0017592681332444567,
        -0.00794257253045461,
        -0.004916962138808264,
        0.006543981115974757,
        0.005532918709364926,
        0.004511663298817383,
        -0.0009952590658753053,
        0.0019748658954432535,
        -0.000350869285104611,
        0.0030108009154592307,
        0.003063450575916344,
        -0.0003097279115518547,
        0.00012909692656361824,
        0.0026612000971609857,
        0.005194759798323485,
        0.0039467898877163475,
        0.0045476491580899595,
        -0.0003766172439658309,
        0.001030209722348557,
        0.005256495587776534,
        0.0051650077268328085,
        0.0009736971516502847,
        0.0024284613733714278,
        0.0059937007714840375,
        0.0010474754014489782,
        -0.004760460345175029,
        -0.0012641727165895497,
        0.004427507909777611,
        -0.0012858323272656386,
        0.0014302165306886226,
        -0.0005020120822853491,
        0.0011641446241015055,
        0.003803402507323794,
        -0.0008942456060876486,
        -0.0018184065705726638,
        -0.000507291468711538,
        0.0031410975481034765,
        0.0007768550506539075,
        -0.002077389825503568,
        -0.0011338398957783367,
        0.00376056603131965,
        0.0031979366433567977,
        -0.0008333507621915459,
        -0.004159432304862629,
        -0.008310523872939693,
        -0.003668146669850654,
        0.006033705548855893,
        0.005433353775727701,
        0.0021068414746351354,
        0.0010165569527040923,
        -0.0038674320585266285,
        -0.0019309143159607046,
        0.00271870954025941,
        0.006116072381981724,
        0.00567885134129289,
        0.003723961651302207,
        0.0011974981724172944,
        -0.0011931536245094645,
        -0.003501401032258337,
        0.0016322205713860025,
        0.004888529033580998,
        0.005496228407362162,
        0.0009019375627845687,
        -0.0007495643468021833,
        0.0022018142623026634,
        0.004310009689492222,
        0.0014510626186729505,
        -0.003793161882303172,
        -0.0028468524461831785,
        0.006528600461405276,
        0.005491459445969583,
        0.0010103601659243325,
        -0.0011221562123812914,
        0.001583190854651585,
        0.0007531896730175639,
        0.004349867109564406,
        0.005089609977815009,
        0.004566099861690161,
        0.00382216587845024,
        0.0047702743220909265,
        0.004843999919772988,
        0.0050972986059523735,
        0.006216585855446188,
        -0.002730476263949457,
        -0.0059687487189609735,
        -0.002670027347685293,
        0.001670516614757359,
        -0.002275790519036743,
        0.0008106450735531235,
        0.005870921699769526,
        0.0035125122317104032,
        -0.00038685571221141205,
        0.0024782245205856807,
        -0.002653002083767669,
        -0.001140921477622851,
        -0.003262858662393114,
        -0.00038443141978649535,
        0.003900264406480284,
        0.004449345581912635,
        0.004337398175112047,
        0.001170032943938721,
        0.00044396421582991425,
        0.005120872796543229,
        0.005109855523868287,
        0.004374889883501441,
        0.003516228884433769,
        0.0013084803087285684,
        -0.001313648042463271,
        -0.003216298095015642,
        0.0008093869870565458,
        0.0048777136489015355,
        0.004737572976145674,
        0.00024841221783787295,
        -0.0005305277645801869,
        0.002268432003879336,
        0.002008496354111283,
        -0.00231679476005617,
        -0.0023280089980546536,
        0.0034288894302620322,
        0.005928627704838308,
        -0.0005423256145129666,
        -0.0046458968322464515,
        0.000671240461237949,
        0.003732020158905969,
        0.0025157010925140368,
        0.0007433788936307523,
        0.0017213601807597426,
        0.0027927892381472575,
        7.800987689666247e-05,
        0.0010020378065837001,
        0.0037714744643525507,
        0.0033116020187970103,
        0.0004803140656077016,
        -0.00177191166339397,
        0.0011377740449034779,
        0.0065744960873476005,
        0.003919534287452862,
        0.002694578050113328,
        0.0011407729875752108,
        0.0015725788312272381,
        0.0046009172329079685,
        0.001101541372430898,
        0.0030906077013597762,
        0.005109094062454212,
        0.005252637299883883,
        0.0022200308319110912,
        -0.0011295087387851715,
        -0.0008779750842310735,
        0.00048558615566553394,
        0.004311510681135219,
        -0.0018905152709967807,
        -0.0003201756634167495,
        0.003590088164508198,
        0.004222020461243025,
        0.004921071686634287,
        0.005344083327775322,
        0.004995266949826908,
        0.00606058055683872,
        0.005391180387095973,
        0.0011416331816428227,
        -0.0007020186882270937,
        0.002700825845943076,
        0.004926487370756274,
        0.005319341995255107,
        0.007262522308062499,
        0.0037723232732184346,
        -0.0016879877914689582,
        4.376340544903221e-05,
        0.002642317422576539,
        0.0035472189583195092,
        0.004813178607249319,
        0.004980610147598085,
        0.002753529002791603,
        0.004484372016216999,
        0.004653342463462328,
        0.0021369518871587187,
        0.001390790177794599,
        0.0024511873946519982,
        0.0029961312891673034,
        0.0031642465363790695,
        0.0027853302255910115,
        0.0038331927497671065,
        0.004410684864783467,
        0.0008755603494414272,
        -0.0016144778076156766,
        0.0012146338981994685,
        -0.00027653988776537084,
        0.0025200067721860456,
        0.0035175386528494648,
        0.0005084310761953382,
        0.0004204142429874489,
        0.0035945806199369702,
        0.006249186376477732,
        0.005558234084569097,
        0.001947912501558274,
        -0.0008768698599378562,
        0.0008614404933412442,
        0.0004677939784905082,
        -0.002203901978692374,
        -6.736577666245484e-06,
        0.0032932910498817474,
        0.002186245102990606,
        -0.00123201559678123,
        -0.0028431256453389335,
        0.0008848041536639744,
        0.0021860716606770447,
        0.0012231985169485295,
        0.002794805001683111,
        0.0038122028335471174,
        0.001513634881105553,
        -0.004586625579647587,
        -0.004546052087105631,
        0.0015333788428858477,
        0.0058344638203145695,
        -2.3680011413808202e-05,
        -0.0028458795112296345,
        -0.0008669036510548551,
        1.7048569565337795e-05,
        0.0025644490791196725,
        -0.0002157228391448866,
        -0.002507589716047971,
        -0.0018748157587945408,
        -0.0004760912238555995,
        0.0011308155343820927,
        0.0012204738976267838,
        -0.00220930158160114,
        -0.0029391377248384086,
        0.0011250884150226872,
        0.0040151782683664865,
        0.004379490151347912,
        0.0025762546219266344,
        0.0013602982695375024,
        -0.0014810233490263388,
        -0.0033706957624470976,
        -0.0003504169987431788,
        0.0036779712958882934,
        0.005946359952493376,
        0.004880438371696277,
        0.006969881052308629,
        0.006672094601192667,
        -0.00021175459728382513,
        -0.0016948309236202185,
        4.4654516990171034e-07,
        0.005705825227386692,
        -0.00039941621798148306,
        -0.007275530347029426,
        -0.003654138143993708,
        -0.0010547368864534208,
        -0.0013032134554263124,
        0.001660137873776319,
        0.0012556288531729526,
        0.0031287237581609957,
        0.00512510688721249,
        0.003106018937237735,
        0.0031868566759849053,
        0.005309203675363995,
        0.004423357986697569,
        0.0016073917593225052,
        0.002320154375932761,
        -0.0023892658952846518,
        0.0003283186786984814,
        0.003596137530533256,
        0.0033109863091773852,
        -0.0023643319983882903,
        0.0005703697529325332,
        0.00413574510481894,
        0.004246789721250312,
        0.003765884098314998,
        0.0037829018975788714,
        0.0027326403052222743,
        -0.003748130401726336,
        -0.008871849027783006,
        -0.008491427030145025,
        0.00017698965010974605,
        0.006139151316844674,
        0.004614572104697195,
        0.0006627552533723866,
        0.0005710188099133841,
        0.002887393738223865,
        0.001426953961025833,
        0.00034424179409203064,
        0.00017344130911575034,
        0.0042773338267539105,
        0.003978516526305284,
        -0.0021952320304896578,
        -0.006696286530623122,
        -0.007955549886290977,
        -0.0021391933863220674,
        0.004121327004995495,
        -0.00018847021093025519,
        0.001525009114522924,
        -0.0005538056944430651,
        -0.00268588730918395,
        0.004441071329717713,
        0.0021582740176133183,
        4.5972359030593314e-05,
        0.004814729785127335,
        0.0037940523673599207,
        -0.002103840816139214,
        0.0012857072332051276,
        0.004565888043946913,
        -0.0003715845695818631,
        -0.0013885480555202853,
        0.004990975309282169,
        0.005897866491507122,
        -0.0035077666786010654,
        -0.0007403637455665106,
        -0.0004288688490422092,
        0.0015396129911036606,
        0.001223754135214504,
        0.003691129565323347,
        0.006190069685627601,
        0.003958126737107476,
        0.002866824824221463,
        -0.0011157355610699475,
        0.0019327245433482282,
        0.0038074526057454224,
        0.0011746756448807035,
        -0.0026939544004292762,
        -0.0023711584475182056,
        -0.00017838555673086923,
        0.003052554275054943,
        0.0033962376479492393,
        0.0015713095665293017,
        0.0016604792734867437,
        0.0002376357405166778,
        0.0004618377947408512,
        0.0010220888042334945,
        0.003818462266402493,
        0.003123838033880597,
        0.002724560240273884,
        0.0035108344335954703,
        0.0021217748857332132,
        -0.00027590346878167735,
        -0.003647005758910432,
        -0.006770686118109544,
        -0.0024930305161394188,
        0.004305878620122713,
        0.0032189227127547774,
        -0.0017291145420670951,
        -3.7886477133621346e-05,
        0.001956337371832692,
        0.0008077227251950217,
        -0.0005514727529261343,
        0.0038132334763474446,
        0.0035016160514836996,
        0.003598770928052263,
        0.00010303625953010165,
        0.0014808325142299265,
        0.002489227543755992,
        0.0017823610953635566,
        0.0016749107714290746,
        0.004821273507520731,
        0.0029653245420876275,
        0.0022892804529540175,
        0.001855548622828275,
        0.004586251073323485,
        -0.001431733042605965,
        -0.00037757921473598205,
        -0.0006713492612158384,
        0.0018579074148257027,
        -0.0017815955673636137,
        -0.0019648581711128217,
        9.20048831984774e-05,
        -0.0002416541960044438,
        0.005492208671299709,
        0.004443375300048185,
        0.0011863996931788857,
        2.549584285695312e-05,
        -0.0009801643863043925,
        0.0008312700104595627,
        -0.002381841969620912,
        -0.005299996565600565,
        -0.006174883541395745,
        -0.004637028596661591,
        0.0038387905498176453,
        0.0012078890361442037,
        -0.00038523924062608416,
        0.002017742712680529,
        -0.00014362160408266394,
        0.0036795135054286817,
        0.005614357384509254,
        0.0036457250727108138,
        0.0001682821325438722,
        -0.003236916441153075,
        -0.0004297881756640444,
        0.0017050476847236466,
        0.0012953188571666358,
        0.0026616542603103968,
        0.004205066915090403,
        0.0011406258424091148,
        0.0030216512637472274,
        -0.0010150386909476641,
        0.0003448491774466798,
        0.0004973366267807814,
        0.005647067946191608,
        0.005285672002826586,
        0.0034211333959690278,
        0.003386327969552647,
        0.00260985790732272,
        0.002437723371401507,
        0.004551983301888104,
        0.0016079684109567324,
        0.006825644326393035,
        0.0036590629989017975,
        -0.0007648816367838624,
        -0.0013875752997078617,
        0.0012609445374264763,
        0.002973279603062277,
        0.004524363872483019,
        0.005590077549718266,
        0.005352575461937197,
        0.004331391690557565,
        0.0027836691000725036,
        0.0038468719349677278,
        -0.0005292212038153051,
        0.002960998403196706,
        0.005259991421837678,
        0.003591398755254924,
        0.0002917041254213381,
        -0.0024419702593935794,
        -0.0010577366187306003,
        0.0027085657888091703,
        0.0018822764379713226,
        -0.0002643877404286239,
        0.0042393912564850054,
        0.005861730888835816,
        0.0051667024481792,
        0.002861004062150706,
        0.0001444274190400079,
        -0.001383875472421391,
        -0.0022355643325490462,
        0.0012919188543164535,
        0.0022583681042926502,
        0.0014621838117449709,
        0.0006366168264782388,
        0.0014197166637584411,
        0.0006683554126779458,
        -0.0006315735915582519,
        0.0006649731739749699,
        0.004219670698050201,
        0.006309596421881379,
        0.004372793292219636,
        0.0034258294733834375,
        0.004974562557554444,
        0.005228161142621363,
        0.001022421785647209,
        0.0009162147029656845,
        7.293638316780966e-05,
        0.0016289349459969985,
        0.0016152403043393666,
        0.0016982370246673756,
        0.0029704971737489374,
        0.0036525041057130416,
        0.0009383095144426851,
        -0.0019668655533249535,
        -0.0011683954034880247,
        0.0006250073219297998,
        0.0005578869333663255,
        0.004241819031803742,
        0.006012759722411843,
        0.00715449429886195,
        0.0015235340232309703,
        0.0009777883874400916,
        0.0003056288714975287,
        -0.0021759985833234023,
        -0.0007655661504241793,
        0.0010404743763805816,
        0.00011850217124857943,
        0.0021939896239778793,
        0.003112472094793212,
        0.001853465669820067,
        0.003397348610258897,
        -0.0005856796968016202,
        -0.0022041054417677383,
        0.0004968608499534866,
        0.0027477476616393787,
        0.0034033143957573264,
        0.0009330999875379751,
        0.002746835584369397,
        0.004601625142001265,
        0.002642520414667917,
        -0.001369318726213758,
        -0.0020185239712255023,
        -0.0009170909218964517,
        -8.035212345450276e-05,
        0.001689405619950083,
        0.0024301234348933116,
        0.0023293072295738526,
        0.002596073404116563,
        0.0004804925340268976,
        0.0009063843830465301,
        0.0032994458836429234,
        0.005475495997097367,
        0.004065596969399895,
        0.004290111478682811,
        0.002988489450762842,
        0.0018455799432869164,
        0.0026171365319780596,
        0.0019333554804981886,
        0.0023837379121400526,
        0.0005446461815380157,
        0.00014964004072484915,
        0.004439140955593591,
        0.0023594852842293962,
        0.0020203827502233533,
        0.0017621438523601311,
        0.004078480776733911,
        0.002821003377523369,
        -0.0002480398192939205,
        1.6915196849452262e-05,
        0.003483302731910703,
        0.003124311171452397,
        0.0003967402759451133,
        -0.0011653218091214564,
        -0.0009399699440440854,
        0.000878205046861071,
        -0.00026088612391443616,
        0.0009279753197663272,
        0.002230450907143187,
        0.0008263030385135674,
        0.0006777005353373657,
        0.0001650964889639173,
        0.0010956791201002056,
        0.004379783100726148,
        0.0045645896251946365,
        0.004101083549326975,
        0.0013326263182755532,
        0.0009974363229551175,
        0.004242524630381395,
        0.0038979500348608415,
        0.003313556337296645,
        0.0012201029003929664,
        0.005164140141935227,
        0.003889537000038898,
        0.0001571143433247673,
        0.00020193971270052912,
        0.003718317966326128,
        0.0051677642506923254,
        0.0006799568905129167,
        -0.0013869821529747639,
        -0.0007858781770199333,
        0.0011680059273989382,
        -0.0002702436772705283,
        -0.00038505092854816735,
        0.0008238411824969059,
        0.0025602854039504727,
        0.004778345067037816,
        -2.7963863774253393e-06,
        -0.0007723732542139176,
        0.0010012169027298914,
        0.0018793036618021482,
        -0.0002566456380606602,
        -0.0018247432145268427,
        -0.0013042143526912995,
        0.0007967649064729384,
        0.00022016203781461145,
        -0.0017625746064857946,
        -0.0006195850771984176,
        0.002932658995778893,
        0.005966919057246021,
        0.004896926722821599,
        0.0005684099305241392,
        0.0006597105065232821,
        0.0017489851321449972,
        0.004563870116650985,
        0.0039088417860178755,
        0.003167959681471216,
        0.0023709718955598133,
        0.003229493720372692,
        0.004268880602741335,
        0.003491591821657548,
        0.003535299714203443,
        0.0030350283708793003,
        0.000275753144686536,
        0.0024411359258987696,
        0.006549563132790084,
        0.004087601204710831,
        0.0017240912834565532,
        0.001039665401047063,
        0.00199305124539016,
        0.0017740932890998923,
        0.0027304422009129478,
        0.0035520541444654472,
        0.003865812977190326,
        0.0018127952462237877,
        -0.00021133867093315765,
        0.0019822777978300275,
        0.002516297039733698,
        0.0022188027251905844,
        0.001519257057143171,
        0.0011563590562116294,
        0.0019069563537900567,
        0.002049347434574008,
        -0.00021176031441465216,
        0.0016204880768141451,
        0.0012540489800210047,
        0.0019420360830902372,
        0.006209703445407949,
        0.003922343744986014,
        0.0028723339983019723,
        0.0029186718071607374,
        0.0030999186225416408,
        0.0045239285011541555,
        0.004940093509456594,
        0.006035101521193229,
        0.00496219799676891,
        0.005278498805113157,
        0.00479432668555764,
        0.004758315251529727,
        0.003866442008425847,
        0.0026458911623056607,
        0.004696004133692968,
        0.0027564371897004763,
        0.002965648560485726,
        0.002669738400169279,
        0.004131070847959054,
        0.0016948719443123728,
        4.095392367664216e-05,
        0.0003886003413306055,
        -0.00023697902857126982,
        0.003065191906529697,
        0.005006997510354438,
        0.001974889942840661,
        0.002834571032699707,
        -0.0003573286904083717,
        -0.0033903263039526343,
        -0.006381288126535454,
        -0.002385810445559528,
        0.002191372659680553,
        0.005867193108970086,
        0.00642104013725754,
        0.0014255807362556821,
        -0.004746909358990541,
        -0.0037952598123532147,
        0.0015061194228532344,
        0.005197260968407454,
        0.004501180143582127,
        0.006123586258860449,
        0.005675196588565109,
        0.005744567448705316,
        0.0032903125901135085,
        0.004181169567846244,
        0.003585360425552426,
        0.0019533851576919955,
        0.0007743568435042616,
        0.0014782092365444024,
        0.005144593884966992,
        0.0064798556298505255,
        0.0053264627106519545,
        0.0041121844360112545,
        0.0017941432555757867,
        0.004980090745764727,
        0.006398507033633863,
        0.001797117528090969,
        0.0008970432945448878,
        0.0028361132728982907,
        0.0033084142278054438,
        0.0028801202533582926,
        0.0055243707003870945,
        0.004795855351515718,
        0.0012047899690911946,
        0.00273483693654639,
        0.0019599211455026346,
        0.003477876050288966,
        0.00606526706748507,
        0.002954974625853887,
        0.002496721561110648,
        -0.0007702083149545093,
        0.0017448954689381875,
        0.0021054349223987305,
        0.002818997957501862,
        -4.342161809039628e-05,
        0.002885621912446099,
        0.0013978809416492542,
        0.0011604540613196167,
        -0.0012557633690601826,
        -0.0003310726444652512,
        0.002950065063932749,
        0.0008622075612778671,
        0.0006709344266343622,
        0.0009528652604271533,
        0.005135612230381946,
        0.0032382196391601272,
        0.0024027766841730755,
        0.0033827497353928317,
        0.0033837723164636072,
        0.004755367395295498,
        0.004633965008672955,
        0.0050658302238438535,
        0.0049662830238405955,
        0.00608709535449379,
        0.0054590675698285565,
        0.0011887129900716416,
        0.005331835792262226,
        0.007372308679713724,
        0.003037272139863363,
        0.003338611750538411,
        0.0005711401915246982,
        -0.0011585487287811215,
        0.0003742282318426781,
        0.0010064906241501717,
        0.0034253865460373086,
        0.002160233017448481,
        0.003339830725714487,
        0.0007534822808094143,
        0.0022206222332393625,
        0.0004438383600143056,
        0.004310917278854411,
        0.006950196441974167,
        0.0057799030275448565,
        0.006757102614703878,
        0.0045042936956177365,
        0.0035433552450849664,
        0.005145839811386034,
        0.004184731581692351,
        0.0028693591210760773,
        0.0023987974395751855,
        0.003357286840796018,
        0.0014234349390273779,
        0.0007815305950306152,
        0.0016254022379278282,
        0.004234820363317871,
        0.0013413816749997028,
        0.0015235516255806352,
        0.0007883950969927841,
        0.0036920317161313176,
        0.005034574800719536,
        0.002992203348027596,
        0.004494671333855872,
        0.004216159941396886,
        0.004194251347948324,
        0.0033936348912701093,
        0.0038114817993223408,
        0.005563639661806905,
        0.003617701561015917,
        0.004863107453039492,
        0.003903266436106973,
        0.0008457479238906168,
        0.0004357590771352774,
        0.00469910696189927,
        0.006295062824196345,
        0.004266501794460855,
        -0.001708617875653741,
        0.0003191634305985541,
        0.00046792849826134445,
        0.0021031580899185135,
        0.004431145011171122,
        0.0008881379561676443,
        -0.0032107774588775876,
        -0.0029866726939737865,
        -0.0006505709833663862,
        0.0012789238125014047,
        0.004528410422753161,
        0.003904453047744973,
        0.002572133169418635,
        0.0037861585436662053,
        0.003861999449184115,
        0.003815216713302326,
        0.002688603761683786,
        0.001123970651897881,
        -0.0001750870442077942,
        0.003346075216943893,
        0.007312537283126372,
        0.0042770575504474904,
        0.00223846477031891,
        0.005735823554553719,
        0.004519269085816349,
        0.005418317649360021,
        0.005552318135740146,
        0.004997301481314016,
        0.0051272375446263525,
        0.006014996565936958,
        0.006041771484995255,
        0.0029727602916269635,
        0.0029563814744950094,
        0.00019448988745516984,
        -0.00012394449251065153,
        0.0023949137001514223,
        0.0030167297573450566,
        0.001076396277863054,
        0.002613871810875654,
        0.0009810920458510446,
        0.005030839285287663,
        0.005429052610710059,
        0.002647130102776156,
        0.0038372060384205663,
        0.0023221616148906346,
        0.0032664701958597907,
        0.006203438224281374,
        0.0033753134467131465,
        0.0029906012985694086,
        0.001502743258205187,
        0.002466910968734545,
        0.0054418683568441895,
        0.0034726326328824424,
        0.0037396391087941233,
        0.002677879891854895,
        0.0020997890651432544,
        0.0036117198449480904,
        0.004047856042581288,
        0.001694601074885707,
        -0.0015288196598111418,
        -0.0046325802804491195,
        0.0028952899572394063,
        0.004090020766108253,
        0.004288252478637837,
        0.002774704133890833,
        0.0014753007190890207,
        0.003453592917615418,
        0.0032421838377157098,
        0.0021863514953115947,
        0.003294193093025725,
        0.0016676815636189743,
        0.005061029476059112,
        -0.00044274261718825107,
        -0.001151284742116262,
        -6.296130922611444e-05,
        0.005149732669102346,
        0.004186791430721319,
        0.002207151547470877,
        0.002665886458953816,
        0.00027494496287674785,
        -0.00010798427230877873,
        0.004087007121717959,
        0.004585144250351797,
        0.0029158733988998544,
        0.0018201207370177005,
        0.006082735625282169,
        0.00455058530235768,
        0.0038246536021175814,
        0.006514331060679983,
        0.006417626335682132,
        0.006228802224871228,
        0.0060014317536942665,
        0.003795481768113565,
        0.0022185845551085178,
        0.0023766589632291087,
        0.0009324352561089926,
        0.0021254691170095115,
        0.003927993354170509,
        0.005150743839566633,
        0.0022675790041276297,
        -0.0002465262374976621,
        0.001081731224158044,
        0.0029521035933612726,
        0.0032691879451470407,
        0.0034738661732378233,
        0.0033963109143313923,
        0.005073106635079682,
        0.00469588891394207,
        0.004700789376984668,
        -0.0014132491462692217,
        0.002078759272603505,
        0.0024279245098029305,
        0.003894953929986321,
        -0.0006417061206563338,
        0.002627418421038046,
        0.000538597879933489,
        -0.0004089503862208057,
        -0.0007350241698220189,
        0.00212729064874692,
        0.0036676706837249504,
        0.0024552762597984256,
        0.004291194196989362,
        0.004396178244342713,
        0.005517491620195946,
        -0.00041843532542044134,
        0.0009986212550536567,
        0.005656250710966386,
        0.006513211032757786,
        0.006699581566214501,
        0.004021150161366352,
        0.0040157526328919784,
        0.002945489426380085,
        0.0005706910616074438,
        0.0021625443661149766,
        0.002028353514090368,
        0.0036672500938890974,
        0.004415387450766306,
        0.0019454586376863115,
        0.0013475915773697364,
        0.002023232269957839,
        0.0029653901144421633,
        0.004048046749776544,
        0.003642760167268529,
        0.0034711486738681265,
        0.002584270727740902,
        0.003011108998092359,
        0.0008300962559020756,
        0.004306625020006064,
        0.002888839127808398,
        0.0034844546372838157,
        0.0035085566141542673,
        0.00412394734125544,
        0.005331352105997396,
        0.0057572073492769445,
        0.005803527246212432,
        0.004781242995499208,
        0.0023490918022384677,
        0.0025585316486870747,
        0.0016631339809416886,
        0.0033725199951986054,
        0.006487900521679241,
        0.006361987443696322,
        0.005319006066869982,
        0.00403169762261992,
        0.005514407814925042,
        0.004148640209439433,
        0.002739354076074785,
        0.00272293779525914,
        0.0019741553337527785,
        0.002546440680498431,
        0.005291170914268806,
        0.0052000733203867,
        0.0025967907090668815,
        0.001758398948206275,
        0.0015000245600165114,
        0.002654163445472104,
        0.0047324946370452025,
        0.003381996975063176,
        0.004312441531421435,
        0.005008931489051637,
        0.0037539252829171203,
        0.005517044654319904,
        0.004359006100404907,
        0.0011151694863344203,
        -0.00031507853043493013,
        -0.0002673147312468303,
        0.003248994461022399,
        0.004389582219065064,
        0.004875472367147575,
        0.0029533244959566237,
        0.0011459612705154883,
        0.0006592931697220333,
        0.001291707134886179,
        0.003458814216959285,
        0.003935541222950012,
        0.00475588520189465,
        0.003592505874453823,
        0.00039718326516321946,
        0.0025921663497466578,
        0.00255240042447016,
        0.00569070371153178,
        0.004528347663338414,
        0.005007694850885702,
        0.003919674791409804,
        0.001170372259035729,
        0.004208122213149762,
        0.005233436128998045,
        0.004223346775645304,
        0.0012654823645514288,
        0.0056031493390801415,
        0.0036698573355474383,
        0.0036316698908190658,
        0.006446330177273394,
        0.006687226521606839,
        0.006999468254045995,
        0.0047206440288828,
        0.005153619573582735,
        0.005458964313041858,
        0.006218307043051532,
        0.007701286714970399,
        0.005695801475112337,
        0.0032241621180144637,
        -0.00043863488323583265,
        -0.0018933801018973225,
        -0.0017893415017560302,
        0.0020783856430879764,
        0.005363526982197978,
        -0.00011955434892141855,
        -0.005997719903328434,
        -0.008765918963700402,
        -0.0088485741373147,
        -0.004517388826670391,
        0.0058668494480677465,
        0.006890876097413609,
        0.0053340800021450235,
        0.0027526013192242862,
        0.00575239954240033,
        0.00581917246272015,
        0.005429927177003336,
        0.005769037273655477,
        0.005276554423118767,
        0.005724760997914856,
        0.0035563753146639256,
        0.0028365771478486602,
        0.007399975815148745,
        0.005174379349332428,
        0.005293347333552096,
        0.004108017816573809,
        0.0020237608211867214,
        0.006095007616057762,
        0.004668647611205791,
        0.0018562270123538627,
        0.0013025507895041044,
        0.0012785155418383186,
        0.003694809218089232,
        0.004138582690646072,
        0.005338917299863757,
        0.005456271793942777,
        0.004159654950173096,
        0.003116201518821803,
        0.004243089420764829,
        0.0022457243516834317,
        0.00014805098843974595,
        0.0004896158900962895,
        0.0031346640554648217,
        0.0028323898432305625,
        0.0023845683681262032,
        0.0002620929678855221,
        0.0005993162938183406,
        0.0054818381017167385,
        0.0036905130224479535,
        0.000507999976261944,
        0.0011452084525857766,
        0.0012073960264168489,
        0.0029402695388821972,
        0.0021776901612623996,
        0.005843680152251915,
        0.0006247781277517474,
        -0.00040856360394258607,
        0.0041711038717675945,
        0.004268556591161457,
        0.004992213181217361,
        0.002694938354311941,
        -0.0009510930004963038,
        0.0005931975658169813,
        -0.00030763951507747797,
        -0.0038507109707505457,
        -0.004616185139653087,
        -0.003778954867893706,
        0.004727502486644503,
        0.0058086919071204494,
        0.0037342676161835923,
        2.3832884319118473e-05,
        -0.0034570765729758663,
        0.0018905588102488525,
        0.004334185612155948,
        0.000385983375664771,
        -0.0012545095264216806,
        0.001762271900563055,
        0.002946828518100303,
        0.0023074725620547405,
        0.002641788336339692,
        0.0021782141724747232,
        0.005018587623823199,
        0.005421919630849496,
        0.007251486512792639,
        0.005582807576153285,
        0.004572244549882889,
        0.003722338485333757,
        0.0016703258428188202,
        0.0010425466752540392,
        0.0008795852552775666,
        -0.00025591840212101487,
        0.0017105788132478917,
        0.001810356613308168,
        0.002296573664432123,
        0.0012947266180316278,
        0.0014454134693604227,
        0.002982576879484008,
        0.005279278952079953,
        0.0069644614918599156,
        0.005511105582427306,
        0.0038665313624689926,
        0.0028541331390265568,
        0.0006924477197238934,
        0.0023978687450226916,
        0.002677146922533455,
        0.003388532472221374,
        0.0029387418661079934,
        0.003069260380358146,
        0.002657700628776313,
        0.003903225448296215,
        0.004637752296254729,
        0.005351259557163648,
        0.003738203364836998,
        0.0033368473271860747,
        0.0030200082333047265,
        0.004069028577723265,
        0.004538501562646676,
        0.004477641601498989,
        0.0013154333581350168,
        0.0026642340562150297,
        0.003574044821217632,
        0.004195628689625414,
        0.007305873092591257,
        0.006529955635344779,
        0.006827133958830826,
        0.006884302473744807,
        0.001465125828716003,
        0.0021883787941276373,
        0.004898936516164549,
        0.006387607679466101,
        0.0058208462993007215,
        0.004952605576100192,
        0.003380413959258094,
        0.0030683155737701493,
        0.0019362948734005137,
        0.003898880916320911,
        0.002174396696242421,
        0.0032467343848279527,
        0.0044449625998865825,
        0.005091640803998492,
        0.003238422107662921,
        0.0009351156493123474,
        0.0024509829922977535,
        0.004575786753224108,
        0.002394720527838826,
        0.003938825699187274,
        0.0025935141505180957,
        0.002039557018981155,
        0.005802283941812241,
        0.006239292737864209,
        0.002959469921236507,
        0.0032897267323513334,
        0.005113030746096544,
        0.0036236076413005617,
        0.006342181365100003,
        0.0036671367578304057,
        0.0035174635653342848,
        0.0011753207712143204,
        0.0010203657661054567,
        0.003863525027596639,
        0.002098234559227008,
        0.0018125594688245582,
        0.0030378892434625646,
        0.001261069775233238,
        0.0018764102144953059,
        0.0005761784928757121,
        0.003882788833841598,
        0.005179991684805616,
        0.0018853852379353934,
        0.0026824465453669736,
        0.005907741064063389,
        0.005595584893119385,
        0.0016590549412609417,
        0.0030752730487346594,
        0.003476551439215465,
        0.004759845349309973,
        0.0029758743052758566,
        0.003571314056872838,
        0.0038325303642915637,
        0.003178118777296399,
        0.0034991840864676844,
        0.004529404193100984,
        0.00440003783748895,
        0.004001006935435607,
        0.0034472793856153076,
        -0.0002344556458572653,
        -0.0009588604468129794,
        -0.0018056640142848752,
        0.0009202216862458626,
        0.003147805450750673,
        0.002244390270469093,
        0.0035057502961565274,
        0.0018098510401355792,
        0.0011622244130068437,
        -0.00182171884926251,
        0.0023505861034502354,
        0.0026630168462530436,
        0.0032185427964110027,
        0.00310931248612222,
        0.0035889227283849466,
        0.004933327430484087,
        0.005975644001714653,
        0.006725060870108398,
        0.0053560976074365114,
        0.005789634879478531,
        0.0044100518678967665,
        0.004025791552405509,
        0.003535852174487979,
        0.002891436074958446,
        0.004856773648096157,
        0.004243010315632886,
        0.004979519794639141,
        0.003141299743822254,
        0.004429104502384408,
        0.005176733683849419,
        0.0013681352279561556,
        0.0012498460109125404,
        0.0005046046275486712,
        -0.0003025578527978203,
        -0.0010560725110359008,
        -3.641343073611182e-05,
        -0.001132545317234022,
        -0.0007211271086470681,
        -0.0015136192100632317,
        -0.0008269336096879228,
        0.004070272391964706,
        0.004280966132259267,
        0.004075999320167672,
        0.004266731282358343,
        0.0035542904597386394,
        0.002500822335044294,
        0.0035234653013115546,
        0.0007832509676825158,
        0.0007182231107954052,
        -0.0017248174985442211,
        0.0035499414227515196,
        0.002042705243449866,
        0.0011104659527260544,
        0.0014144197246007278,
        0.0024499623452675307,
        0.004183173225468762,
        0.003637575411976039,
        0.003136420842726897,
        0.004138264213066011,
        0.00274523180361499,
        0.0030392349645984107,
        0.0010370190875444141,
        -0.000561932060980716,
        0.0027091423330468825,
        0.0038398227553071663,
        0.005488466285303544,
        0.0035593934462240726,
        0.004900457963082098,
        0.0020513873387963313,
        -0.0008598405848436133,
        -0.001783617466655481,
        -0.0011205381479819552,
        0.0051250520017392855,
        0.005583245038344925,
        0.005380835137278177,
        0.0037532749859158126,
        0.004264417244725339,
        0.005130529278555748,
        0.001791409244598613,
        0.004113106056134651,
        0.004352553320177902,
        0.005420086034600136,
        0.005128150641902836,
        0.0036769513623212684,
        -0.00015411524137466648,
        -0.0009827526017896055,
        -0.00030035548047399363,
        0.0020273749836283426,
        0.003527672243351092,
        0.0018664814829408346,
        0.003487242850604942,
        0.003181371077272111,
        0.001736266832386798,
        0.000543109598481982,
        0.00117940556237479,
        0.004499239637584727,
        0.005271175139103586,
        0.005671768422747712,
        0.0017541039993811342,
        0.0014691547402505066,
        0.0015155131912452597,
        0.000394559207718803,
        0.0007267690591325686,
        -0.0017805955260887167,
        -0.002117712352176475,
        -0.0013845524363409025,
        0.0037115077831849624,
        0.004357045268226011,
        0.0047323017256308345,
        0.0008630413043102215,
        -0.0008649986542062732,
        -0.0024333093397149947,
        -0.002182608461177952,
        0.002584846979615448,
        0.006378111066497829,
        0.004512476885479856,
        0.001707847986051251,
        -0.0022701483503464754,
        0.0006369466024367176,
        0.00545875070401361,
        0.007257806354366497,
        0.005421116169708258,
        0.0035496491764033695,
        0.0002607013029449842,
        -0.0014497173186243828,
        0.001214345139988702,
        0.0034269944086527913,
        0.0032972851977790736,
        0.004596391076417097,
        0.0010046528170768417,
        0.0009118611652513025,
        0.003127165411170062,
        0.004203728694828367,
        0.0011487611845024,
        0.0025515046867731522,
        0.0031582333222924088,
        0.004159879801849458,
        0.004643593892593555,
        0.0031391861972784804,
        0.003584889445465003,
        0.00605452564805277,
        0.006648090964598343,
        0.0044695514625471815,
        0.001803978755516841,
        0.0008376284469055991,
        0.0009989434824775683,
        0.00454225600355204,
        0.003932589244626054,
        0.0018486517267505642,
        0.0030466448325723312,
        0.003132309850856052,
        0.0026846978935537048,
        0.0020869321829398513,
        0.00137314574845086,
        0.0009283055332537917,
        0.0035799287143688237,
        0.004186505816683898,
        0.0037086266416522847,
        0.004533881992672066,
        0.005248654186273783,
        0.004352106301808085,
        0.00564627350758267,
        0.006434855468710938,
        0.0057615058115717405,
        0.004881299832844803,
        0.0031919207426945417,
        0.003967192171676952,
        0.0054126508533160755,
        0.005098644094973993,
        0.0062932083192467885,
        0.0071737784493729915,
        0.005775822928490642,
        0.0032772750646107643,
        0.002187623812352011,
        0.0030628754589586906,
        0.004643388457976124,
        0.004186072053009655,
        0.004775347515482009,
        0.002500265522998601,
        0.002764699322393745,
        0.0015069275263034925,
        0.0005901635733670676,
        0.0018630331215715667,
        0.004281065357518474,
        0.004333557039334709,
        0.00505959670578745,
        0.0022051571697708325,
        0.002561735911596082,
        0.0021235802846178856,
        0.002155432330444609,
        0.004478276290206586,
        0.004821552554895402,
        0.00121855019877499,
        -0.0007722279420594427,
        0.0012792631694482403,
        0.004194796674119348,
        0.004219185799108962,
        0.0020672787036955112,
        0.001927202894411267,
        0.0016582939886787915,
        0.0010765006588443998,
        0.001119752875867742,
        0.0024262333932026457,
        0.004898759400869117,
        0.003201821399318258,
        0.0029696148144979367,
        0.0033968733138236952,
        0.001958706577731382,
        0.0019814427423814327,
        0.000964350938716915,
        0.003523198611296571,
        0.00435293604617053,
        0.006185701147679968,
        0.00494787300790124,
        0.0008621138906012168,
        0.002943909647710488,
        0.0017938735647912809,
        0.00506545740991751,
        0.0023336542186416743,
        0.000526015854764417,
        0.0010174808070021733,
        0.0015575938668138233,
        0.0017086956160075803,
        0.0005771350414725711,
        0.0033995924156672353,
        0.005512849178509713,
        0.005226264814441212,
        0.002321062253853229,
        0.003201364350227276,
        0.0010646019333371737,
        0.0012745948847301001,
        0.002419954613468375,
        0.002075279491240244,
        0.0006714088514093569,
        -0.0007858515283810247,
        -2.6075223509567378e-05,
        0.0010598135568585468,
        0.0013227212752307317,
        0.004385511535164507,
        0.0034993800357128084,
        0.002295052843498876,
        0.005037917264261196,
        0.0053489879065324744,
        0.0042694960094687385,
        0.002880962678426233,
        0.005233406607756486,
        0.0015262713231634964,
        0.0016800612700438333,
        0.00457316642982999,
        0.004968996562645799,
        0.004960811367614925,
        0.0024619391476231054,
        0.00105887041555518,
        0.0027780955507172114,
        0.003464600414026249,
        0.004042611211864024,
        0.004506009239794316,
        0.0011277265102396894,
        -0.0005680893286883282,
        -0.0016227449671006766,
        0.0015034142785931579,
        0.004590509604406186,
        0.002406690286092659,
        0.0006837116838012139,
        0.00010285275706643887,
        0.002636795110514465,
        0.00413246805261288,
        0.0021022140410290133,
        0.004257329546129587,
        0.003899635141394791,
        0.0019302636189305398,
        0.0014509800603063196,
        0.0016278691590583866,
        0.0034247767322517397,
        0.0009538192415480839,
        -0.0005909052065523015,
        -0.0012785133609561307,
        -0.0014002391683132181,
        0.0017233775554843047,
        0.004107799657287522,
        0.0038112310329336645,
        0.0029577535508575337,
        0.0027430291385654657,
        0.0031918583928398653,
        0.0037687051901801882,
        0.003457175621187733,
        0.0037038913952289936,
        0.004646183597987366,
        0.006273439339194218,
        0.004699485372615273,
        0.004814732698511631,
        0.003086503070419758,
        0.003054550905913482,
        0.00164529055583362,
        0.006139150751824881,
        0.0067924516774026476,
        0.0034515254327296034,
        -0.0011259544380456351,
        -0.0026056800791652967,
        -0.0014034264934118378,
        0.004481954848463965,
        0.0029148832191790083,
        -0.0005049310061537272,
        0.00015736344895601756,
        -0.001347329826516262,
        0.0026147409624300627,
        0.0020120199887372773,
        0.0001989129502311238,
        -0.0004421407244011256,
        0.0021847224150167086,
        0.004516147512984733,
        0.00564571742587487,
        0.005135889313843343,
        0.0028486563245901445,
        0.001190444145563992,
        0.003922291487270537,
        0.002665269709047215,
        0.0022243648740155756,
        0.0012594434223990058,
        0.0029919193355181675,
        0.006748821767907875,
        0.0010942770279632073,
        -0.0026860527682650214,
        -0.003145055265863045,
        -0.001429916607638583,
        0.0007223459327456879,
        0.0016449167349497488,
        0.001647532530270732,
        0.0034754477018840648,
        0.003314623334166188,
        0.0018390514709553537,
        0.0010198782339163781,
        0.0017547613510481776,
        0.0019708535651549184,
        0.0006652030374392665,
        0.00263097878066468,
        0.0016264890573705728,
        0.004234271557557758,
        0.0030441356309639576,
        0.004928352216340677,
        0.0054813081301623694,
        0.004277473197551792,
        0.0018050102659188973,
        0.0008267727004089076,
        0.0034694494487676293,
        0.005808696463630696,
        0.0075692876986114595,
        0.0034959941453429457,
        0.003645519323975183,
        0.004844685621336255,
        0.0020551021650869338,
        0.002983865863372674,
        0.006117059626355969,
        0.005837738489290733,
        0.002917307201733359,
        0.0035641252562820984,
        0.003969909879820229,
        0.0033301411500857793,
        0.004990693508567045,
        0.004629958989619182,
        0.0014848246521912728,
        0.0013035646713861677,
        0.0011335421800178452,
        0.002401143047606653,
        0.0037683407029841273,
        0.002082185298836787,
        0.0007609413086910394,
        0.002826165331778424,
        0.004601842565384425,
        0.0025403829237574944,
        0.000696545047908537,
        0.000581708542391199,
        0.003439538966853795,
        0.0039006617008056107,
        0.0037517509922836076,
        -0.0006321140581965281,
        -0.00045036544586686214,
        -0.003182266089705911,
        0.001680318759214814,
        0.004693847854301618,
        0.0031435713771856013,
        0.003049519109237602,
        0.00520324298627582,
        0.00431513182086188,
        0.004181333910587797,
        0.0049004686654227116,
        0.003091949119242216,
        0.002731856232619359,
        0.0007772531956080324,
        0.000787660153991659,
        -0.0006413603512686953,
        -0.0009153752473481539,
        -0.0004359015133886268,
        0.0009204383030229816,
        0.003534517833992358,
        -0.0007988888585947875,
        0.0004021523226670865,
        0.000778036608366557,
        0.005021514365970396,
        0.006844552912173312,
        0.0031046562172805463,
        -0.0011675325313805747,
        -0.001961629294370315,
        -1.3776458244388735e-05,
        0.005234954097580218,
        0.005994499510611307,
        0.0045628617457433955,
        0.0037846830928264484,
        0.004349603798204235,
        0.002263478928545983,
        0.003543615813604067,
        0.0051977767945459,
        0.004428026411742202,
        0.005513381326212267,
        0.006160498532565045,
        0.005224376198943942,
        0.0038596643663203613,
        0.0013058771841934548,
        0.0044507853381301294,
        0.005038484343743415,
        0.005760042848588909,
        0.006211799565865478,
        0.00439955005882987,
        0.004360590728590577,
        0.0034504583613647532,
        0.005549474217366144,
        0.0057559949508634405,
        0.004654635322158366,
        0.004159144337929833,
        0.00519100655155038,
        0.005483712824218455,
        0.0061686867983817995,
        0.0060250277814204835,
        0.004177708982443936,
        0.004871910228948119,
        0.007532202300501823,
        0.0055962957347581435,
        0.004773691143763364,
        0.001255179013407267,
        0.0032813351596857393,
        0.0019052752536515753,
        0.0013122193766449608,
        0.0033880771291629327,
        0.005461991194016251,
        0.005419083439125217,
        0.003336456213379074,
        0.003930691386818686,
        0.003591645812746667,
        0.00477202386318806,
        0.005541337481184287,
        0.004586653620986949,
        0.004032850662151933,
        0.0035167709441832292,
        0.004053480251080089,
        0.003034304228214062,
        0.0015503368596521219,
        0.004845816586809486,
        0.007287213200901283,
        0.006902071231888718,
        0.0053626157618465,
        0.0052157173220122605,
        0.0040073964896524894,
        0.0055235920615104035,
        0.0035840331616527185,
        0.004636430773139631,
        0.007203140658020716,
        0.002809366347566904,
        0.0031380549112546784,
        0.002617874340656202,
        0.0016986789142178502,
        0.0032389730860719786,
        0.006775473667924172,
        0.006591722341956485,
        0.0061469579910339266,
        0.006545417144561866,
        0.004947633181769315,
        0.004883926461713714,
        0.006207924673376011,
        0.005879315129995178,
        0.005133054633688638,
        0.0004095283525320456,
        -0.001244608965865994,
        -0.004369448013957914,
        -0.004177181262043246,
        -0.0022524574305946444,
        0.0032322620998354503,
        0.0010787243814047785,
        0.0004903071612302494,
        0.0012396531890465708,
        0.005777326851933617,
        0.0025220374035806194,
        0.00010619295999637348,
        -0.00212628002456372,
        0.0021581309800526647,
        0.00014096290836357371,
        0.003703243667111792,
        0.005775229834777174,
        0.005402863713254829,
        0.004836511149613145,
        0.003281811325789466,
        0.0046753692903968285,
        0.005197541982473645,
        0.003459771920344564,
        0.0029379088419782397,
        0.00434977728093396,
        0.0025955798932703663,
        0.0015719519303459004,
        0.001124652051748214,
        0.0002957199953133799,
        -0.0025027994293909685,
        0.0007656232706261029,
        0.003927663306183151,
        0.0038710023483689887,
        -8.720590463171435e-05,
        -0.0010335118764451534,
        -0.00010910671124669341,
        0.0003654836252342095,
        0.003009369566109978,
        0.007063389578855453,
        0.006725703282763338,
        0.003392623885108421,
        0.002914716032781149,
        0.00374541942840323,
        0.004307305629100234,
        0.004463982311331597,
        0.005917761920852513,
        0.005358939787457653,
        0.003951476551058666,
        0.0024292681867430967,
        0.002283073965264212,
        0.00035870253772287634,
        0.002347480224903184,
        0.004468626367821155,
        0.006560458852809195,
        0.007247451079043508,
        0.004297392029487085,
        0.0029660995898801693,
        0.002194897280153613,
        0.0014441500742092348,
        0.0038947685269941556,
        0.002060726895739123,
        0.0031301519938961154,
        0.002665597898364101,
        0.005607543001200831,
        0.0021200480700055303,
        0.0007350286276251609,
        -0.00037612838288069496,
        0.004256262070951228,
        0.00679772680039728,
        0.00467316599644022,
        0.0029375778847455483,
        0.001967852130623805,
        -0.000797171279181256,
        -0.0018285018153750311,
        -0.001846528288651726,
        0.003983667750684752,
        0.0027249275234760154,
        0.005837580824341343,
        0.006296237088508541,
        0.005417004018591,
        -0.00012317602283831724,
        0.0012791565542937062,
        -0.0010810403834861087,
        0.0008466195485293871,
        0.0032291501260383656,
        0.000976512350847441,
        -0.0011396749642400177,
        0.00019194413328350304,
        0.0026941176041156882,
        0.0038906017060016335,
        0.0029627073082624223,
        0.0032963823333924482,
        0.0005172755312327232,
        3.966194455411117e-05,
        0.0029258407922191036,
        0.0010575332218501743,
        0.001134073830246294,
        0.0035861233178700724,
        0.004536975109716896,
        0.004856977363258902,
        0.006076471911668952,
        -0.0004657388246413931,
        -0.007132851763222984,
        -0.0068083131715659054,
        -0.007181931905054952,
        -0.005162454039179077,
        -0.00043146690366109607,
        0.005060611284539433,
        0.0032575120920068637,
        0.00029331583098585656,
        0.00030486777760855546,
        -0.002474627826762471,
        0.002267811634115206,
        0.0017998093017916837,
        0.003943007515932917,
        0.0038514418458697524,
        0.003012435921156224,
        0.0007680161088315146,
        0.0020019685438759567,
        0.005515683121454503,
        0.004612008890866418,
        0.0036801245730943267,
        0.002186820654427903,
        -8.336672356328554e-05,
        0.0006916315389898567,
        -0.000727345976148034,
        0.0016591038135784159,
        -0.0002286216904686738,
        -2.4360753185850782e-05,
        -0.0017976378337289899,
        -0.0020858623849922047,
        0.003958040487143542,
        0.005882555218934369,
        0.004659222438980996,
        0.004155894030520807,
        0.004375278143122316,
        0.004411562049353738,
        0.005874381571387367,
        0.00562737510722482,
        0.0016251818846527689,
        0.0006476344859102055,
        -0.0005771765357178292,
        -0.0008813171622635715,
        0.0016942638627964227,
        0.003804766840255207,
        0.005551361667008894,
        0.005331990819548844,
        0.002511433910663771,
        0.002633250475040522,
        0.0028455360592862834,
        0.0045084362182616616,
        0.004875806275043484,
        0.0048880094541203555,
        0.0014294681932437124,
        0.003525726452671156,
        0.00010897016218446099,
        0.002617798611436268,
        0.0050298514058665904,
        0.005319244173729551,
        0.002927730734049584,
        0.004195300111006249,
        0.0005292128444812766,
        0.0021245325429294173,
        0.0034795713476598357,
        0.006156368942649745,
        0.005769533925447767,
        0.0021124170258445697,
        0.00012050677258849746,
        0.0016090698872632879,
        -0.000616328812737503,
        0.0022721000398728203,
        0.005226516022184758,
        0.005010610626209663,
        0.006758326686601533,
        0.004888052788111956,
        0.004348393580457402,
        0.006192408825001751,
        0.0061459172031064005,
        0.004298992619305762,
        0.004809099392277731,
        0.002247168281204223,
        0.002896559992590403,
        0.003495623037852803,
        0.005489651096328209,
        0.007112491960478246,
        0.005041854664745055,
        0.0007671471501505957,
        2.9860212456539654e-05,
        0.00019632254856368213,
        0.002067858674570075,
        0.0009684057058711101,
        0.0025151040338869425,
        0.001841615197490183,
        0.0012353054067352244,
        0.0028645326361949764,
        0.001953139835801106,
        0.001510137940209115,
        0.0015505163305675326,
        0.002103569108830791,
        0.003990955461921862,
        0.004350429753422871,
        0.0028089532552607282,
        0.0016891062050345264,
        0.001150688149453591,
        0.0017183769332260817,
        0.0034881833369714748,
        0.004949045452567454,
        0.0028400744784803965,
        0.001541700420194759,
        0.001033108523760021,
        0.002035074832437908,
        0.005397207946950645,
        0.005432744841469307,
        0.004740302370413804,
        0.0024458935861577653,
        0.0020123508292518304,
        0.004163780343231274,
        0.004864719191283465,
        0.003983394515287308,
        0.0011220522243945705,
        -0.00023057549021573238,
        8.05771661122641e-05,
        -0.00010752895719795893,
        0.004889334626019095,
        0.003834567841160227,
        0.0027512948975378848,
        0.0027043270662826667,
        -0.001253925613914515,
        -0.00014661278045297214,
        -0.001446698858557335,
        0.001981529356132296,
        0.004307153690443259,
        0.006276242073303132,
        0.004058987399294795,
        0.002389616090636474,
        0.004451380130791048,
        0.001442449316818706,
        0.004918145099675081,
        0.0027976850354241353,
        0.004920582083572536,
        0.004877494603009489,
        0.000984196455529145,
        0.004316949008205881,
        0.002336112707616959,
        0.003059552922257627,
        0.004820497945870307,
        0.0035027378842350755,
        0.005538339422633775,
        0.0039302986575290855,
        0.005377133243528006,
        -0.0002319258739664747,
        3.778551220559286e-05,
        -2.4162835633415034e-05,
        -0.0002082394476849336,
        0.0026804420695375284,
        0.0013104700723115253,
        0.003865203752512993,
        0.003354999057124876,
        0.0019248402136460992,
        0.002523551049185429,
        0.002857762478728671,
        0.00458525549082045,
        0.0015800806604118383,
        0.0047239683806969005,
        0.002503342150884153,
        0.0033002978444380262,
        0.002213333001830656,
        0.003240161501492175,
        0.0030694867877107635,
        0.0006610750057277367,
        0.0014843825437802546,
        0.0023511991018112886,
        0.004350800309191743,
        0.0022827556837064803,
        0.0016676440752618953,
        0.0021923826639488487,
        0.004647197467763612,
        0.002269400740903783,
        0.0007629087010245817,
        0.0007718828242923422,
        -0.0004169819234496594,
        0.0014207794599586832,
        0.004670787330032443,
        0.004334706212656452,
        0.001953396264744653,
        0.0031782893742681195,
        0.0013956950155897575,
        -0.00012668995462436548,
        0.00020820726684681474,
        0.00337539993292288,
        0.005027624516904319,
        0.0061955577768778225,
        0.0044134257733940965,
        0.0009947260500188025,
        3.9688374422302425e-05,
        -0.0012372257138824434,
        0.0019087521698664754,
        -0.00035746521777124814,
        0.0014060142886496616,
        -0.0009268067226134412,
        0.0026539643086034683,
        -0.0025682352718767757,
        0.0008105548118226671,
        -0.002796770334687963,
        0.002766345273055884,
        0.0069190600758160005,
        0.003007676754099943,
        0.003490331563412718,
        0.0012493210175586497,
        0.0023790886676816145,
        0.0013273966536835094,
        0.0015590395194776101,
        -0.0036925958768277457,
        -0.0011004312371266974,
        -0.0027937750241830654,
        0.0009637573416390384,
        -0.00041060361642455376,
        0.0008506332298962981,
        0.0015984258101159998,
        0.004317006947501667,
        0.002803775708226569,
        0.0017699248556216714,
        -0.0007025581742808843,
        0.0029497513760269214,
        0.005510806279211025,
        0.003261152648743653,
        0.0030630637034873044,
        0.0013309263832967516,
        0.002810636716925442,
        0.0018876037145096605,
        0.0039411214147647205,
        0.0033146602966856744,
        0.004407522524709047,
        0.0036293770749989494,
        0.0037264631731126884,
        0.0028527912661504614,
        0.0029026839069324515,
        0.0027206535465287033,
        0.005945043073832744,
        0.006054025036761272,
        0.003815233274908563,
        0.0018289941263690862,
        0.0020389837883373,
        0.00010800720178996291,
        0.0018299360550154443,
        0.0026414289067702486,
        0.0053128672823543515,
        0.0034388909117430626,
        0.002188622967159279,
        0.0018253306279922827,
        0.0016182169618789372,
        0.0019062911099906588,
        0.00467117947908424,
        0.005095808672041966,
        0.005159437577425806,
        0.003887726535957978,
        0.004449369848350585,
        0.005404176605793322,
        0.005376144156006792,
        0.005708981347267784,
        0.0050142012271747,
        0.0036475820495630988,
        0.002643712267234799,
        0.002288681964166294,
        0.0007719487384200637,
        0.0031157979096542877,
        0.005744419346884052,
        0.0056273910094812585,
        0.005627664288838919,
        0.004768726221398882,
        0.0038203270051191457,
        0.0029205582020439395,
        0.002288419994879552,
        0.0018164984491869578,
        0.003174260059124402,
        0.0016422287115547532,
        0.002499048513637027,
        0.0036526242139060484,
        0.0026167698336770745,
        0.001973119791374879,
        0.004636669002801767,
        0.0031345725889433537,
        0.002036150621763486,
        0.0024733743205697586,
        0.0018417672976673927,
        0.004994166083776747,
        0.0037860050258480124,
        0.006765806290792124,
        0.004467514686380465,
        0.00409515627905941,
        -0.0013222471732205845,
        -0.0001303801040174736,
        -0.003819185893821289,
        -0.0011123463989090973,
        -0.004198150720916569,
        -0.0022547663764737077,
        -0.0011992446039492,
        0.0027366926717715904,
        0.003129517027860013,
        0.0038339939324003123,
        -0.000657788834308925,
        -0.0008592609129370967,
        -0.0035031924887377816,
        0.0013118639524633052,
        0.00267268603810119,
        0.001308676450643573,
        0.002138813230592553,
        0.0014589938615683171,
        0.0046104282902728255,
        0.0030322653347157453,
        0.0026579487908601723,
        0.00017590784064645945,
        0.0022215178313695775,
        0.003513053403887092,
        0.004195385219452724,
        0.0010535612395285029,
        0.0011553780192195733,
        0.00033277935390985504,
        0.0036439866721471475,
        0.0024019580099506705,
        0.005707976337192163,
        0.003619020354816189,
        0.004140672793092565,
        0.002759869936750709,
        0.0008092897913721409,
        0.0023760288466770753,
        -0.0007560222845136188,
        0.0009637273066812758,
        0.0015061472012771198,
        0.0019576897799357786,
        0.0011982737674833988,
        -0.0005388278404665223,
        0.003405166092982786,
        0.004225458863554548,
        0.0052227570709013765,
        0.0028970728074341747,
        0.002665342611608797,
        0.0008738416215773315,
        0.0003373676995517599,
        -0.0007038150858778502,
        0.0018866926796297047,
        0.0056300402485781765,
        0.005295045342627881,
        0.005672449168383436,
        0.0056417252540891475,
        0.004657485406451639,
        0.002644639355795161,
        0.004601253943700127,
        0.0028336200686490637,
        0.002897925060830464,
        0.0013998884359361454,
        0.0012229692940322443,
        0.00444065135387102,
        0.0034698975724832717,
        0.0031789304627439135,
        0.002617969163346883,
        0.0026465868815195174,
        0.003574853576443361,
        0.00026413245288918073,
        -0.0033685095714231657,
        -0.005047653170816927,
        -0.005040373926985737,
        -0.0010228483010162267,
        0.005185982144081292,
        0.005224770142586419,
        0.004680481056024993,
        0.002813135286696432,
        0.001476537969657716,
        0.004334199344710943,
        0.00354871116311522,
        0.0033038031893135515,
        0.0019522680933776078,
        -0.00014099038524409722,
        0.0029942354941368795,
        0.002064999560792675,
        0.0029116760900015897,
        0.004244310374378174,
        0.003680087690584297,
        0.005318940354186579,
        0.004073323559540148,
        0.0035018859108905624,
        -0.0007904986297826565,
        -0.00047819779292258293,
        -0.0010794061502716907,
        0.002792427434382783,
        0.003766494870282285,
        0.001501252980234499,
        0.0032264163730196436,
        0.0006435099587666105,
        0.0015028992886422891,
        0.0006970997382324523,
        0.003012659788853089,
        0.004288052340335266,
        0.0016117072252830329,
        0.004197473519471371,
        0.005538960886598578,
        0.006003015187208692,
        0.0057945457396574055,
        4.864151388206365e-05,
        0.0016228804346719214,
        -0.0024698406810428238,
        0.0016373962108798235,
        0.00399337401308043,
        0.004179473172345247,
        0.0065186208084739555,
        -0.0003202840316117473,
        -0.0009966147527698459,
        -0.0014794432211703164,
        -0.0013264876964742425,
        0.0004687777287814682,
        -0.0006442424852649934,
        0.004198511388578676,
        0.001511100491672034,
        0.001030024589510366,
        0.0050573766314091296,
        0.004733012479058239,
        0.005358209416851599,
        0.0036268212473257178,
        0.003349279151036289,
        0.0024915772670295504,
        0.001699010479804609,
        0.005100688059129515,
        0.004185774384021855,
        0.005745012895333739,
        0.00552488692341873,
        0.0022917859003159036,
        0.004131600448594815,
        0.004112670890365277,
        0.006666153473520056,
        0.004780340591397468,
        0.001720471557363202,
        0.0016266072057863424,
        -0.0008747863968049352,
        0.0005634502247943209,
        0.0036697424050432972,
        0.003783057469349752,
        0.004874591855021319,
        0.0035865019303652434,
        0.001833429945561293,
        0.002983667393431825,
        0.001876598752697049,
        0.0031199848267332454,
        0.004820341307877413,
        0.005594347477378674,
        0.005657256494578851,
        0.00452030006645176,
        0.00687971776515193,
        0.005364383820220188,
        0.004616956340686178,
        0.005626277355181014,
        0.004498229854355855,
        0.004842055202209154,
        0.005833477482061956,
        0.004360909276149797,
        0.00588340912928213,
        0.004891898591973675,
        0.0036476504859768713,
        0.004804521456332502,
        0.00413777783842867,
        0.0032988213163043113,
        0.00285721028616678,
        0.005692470073629511,
        0.005132842105977201,
        0.004939397529740474,
        0.002330487248871331,
        0.005016460725500603,
        0.004245915771230209,
        0.0040008498097138965,
        0.004440624571907702,
        0.0016085509272904133,
        0.0012560590266343268,
        0.0008607044330804997,
        0.0002107735418344993,
        0.0019958440738662773,
        0.004875700325669194,
        0.005690866497826244,
        0.005843935921798447,
        0.003104456916713763,
        0.002453589059027675,
        0.0033589843136717693,
        0.0026038809740003568,
        0.004742209611714104,
        0.005063000904869111,
        0.0034612881136563923,
        0.0021219686717240936,
        -0.0016880977390889337,
        -0.0007515758649780855,
        0.003564059648637891,
        0.004103484858313352,
        0.003271127968981652,
        0.0016599866500706221,
        -0.0004502436833761324,
        0.00029257684563734987,
        0.0012748953745234052,
        0.0010865578988191425,
        0.005554763961245027,
        0.005201580099304188,
        0.004874255233581085,
        0.005927740239563465,
        0.005740005754370886,
        0.0035303073687793056,
        0.0039672872258177585,
        0.0004323648165720007,
        0.003001439740602247,
        0.0020137799253964056,
        -0.0004017360508239814,
        0.0049544384346706175,
        0.004507801848992764,
        0.003917986009831157,
        0.006085054580905512,
        0.005584210217348005,
        0.0010673108422616395,
        0.0028348375140448915,
        0.0036198570391035825,
        0.00607763808418208,
        0.006044377919696198,
        0.0044125534340714034,
        0.0033605128705437213,
        0.002364200592532224,
        0.0009177369518855839,
        0.001804257053346877,
        0.002699240230766414,
        0.00314482675057008,
        0.00712369793813538,
        0.005063334469858363,
        0.0030812947741717216,
        0.00427618674210775,
        0.004628658434919299,
        0.0028273648175227628,
        0.00428168639015572,
        0.003543558888109236,
        0.003255211397885227,
        0.005004031581096097,
        0.006518938644082903,
        0.006413319295883471,
        0.005610671428224842,
        0.005613191287947824,
        0.00461749153252429,
        0.004592561735748441,
        0.0052575856374679365,
        0.0034752356556183067,
        0.004336968808287826,
        0.0034277037606643347,
        0.004686175607491404,
        0.0040883772069022235,
        0.004221166601945931,
        0.004849349150019703,
        0.005850349591281216,
        0.004444694894136028,
        0.003451920964711604,
        0.003329394396768339,
        0.002173043334252777,
        0.000989751990811807,
        -7.800945670640433e-05,
        -0.0026015968747790837,
        -0.0030768993162814,
        -0.002173718871313751,
        0.0010058134897866673,
        0.002710870999802137,
        0.0022306298220434078,
        0.0017708620049530404,
        0.0017726201719726262,
        0.004081576657989546,
        0.00394595995636955,
        0.0046974378428005234,
        0.005409611776320676,
        0.003782672302862042,
        0.002774946067658175,
        -0.0003390202098083844,
        -0.001439608816485069,
        -0.0014641727682869494,
        -6.678414508343706e-05,
        0.002023452156220122,
        0.005000758776939709,
        0.004119512348151927,
        0.0025433778528398273,
        0.0036274690947174747,
        0.005124190290220685,
        0.005177502846965908,
        0.006822023843035551,
        0.006446954902170101,
        0.004608026094458078,
        0.006401410435461248,
        0.004939126182666676,
        0.0053426594332166,
        0.0054356777701501865,
        0.004156366093041699,
        0.0042826682647070305,
        0.0017686665362074798,
        0.0019869252799774965,
        0.003191663544942801,
        0.0016442846265890092,
        -0.0004452218721607776,
        -0.0018873629059912266,
        -0.002452007550458706,
        0.0001523740056127087,
        0.004007148580905734,
        0.004211771948645727,
        0.00351742118972288,
        0.0024598255285570056,
        0.0010593615223914023,
        0.0005884539518008873,
        0.003357119870766576,
        0.0023950902798866927,
        0.003663642091857631,
        0.00285697889165464,
        0.0007617129803052762,
        0.0026128495308353926,
        0.004640261902753136,
        0.004223280270986883,
        -0.00015787259759889017,
        0.0024127940991018285,
        0.003248751625428037,
        0.0034161846848492386,
        0.00437565487556011,
        0.001891141179965486,
        -0.002200656047020751,
        -0.00033449063093555733,
        0.0016681400864761108,
        0.003986578223605425,
        0.0018965640302612036,
        0.00348522439438337,
        0.0052374513601651535,
        0.0033951053793244007,
        0.0041074670129041604,
        0.0032708583125083393,
        0.00525159096264904,
        0.004460269342623667,
        0.005420651628299623,
        0.004710202899654742,
        0.0005085521964624517,
        0.0019505267903282002,
        0.00029099688298315677,
        0.0008434474969838551,
        0.00047799942196338736,
        0.004459344926325312,
        0.005874275011540526,
        0.003628524353446692,
        0.004978668443147771,
        0.004846214490438901,
        0.003699572624942758,
        0.002940873009845312,
        0.004810331907520601,
        0.005625346158689282,
        0.005489383353738851,
        0.005391414938773433,
        0.006290510248858931,
        0.004485219560793683,
        0.006032792174948763,
        0.005182332712223306,
        0.004886647311926478,
        0.0038178489821947994,
        0.0018870824356941804,
        0.0015597055293345027,
        0.001795513246079777,
        0.0025548051493229722,
        0.004715702086100242,
        0.005270210606241965,
        0.004483872440190588,
        0.003631422176752165,
        0.0030456270552450355,
        0.003604757125258542,
        0.00392795694297782,
        0.0005097655192857742,
        0.0012195476164467776,
        0.00015086019546287877,
        -0.0007525940537393118,
        0.002190272613584069,
        0.003768729223717157,
        0.006008742738054731,
        0.005695917030561343,
        0.0030685512380160375,
        0.0059126040330700355,
        0.005719634954605989,
        0.005677237330740387,
        0.005280545314685204,
        0.0033885568844687877,
        0.003358419416666927,
        0.0039199540975716225,
        0.0046395029425582174,
        0.004116665722039434,
        0.002818781896200507,
        0.0030121654863844633,
        0.0025985971285515034,
        0.003423507332102763,
        0.0019913631650427706,
        0.0028526520595563236,
        0.002112136830859597,
        0.0033716621084121743,
        0.0037500727047325307,
        0.004268596865749463,
        0.007155543245859043,
        0.00590828109819428,
        0.00180523186910732,
        -0.0015704446864070328,
        -0.0028089368628316236,
        0.0011821922980827146,
        0.001987191089035834,
        0.005550767060384628,
        0.002510828740854857,
        0.0024386910709077083,
        0.0013945837902636666,
        -0.00024123698684857866,
        -0.0012829029983620788,
        -0.0013737283799177798,
        -0.00044032118317718536,
        0.002377616049894525,
        0.004624004073274537,
        0.0026982605943222365,
        0.0004899208592409202,
        0.0017616314345121097,
        0.002367407642244029,
        0.002870011427640821,
        0.0026543608740590037,
        0.00012757728791328222,
        0.0020411418285591716,
        0.0012547568220661986,
        0.0011844306114897076,
        0.0035066759750352313,
        0.005350464779013362,
        0.002842002410214508,
        0.001646097886544567,
        -0.00022319751888364207,
        0.001974278793840728,
        0.0016225975784693145,
        0.0021957246610960113,
        -0.0005173072776865651,
        0.003349646793280197,
        0.004589717755820915,
        0.0046816515681219455,
        0.003470060119674538,
        0.002748485581060828,
        0.003470892587325629,
        0.003639612584697219,
        0.0005288224099965081,
        5.347777149633255e-05,
        0.002415994667046734,
        0.0036261566629102546,
        0.003411736620132802,
        -0.0007904025813814521,
        -3.70692479156434e-06,
        0.00028106636498391837,
        0.0005401924691293953,
        0.0018783994108895656,
        0.004492985548301895,
        0.006421788097253809,
        0.005863792321674282,
        0.004487449250865175,
        0.004378622047301252,
        0.004115093740205369,
        0.004415906158295364,
        0.007110374661513079,
        0.004352182989825466,
        0.0033129142956730764,
        0.001350837259261373,
        0.0010009561230479424,
        -0.0011202958733433459,
        0.0022886964399366607,
        0.005385651996409171,
        0.005148862005567124,
        0.005905767550420431,
        0.005583282281942122,
        0.00550286409684572,
        0.003023491295428596,
        0.004496560331834147,
        0.003792895983453823,
        0.004633107217658039,
        0.004299954357272056,
        0.005286135456403282,
        0.0026090833742900316,
        0.0015402959071526756,
        0.0016107161293413036,
        0.0014398082384581656,
        0.0012483603336559223,
        -0.00138412737120719,
        -0.0009366452493720521,
        -0.00019751154706544453,
        0.0012856965378535718,
        0.001428907633380301,
        -6.643826380962328e-05,
        0.002095036697324703,
        0.0025266489314929204,
        0.0024621525535709955,
        0.002567131946916889,
        0.004034727557463778,
        0.005888307420973478,
        0.005478490428585136,
        0.002972630772659383,
        0.00167191871368759,
        -0.00039476343010366223,
        0.0006169744286113574,
        -0.0006711715563404494,
        -0.0011817644996367472,
        -4.1605738050301436e-05,
        -0.0012066521892221509,
        0.0004812127075838253,
        0.0023878449393842415,
        0.0002844979026793314,
        0.00015193254567241374,
        -0.0008251694636298129,
        0.0012675901431739032,
        0.004991922749209925,
        0.004356227448329789,
        0.0038923654069990517,
        0.00027005684345244034,
        0.0013471651921578211,
        0.0005822807637499176,
        0.0036048876492667096,
        0.001927501600436366,
        -0.0015569834741576008,
        -0.00025917459407695336,
        -0.0007570730967369637,
        0.0033092812392668336,
        0.0034848179048386774,
        -0.0001035716959685637,
        0.0019354753616700492,
        0.00024616515861146826,
        0.0002789790211377174,
        0.0015854935594060188,
        -0.0004071740222026595,
        0.0017990088324853968,
        0.00504805871847617,
        0.0059028535032827865,
        0.004904323190206909,
        0.0025334130119049783,
        0.0024703618377311756,
        0.0037846575137651765,
        0.0041164120498237465,
        0.005320455478276453,
        0.004224078635855139,
        0.0015753627667094662,
        0.0006706262621984213,
        0.002564602534284693,
        0.001562231261142646,
        0.0009125199353047798,
        0.001737285760421607,
        0.0023621088364610583,
        0.0034594939792751177,
        0.0030439847599576736,
        0.0032502424863615426,
        0.0023302875896385224,
        0.004595015919894031,
        0.005840186655242344,
        0.005333402934284397,
        0.006024100989189086,
        0.003723604016012299,
        0.002022588045636085,
        0.0020882129778289774,
        0.005844458200805603,
        0.005086458739863811,
        0.004019411552559422,
        0.0019367539454691472,
        0.003710234728397558,
        0.0029036169986163237,
        0.005089238572328625,
        0.004474251186154727,
        0.003044685055948515,
        0.0023222851728246035,
        0.0014157071623948237,
        0.0049336730549465685,
        0.003537208341509863,
        0.003223662537568471,
        0.0014735570408597296,
        -0.00021567657100045746,
        0.0036317338864026508,
        0.005038490073700363,
        0.004256923707405723,
        0.0023825812303556876,
        -0.0009383543509686714,
        -0.003549121854695617,
        4.568347720359079e-05,
        0.005327795901066719,
        0.005013641935754052,
        0.0030798314978106875,
        0.0006507944675473448,
        -0.0029277914758952103,
        -0.0037054495004119007,
        -0.0027990156871902016,
        0.0008922047962136286,
        0.004246667520912798,
        0.005869379010350296,
        0.004940434730193899,
        0.004493707077897765,
        0.004913017700318432,
        0.0035352815880726756,
        0.003191047974346412,
        0.002766339169922548,
        0.0008106500620069288,
        0.004182355668808253,
        0.004597078153347813,
        0.0036482103572411423,
        0.005115799003294393,
        0.0026772052074058982,
        0.003349805621811125,
        0.0042254748861206125,
        0.005696732757434793,
        0.005936809320559646,
        0.004758929546474644,
        0.004198600269097969,
        0.00396706376215915,
        0.0019212123512341573,
        0.0015172102046319955,
        0.002093183084007566,
        0.0033286398354293893,
        0.00439494965824804,
        0.005528346021376834,
        0.003981345999113438,
        0.005742506252356229,
        0.003694496093710998,
        0.005105099602920053,
        0.006456585763318642,
        0.0066154622088102286,
        0.004941287855393576,
        0.0010465529040603952,
        -0.00024062940808080666,
        0.00032260991366618466,
        0.003498685022407731,
        0.004412287458425408,
        0.004392557504453122,
        0.004488319566326771,
        0.0032329202753601004,
        0.0034607711773882266,
        0.004350799664776425,
        0.004055233758479294,
        0.00471563617311231,
        0.005592809904045863,
        0.0029017407062858274,
        0.002760430564255403,
        0.0017211546239229711,
        0.001783432206460672,
        0.00040967728948160465,
        0.0013149885983613854,
        0.003766777219485099,
        0.005386395601342559,
        0.003690304786794967,
        0.0034213922207495355,
        0.0013910620229396324,
        0.0013965413161560703,
        0.0031054102318900214,
        0.0034089379733398357,
        0.002412666964127439,
        0.0013372092717755656,
        0.0042878681785460705,
        0.005503344034822676,
        0.004938906348999026,
        0.0030459569148077134,
        0.0008687502479182232,
        0.0006162584388563446,
        -0.000774211369486761,
        0.00015788159268110912,
        0.00039082213192749864,
        0.0015906893458270135,
        6.061982905098968e-05,
        0.003341669079391881,
        0.003737520750820831,
        0.005804055622174261,
        0.004113059226125482,
        0.005161096720485048,
        0.005256571403679761,
        0.0022007162310243786,
        0.0039953543938228645,
        0.006072475724396245,
        0.005523939504299445,
        0.005394960477283989,
        0.005677551856933097,
        0.004967689431020927,
        0.0042060653933711145,
        0.004290316953115476,
        -0.0007686892178443262,
        0.000301023116498184,
        0.001811390406179915,
        0.000922753821573323,
        0.0024673389410815334,
        0.0027354980452581733,
        -0.00019826235767855322,
        -0.0014761856060575029,
        -0.003730435488830339,
        -0.0014688235515293176,
        0.0014880701646369733,
        0.004983880424655704,
        0.005619869210912997,
        0.003639169886601469,
        0.00025038631273414935,
        0.0004487959237730086,
        0.0014735533416219363,
        0.0022630740812597822,
        0.0028871720856549436,
        0.004069902052389138,
        0.004673421296341346,
        0.005496731381942662,
        0.004193714434224891,
        0.0034258713234926984,
        0.0004773304082633249,
        0.002183232736961728,
        0.0034782386788379787,
        0.0044193406646364074,
        0.0038477840129321813,
        0.001312103373870978,
        -0.002309785972872814,
        -0.0008089259090342542,
        -0.003461691129891455,
        -0.00116910263886483,
        0.0015893473945581763,
        0.005888066872071248,
        0.004879157929014095,
        0.003711197237478116,
        -0.0002354075169665462,
        -0.002044319455181299,
        0.0005033272731784807,
        0.0021794769395126644,
        0.0026963631712190912,
        0.0021299746536104862,
        0.0027483820052570966,
        0.0021384147891451637,
        0.004614595673192331,
        0.006131226608465188,
        0.005415501002103446,
        0.006513081061709107,
        0.006533169022265871,
        0.006268821733965361,
        0.004784664676816892,
        0.005114383321576506,
        0.003838532286012538,
        0.004599781728978836,
        0.004442219705497198,
        0.004885507639797449,
        0.0032714134638387243,
        0.004368403568228221,
        0.0031880136654523937,
        0.004091777633845018,
        0.0033511598677270302,
        0.0019756696796501896,
        0.003217515319095689,
        0.0037861582390144814,
        0.0017040077796018265,
        0.0010848598544588846,
        0.0006001000390635806,
        -0.00054296846957322,
        0.004174474851665591,
        0.0046833833723597,
        0.004788182800679029,
        0.003055710509990891,
        -0.0004353020811326226,
        -0.0010125140869700938,
        0.001815799759491582,
        0.0024793584170362012,
        0.005590841279586329,
        0.0046412890467479075,
        0.00449367172496748,
        0.004874112162837918,
        0.004106168861239143,
        0.003242009380920658,
        0.004008177282885705,
        0.002092941256298461,
        0.0036996914942863494,
        0.004849925939329492,
        0.005317882456795652,
        0.005270040648043186,
        0.0036387642412365733,
        0.0024570912965166227,
        0.0016599128806107056,
        0.0017859006532476023,
        0.003127622876994296,
        0.004296524305261234,
        0.007006584355539521,
        0.0063390295852257675,
        0.006286873852330871,
        0.002390034862432263,
        0.0024649515675871036,
        0.002120592584523813,
        0.0006053133565503252,
        -0.0016948574401032222,
        -0.0021083584086291655,
        0.00025441863885580215,
        0.0027177232899502496,
        0.004988526660194588,
        0.0029186439448875665,
        0.0022350292337289333,
        0.005132056162193998,
        0.005769379936826744,
        0.0052199832360522135,
        0.005290577442130583,
        0.004195452866341978,
        0.0027612643545631413,
        0.0038110006962805607,
        0.0022206931856524996,
        0.002640331099027623,
        0.003962417468275795,
        0.0032471121828760224,
        0.001689987347163809,
        0.003037710005676913,
        0.002340781875719664,
        0.0036047692358873347,
        0.0027762378245311413,
        0.0016729556448378251,
        0.0015806256528283005,
        0.002224534894237171,
        0.0031203557096115544,
        0.006102614672893503,
        0.005009520142082351,
        0.004544847864237466,
        0.00455256242714995,
        0.00397550987111882,
        0.003825416597639289,
        0.005296770444867737,
        0.004016522286441025,
        0.004413685607373021,
        0.005271572912006127,
        0.004550213878580803,
        0.0036114803677834333,
        0.00651765506715832,
        0.00500992706288406,
        0.0036178100762247526,
        0.0022649600818348756,
        0.0018283825828459045,
        0.0038147929429623974,
        0.0038040855437609343,
        0.0028554777115177314,
        0.0010254854707346492,
        -0.00047459642564426125,
        -0.0007196164007371894,
        -0.0002928305630722688,
        0.0025703841326801553,
        0.001961846711239262,
        -0.0008697173682921479,
        -0.0011073701132707397,
        -0.00145524167383189,
        -0.0004939843108552108,
        0.0008073151779375286,
        0.002792452293914243,
        0.0019054206716152757,
        0.0021309724808749302,
        0.0023787764796955237,
        0.0034490739581618845,
        0.005178494939136544,
        0.00568657732915276,
        0.005198904677073308,
        0.00300380185766298,
        0.000720841218888399,
        0.0014676614804384584,
        0.0028269954285167426,
        0.0029428568092531512,
        0.00293136493739288,
        0.0029872528894550106,
        0.002549492195522256,
        0.003665300139146257,
        0.0057123005848526325,
        0.006835504316970671,
        0.003777262557523498,
        0.004979608397227468,
        0.003532077689817303,
        0.0037665450103295953,
        0.002337722584237748,
        0.0034961039866931057,
        0.002100187281596959,
        0.001481398464232546,
        0.0022928309876315894,
        0.003721033845646564,
        0.0010331065704837954,
        0.003962934275936815,
        0.005237216000456721,
        0.005037241628980695,
        0.0054531032249711614,
        0.00426459598348399,
        0.0025861107000375904,
        -0.000349333802415311,
        0.0005390990825139818,
        0.0009290599998646066,
        -0.000707645426784881,
        0.0010753773322333391,
        0.0020110897323758832,
        0.0005560805232798969,
        0.0031736408394007314,
        0.002718832729654335,
        0.001635702484561785,
        0.0003194821286937008,
        -0.0013040306170263457,
        -0.00419275291406692,
        -0.003600428627553179,
        0.00038814390575426713,
        0.0032264466200323735,
        0.005786738556246511,
        0.0061075843598846005,
        0.003081705211627296,
        -0.0006035464317255039,
        0.0012664562905394337,
        1.5688464017311313e-05,
        0.001407239480979251,
        0.005268266161886366,
        0.005142247633940026,
        0.0050931849285116805,
        0.005256835333769751,
        0.003917971082664254,
        0.002945263596004253,
        0.0017841742089052446,
        0.0020544152692467572,
        0.0018843759576743393,
        0.003080765367055779,
        0.00274912206945979,
        0.0017252367546854944,
        0.0018699618893528302,
        0.003356697443594682,
        0.0021572342805669647,
        0.002617101164500372,
        0.002120115989415934,
        0.003037558239656984,
        0.002811657706943218,
        0.0017912324575864473,
        0.002934580670867759,
        0.0028553598959871855,
        0.0028331726739605273,
        0.0008640216282855222,
        0.0005895811880493215,
        0.0037985850735998113,
        0.003866192156312815,
        0.004533851618270027,
        0.00404198552671789,
        0.0033509576541428136,
        0.005995342995685069,
        0.005160685145222044,
        0.007085458869528331,
        0.0059090920252194284,
        0.0041065907984446275,
        0.0012146358473213016,
        0.0007163372591331896,
        -0.00025559579470549863,
        -0.001370079982753236,
        -0.001795165141546312,
        -0.0012580924484442099,
        0.003458549520997357,
        0.004862231104660799,
        0.004215378295171418,
        0.004082392101125208,
        0.0035497132956548204,
        0.002950939214214693,
        0.002767526488609821,
        0.005747797591871141,
        0.005833544431829018,
        0.004795203588845813,
        0.0036449025538938815,
        0.002761333352810133,
        0.0014728508161002975,
        0.0007694565627166191,
        0.001691904743346029,
