{
    "train_site": [
        "DRIAMS-A",
        "DRIAMS-B",
        "DRIAMS-D"
    ],
    "test_site": [
        "DRIAMS-C"
    ],
    "seed": 480,
    "model": "mlp",
    "antibiotic": "Meropenem",
    "species": "Klebsiella pneumoniae",
    "years": "*",
    "test_size_obtained": 0.00039984006397441024,
    "prevalence_train": [
        0.9892,
        0.0108
    ],
    "prevalence_test": [
        1.0
    ],
    "metadata_versions": {
        "DRIAMS-A": {
            "2015_strat.csv": "56d646ce31a05dd704a4a6693aabc413a4e75f76",
            "2016_strat.csv": "d06fff6b6b60af9fc10fadc858cf5624808aaf3f",
            "2017_strat.csv": "a474ce364f6d3e201b3a527d8786e2c31bbc8577",
            "2018_strat.csv": "e650292c172f16845899c3a566b8f3c427b3e9c2"
        },
        "DRIAMS-B": {
            "2018_clean.csv": "27380b0a9a43a1e699b4b311235211ccfd2a76f2"
        },
        "DRIAMS-D": {
            "2018_clean.csv": "5d03a76958e938677eacb88f29b145bf1f0ebbfb"
        },
        "DRIAMS-C": {
            "2018_clean.csv": "0e0d2a1ebdfeed3f39f7dae50f4000328e7da075"
        }
    },
    "scoring": "roc_auc",
    "best_params": {
        "mlp__activation": "relu",
        "mlp__alpha": 0.0001,
        "mlp__hidden_layer_sizes": [
            256,
            128
        ],
        "scaler": "passthrough"
    },
    "y_score": [
        [
            0.999893584801128,
            0.0001064151988719825
        ]
    ],
    "y_pred": [
        0
    ],
    "y_test": [
        0
    ],
    "feature_weights": [
        0.024849476179289516,
        -0.023660717664539508,
        0.004478140855304189,
        -0.00946179216991885,
        0.012224172110005645,
        -0.06278020409040885,
        -0.040478334707315065,
        -0.012294808308097762,
        -0.045471838489840405,
        0.030923811407030696,
        0.030454147315265728,
        -0.015285182513141714,
        0.007977301866053383,
        0.08724708620669346,
        0.10646604341779264,
        0.04735644408314364,
        8.419584777253784e-05,
        0.01284793436133468,
        0.023545262066905714,
        -0.015609259061402021,
        0.039079430607622936,
        0.048617719408580944,
        0.026056965710410888,
        0.027838538061871004,
        -0.016643879399422506,
        0.041465134564291906,
        0.06135572875996606,
        -0.005340427146230483,
        0.0002653663165014873,
        0.007687876297485971,
        -0.011425354428360596,
        -0.029886178950067944,
        -0.05267469651073897,
        -0.01756559954090179,
        -0.036497047475159146,
        -0.059143655345610516,
        -0.020040131395493772,
        0.05357200969374551,
        0.06199740947729466,
        0.0052934984336921245,
        -0.009399724733746336,
        0.022048018665137656,
        0.04093126237889638,
        0.004469416933771918,
        -0.02600608902041788,
        -0.04589494881577219,
        0.004080115219259844,
        0.10896090998276989,
        0.008166648960918807,
        0.034052567721664206,
        -0.00843328968430418,
        0.015376280738493703,
        0.052423622090639055,
        -0.03008832125001049,
        0.024166221292846027,
        0.031156627510625572,
        0.014682324739102151,
        0.027551206904123996,
        0.01886000274180182,
        -0.05155396970805129,
        -0.007048276164455942,
        -0.003013958372546404,
        -0.04213479400130113,
        -0.01958032801830304,
        0.03190058979975413,
        -0.11659052157055053,
        -0.12014390922177767,
        0.07927035965544024,
        0.059481527171685755,
        0.04124543883605786,
        0.05094091025609177,
        -0.08021025956078348,
        -0.07318505907646305,
        0.054739785546902044,
        -0.06527285396154825,
        -0.08727270947258739,
        -0.06259509094236207,
        0.002319856498631132,
        -0.01361530110320185,
        0.04389859751632996,
        0.010343055937136724,
        0.004424550183616841,
        0.015997045801687662,
        0.005072352366613713,
        0.04578715926364266,
        0.03569655937639529,
        0.010859762419781918,
        -0.02817059013089337,
        -0.025621629927971498,
        0.0582881086137817,
        0.006649471711934609,
        0.007213828360643278,
        -0.008569275761951182,
        -0.08707749284964357,
        -0.056821479592418886,
        -0.0023016844003002565,
        -0.01805127998632329,
        0.04259612536119583,
        -0.0064830303871583695,
        -0.04447480290385196,
        -0.09655527804959468,
        -0.10353846266219263,
        -0.07263958493937757,
        0.02564798541807614,
        -0.024332027345898986,
        -0.04058130799039457,
        -0.03751921079553883,
        -0.056172377732428044,
        -0.029393994160143093,
        0.02557562914719056,
        0.025295004729005012,
        -0.06198626753667452,
        -0.013277508898492253,
        -0.045258636246877905,
        0.03793831189143454,
        0.025393553121318472,
        -0.00892880840898683,
        -0.051922237267197136,
        -0.07260001279516601,
        0.010864125601446523,
        0.07166434433842714,
        0.11319044573222979,
        0.009445735732628207,
        -0.043302479138233076,
        -0.054866282827553195,
        -0.06278854645183496,
        -0.08278355230310501,
        -0.07444884550770804,
        -0.06768243923542219,
        0.039045905632666536,
        0.06994118093706753,
        0.09786929299231101,
        -0.013286845651699788,
        -0.06266997638485027,
        0.003700712835075613,
        -0.013302103282288808,
        -0.005704950990096767,
        -0.01789152869200847,
        0.03410981501341956,
        0.0007610903235464436,
        0.10955859470870351,
        0.021910683422389672,
        0.04121077155345029,
        -0.02428331709857473,
        0.042496810204257565,
        0.01891591127707397,
        0.03365168386904813,
        -0.03455269424405494,
        -0.0002561718363306766,
        -0.07252595596006298,
        0.06570087050152221,
        0.014060684240252551,
        0.06562657939498376,
        0.028134125092608413,
        -0.11832812205889073,
        -0.08775400980468875,
        -0.03261004227040578,
        0.017212346161639937,
        -0.022408424452529746,
        -0.019563739745155746,
        -0.05079045316493211,
        -0.03295107867004897,
        -0.04270293825587494,
        -0.0294851633723576,
        -0.020590337809300262,
        -0.005703016933157777,
        0.04813430654222207,
        0.025788802756042166,
        0.026379022523792112,
        -0.0356376199299083,
        -0.04890528125423226,
        0.00215568981385175,
        0.033320690997849706,
        0.03228251191804284,
        0.007585818877468339,
        -0.002029031871836216,
        0.08339986235351884,
        0.06306192503255476,
        0.06458842643603749,
        0.04946600601658046,
        0.04243026575556477,
        0.03917217156116718,
        0.0028845117114175553,
        -0.0371065459860941,
        -0.0090052772547677,
        0.04493633917446078,
        0.09915605634696573,
        0.21115759712301843,
        0.0024516598637769832,
        -0.07905194988198543,
        -0.009734764640895573,
        0.09627680835275723,
        0.0787285481665436,
        0.01772475879039595,
        0.026534376053761327,
        -0.026670645689082596,
        0.0013898117177994678,
        0.04192308863030503,
        0.04029698848827712,
        0.017845633881593354,
        0.07619458839755307,
        0.10658130840804035,
        0.09972408609164546,
        0.015968443037917633,
        0.01259067979054233,
        0.023912308844414962,
        -0.04050801792942039,
        0.007430387542715291,
        0.0633078220975518,
        0.04499511954941918,
        0.029879884285485606,
        0.05718562460191434,
        -0.06901769336749188,
        -0.05681882838626574,
        0.10157894460334406,
        -0.0005043253523967997,
        -0.029295943100370536,
        0.025083677518713054,
        0.061038715437334676,
        0.0329236833675249,
        -0.008387407230060134,
        0.032144232747123025,
        0.056405890038989,
        0.017795059616020827,
        -0.04564400428205928,
        -0.01996760231037341,
        0.006699914098897019,
        0.09360844243738219,
        0.03463859627485405,
        -0.045957693302868835,
        -0.002372826579114017,
        0.03886082218988905,
        0.037453877716784316,
        0.00200129478934299,
        0.03186512399660443,
        0.006160197848755999,
        0.05364576510364447,
        0.0953641890268899,
        0.05260961709779528,
        -0.024104510149848907,
        -0.04436571990824871,
        -0.025749170774391622,
        -0.04338950739442479,
        0.018635641181736995,
        0.05043304484539334,
        0.0020178045813617706,
        -0.0031687284882192177,
        -0.04967767752132432,
        -0.050468665714799035,
        -0.004632251251792605,
        -0.0446985127805659,
        0.04470005369160082,
        -0.018881618307502013,
        -0.0878318926092026,
        0.015113795750606502,
        0.04272035836735217,
        0.02298387698436605,
        0.006274243194213927,
        0.011534568581150467,
        0.015728319292870607,
        -0.06851516887823983,
        -0.001077855145162175,
        -0.00636707766234782,
        -0.0024669304942324575,
        0.03661846747251285,
        0.030377445656375707,
        0.019379225252984855,
        0.011538832145560087,
        0.05808683502704248,
        0.0274104626305844,
        -1.3238304769146658e-05,
        0.004364124921776109,
        -0.026307707721037084,
        -0.011712660021457212,
        0.10813182436929072,
        0.008943197336520891,
        -0.008107977915250659,
        0.04439799040565377,
        0.043413509510791835,
        0.006854769155828213,
        -0.026721491227241413,
        -0.042380405421460675,
        -0.028088679908891623,
        0.07058957465043075,
        -0.0020473483366566896,
        -0.03431830836681757,
        -0.031776523520174786,
        -0.010746573379174267,
        0.03184999426359578,
        0.0036752637562499214,
        -0.05744247094816982,
        -0.058930725691431714,
        -0.005206645034766716,
        0.024387356069039964,
        -0.021985289108395572,
        -0.08270789408534983,
        -0.06264057881871685,
        -0.021489116284895804,
        -0.02030963846291991,
        0.004693714843811158,
        0.009176555085784896,
        0.05274302056062153,
        0.0889855932855497,
        0.11604483239607837,
        0.002012022865899197,
        -0.046930484842876506,
        0.0030778734816814053,
        0.0008544645603952522,
        0.04835398470740078,
        -0.023856017957136495,
        -0.03927292283947968,
        -0.016260505991880118,
        0.07767992183712705,
        0.02385517741831952,
        0.004585348221271929,
        -0.023007669154947133,
        -0.005871648312492398,
        0.02333421740669815,
        0.027476803069367357,
        0.038616563676087096,
        0.03186626387626271,
        0.008830334657575973,
        -0.035741276543379635,
        -0.024018256555072413,
        0.03185867365163876,
        0.026958224603235208,
        0.0021750579854399707,
        0.05070103903709907,
        0.03147237887504368,
        0.02133545950286424,
        0.03425361413626921,
        0.0018470645871360703,
        -0.015328201130510252,
        -0.0023925167479760404,
        0.03339406334561895,
        -0.04349671093628103,
        -0.01763583681693795,
        0.00330881262737269,
        0.002667351819406379,
        -0.010122663815758125,
        0.02979322821138609,
        0.07308613184480596,
        0.03410510905740376,
        -0.06586637933807249,
        -0.1728058804730716,
        -0.14965452666280596,
        -0.005939871028039829,
        0.057486631583589465,
        0.08995716136165251,
        0.07878545173870384,
        0.027303131639277525,
        0.05315302089171778,
        0.04656378361211089,
        -0.06223737590859911,
        -0.127171154675661,
        -0.10624010860997571,
        -0.01446108053773056,
        0.009668509841832757,
        0.10183859241875365,
        0.10303405499817643,
        0.09628264922647684,
        0.04292674722947276,
        0.014122370657981454,
        0.011741534302850219,
        -0.02440716249696561,
        0.0753056310904367,
        0.05825903536584754,
        0.03051441360736358,
        0.02927187916776716,
        0.035308120004279034,
        -0.032668261713098494,
        0.05975793420040852,
        0.019909559808478004,
        -0.015269702527963815,
        -0.031542127976091454,
        0.01775561611051032,
        0.03045309581165793,
        0.05283891868422069,
        0.017715665637430655,
        -0.008658509366659553,
        0.025723080757410616,
        -0.007397212020775848,
        -0.01623664413931133,
        0.019224982992907258,
        0.001856173157834967,
        0.023174797594733003,
        0.06571040465701933,
        0.029573304883476807,
        0.0014525449697152062,
        -0.022507598048343673,
        -0.02690168125070102,
        -0.000577570585320821,
        -0.02397214653421644,
        -0.0033220487630445735,
        0.030549704415826044,
        0.10213481045608143,
        -0.0038931642411165627,
        -0.0771752255379283,
        0.014504904689697482,
        0.05991086750724066,
        0.0932852094299546,
        0.11218223391682204,
        0.06039568037994665,
        -0.0028744125223302253,
        -0.06132350351202026,
        -0.004018176691598049,
        0.06422502300479155,
        0.0696172711185892,
        0.04841147512222832,
        -0.021895533178548664,
        -0.012107752163449136,
        -0.004204803107572187,
        -0.02007283093815196,
        -0.017123458471479273,
        -0.01591293292032237,
        -0.04630476195482133,
        -0.08442850377725596,
        -0.037921398249009634,
        0.021561974545855147,
        -0.0005835642652099859,
        -0.07409250727292135,
        -0.030391267991936803,
        0.0038580481835424956,
        -0.07081153864944756,
        -0.05869658495017877,
        -0.10376495295815191,
        -0.10264433782061615,
        -0.04877342636800252,
        0.005538896120812032,
        0.01710458083692016,
        -0.014937612371852337,
        0.07586917639795293,
        0.020859068629907274,
        -0.03146550396638961,
        -0.008555732873080443,
        -0.04235846783326524,
        0.04231061376495081,
        -0.010915345819171474,
        0.03078143580998275,
        -0.02844211214270894,
        0.007005191962931168,
        0.007527924296111108,
        0.06997648650969177,
        0.03789241364332018,
        -0.031147701225539382,
        0.00010888213257926341,
        -0.03259678022397654,
        0.05061780190847529,
        0.029945274648631937,
        -0.00012344882204785688,
        -0.02617599555779295,
        -0.010596181291826,
        -0.06734384453308034,
        -0.06311919756812144,
        -0.059042009602138214,
        0.001418386065518852,
        0.04339637408057155,
        0.021347474897248496,
        0.03035400816848296,
        -0.0007855082051491217,
        0.023142826634130424,
        -3.695871327688528e-05,
        -0.014528047929990285,
        0.057111188608542675,
        0.0780902273247811,
        0.0642702714972119,
        -0.006051159876659974,
        -0.04329136871584148,
        -0.0016225065438458905,
        -0.01565239453153116,
        -9.744959534017657e-05,
        -0.061950049218444145,
        -0.06283880824951783,
        -0.008239467793943364,
        0.05697065495151335,
        -0.029178102559287357,
        -0.05702754777233473,
        -0.028986652400018083,
        0.012400090939216955,
        0.00023963405011345892,
        0.013847218433081539,
        0.0399538014324575,
        0.02973959158184141,
        0.06436190512534504,
        -0.015430976319464475,
        0.04298829632315804,
        0.05857150664815096,
        -0.00397858505880617,
        -0.026557427359702238,
        0.018237078945631265,
        0.10600453026061277,
        0.08109369761008246,
        0.07627305053412278,
        0.08236226035225852,
        0.07595345303427165,
        0.09922649450546613,
        0.1807846684246424,
        0.15106328699365323,
        0.02925552340788165,
        0.020760600278017197,
        -0.08105439885603263,
        -0.10900551319583456,
        -0.08642929601403318,
        -0.07403050470206515,
        0.018031297372961365,
        0.06751445799919112,
        0.052453839960039494,
        0.030381036844358267,
        -0.058321929134248385,
        -0.03463034244073583,
        -0.005105894408098407,
        0.010418130965038692,
        0.0009435508708511462,
        -0.02963048356814527,
        -0.0058477030157448465,
        0.02047912028060897,
        -0.0022715565916546126,
        -0.029950248153773576,
        -0.09035278742772096,
        -0.023661642168723098,
        0.06582318645305164,
        0.10089629153388645,
        -0.04175634019208995,
        -0.04900546952274111,
        -0.01285843964363167,
        -0.024257775420478734,
        -0.062277918131413645,
        -0.013393061297152096,
        0.02223689654038005,
        -0.025317738159222485,
        0.01427726288910389,
        0.016420849680915898,
        0.01236748295086126,
        0.08526377125728436,
        0.10609707076253748,
        -0.013465474316547639,
        -0.06372097016563269,
        -0.02585880170618183,
        -0.06736846642838976,
        -0.012357495930480123,
        -0.029147084643722867,
        -0.01694726932573938,
        -0.007195399071846797,
        -0.036165850394772166,
        -0.004487702056856026,
        0.003034854588003329,
        0.005408541153913314,
        0.06271615166284658,
        0.13129811150530865,
        0.05961808833997487,
        0.05771858340208533,
        0.109578808705807,
        -0.0035016441019947255,
        -0.04962025175330376,
        -0.061674111694331214,
        -0.04075051639423103,
        -0.01965850701242194,
        0.031652613301972075,
        -0.04186200846245436,
        -0.044799772214804856,
        -0.0417835463576631,
        -0.04572351552652865,
        0.08389853940596692,
        0.1055834726368699,
        0.07447941105989905,
        -0.029738665697491944,
        0.017430356276098808,
        -0.02700503039185521,
        -0.04746471988798233,
        -0.05005079107201629,
        -0.00020872837642592432,
        0.00021281473712556499,
        0.006627137615403069,
        -0.010693719675248913,
        -0.04349563167993539,
        -0.009654081358213946,
        -0.0328801922815561,
        -0.0717808859741306,
        -0.0386738572509817,
        -0.06025989079687472,
        -0.05178309321889548,
        0.025462570748433517,
        0.058954214763196976,
        0.0757209144149855,
        0.03619222969254283,
        -0.05778393198549974,
        -0.025433514395622768,
        0.022805762649924635,
        0.039781839279879744,
        0.0199629084726641,
        0.04638931266604182,
        -0.0018941709733543476,
        0.008818012762019569,
        0.013288050272467447,
        0.005781506977552666,
        0.027458843438966422,
        -0.012444526463791919,
        -0.02288545133318204,
        -0.038180304739147665,
        -0.07613245654594239,
        -0.005046949621618344,
        0.09895161369034107,
        0.11730914295471026,
        0.11692793658800187,
        0.0542750567992458,
        -0.02069635202325033,
        0.03099969001008583,
        0.0361875965349234,
        0.019601086278325963,
        0.062213479442647726,
        0.002303347006684425,
        0.025129766842121294,
        0.07072145707464698,
        0.11745281502851235,
        0.0609089118355102,
        0.06314546181318856,
        0.10350547434433896,
        0.10254750118628278,
        0.07039919894208416,
        0.026381905758975387,
        -0.030177218645150265,
        -0.16327574955015506,
        -0.14240377344066577,
        -0.08545811514088827,
        -0.012955223218788925,
        -0.01698088814192733,
        -0.006116360720670947,
        -0.03899145680269425,
        -0.04489848066077813,
        -0.05192140326768595,
        -0.013021854048844223,
        0.026731588767074328,
        0.009661808662986975,
        -0.04688836954142585,
        0.01319192199425008,
        0.05572340168575311,
        -0.05866102775067472,
        -0.1474893338447845,
        -0.05393177501523916,
        -0.027167979347361326,
        -0.0559494924910733,
        -0.04334175942168739,
        -0.03990027158439918,
        -0.028488657744776286,
        0.025802181999435216,
        0.005150146613610286,
        0.021588118413074404,
        0.00543184607543864,
        0.060697465715744164,
        -0.005718892378333874,
        -0.03499713510079419,
        0.037460881703194095,
        0.042773145133880405,
        0.023701758299323417,
        -0.015179109788807628,
        0.020123370207406732,
        0.05884855603681715,
        -0.007682217570884666,
        -0.07629086140177639,
        0.005639306715217318,
        0.03377738021619635,
        0.004856125760546584,
        -0.05021499175886113,
        -0.005734299148583623,
        -0.0023457089161434217,
        -0.008184419204335724,
        -0.019285539530652582,
        0.0861594013676583,
        0.02590614969974657,
        -0.08303618575772848,
        -0.15694711917712234,
        -0.09306590605704726,
        -0.028417973441185296,
        0.02100645817615755,
        0.043574911428412244,
        0.001783880837440598,
        -0.02904917770405562,
        0.004588932027417857,
        0.039143917093419266,
        0.10382958477725687,
        0.12048467252401591,
        0.09509536737761183,
        0.10076237343677838,
        0.039392296688048556,
        -0.01721745879349896,
        -0.03248349227220349,
        -0.033953382680777716,
        -0.050694221031585815,
        -0.046818915670302975,
        -0.004072042552222781,
        0.07526975024532694,
        0.0719592682281324,
        0.046144901350037355,
        0.016639548424989662,
        0.014605918743502868,
        0.012715198347130568,
        0.01758127928975744,
        -0.01644759913408121,
        -0.0024913713095294624,
        0.06998669577754679,
        0.1287322864949366,
        0.10360739054723007,
        0.13016825812917812,
        0.09804159134607594,
        0.062212263253745216,
        0.04683269491654115,
        0.023017452164070293,
        -0.019990367950307363,
        -0.04188282322236303,
        0.0013574074524340756,
        0.0035010980392112044,
        -0.08966933114545593,
        -0.11669901513901598,
        -0.09491329941061574,
        -0.03434319088196145,
        0.018789203684075363,
        0.10480625271766916,
        0.11042842971362005,
        0.055509191052364855,
        -0.017743787229328036,
        -0.0864359998858377,
        -0.05550033870713409,
        -0.029912705530055865,
        -0.03295272793792784,
        -0.033945515021807975,
        0.008503062738066142,
        -0.003956525354755732,
        -0.02233226333122066,
        0.01317368732450902,
        -0.006118546754421184,
        0.018397873553409997,
        -0.005454565523706867,
        -0.003599488028884386,
        -0.024434727252827713,
        -0.07599008247986283,
        -0.051864512215427025,
        0.054206143972179655,
        0.0397696227143441,
        0.023753245792701043,
        0.050466833429718555,
        0.04426590399140991,
        0.001392478951179191,
        -0.029481187440864472,
        -0.025507422544228848,
        -0.10218659670920548,
        -0.05376549052841724,
        0.003555368631390399,
        0.05648203549778877,
        0.06044908691143827,
        0.04269306085162391,
        0.014678462346661064,
        0.01895041009020531,
        0.06911020617824506,
        0.04323110332891162,
        -0.030214639786562424,
        -0.09602223028615137,
        -0.0572520445243274,
        0.005797364119213999,
        0.0048971523450176985,
        0.008450807060064338,
        0.02162068281072086,
        -0.005610852969229342,
        -0.006124673881941836,
        0.030421515225119482,
        0.0533203561649403,
        0.0085316752928548,
        0.06321682945956579,
        0.052724143034381415,
        0.006546304230047239,
        -0.004704447661282326,
        0.03267200199369187,
        0.08313162195942442,
        0.060665073929712085,
        0.022122239278167245,
        0.03420090557350085,
        0.06149437102469767,
        0.09216720851676027,
        0.05311453894423656,
        0.054722057023154795,
        0.1308824395878199,
        0.26655614187248255,
        0.2457914960719998,
        0.12114948051993016,
        0.03648498079238261,
        0.05013538303476642,
        0.08169363384546441,
        0.018717982365781437,
        0.05009891449144009,
        0.015162031538959383,
        0.01071310722851309,
        0.003681354517441549,
        0.03402167122722797,
        0.014644639106132864,
        0.06016571512974976,
        0.04480793795639948,
        0.10904349031153089,
        0.10731404715127506,
        0.07875941030413826,
        0.03395394880253197,
        0.0575418943030554,
        0.021040160780346744,
        0.0020376823309049435,
        -0.049945508637708774,
        -0.03581496253108046,
        0.03381640709626252,
        -0.044338611778830514,
        -0.09015441559732759,
        0.040500400451442334,
        0.13698833374502561,
        0.10372529415561932,
        0.04736962850297609,
        -0.02663534456358098,
        -0.006935061199281585,
        -0.03108764483955567,
        -0.0027715299219911384,
        -0.01945993608215699,
        -0.03960177339706758,
        0.02036539649105252,
        0.005366655195384127,
        -0.04797868460478161,
        -0.06295885247741755,
        -0.05870016548398388,
        0.0110751800100828,
        0.05174064555379503,
        -0.01712014457389738,
        -0.01974233105977417,
        0.011625148404162327,
        0.030462802072766217,
        -0.013613228896160692,
        -0.05698101158311285,
        0.020054332535086282,
        -0.019699130894763064,
        -0.007972031315877289,
        -0.03709139544686449,
        0.025559258672436004,
        0.024113850636507287,
        0.030954669865370498,
        0.010027332437405646,
        0.01242385909379696,
        -0.1275626281250528,
        -0.19159015953601058,
        -0.20734654170635453,
        -0.1332164084787632,
        0.003656363130135048,
        0.07363753930072028,
        -0.03737529257889364,
        -0.048544653272872065,
        -0.00032125737098391327,
        0.02369048203936311,
        -0.016776147446740795,
        -0.04108692435957982,
        -0.029410686053856074,
        -0.017406646743430836,
        0.03248423414384349,
        0.061834973707835125,
        0.04098126001653006,
        0.01107231242870128,
        -0.005617435947892975,
        0.008909766459729764,
        0.030055194087781616,
        0.022993895572799142,
        -0.021950839914197454,
        -0.013609524221323856,
        -0.00308898218985065,
        0.05388812464432702,
        0.016730693302862115,
        0.013773874514503537,
        0.040134526805526746,
        0.030308394404272805,
        0.05635794987266425,
        0.052069924843508156,
        0.06771190518116689,
        0.06311939772579367,
        0.002468630982411041,
        -0.025243848151906965,
        -0.06930252534933003,
        -0.04130228032966672,
        -0.020232806566850614,
        -0.0031697460733915656,
        -0.027630244307650292,
        0.008039190024789936,
        0.024425410069883947,
        -0.02088173147136501,
        -0.07744146022511104,
        -0.0422843804156643,
        -0.037625569382097185,
        -0.016717563238710466,
        0.052263089012383926,
        0.018123313892308195,
        -0.04694845013265948,
        0.002302476235996374,
        0.015642672216657997,
        -0.007045557515528449,
        -0.02956653983562487,
        -0.03168239500621575,
        0.010031028265661305,
        0.07637393511126184,
        0.07557036003899589,
        -0.0507700408342232,
        -0.06203293029084686,
        0.04032824748225018,
        0.04542518407300762,
        -0.0820031485644894,
        -0.11599256555480993,
        -0.14773527004427336,
        -0.02000751410572304,
        0.14029054104911337,
        0.04777177686434179,
        0.03885250826211977,
        0.06900160409964938,
        0.0238160854373453,
        0.048741623539361484,
        0.018388960041834195,
        0.029689271283204234,
        0.04663586171234437,
        -0.028362177382488106,
        -0.04063751647169763,
        -0.0721993142443277,
        -0.11457768929425274,
        0.00038294464695583274,
        0.04235626726764569,
        0.0003008428567258369,
        0.015734642064445702,
        -0.012471312174120395,
        0.019525432604391102,
        0.021321657991508806,
        0.041109131219409185,
        0.061501337855773316,
        0.007870009428285193,
        -0.01947025638289274,
        0.00901132653757997,
        0.008973471548383256,
        0.008320336112272541,
        0.005462824312811636,
        0.011790472698267964,
        0.03377941597729002,
        -0.08832959707289853,
        -0.047956354908653215,
        0.018585928796730267,
        0.10201500771393432,
        0.07319719760960011,
        0.03286703274078638,
        0.013047265350942026,
        -0.01931193734855052,
        -0.03249844454700785,
        0.0065683753688814735,
        0.03858895220921216,
        0.042842939785662434,
        0.08614951650027015,
        0.06009177393778935,
        0.035670414584046434,
        -0.012214478114301399,
        0.024631428568120953,
        5.202301957391215e-05,
        0.04274024844031208,
        0.055497714086510726,
        0.06956095423913147,
        0.09447938758271647,
        0.04979108236395817,
        0.0043562945797455425,
        -0.035895916946199286,
        -0.03461906002032045,
        -0.048924013696867,
        -0.0157170809843826,
        0.0368806057000308,
        -0.06735635023003463,
        -0.08046508280830421,
        -0.04785861278548614,
        -0.03734413062672377,
        -0.019114232250204814,
        -0.04145888402076463,
        -0.01038986453282452,
        -0.06890637507162553,
        -0.06212884750159555,
        -0.08575674891928277,
        0.05180895388234387,
        0.06770704357690824,
        0.08393646544093247,
        -0.01868902856825935,
        -0.03389111479986783,
        -0.04537474370767902,
        0.03972868153430975,
        0.06641753298401094,
        0.09928997092492291,
        0.049637888991159534,
        -0.014376924777558444,
        -0.0077942620626865865,
        0.0008580033516607927,
        -0.006805751440922856,
        -0.04790676609510948,
        -0.006726979808272266,
        -0.007626762337604238,
        -0.008257201519096377,
        -0.05280376500122447,
        -0.10526738771772794,
        -0.12535146895652838,
        -0.10928497177376004,
        -0.06316488500743667,
        -0.03350888648640293,
        -0.02576152545746265,
        -0.013990049611083941,
        -0.036543617662186244,
        -0.024027313326278086,
        -0.02234580706209608,
        -0.030229815935868667,
        0.0704561271350793,
        0.01595103431999286,
        0.05781829471874274,
        -0.05531601614429141,
        0.011190090142908376,
        0.020033860739958307,
        0.045885784905039015,
        -0.027324599667493843,
        2.2093130049714968e-05,
        -0.026460946126259023,
        -0.017434545008229593,
        -0.004855225181334541,
        0.04303851288808763,
        -0.004150613190149967,
        -0.04350064098395884,
        -0.04623659472848078,
        -0.01806879731961958,
        -0.09703411537462028,
        -0.15020706664932898,
        -0.17587285053431434,
        -0.11595478912907636,
        -0.08647210452943896,
        -0.02906952945717932,
        0.04663822560643144,
        0.03960130431533986,
        -0.04173205649477003,
        0.01999409515043458,
        0.05533868588575027,
        0.07795595184188911,
        -0.0025407185485636532,
        -0.019409974858974485,
        0.02424327338490281,
        0.043745315792770426,
        0.0095781868814474,
        -0.022971777009007717,
        0.006885593916295729,
        0.028363649028256152,
        0.03509905262417541,
        0.04714927156771316,
        0.03324539302406435,
        -0.004016187706773521,
        -0.024955895664039798,
        0.005350823350122633,
        -0.0176146433923512,
        0.04209128042644367,
        0.04435783137108619,
        0.060228194788634115,
        0.023330760637683114,
        0.03999650714545537,
        -0.012276422525040421,
        -0.010430961713806367,
        -0.03258130115098687,
        -0.053988762791128714,
        -0.01784879588404881,
        -0.05321439461059625,
        -0.10197679477734949,
        -0.10791486352349929,
        0.013509935261505632,
        0.1685596143621217,
        0.17834357776817583,
        0.07191217214757968,
        -0.09743304906710112,
        -0.11555971235468546,
        -0.07721594016023665,
        -0.02729554491562812,
        -0.0426551081278148,
        -0.009840857573681562,
        0.051688177765837715,
        0.0058406784390714,
        -0.031005170328030275,
        0.01570455752136693,
        -0.012106347453182436,
        -0.016442689776543513,
        -0.036323526875133155,
        -0.010242002786417969,
        0.065434756299053,
        0.06635289837211616,
        0.014074369988199194,
        -0.029562094104195046,
        -0.03958306386506448,
        -0.040874817743513446,
        -0.06066354549438867,
        -0.017549595256140686,
        0.02608154429102505,
        0.06960667842452996,
        -0.013400553992439357,
        -0.1015462355237702,
        -0.03461729044203905,
        -0.05347991213154184,
        -0.0019550183257653,
        -0.006267934305905928,
        -0.012023368844137447,
        0.012926061247654492,
        0.05174834322177124,
        0.15054802009507237,
        0.08958007216921082,
        -0.015985583238152017,
        0.04661721827164357,
        0.028900335275964317,
        -0.016449968465500384,
        -0.012981683983082562,
        -0.03076544537507576,
        -0.00698058017278449,
        -0.0354523728112185,
        -0.12476468310681163,
        -0.038289695420502076,
        0.04050287406800497,
        0.03539611221477382,
        0.053692883392813515,
        -0.00875736414330574,
        0.0045866885833968744,
        0.055287174446662715,
        0.02282431145446523,
        0.07193637868020197,
        0.04566383444489548,
        0.00949231897874497,
        0.05890711200849438,
        0.02088084861410822,
        0.03866267172872667,
        0.07289601987809588,
        0.004582198657825049,
        0.00854421589006546,
        0.027827537995940434,
        0.00776109500472859,
        0.02760469320347032,
        0.05155566620210478,
        0.03273018066747653,
        0.10892731812789593,
        0.0991964721864929,
        0.06567480708390383,
        0.06272673757697943,
        0.06663649506360214,
        0.05682439242187279,
        0.07028476156679433,
        0.02246495001641924,
        -0.017333225437723955,
        0.03451994004893326,
        0.027293750280032315,
        -0.02922830160800708,
        -0.022487511157986622,
        0.0038858182852040076,
        -0.01701578992095274,
        0.008262265419477898,
        -0.03475339144817634,
        -0.10801991418429086,
        -0.07939311691307802,
        -0.027834012932644838,
        0.014112200274692167,
        0.04220552157186107,
        0.10211617081102398,
        0.07288713057215668,
        0.08684584046528629,
        0.030605658576959488,
        0.002998021081762864,
        -0.05992020834230825,
        -0.03537296498348827,
        -0.046528730302167684,
        -0.028174329372274945,
        0.008724589543801078,
        0.04779597412772995,
        0.0425402599652375,
        -0.017713141583885213,
        -0.060002881957948465,
        -0.0889507172818931,
        -0.051639105821279764,
        0.06657678891323077,
        0.060447395848071864,
        -0.0038417945326344005,
        0.013395681265940608,
        0.010986701618132618,
        0.026923211235043175,
        0.03749952909795493,
        0.06592348227503637,
        0.05137380548651384,
        0.0005743102537879655,
        -0.005670324177751234,
        0.01253581470463278,
        -0.0446072995829007,
        -0.028588884957249133,
        -0.05805988492038276,
        -0.09775791652805076,
        -0.1001770331910865,
        -0.017129878824293787,
        0.002367556987497266,
        -0.034384035352132226,
        -0.06758517366996108,
        -0.004033143123769928,
        -0.007298233761095261,
        0.008221723343914624,
        -0.013926461167789238,
        0.015644023227590693,
        -0.04099354501828463,
        -0.06553831469350034,
        -0.031108121541561156,
        -0.04481304509311444,
        -0.10054667302594365,
        -0.0579908392112487,
        0.018480064869388423,
        0.009414570802160405,
        -0.028906972444710004,
        -0.053808950092091544,
        -0.06994974935327511,
        -0.12960793753910088,
        -0.09171629378008196,
        0.009910978583833132,
        0.04394437690669642,
        -0.10931312786638822,
        -0.17952012133043788,
        -0.17983607201244223,
        -0.17184838807076228,
        -0.12097567059199471,
        -0.07842651136449445,
        0.0037976368525689,
        0.051463159957749485,
        0.013084694296734688,
        -0.1007465204614879,
        -0.12129351208276296,
        -0.08391132669972803,
        0.038592531635435696,
        0.01824517878860252,
        -0.03998009730576667,
        -0.11087327384711619,
        -0.11696089936935876,
        -0.10294000965362927,
        -0.05756504212229232,
        -0.013756633969024509,
        -0.0423047400550033,
        -0.11630999555776242,
        -0.11986320498452495,
        -0.04865013619213979,
        0.016911251312297232,
        0.060942395759947435,
        0.0952545992433661,
        0.09913797691153667,
        0.028723171379949314,
        0.025854225867251182,
        -0.005421643862822881,
        -0.02002608078965304,
        -0.004188312194148417,
        0.057920955536793405,
        0.034810165855601476,
        0.006156404259440005,
        0.007442589036651374,
        0.0489795737032923,
        0.10181258195604531,
        0.06104324593395092,
        -0.006268946431418954,
        -0.11365050825761286,
        -0.029787092667824047,
        -0.042864759057848686,
        -0.059377253380740215,
        -0.06038262788072293,
        -0.07631915096076178,
        0.019964177644238777,
        0.02692100836655784,
        -0.002313979473323541,
        -0.05411537200698109,
        -0.03826457976694802,
        0.0014347019654657094,
        -0.0060766108187010615,
        -0.003857616256220603,
        -0.0021329366403223713,
        -0.02139050904296322,
        -0.055531173324700964,
        -0.0586813666904995,
        -0.03449315258210727,
        -0.034785725026477525,
        0.0026589791442618756,
        0.04469703460154459,
        0.02334414712602228,
        -0.029071665818526052,
        -0.05592586906531628,
        -0.033133211320521036,
        0.021875228729842447,
        0.05558792113382799,
        0.07933027871072645,
        0.024375438819027415,
        -0.025714712168424442,
        0.023585762937727864,
        -0.00417703302387525,
        0.021378963748928732,
        0.04388727195671715,
        0.02260666147679591,
        -0.03144446424377059,
        0.011402721058240438,
        -0.0012573086768433396,
        0.0596812586117696,
        0.07940197669432669,
        0.08879263846903154,
        0.03871201092402341,
        0.03324893883918569,
        -0.02536878967289226,
        -0.024092215274035295,
        0.0018276479402791327,
        0.008250085191970933,
        -0.014590474182289554,
        -0.017512185117109183,
        0.006896423066847673,
        -0.03230560945278511,
        -0.06962643000189775,
        -0.07007905332772138,
        -0.027074092945002657,
        -0.02241741445381812,
        -0.0004698108476984413,
        -0.006701134884336012,
        -0.021165007614114363,
        -0.013349721758488583,
        0.0003589280749640335,
        0.016348322685953588,
        0.011185294506531114,
        0.02922210824960057,
        0.04261790001374037,
        -0.00359231564882662,
        -0.029873332491945508,
        -0.03212243560001049,
        0.028703863611652083,
        0.040972454447183615,
        0.016459041484143344,
        -0.0018047776418867356,
        -0.019893480597321586,
        0.0035424586460522764,
        0.05291004927539731,
        0.10418436694738718,
        0.06355312731459284,
        0.006261302910171591,
        -0.01299518458248649,
        0.036958295431516325,
        -0.01348159061161576,
        -0.027541566120032564,
        -0.003063159073611959,
        -0.0047196112032355875,
        0.004346629520689713,
        -0.007766748642548092,
        -0.032278322953175814,
        -0.04323821877295555,
        -0.05101791614495759,
        0.0032458214391782128,
        -0.010556262094283196,
        -0.03344489943287489,
        -0.019392571772648328,
        -0.019381436207703773,
        -0.04317629993643324,
        -0.09655217425598571,
        -0.10673746225718417,
        -0.061542574667906164,
        0.002672682416126644,
        0.08457643595879488,
        0.02292375179463995,
        -0.061034058090472736,
        -0.05672974706330153,
        -0.028963582768405424,
        -0.0032934992723761512,
        0.010839666863338659,
        0.019856079200810527,
        0.03224293967153313,
        0.04686102684185797,
        0.08721873629802698,
        0.05287929302981541,
        0.041524354305182,
        0.07076246475531887,
        0.09204541264869989,
        0.07331253315605221,
        -0.00016569517687134308,
        -0.035842093749792414,
        -0.0297256060023645,
        0.045415412928191685,
        0.07610618886360979,
        0.03191681738600863,
        -0.0227922517825563,
        -0.022396942586850627,
        -0.009534716343467845,
        0.035704414730174806,
        0.06321681768267987,
        0.02174136688851152,
        -0.021979026286488075,
        -0.05092510259750815,
        -0.026564679821585502,
        0.0690120958277636,
        0.10735060913867014,
        0.10469112062117591,
        0.07974737587734773,
        0.04354925114185461,
        0.05915319544055796,
        0.08697224820622584,
        0.09080036458572566,
        0.05431307848469981,
        0.03497149698344193,
        0.06043182398147025,
        0.05134156379760749,
        0.030034076336184518,
        0.03697754239051,
        0.033392694424916144,
        0.03555359428541903,
        0.010033749627141788,
        -0.040668660859313435,
        -0.030079327324049037,
        -0.03421254804034351,
        -0.05665484797582865,
        -0.017308305759054364,
        0.0672526184914054,
        0.12866676332234697,
        0.1148811433745691,
        0.012484337011945913,
        -0.025545274046771843,
        -0.007923794009287218,
        0.012549251793482744,
        0.034322661743251305,
        -0.004669554546203126,
        0.004589750186071802,
        -0.006098780035306377,
        -0.02886587385114398,
        -0.027891424700227117,
        -0.002602572235989424,
        0.04700821896047005,
        0.025302010662972257,
        0.014496107847731001,
        0.02443036624688715,
        0.03006689852621712,
        0.03158035490235951,
        0.03796414970803997,
        0.045608084574082,
        0.05793349615333549,
        0.034572216081786566,
        0.02648898050998264,
        0.027105622219957298,
        0.014765586296644822,
        0.027149204440986514,
        0.029114744581493684,
        0.02365604932965703,
        0.011477062416823714,
        0.03193434247338803,
        0.0364279190489386,
        0.0062350360077718745,
        0.005403216974955097,
        0.04991036496194452,
        0.10233262302853223,
        0.06824467436696349,
        0.06658640986395675,
        0.0626880075657314,
        0.05058938801469652,
        0.02052397422845357,
        0.009794972987537048,
        0.01400585530943563,
        -0.005857933847913147,
        -0.02998149253949497,
        -0.04886127974956089,
        -0.06123772437782356,
        -0.051028956611741116,
        -0.015564651013130166,
        0.0237890531923277,
        0.05027641502150304,
        0.03399305316929764,
        0.029864462673549058,
        0.019378758703687785,
        -0.005554510781126395,
        0.0034250065569298173,
        0.009741070499115302,
        0.020002388615539345,
        0.010907874506660472,
        -0.007563965531972472,
        -0.0011130311381380212,
        0.05401847517227384,
        0.07710781946671919,
        0.07178312792263715,
        0.09174240029700849,
        0.07583769548563127,
        0.06640501808882848,
        0.0648495936885087,
        0.07436574337657713,
        0.03241697092926665,
        0.028193494132836477,
        0.03336687180457289,
        0.02671089213485542,
        -0.013397211303619837,
        -0.029763844671612527,
        -0.05179035804717142,
        -0.08853124400215882,
        -0.0877909449571666,
        -0.07102501885178797,
        -0.0775997190028537,
        -0.10820872385925712,
        -0.09023878068844136,
        -0.04433673250111815,
        -0.0048048311480747355,
        -0.02895504827305048,
        -0.051048772144749795,
        -0.021401541449553262,
        0.02138371369950223,
        0.046981570236773296,
        -0.03271062810374675,
        -0.07855758721399482,
        -0.07943115797145683,
        -0.021252344238264158,
        0.027029569386661918,
        0.012899334206986664,
        0.02429522739203403,
        -0.01846463484512417,
        -0.05329448231210538,
        -0.041180749481918015,
        -0.018510378601582007,
        0.010255644856277685,
        -0.0011096027490407317,
        -0.06952287812700754,
        -0.08586859423227089,
        -0.11675026637419562,
        -0.0607492277407143,
        -0.03042867449585955,
        -0.0433237247481486,
        -0.002366732154498884,
        0.0032500857866389525,
        -0.005962400836262357,
        -0.08081190231628976,
        -0.11111834285130001,
        -0.04792617374119362,
        0.040329251741230865,
        0.0631699782129236,
        0.013166753225664504,
        -0.03829710290859125,
        -0.031511156604724526,
        0.017471512826265117,
        0.004480488745584844,
        -0.032922048049084676,
        -0.04877052928760999,
        -0.05328940309736442,
        0.012062457431264707,
        0.029064861277568164,
        0.037948144665191114,
        0.06379602300056156,
        0.06980730655178369,
        0.08836490114525737,
        0.08007434967432228,
        0.07880495405201146,
        0.0845389561574004,
        0.054063370133408555,
        0.05131280014187041,
        -0.0066493419136155404,
        -0.028283847330552447,
        -0.03883284752282706,
        0.01834367510537801,
        0.06352536374572791,
        0.048861041459398236,
        0.02275929396196981,
        -0.016895965427455677,
        0.005986616596392449,
        0.027681982899429323,
        0.052706241138845464,
        0.01365900238853494,
        -0.10704078491565822,
        -0.11693283813917976,
        -0.07446535026884779,
        0.02954776192101828,
        0.011932413269658415,
        -0.02624255456000666,
        0.0025337403288736566,
        0.041039278045819236,
        0.08633518868259246,
        0.06056956188145091,
        0.03839283714709661,
        0.016985027123366546,
        -0.015361675360575195,
        -0.014436462707683506,
        0.036021990259761716,
        -0.0019972262356892237,
        -0.050823927258185624,
        -0.04994720013348724,
        -0.04954613544166197,
        -0.03302667156807695,
        -0.10373916829680538,
        -0.07230515714924146,
        -0.052852643559697654,
        -0.022988190804074556,
        -0.017542164201591916,
        -0.09469374052128376,
        -0.04929022008446637,
        0.018917092435373782,
        0.042656256001317734,
        0.04105654765515175,
        0.01623536754039751,
        -0.0020046504510218763,
        -0.020169314221869215,
        0.002091755711676826,
        0.04872322474141494,
        0.001865852340885096,
        -0.01796103830343064,
        -0.012801812877544195,
        0.024230035085765933,
        0.005711313667543603,
        -0.08852541636252746,
        -0.06515788964707686,
        -0.013164536769447704,
        0.023352667953650943,
        0.03370455089818355,
        -0.049912237482288,
        -0.06898610305740381,
        -0.04992321397361779,
        -0.026686369856310604,
        0.00745752508118551,
        0.020125034923155483,
        0.09652246979014381,
        0.08614333788427901,
        0.0660580101914644,
        0.024874546494023396,
        -0.005591749853793702,
        0.030086224656032518,
        -0.026655754517495113,
        -0.045126682977546864,
        -0.04889843952294344,
        -0.03685696469439454,
        -0.03283833639539221,
        -0.045388797791678884,
        -0.03572462413334525,
        -0.05070501532827224,
        -0.04993262142760248,
        -0.016526058834120345,
        0.029814466951476305,
        0.06244015540880008,
        -0.003489661599092583,
        -0.052932801178062094,
        -0.01828030280910369,
        -0.02960715366328231,
        -0.07381195979571994,
        -0.059931698401776284,
        -0.05600208332799045,
        -0.013221282577550758,
        0.05814862150797329,
        0.057206859375352984,
        0.0424157620856164,
        0.004305222510651298,
        -0.041238815562972764,
        -0.0544061919509828,
        -0.03551274712581452,
        -0.010938138072302001,
        0.028688940680838503,
        0.06504329359620556,
        0.006748193118448642,
        -0.010580117137308175,
        0.004735805501091224,
        -0.028602057913682123,
        -0.01314959628902759,
        -0.04149063695078434,
        -0.03133488408982784,
        -0.01831703170121331,
        0.002763011885952077,
        0.0006243706446636616,
        0.06464645612717348,
        0.04212748116231987,
        0.021747922518702785,
        0.02596118570979711,
        0.0023782230423984143,
        -0.013770606032663722,
        0.03917787341425519,
        0.005322645328980288,
        0.02494444896249135,
        0.0011757107018803051,
        -0.019974023305121894,
        -0.044395820204096305,
        -0.05450198492953635,
        -0.07053727703691672,
        -0.04533060095273857,
        -0.005133000194121098,
        0.014260020121021493,
        0.03399356697717806,
        0.0015635663230001164,
        0.021951976776708067,
        0.07565969028529328,
        0.022327773969885112,
        -0.0012540100367938434,
        -0.053017429605367906,
        -0.07223997915291455,
        -0.02429391408811881,
        -0.02696203811738055,
        0.012135520137228878,
        0.02530635779354106,
        0.030000154227615913,
        -0.04023473159070678,
        -0.11529016590016299,
        -0.07200835834529748,
        -0.02203077455509664,
        0.06534643287307532,
        -0.004998306311757754,
        -0.11683793638680004,
        -0.1413572982972497,
        -0.18332551507905265,
        -0.13979708582582184,
        -0.0925354177144133,
        -0.055678142692051735,
        -0.04703356812719824,
        -0.10052245350493094,
        -0.0697269672868207,
        -0.021496358669294658,
        -0.009398554824640207,
        0.03979431980561862,
        0.037155742763113675,
        0.013016410176265421,
        0.005997618711579717,
        0.005298108088548456,
        -0.0027368611071013544,
        -0.06195587433372092,
        -0.0808362279429836,
        -0.06657766982458961,
        -0.004392561869418646,
        -0.015517912085145802,
        0.011585204205930198,
        0.04495144386209172,
        0.059316563297217496,
        0.03691271515056996,
        -0.0062495020570649045,
        -0.056868385246050965,
        -0.05749141465015621,
        -0.025846399437798755,
        -0.04501438354062286,
        -0.03290722269929623,
        0.0047505411918162006,
        0.023746940179434097,
        -0.024843784766388717,
        -0.022835081305585543,
        0.04727957485397681,
        -0.00579289893133338,
        0.05068261187510946,
        -0.024441029313513357,
        0.007635666623102201,
        0.028907409358206272,
        -0.012148305138591005,
        -0.022286666727495207,
        0.045092393587094604,
        0.05701025026804865,
        0.052679085806489126,
        0.011690108783185481,
        0.009074303261060433,
        0.056777686681510904,
        0.06651166653328804,
        0.0023598216399514198,
        -0.01462950373253851,
        -0.0157941451885051,
        0.022576949128078724,
        -0.021968055629171493,
        -0.013883418777574005,
        0.022565571003251378,
        0.06889186425948934,
        0.009658412079687428,
        -0.01957962907964246,
        -0.008559141906059876,
        0.0768659558144074,
        -0.016193735647513204,
        -0.0018993753035823364,
        0.028137101721728553,
        0.049883372237467374,
        0.03891061268198803,
        0.034619373814844076,
        0.039277733075757854,
        0.11609287168074177,
        0.03418104607301772,
        -0.0200316031668276,
        -0.014248778613020718,
        0.042248983880859015,
        -0.024450693866909092,
        0.008879116879567106,
        0.06542460887445195,
        0.084745547352985,
        0.03713258787508891,
        0.022180628254957865,
        0.02377570183262074,
        -0.03351606290109535,
        -0.0330060846639641,
        0.009820748927777227,
        0.029883679034629903,
        -0.04172631657841998,
        -0.09321850090950977,
        -0.06873171014699234,
        -0.0006556967117496836,
        -0.05817446751078687,
        -0.05806157486244988,
        0.01625410551421902,
        0.12228609389628708,
        0.07361232309142121,
        -0.013625350376196693,
        -0.008047804763159668,
        0.04335041128276655,
        0.04809763840031698,
        0.0026035900378268747,
        -0.02947777632198946,
        -0.01394443308276583,
        0.0013075218888515929,
        0.02862984089779004,
        -0.007530831637620251,
        -0.02205183765437116,
        0.0024121342548613263,
        0.09746428405453643,
        0.10317700467572287,
        0.09586184181031279,
        0.10552271272958941,
        0.12496197397828515,
        0.18641607198958882,
        0.1556242496268372,
        0.04096373792272957,
        -0.05989113766948527,
        -0.07354464613181719,
        -0.005996826003958999,
        0.002249809846728912,
        -0.01779052409510625,
        -0.08868776291522945,
        -0.09580901151462443,
        -0.04183176164230641,
        -0.03755028598024911,
        0.013366627945915812,
        -0.05085696639700885,
        -0.024327317639083176,
        -0.023644722796209824,
        0.036445390789303464,
        0.04030066013827832,
        0.0700705596968868,
        0.03141056576465929,
        0.024495646557264536,
        0.005000727579693505,
        0.002132098788440106,
        0.05266939955981027,
        0.07770224696439405,
        0.04635701785759957,
        0.0018923071582078322,
        -0.0027331544030540257,
        0.00981579413937912,
        -0.005242004806672995,
        -0.02541673501206263,
        0.03451704101183456,
        0.01705024649949609,
        0.007627000901255215,
        0.029862314465840242,
        -0.03161613329449593,
        0.005475944319466722,
        0.0443825984671191,
        -0.00787130542257148,
        -0.04212034445625057,
        -0.010317822159436892,
        0.04078800325638414,
        0.06932685588976724,
        0.05210894605898528,
        0.040027658274137734,
        0.04695412326453112,
        0.06668475784458092,
        0.08938103174205331,
        0.015026102292651004,
        -0.0014015625171283584,
        0.06577970007187184,
        0.05270014164051581,
        0.051944422610773124,
        0.06384471024514693,
        0.0071280560906803216,
        0.08626085447938037,
        0.1607736786112477,
        0.12899377576319354,
        0.11264100613857664,
        0.1416894818678497,
        -0.002633643308133336,
        -0.029496716682931537,
        0.03875810460786023,
        -0.031568283699247676,
        -0.003688998250076859,
        0.026996392958657984,
        -0.005305078095105461,
        0.09386027618220241,
        0.13550388052317391,
        0.05276377090644105,
        -0.02662570220987462,
        -0.021339912585220697,
        -0.055922382355570545,
        -0.0187684254947088,
        0.00803715747993961,
        0.023684237902991997,
        0.06266237537881778,
        0.11321262295441573,
        0.07100384977428983,
        0.06450218970169935,
        0.062033356423759636,
        0.02840656474140555,
        0.048216317673770354,
        0.07634110810613279,
        0.06210133835998768,
        0.12539618394248553,
        0.08851775427197078,
        -0.020330163703922592,
        0.013563643550578321,
        -0.04517066191112433,
        -0.03569208084706567,
        0.03157871801331732,
        0.0031201934133776943,
        0.011758468437788114,
        0.05651060215485489,
        0.07118206612512286,
        0.07151917180025086,
        0.07227778272754246,
        0.05935188598285681,
        0.049054914983052866,
        0.006146464425941146,
        0.03516147182182197,
        0.12927873548439744,
        0.15170997071589523,
        0.08552228054938453,
        0.07423487785663917,
        0.05629443267333949,
        0.003435649894944079,
        0.054463887448826465,
        0.024930945495448005,
        0.02570452037583672,
        -0.06291608368349319,
        -0.14822525136800524,
        -0.18043431276279032,
        -0.2009168595547498,
        -0.10943951508507194,
        -0.09872354178799288,
        0.00025968799901050397,
        -0.018044415081488782,
        -0.027128015954509106,
        -0.0021366873491056267,
        -0.029583889128420814,
        -0.010837508239926375,
        0.03500504177959355,
        -0.015493498259679554,
        0.01779242884425617,
        0.008155551502723672,
        0.11534196186610125,
        0.09939481509739216,
        0.049458320123696914,
        0.05572159790821428,
        0.022443995859901977,
        -0.02573815670539887,
        -0.04889493473937582,
        -0.05560186046068292,
        -0.05631999193084304,
        -0.04556454270142485,
        -0.13032869041644773,
        -0.07690739372717068,
        -0.09053660858435403,
        -0.10784008806229896,
        -0.05737643796602794,
        -0.09617417777162013,
        -0.07122348323427663,
        -0.08221779903092903,
        -0.08848432966583744,
        -0.022878462195286182,
        -0.006707395900566813,
        0.010775666380267073,
        0.03224965720309288,
        0.005039474190851937,
        0.04471989833023514,
        0.00411384270273303,
        -0.007185524222693633,
        -0.01495728376494467,
        -0.04877918945597181,
        0.003551447042526873,
        0.025518612542900852,
        0.027354048040622164,
        0.033401161837306986,
        0.010295785533778605,
        0.007612153486084071,
        -0.04399777279515377,
        -0.04749961307315458,
        0.03235364272603926,
        0.0014516945144315905,
        0.04487175147060256,
        -0.01752872552283614,
        0.00026867902050208307,
        0.021373556271642235,
        -0.015121530992629155,
        0.02443788271780195,
        -0.007705516665777909,
        -0.00969526611238415,
        -0.023174171156974167,
        -0.053011459939776705,
        -0.012219997028655451,
        -0.0774323497456954,
        -0.06819808144948156,
        -0.0470020432258487,
        0.030799032216497393,
        0.06441908245960941,
        0.04374443436332569,
        0.05403259594853029,
        0.06166506796697349,
        0.0656763509993159,
        0.034105392569627344,
        -0.046260925812925624,
        -0.03244301367487632,
        -0.027376258208261544,
        0.003992048929783821,
        0.021855299918121858,
        -0.004777108753809883,
        -0.020224416410182362,
        -0.01855280706758625,
        0.04254187553264534,
        0.019018738277946246,
        -0.028904060004511255,
        -0.03481608524877357,
        -0.04039065068329264,
        0.022795327422873286,
        0.03936888316964266,
        0.020942263543985,
        0.004083454268680508,
        0.010351718103415104,
        0.02322398561340593,
        0.01622124275299268,
        -0.007173181773902433,
        0.02460725376701422,
        0.08625939180545647,
        0.01691452533200634,
        -0.027107427469941194,
        -0.05058367489733791,
        -0.06897560304059994,
        -0.010051538293933316,
        -0.002412895334573555,
        0.02624501429737819,
        0.033810923418545843,
        0.013461371626852316,
        -0.020619754424038406,
        -0.005549553287366206,
        0.0033581198814231555,
        -0.0036162453023262063,
        -0.05631520182436731,
        -0.038440530202985074,
        -0.059087187479329756,
        0.05113171860303782,
        0.06678080187156485,
        0.06440368757464837,
        0.018040657383471326,
        0.01422982889002238,
        0.013735824293915958,
        0.06721636617335824,
        0.04988986518989173,
        0.005073734976092675,
        0.022970589509337905,
        -0.035739230006208544,
        0.051272295337367324,
        0.017894848899146377,
        0.02680156727064348,
        0.05337979224605656,
        0.0483641683401291,
        0.08167842301924122,
        0.038884780186517774,
        0.01766800890616728,
        -0.024100263324179534,
        -0.009357680974449938,
        -0.04510380529634349,
        0.011826058844730269,
        -0.0005270651900081207,
        0.047706736931659485,
        0.017006491066515805,
        0.03140518696593033,
        -0.012974836091004673,
        -0.0015275219800886689,
        -0.04154154821495825,
        -0.07187604305325092,
        -0.028204734014355547,
        -0.05574278632189965,
        0.015105074896246148,
        0.04972810347143311,
        0.05565626283539823,
        -0.005820638605802869,
        0.020629000481993846,
        -0.024715355667678567,
        0.00814491037584018,
        -0.03231952093533204,
        -0.019093643806872965,
        -0.0060066893664700565,
        0.046057833749928466,
        0.05264082574659791,
        0.01932958968548412,
        0.049247960463757956,
        0.01252468713822841,
        0.05950435713474319,
        0.06993354166830663,
        0.0819628030102801,
        0.04696297560546324,
        0.047396155754019204,
        0.03736044750442218,
        0.08492561992011366,
        0.06369961578589863,
        0.05231494152296724,
        -0.032186753749575164,
        -0.019656690382025402,
        -0.013271129704759032,
        0.031093919384846957,
        0.018140506569432148,
        0.058281153565081574,
        0.05464481713620916,
        0.04031460235442197,
        0.015766639890712184,
        -0.06345230577515865,
        -0.09212916705958935,
        -0.11279967892731317,
        -0.06501326953208725,
        -0.06538520352417537,
        0.0077881230877297775,
        -0.01947805166405118,
        0.03966693117122335,
        0.02088952821515596,
        0.055731615253111697,
        0.0026796086648776213,
        0.0807101248594661,
        0.055120369804717545,
        0.1058124315458564,
        0.016282774359146726,
        0.030078738746873702,
        -0.07081788429845656,
        -0.055893457136964364,
        -0.10410822062847425,
        -0.03714259750236246,
        -0.03588408063879005,
        -0.03870253853441859,
        -0.057282758660207746,
        -0.0048958174240460485,
        0.06510404868151065,
        0.061940119678249264,
        0.04543818719261548,
        -0.005605247790965958,
        0.02685318556286424,
        0.011591964174770883,
        0.05601767891919177,
        0.011882849785286021,
        0.028370480352937887,
        0.0037210969540422112,
        -0.0010650591258434703,
        0.021106814656437045,
        0.02214237382292012,
        0.03484906893017174,
        0.031472989063051154,
        0.03353726633909741,
        0.009762884016076162,
        0.049625624012334224,
        -0.03193647575364297,
        0.01790940178196475,
        -0.04568398990313104,
        -0.008196854781681195,
        -0.0576928269175756,
        -0.027819385513856678,
        -0.01814293138396011,
        0.0077818997896257685,
        -0.029780122472267516,
        0.010476120872102614,
        0.045247060463140365,
        0.09228017966872912,
        0.016581072266191474,
        0.004906462649638585,
        0.005047730474605255,
        0.04340985693476507,
        0.06939294605869845,
        0.07065568401287226,
        0.05895877147483079,
        0.017963426473953083,
        0.02544312410258817,
        -0.03650327472040629,
        -0.03233183303015615,
        -0.10706692907880827,
        -0.09293048351621802,
        -0.068758681462121,
        0.016437294122266164,
        0.01105223553940126,
        0.04103173646750963,
        0.0146455291555252,
        0.022249913265800544,
        -0.004508918214675054,
        -0.0259612874999249,
        -0.030065737548030307,
        -0.03754565053790089,
        -0.012710898483045789,
        -0.05477140091352319,
        -0.05089792620288616,
        -0.05535645729905175,
        0.02276502533244758,
        0.03229132555400696,
        0.013900328297755216,
        -0.0070838033715561145,
        -0.013848118226503288,
        -0.025753534848309285,
        -0.050425039143549205,
        -0.03180179822313945,
        -0.052701005513929124,
        -0.015450141670881556,
        -0.01539320926529392,
        0.006459219899430992,
        -0.03236766427517854,
        0.0015543835422208978,
        -0.02338533444837271,
        0.02357010890233821,
        0.013347800198860199,
        -0.003437382704188024,
        -0.030304263954570962,
        -0.042112263712175926,
        0.014454647217585227,
        0.0029323276694300134,
        0.012071555813168499,
        -0.01840719063418683,
        0.04415261885983886,
        0.0077230837850025165,
        -0.0031620767499688195,
        0.04379698249411493,
        0.05974440077588037,
        0.06527926168988119,
        0.06854679879254444,
        0.05620890874119357,
        0.10301046966616292,
        0.08720512147778112,
        0.061529035432734885,
        0.0006025612006241108,
        -0.0036949001872607413,
        -0.0287185432356769,
        -0.01777795809445252,
        -0.0426319722086026,
        -0.09455763016996774,
        -0.09120817584489899,
        -0.09135351254423085,
        0.020247263688953326,
        0.06826565251572153,
        0.0798284242668299,
        0.040726011566452364,
        -0.025298288097603237,
        -0.016937674575723503,
        -0.03607566650346693,
        -0.03363586770752314,
        -0.0788451456668276,
        -0.06661625783670366,
        -0.04852993339349444,
        -0.004924593868856069,
        0.036622833149313645,
        0.0008288245714048722,
        -0.007738607837339955,
        -0.044550119077441774,
        -0.029922047214263447,
        -0.01798727429989133,
        -0.03837910123905071,
        -0.054325500583556875,
        -0.06371775478491226,
        -0.03618282071026911,
        -0.024367461459925216,
        -0.03348590970248494,
        -0.0035335226178285816,
        -0.01349814342024011,
        0.028153131617627013,
        0.007201968974296281,
        -0.0063910984630088565,
        0.005511996727990029,
        -0.014006143391638987,
        -0.01581894316969853,
        -0.04360210650930138,
        0.014686827804201332,
        0.03587757177241381,
        0.0078038414172287105,
        0.02574524351653218,
        -0.07636266496447872,
        -0.029736870535825265,
        -0.02930853364552767,
        -0.016722323781556005,
        0.020367384086653947,
        0.02008067069537835,
        0.011918749223545225,
        0.05795567129835191,
        0.041442841852238115,
        0.02666456827626364,
        0.01307912014704948,
        -0.020369639196420514,
        -0.04331042381282208,
        -0.05438939080047846,
        -0.017798736574677967,
        -0.02158856002767072,
        -0.02273374931560092,
        -0.029306880686445682,
        -0.012737393352222178,
        -0.014005340706416123,
        -0.04162831833078456,
        -0.013443159042750688,
        0.017587965105092307,
        0.055648935510525535,
        0.016096345593756,
        -0.04285463196022681,
        -0.07479744927197202,
        -0.07556330984348052,
        -0.01851088933157425,
        0.03412430546814556,
        0.012100518162647414,
        -0.008608635749563028,
        -0.034482326406392025,
        -0.05820076045926904,
        0.0036077497898423056,
        -0.023896814501714735,
        -0.006306942565378026,
        0.04006347635107012,
        0.0007504152373954112,
        0.045670884768595585,
        0.0005477130923786017,
        -0.04751398970813854,
        -0.021463148592622078,
        -0.059986024452080434,
        -0.010706000183179912,
        0.01889977357040758,
        -0.016081204762447926,
        0.027721594485450297,
        -0.004517348320313267,
        -0.0180793048842783,
        0.019490542098508406,
        -0.004824653895228933,
        -0.007185319033958608,
        0.008632837614468546,
        -0.017931943512944856,
        0.02574144457790164,
        0.00824009772052042,
        0.014755284640462137,
        0.0034570481523683613,
        0.017604049351938357,
        0.028303430049375494,
        -0.021926250501211206,
        -0.024397712615863452,
        0.025365732283136544,
        0.013903113096762603,
        0.03573685285351922,
        0.055842039725489345,
        -0.04379242262906187,
        -0.008025715468245957,
        -0.05586231685758024,
        -0.030886900384518145,
        0.04052346861550856,
        0.02211295249928335,
        -0.008083674744076251,
        0.04423484558685945,
        -0.03311464073817055,
        0.05753331716541257,
        0.05130615001047842,
        -0.009167014863047673,
        0.032182863991913474,
        -0.03968620529343379,
        -0.005851688025837032,
        0.03584084029882814,
        -0.023686112013544258,
        -0.015900574703548147,
        -0.000540638704792624,
        0.03321232653559052,
        0.03921568265586484,
        0.033273537909452644,
        0.003276996723232745,
        0.026355402517469644,
        0.04719108592792333,
        0.004706854357835295,
        0.02317503924977537,
        -0.005913455698165809,
        -0.017453560163834935,
        -0.03620718101838384,
        -0.07026630543399023,
        -0.06617704942729646,
        -0.04714067757476076,
        -0.054136067436559056,
        0.006344667166757189,
        0.0515236102384902,
        0.051312269546407704,
        0.051511143372252585,
        0.06078375626041456,
        0.015441901176299703,
        0.04293582708375418,
        0.0352274548309535,
        0.04349864004411742,
        0.10677480645985933,
        0.05173076199699656,
        -0.01710150590296184,
        -0.00654061888422665,
        -0.0056381948269024415,
        0.017560510638137065,
        0.03499866344931918,
        -0.010919908402720004,
        0.002050062946899683,
        0.01757587591125709,
        -0.00912753272026812,
        0.036118776256738865,
        0.043047912833825426,
        0.034620386408019385,
        0.043262582057922425,
        0.042331271562116565,
        0.04325012858780958,
        0.057066878509848824,
        0.02728861301300536,
        0.01015900405713448,
        0.02942115879761908,
        -0.006385833820434436,
        -0.016327950807229402,
        0.008194602971546968,
        0.020714259376015075,
        0.05262859518863183,
        0.028267246155376954,
        -0.059033150514179004,
        -0.03110062752532196,
        0.005454561102209524,
        0.022929528805004026,
        0.032852924241175196,
        0.012223812183484726,
        0.010111194356702729,
        0.058031699105080194,
        0.046884019238994164,
        0.04080037037985955,
        0.03662312545358333,
        -0.00565568388905322,
        -0.035406402162878214,
        0.003278424241505059,
        -0.00948911174419887,
        0.005902618028215173,
        0.040399701405399314,
        0.02343593730930031,
        -0.0053971759817040745,
        -0.0056247696239809936,
        -0.004291514467264236,
        -0.023818902182663505,
        0.019969376129490277,
        0.029640335962927457,
        0.055186411593672456,
        0.02122936173714159,
        -0.010944266609623384,
        -0.02056750045615392,
        -0.023134595633048587,
        -0.010185968823281709,
        0.0077070530445307265,
        -0.026132136070456585,
        -0.02111762575736513,
        -0.07498416609057387,
        -0.10689172405714907,
        -0.0700618525873761,
        -0.05845483740598732,
        -0.03923898834133997,
        0.04959909136126842,
        0.061262103862038404,
        0.039411189866839905,
        0.07282136708603992,
        0.05053945311745446,
        -0.005410147416226658,
        0.011394038859701656,
        -0.0012821429113812452,
        -0.09462406338683349,
        -0.04896922065444564,
        -0.041115968719729765,
        -0.07583125968413618,
        -0.03534143477944088,
        -0.023497957906513715,
        0.0037610883817171723,
        0.020139054925417163,
        0.051333267769211266,
        0.07845055047089441,
        0.03240826619632999,
        0.02738020005359408,
        -0.014606452351833627,
        -0.05845729341715482,
        -0.0404308828213549,
        0.0010539678853954257,
        -0.03933795940957724,
        -0.029266226438463612,
        0.00343349724644625,
        0.015244063523155847,
        0.0086351437167607,
        0.01763692864326851,
        0.006558789568745116,
        -0.00011993654704262345,
        -0.032182818835879215,
        -0.02379465872629636,
        -0.056203359118908974,
        -0.05484234925054736,
        -0.008233657554792776,
        0.03670395460790547,
        -0.0034235883530333647,
        0.01406060659877555,
        0.011492956169381357,
        0.02262267320576877,
        0.02643095040816959,
        -0.00833005495949894,
        -0.07511984596777786,
        -0.07847991999620088,
        -0.05303982080524056,
        -0.044532426055258506,
        0.004465036634238195,
        0.005941076104847906,
        0.020325001220103542,
        0.026060257736644873,
        0.005054048879719372,
        0.043017418267947326,
        0.014289639206053927,
        0.01872717073229916,
        -0.02983599623593019,
        0.025202695792511866,
        0.08350089752803122,
        0.08112851365546542,
        0.06373483731356,
        0.01874864973141875,
        0.04836457896605384,
        0.05658034146236983,
        0.05902888890904567,
        0.033140060525675946,
        0.029573075089980465,
        0.02644897163219268,
        -0.018387961348289135,
        0.0682819427705702,
        0.015637507778891793,
        -0.0006999722046712126,
        -0.03710419631593171,
        0.048210874536822934,
        0.06524476709452046,
        0.07397335243433784,
        0.07598798298798903,
        0.10304649968998844,
        0.07414255506535533,
        0.04021901517645256,
        0.05711266223195636,
        0.007532140831800028,
        0.04025458401954318,
        0.015797784868487635,
        0.11055383958393826,
        0.03263009606839639,
        -0.030605161067895143,
        0.003806598436991766,
        0.014274512609513453,
        -0.010208488327898231,
        -0.030269200070953003,
        0.03394571241134812,
        0.00016935845166416341,
        -0.008474909888114402,
        -0.02172395599551162,
        0.05094743267189898,
        0.02948003702981878,
        -0.018372997127916388,
        -0.01995894028723795,
        0.0016232331595743103,
        -0.009070958793514713,
        -0.07612488744625788,
        0.033886741795792645,
        -0.0019896556275978998,
        -0.028530990130252572,
        -0.05506730160901319,
        0.025946688691555343,
        0.05243672009959178,
        0.08343249629164243,
        0.05261832253536075,
        0.06483599997923134,
        0.03641638789741875,
        -0.010100854466534734,
        -0.07805285967217507,
        -0.012999031804790732,
        -0.011141129041570922,
        -0.028523308077229442,
        -0.08009949200675531,
        0.002123555922840799,
        0.008388536375180593,
        -0.02924533394560106,
        -0.05178203155322601,
        0.010772806768287995,
        0.01319651568379489,
        -0.017947706407641557,
        -0.021994656584064028,
        -0.02054273150790465,
        -0.02966488025936255,
        -0.0095397917542486,
        0.021262654282720957,
        0.01662161318450323,
        -0.01714013677936771,
        -0.021725855766527635,
        -0.014172843727694277,
        0.013209000987605968,
        0.024743532186016146,
        -0.003441849399799871,
        -0.07536835393389593,
        -0.047133440693538906,
        -0.04407817191784386,
        -0.031905647243543396,
        -0.037811936179583824,
        -0.03862810315153618,
        -0.007764329711385656,
        0.007326346516483433,
        -0.019174894066214462,
        -0.02968143077296818,
        0.0034587118336070095,
        -0.012210431491472232,
        0.010321982945428972,
        0.019277903936512696,
        0.021158530038969545,
        0.01450586393742528,
        -0.02547304506457356,
        -0.01073641043636844,
        -0.032109439797387535,
        0.0041631101530155085,
        -0.017244355954775692,
        -0.02975411311436707,
        -0.061526275400079954,
        -0.03659145436468886,
        -0.056872487364436584,
        -0.03244156017003051,
        -0.01216637478458636,
        0.021181082492740266,
        0.039925926637903814,
        0.04011016739460774,
        0.01604171143622494,
        0.0012467776385630606,
        0.04537893655972432,
        0.018535574300324768,
        0.02799336021765387,
        -0.048695082370120074,
        -0.03841173698107174,
        -0.044364423032854566,
        -0.00972448162811202,
        -0.002459885203408383,
        -0.020641307882831566,
        -0.04405276324273745,
        -0.06772430500288265,
        -0.049064837888570856,
        -0.08193377706101254,
        -0.08942108092270473,
        -0.12527379685512025,
        -0.08616896997112271,
        -0.07611515132257994,
        -0.05335467479389422,
        -0.1110402839717281,
        -0.10779042519199411,
        -0.0832781262672107,
        -0.0769430299698216,
        -0.022242682264510087,
        -0.013419458033510405,
        0.04494078087708047,
        0.06605114539222942,
        0.062198903316114586,
        0.034318530163150146,
        0.06983844062609772,
        0.08482690496364208,
        0.06690390349529007,
        0.07682824249393969,
        0.05142275074085832,
        0.03506651328688415,
        0.03141338786431989,
        0.03646617150715591,
        0.011926049056105188,
        0.025400931177635484,
        0.001072619394227666,
        -0.03686479396915311,
        -0.01764890756268271,
        -0.029801722538235296,
        0.01369644830452876,
        0.06437439733203884,
        0.03780181700825751,
        0.03224877035696459,
        0.009420061661351264,
        -0.025406604063102384,
        -0.015942571531424962,
        -0.06176779553733937,
        -0.05145919208903256,
        -0.05817013577778221,
        -0.006670817426160089,
        0.006631579800649215,
        -0.01603979928732064,
        0.013788790682573313,
        -0.004984180828232841,
        -0.013549565113147225,
        0.030608885948996932,
        0.009750670849371566,
        0.02116218923029342,
        -0.0042279692766042844,
        -0.019966395618248887,
        0.0009258941456953508,
        0.0018573656696534617,
        0.0032241669135957083,
        -0.005268818825588782,
        -0.004405440783454284,
        -0.00043640384243911725,
        -0.025653008448831303,
        -0.04042768129588172,
        -0.03756032451941038,
        -0.04928051914893789,
        -0.022086772964572794,
        -0.012422300208159674,
        -0.02531646662453888,
        -0.008308814686138543,
        -0.024605088941184163,
        -0.0007219211989673926,
        0.0005400110825257652,
        -0.001295816114538446,
        -0.013603884862060251,
        0.026388906533555377,
        0.004059843415560151,
        -0.006946114829387789,
        -0.02024908380577857,
        -0.047709997942004895,
        -0.009720415353645508,
        0.0004960616983057332,
        0.03368688947983338,
        0.019259936923100834,
        0.017207370217810117,
        0.011386156352861134,
        0.033687127847692316,
        0.0171829177336165,
        0.0041867943123073065,
        0.024244557781968913,
        -0.01994966350412878,
        -0.030867178973872585,
        -0.06286476885521118,
        -0.07547256797176537,
        -0.021978813525492937,
        -0.027291450520642295,
        -0.025353321899244354,
        -0.002090273038131695,
        -0.01121351693906916,
        -0.040698140273579514,
        -0.010629249686901555,
        -0.002277993306718986,
        -0.011399877055570344,
        -0.038559908050405094,
        -0.05809538802013763,
        -0.05192979651531719,
        -0.027973192358952775,
        -0.008734476641520172,
        0.021352830707506834,
        -0.007805942313955955,
        -0.001651625488240058,
        0.014294436516715567,
        -0.00029591726414921604,
        -0.030162504386850177,
        -0.01062624065367275,
        -0.04073427489519296,
        -0.03477217860267908,
        -0.028843426096364214,
        0.03006087291464442,
        0.03977817153364538,
        0.03312444902258269,
        -0.028486380852154825,
        -0.03355173353153391,
        -0.03926227220378409,
        -0.040761066058229406,
        -0.011781721499985288,
        0.0002670765451536709,
        -0.019021329144851065,
        -0.004176409707113296,
        -0.011475234090828141,
        -0.0022197862520413544,
        0.015693940022068725,
        0.04945949961030841,
        0.052639502600065426,
        0.023195421303652,
        0.0036197794830840546,
        -0.04463472544311989,
        -0.09043003535920544,
        -0.015370785352864182,
        0.018634232058333446,
        0.041603554526071396,
        0.06871958040025858,
        0.025208133941169508,
        -0.011789011762458255,
        0.0190665186350799,
        0.0386626062338927,
        0.07279859961694746,
        0.09511786273793041,
        0.07720819479606121,
        0.020367530921888092,
        0.019541228820469277,
        0.014982542164546546,
        0.03236065749461308,
        0.06899094154773883,
        0.06746512435077653,
        0.0820420685067432,
        0.03083922851765132,
        0.05075942733490064,
        -0.027529432746584044,
        0.02001828068715624,
        0.02234579619592334,
        -0.0035723064784642785,
        0.02580080603121359,
        -0.05039601576467089,
        0.028816524231372657,
        -0.022159470833787845,
        0.01192231312177741,
        0.005352672537415844,
        -0.03125534437784365,
        -0.023669317465327827,
        -0.043315534428810344,
        -0.022008802694732082,
        -0.009780240596802922,
        0.04049839666176153,
        0.02112004056910536,
        -0.023197669002665434,
        -0.03068131259459475,
        -0.03764087826731266,
        -0.02506637481447296,
        0.003696638564530537,
        0.013105635984892568,
        0.007044501703450957,
        0.0025463672414081998,
        -0.017069933552729163,
        -0.0056660766283773475,
        -0.022470754941603693,
        -0.04021501763064181,
        -0.040843480445010114,
        0.010211374375691052,
        -0.016097780616117614,
        -0.008193772488212821,
        -0.012857358258116236,
        0.013275451170256556,
        0.043427684093196306,
        0.055234129451014705,
        0.054904183437367055,
        0.06905523916773716,
        0.06688911356498156,
        0.048445351737184554,
        0.04226058226771022,
        0.010303098037986673,
        -0.01841476847673073,
        0.014618015938584326,
        -0.017782735202160796,
        -0.005943556389199307,
        -0.046981660377485315,
        -0.055544733535598634,
        -0.024305251226382774,
        0.02960518928991321,
        0.01944167014147917,
        0.015132366712388762,
        -0.018889171598212243,
        -0.028517365944169606,
        -0.04506743469324136,
        -0.01788464175765485,
        -0.010893675266135994,
        -0.047292996159327715,
        -0.08997588318591285,
        -0.05679168052033457,
        -0.0645347033353384,
        -0.015267200217994301,
        0.022346243202026533,
        0.0015120536228816273,
        -0.02044793210148774,
        -0.038224333043625956,
        -0.009158718643187626,
        0.039850631877020135,
        0.045304571544794905,
        0.006980555001380169,
        -0.0622810097703619,
        -0.08281919738624521,
        -0.04961551880634288,
        -0.028600531264138248,
        -0.021009089022625452,
        -0.004613821779399372,
        0.02196948061801753,
        0.00645659970080532,
        0.02415181212701683,
        0.013763041208328794,
        0.040666760206975204,
        0.0661297504146526,
        0.08774893517020185,
        0.05067306572029864,
        0.02626042570989947,
        -0.026575629291813056,
        -0.05477315103501974,
        -0.028456174139208444,
        0.015803544613286473,
        0.042128899516782475,
        0.05185425667164906,
        0.013272778848406738,
        -0.020420085987432394,
        -0.01684287788886177,
        -0.016052364644100103,
        0.049269783119631774,
        0.08536266587395193,
        0.07719543907813828,
        0.06341760180578333,
        0.02986018044243932,
        0.03939650099290934,
        0.055895977898491836,
        0.06897435387812806,
        0.0841030544854709,
        0.0814514194011382,
        0.06786246719040898,
        0.018392969848404397,
        -0.01619507859935067,
        -0.014711302624670216,
        -0.0048039696122186,
        -0.009045473629015574,
        0.03976486312626917,
        0.018656338237402585,
        0.0007285309714656048,
        0.03537095070887711,
        0.04208241516677772,
        0.030847935747669662,
        -0.03703613469974984,
        -0.036762887386729906,
        -0.08024204191470216,
        -0.05603895718877826,
        -0.08453540476041994,
        -0.09157505808631325,
        -0.11789579382311488,
        -0.10166025585017494,
        -0.06498123903877567,
        -0.021738328001578502,
        -0.023937716052014675,
        0.011827958414267769,
        0.008637555231477221,
        0.027156593851247947,
        0.018927574191168386,
        0.03646587195136621,
        -0.014037284484126153,
        0.03149336345420734,
        0.03427864475736944,
        0.06046703572081437,
        0.07322654180836718,
        0.0729115816352772,
        0.07362388473464317,
        0.04851565336930226,
        0.03291767346050524,
        0.010965704467999115,
        -0.00179363321632823,
        -0.01040596111724848,
        0.007911367639284596,
        0.014962165313716287,
        0.06007119719759404,
        0.0773325690394385,
        0.08328348158816198,
        0.05338609725561134,
        0.0686336242869689,
        0.045412970946276124,
        0.05434980704611585,
        0.05624250685420898,
        0.0628356511104976,
        0.030726382390307005,
        -0.026114756126820154,
        -0.00021511146633146816,
        -0.03570224413917725,
        0.0022398727673538623,
        0.022397444697176472,
        0.05332958828349625,
        0.035957624997508375,
        0.043615919382005604,
        0.02742078063420128,
        -0.003582243754474257,
        -0.011299069896931295,
        -0.01712561649715617,
        -0.0012768921725793013,
        -0.008939144802837008,
        -0.0014385785282199487,
        -0.01669757846157362,
        -0.00227072414982822,
        -0.008528456942669146,
        0.022561031689124114,
        -0.01324741437081017,
        -0.042150539372864795,
        -0.07592223154930072,
        -0.026290282604991017,
        -0.004856991904177958,
        -0.00852695917435875,
        -0.0522964940756679,
        -0.08988129975980376,
        -0.09035105610721943,
        -0.031265522236336475,
        -0.006074395580207949,
        -0.006581298274777927,
        -0.009292745101776618,
        -0.036676034082566714,
        -0.07160702392407248,
        -0.0528580499299069,
        -0.012920552129551403,
        0.0031099600486690104,
        0.05041484509624905,
        0.04697402543757519,
        0.0335240805417444,
        0.019044861973850007,
        0.007821409220149102,
        -0.022442074296949138,
        0.016383878930002788,
        0.02061588845779215,
        0.0020566644561034802,
        -0.040277468762527774,
        -0.07186023502583143,
        -0.054161945949310605,
        -0.07680803249057519,
        -0.029083344404565822,
        -0.03799286047145416,
        -0.04798511554625717,
        -0.021662253941217225,
        -0.022447964277829264,
        -0.0629261917071056,
        -0.03633358873614219,
        -0.016135219309570913,
        0.020712332256557137,
        0.055134471422167916,
        0.04796979167436401,
        0.011859362506319481,
        0.016832799927869155,
        0.02181771832665304,
        0.04130690482431747,
        0.05751043517623591,
        0.008476104317519316,
        -0.025647988733525615,
        -0.007581258372688357,
        -0.0036251643984711703,
        -0.006367086092572172,
        0.008769565909518995,
        0.015984285092263024,
        -0.009544195075260707,
        -0.0547546445378638,
        -0.07941263535586561,
        -0.0902492167722396,
        -0.04751682152175665,
        0.004493470520962484,
        0.042127711476556126,
        0.03528550551067526,
        0.001708139772550132,
        -0.010070294600715114,
        -0.023215125483406707,
        -0.04056593968711872,
        -0.05326765038648495,
        -0.04631692861826839,
        -0.05102718731795198,
        -0.02432147954245092,
        0.0007390005463680942,
        0.039446201862025174,
        0.03901442763175718,
        0.057764087006677484,
        0.06261112820202692,
        0.00908635515367787,
        -0.008706290993759839,
        -0.02200143695829195,
        -0.030465639319031027,
        -0.014311850805974297,
        -0.017634600025867177,
        -0.03403934699475152,
        -0.015479176196513757,
        -0.029532521130472777,
        -0.06925185282130047,
        -0.0905203616419373,
        -0.07472739096262984,
        -0.03431421567274646,
        0.004170474573480531,
        -0.004339885717293142,
        -0.029528846323608422,
        -0.0744599107229674,
        -0.09227988145811973,
        -0.0836369742372788,
        -0.0759117887715202,
        -0.05299184079078703,
        0.005619977017987924,
        -0.013004256831006599,
        -0.04575939808954624,
        -0.07978882641733204,
        -0.08583988689800534,
        -0.08378205007195516,
        -0.07344179371538218,
        -0.08097493411660467,
        -0.0989042353440095,
        -0.10315038817607193,
        -0.10129087887645466,
        -0.06608907956033247,
        -0.03832310384073446,
        -0.005655059058848293,
        0.006449820002334811,
        0.014027615074719488,
        -0.012877377198889987,
        -0.03242402687403262,
        -0.05922793924190391,
        -0.04880992789193528,
        -0.017098337763826493,
        0.021867599908809383,
        0.040495265896096,
        0.026292231031964264,
        -0.005860987632353862,
        -0.037735636293253175,
        -0.026977081709328856,
        -0.029659871558537835,
        -0.043262437181400604,
        -0.06863770480870213,
        -0.07781018619504934,
        -0.07489014824351223,
        -0.08134547369679461,
        -0.032387018351383995,
        0.006412041646294089,
        0.04089341298530736,
        0.06501762285411491,
        0.04504136034525262,
        0.008085314852062531,
        -5.3667580891318635e-06,
        -0.018006269739773487,
        -0.01910104296842133,
        -0.015489483009842892,
        -0.02930309154881397,
        -0.02665990684138886,
        -0.03778424447312996,
        -0.05715910078904762,
        -0.047772762226511806,
        -0.04554704170148137,
        -0.039241188595260004,
        -0.029237412111722667,
        -0.007708710157101974,
        -0.003946429990059573,
        0.025043716840142637,
        0.01387150099975882,
        -0.007977270252988708,
        -0.03381575991214708,
        -0.030402528062952704,
        -0.02173515826153371,
        -0.01352963104896578,
        -0.009302128439092682,
        -0.04510605766827412,
        -0.08517587295839718,
        -0.0841248451609882,
        -0.042384340147645375,
        0.01344073896242318,
        0.07799634744113526,
        0.06662044232146613,
        0.03215629520915086,
        -0.0033342787289996406,
        -0.025469243142727242,
        -0.02271337265779034,
        0.01905684233330641,
        0.010298277455485347,
        0.00817586739225755,
        -0.003568020864956649,
        -0.020611673245729274,
        -0.02078903817179614,
        -0.012445139692649437,
        -0.045619780141585076,
        -0.06810479591399732,
        -0.07786488809272611,
        -0.0811684740783572,
        -0.02860570353570907,
        0.006933326951746139,
        -0.005488841631670601,
        -0.03432899897584151,
        -0.038907156867086845,
        -0.0563892968182387,
        -0.033390893260731996,
        0.0030996408124724074,
        0.03190659365627304,
        0.03264950741753275,
        0.02649731799600675,
        0.003090633567073384,
        -0.012289757628381418,
        0.01060503914895093,
        0.03611304312054905,
        0.04755778033037321,
        0.027476040373635855,
        -0.03732654682322192,
        -0.052698481645944206,
        -0.0316581767408536,
        -0.007687730856708397,
        0.0185734798343047,
        0.03485892569324004,
        0.009612040011729082,
        0.0021264525312190167,
        0.019186121544836694,
        0.034758147179475174,
        0.02688285193294432,
        0.010379054632841627,
        0.03029892188866533,
        0.021557955811536487,
        0.0013231495791937637,
        -0.0014382608230902377,
        -0.026119060981461793,
        -0.018972218487082942,
        -0.005053658698024233,
        0.013656150646244584,
        0.032832230237236915,
        0.03570645411079575,
        0.01581018064547029,
        0.012932103851267765,
        0.0029667545296617106,
        -0.0009970037361409147,
        0.03043149564659762,
        0.01625310509265016,
        0.012377863007286381,
        -0.012679367176843743,
        -0.001237473064532559,
        -0.0006270859774371081,
        0.0032482781382169226,
        0.00826665234125739,
        0.004973624749039266,
        -0.01755251530546855,
        -0.027792382311602908,
        -0.02005185176794148,
        -0.010984113049205407,
        0.03385290863412713,
        0.045237377511071715,
        0.04662967099573242,
        0.02543626421996413,
        0.010124585993131676,
        -0.021282409324304606,
        -0.02298374939763611,
        -0.011268089705259134,
        0.00846427015182498,
        0.03466476958064395,
        0.03911355889457009,
        0.05203481116395722,
        0.03397866220986132,
        0.04555547687354598,
        0.018104370678126785,
        0.024995106747186142,
        0.027497734275390824,
        0.027977274767651814,
        -0.0022662347341000566,
        -0.027455523741977007,
        -0.006589667785073216,
        -0.00419813685919707,
        0.0029261384477084437,
        0.022238502567684143,
        0.008969597127490904,
        0.011463368493780943,
        0.012004507862816453,
        -0.01623188628175708,
        -0.011785090650486192,
        0.0009361697361365842,
        -0.00045067310811212685,
        0.008844368513794082,
        -0.01168553751250372,
        -0.027894056158927386,
        -0.014460230162647494,
        -0.013898470367789708,
        -0.005379945723690351,
        0.010000594807810043,
        -0.002293268944953845,
        -0.0036609615487040613,
        0.0280871856172765,
        0.03161799890226744,
        -0.007892131081020529,
        -0.02739063708997519,
        -0.04536744533134686,
        -0.06481297794128929,
        -0.03603705155112709,
        -0.0072486081744925785,
        -0.01322197916456518,
        -0.014490599553908771,
        -0.00801354484292937,
        -0.047098386796389835,
        -0.06290580062458795,
        -0.07205813894447409,
        -0.05231799117336425,
        -0.018962048803457192,
        -0.0032159208669281505,
        -0.005748502874815093,
        0.027706891912564223,
        0.03258638723440632,
        0.03711722163223395,
        -0.01404590062251834,
        -0.0825660144431001,
        -0.1089373716026814,
        -0.0865037573379064,
        -0.037286203119331715,
        -0.017600146337214108,
        -0.02623269357262941,
        -0.064354636714929,
        -0.07707400368418009,
        -0.07092215595661133,
        -0.012300220092854683,
        0.0040734383646209345,
        0.029873965091131716,
        0.03044992851082314,
        -0.0028268031092611437,
        -0.020178631380378613,
        0.01983746189599618,
        0.031017364875314347,
        0.04647559955700879,
        0.04089673528201099,
        0.0043989844064487495,
        -0.017450040345820456,
        -0.027568229126107104,
        -0.020404574268741215,
        -0.009957757567531077,
        -0.006209470994502145,
        -0.010504867763964275,
        -0.0378191118032042,
        -0.04901631205044037,
        -0.032931662608245,
        -0.017701194917373826,
        0.017632944781578973,
        -0.020783970566258775,
        -0.020625209715160013,
        -0.04035419825077351,
        -0.00839109039123654,
        -0.01067450459278333,
        -0.01119319066987494,
        -0.02374150792987676,
        -0.011092214602107757,
        0.015479173826456716,
        0.02247321477176911,
        0.021255085146523644,
        -0.015625667218965987,
        0.011938423070103683,
        0.030379717023823694,
        0.02813264851906658,
        0.024183863550256063,
        -0.030946605870288125,
        -0.05667073817509495,
        -0.026767963988903826,
        0.04737682725910658,
        0.0600718528196758,
