{
    "train_site": [
        "DRIAMS-A",
        "DRIAMS-C",
        "DRIAMS-B"
    ],
    "test_site": [
        "DRIAMS-C"
    ],
    "seed": 344,
    "model": "mlp",
    "antibiotic": "Meropenem",
    "species": "Klebsiella pneumoniae",
    "years": "*",
    "test_size_obtained": 0.00045024763619990995,
    "prevalence_train": [
        0.9878378378378379,
        0.012162162162162163
    ],
    "prevalence_test": [
        1.0
    ],
    "metadata_versions": {
        "DRIAMS-A": {
            "2015_strat.csv": "56d646ce31a05dd704a4a6693aabc413a4e75f76",
            "2016_strat.csv": "d06fff6b6b60af9fc10fadc858cf5624808aaf3f",
            "2017_strat.csv": "a474ce364f6d3e201b3a527d8786e2c31bbc8577",
            "2018_strat.csv": "e650292c172f16845899c3a566b8f3c427b3e9c2"
        },
        "DRIAMS-C": {
            "2018_clean.csv": "0e0d2a1ebdfeed3f39f7dae50f4000328e7da075"
        },
        "DRIAMS-B": {
            "2018_clean.csv": "27380b0a9a43a1e699b4b311235211ccfd2a76f2"
        }
    },
    "scoring": "roc_auc",
    "best_params": {
        "mlp__activation": "relu",
        "mlp__alpha": 0.0001,
        "mlp__hidden_layer_sizes": [
            256,
            128
        ],
        "scaler": "passthrough"
    },
    "y_score": [
        [
            0.9998896624310445,
            0.0001103375689554764
        ]
    ],
    "y_pred": [
        0
    ],
    "y_test": [
        0
    ],
    "feature_weights": [
        -0.006057472981048812,
        -0.012780021670420917,
        -0.02566079979652488,
        -0.0718275041535475,
        -0.05326464259369189,
        -0.046567014797616525,
        -0.0344543044204137,
        -0.015210816460539987,
        -0.07545023069762018,
        -0.05466729341697628,
        0.04207766606264628,
        0.015009469223290852,
        0.006977416486173059,
        0.05085971887844358,
        0.07627565849885572,
        0.07788313324868235,
        0.0401783405153671,
        0.04649624288514945,
        0.0196921909210178,
        -0.009483259069523273,
        0.07073255069176493,
        0.04458776177981039,
        0.019175936290914818,
        0.019635561424985695,
        -0.0008932626082227347,
        0.06892841433475047,
        0.054677362635992224,
        0.006887299927677004,
        0.01655479339665057,
        0.018111012546543633,
        -0.0029395301024899433,
        0.0016810994846247571,
        -0.015054175925700299,
        -0.004298758533909781,
        -0.024957177632788718,
        -0.024185220679451752,
        0.022541662222182957,
        0.024397608337010247,
        0.022901594881001013,
        -0.027287139560443867,
        -0.08309760315108297,
        -0.073435404410029,
        0.002566637510201495,
        0.020361887110457784,
        -0.04781340902210843,
        -0.052431575762699474,
        -0.029541406675397584,
        0.04357174819089904,
        -0.024328953969512762,
        0.0174763912515489,
        -0.00038333298517207956,
        0.015101568602058971,
        0.0671718599670354,
        -0.009917311052850715,
        0.010267720894130533,
        0.02324386436285321,
        0.025579595641411962,
        0.06712394938229473,
        0.049356183791576316,
        -0.042886695746157985,
        -0.007130561931119946,
        0.009067476052582511,
        -0.0066065109457958985,
        0.0013809980563461144,
        0.03178207405616256,
        -0.04706390720829623,
        -0.06335012275746515,
        0.05038557254997435,
        0.02681496624176681,
        0.07200048803813629,
        0.14958921406847198,
        -0.006956240481399301,
        -0.061013173652440585,
        0.021627297881211215,
        -0.013623856350953775,
        -0.03195087869929858,
        -0.057298949605624205,
        0.02223532505815094,
        -0.02106144771277823,
        0.0154440522706392,
        0.030987611625191397,
        0.03139554452784275,
        -0.007044629800613554,
        0.009707631796788586,
        0.009897466440189472,
        0.033668715386584336,
        0.01695324901584659,
        -0.01999318055992453,
        -0.024651284851908525,
        0.004298131686661124,
        -0.010789177584758745,
        0.038562752883732634,
        0.024670286196326614,
        -0.07387433789152079,
        -0.07658398615727532,
        0.02234856453672867,
        0.0027775523512471897,
        0.0031092197446380004,
        0.006616633633112368,
        -0.018984360200260827,
        -0.026254222126267865,
        -0.02512446697119848,
        -0.045768773986463195,
        0.009219316886913947,
        -0.013854609872083328,
        0.022771410126313868,
        -0.0004005336904774364,
        -0.008452983971138892,
        -0.06847404058209827,
        -0.050044113377539064,
        0.01755804585515595,
        9.433612462460598e-05,
        -0.00906005715262377,
        -0.06226351133751559,
        0.005189655949003326,
        0.07100212805805858,
        0.055409381594712634,
        -0.04351373091553029,
        -0.0646475336024891,
        -0.04379120963300101,
        0.036322876699978655,
        0.0898564281012562,
        0.03269257948959252,
        -0.01877757422539258,
        -0.09426812950295067,
        -0.06742299826286952,
        -0.05140372775228634,
        -0.02887157569184054,
        0.025314068313984767,
        0.06257323751199978,
        -0.0023878130090815063,
        0.022867761342546505,
        -0.017503114112683942,
        -0.055072106219443015,
        0.009309933126053186,
        -0.008653497061287204,
        -0.010495155094760466,
        0.012653321857598225,
        0.01934299855965129,
        -0.0057447800921563074,
        0.05117664474020088,
        0.09737523110311908,
        0.08015233949037215,
        0.004489072114272193,
        0.012714728222359035,
        0.002296943129785022,
        0.012860398962300611,
        0.05621352009132369,
        0.035061272331534735,
        -0.01681782093980956,
        0.07372971341459743,
        0.012224970538712184,
        -0.004150237601566012,
        0.08728868957097154,
        -0.021321206379582305,
        -0.06671736552840606,
        -0.0384491974643353,
        -0.01959648043394023,
        0.05926290330199575,
        0.048976849823029404,
        0.027736451464452427,
        -0.07794722535738141,
        -0.14053690614897213,
        -0.02531874070142554,
        -0.02255575762639468,
        0.0322559248567732,
        0.04032415779680336,
        0.02510182630039821,
        0.06575523087007024,
        -0.019714239533991616,
        -0.0020060130514050457,
        0.014538441732983414,
        0.0632003650961252,
        0.02064582786895805,
        0.0047864545075158305,
        0.020415025238198388,
        0.06033615325112951,
        0.04289702291959411,
        0.06512057412760588,
        0.022265608389479184,
        -0.02119451221227122,
        0.014014414748837002,
        0.0073059225016681205,
        -0.05743231182929484,
        -0.049872709799444234,
        0.026640674842450862,
        0.08692507912300507,
        0.15905640356380635,
        0.03236101092330188,
        -0.05808957349284616,
        -0.034881266444992426,
        0.05129742740934176,
        0.02370375804704022,
        0.027521357018673396,
        0.006818024107281025,
        -0.045262674368154315,
        0.03418215498626747,
        0.06830306954494791,
        0.045092181947990445,
        0.04146543306037917,
        -0.0007372901656986627,
        0.05283061338614845,
        0.06391410038723563,
        0.05541575946002556,
        0.009787823497279777,
        0.019616935205555235,
        0.0020527447560076905,
        0.03715368632704952,
        0.08377659555498959,
        0.04106954302477385,
        0.029477928376728135,
        0.04005965969548273,
        -0.06662267886808662,
        -0.03876507746597313,
        0.1054597448721772,
        0.021919776384044465,
        -0.03435053231893972,
        -0.005269198101427909,
        0.019364153797455187,
        0.053469381471776906,
        0.056211461531167406,
        0.03249367503029657,
        0.04036437896006538,
        0.0075612175268058085,
        -0.004802349521075282,
        0.007440826671703993,
        -0.001111122808312982,
        0.07728834313954125,
        0.03565489584354914,
        -0.001939395314027463,
        -0.005033102198612719,
        -0.04086918730678665,
        0.007095114564145199,
        0.07282182355185032,
        0.04146013583995846,
        0.02700604248126433,
        0.003256896297039785,
        -0.019395982660413404,
        -0.04162827902214444,
        0.010349537349663982,
        -0.038889045818711256,
        -0.05264554062537434,
        -0.01899176394893641,
        0.019932170498586414,
        0.08264632224566783,
        0.020571432953181784,
        0.03850842494375189,
        -0.004417876261291775,
        -0.06909166294994984,
        -0.04595972334183576,
        -0.03338147418398378,
        0.022719062737325102,
        -0.0041253566403748245,
        -0.06756282815147059,
        0.026639472049363625,
        0.03769857398470224,
        -0.0015563357074245684,
        -0.02633122203645326,
        -0.021648339835197157,
        -0.002782588377203354,
        -0.045268308252623804,
        0.0002614585173595565,
        0.03295230204827468,
        0.04556264042341369,
        0.051041270712706324,
        -0.0056012875745986065,
        0.005283600394809155,
        0.019587857380994635,
        0.09650806429841491,
        0.09886021262531075,
        0.029932308755273564,
        0.03584388999905301,
        0.014078618290095102,
        0.016459255595673815,
        0.1258130860950991,
        0.04719424406048782,
        0.030399849056700148,
        0.05909889557905723,
        0.035023123736032905,
        -0.002829613287990383,
        -0.01783669227986314,
        -0.0354211989144019,
        -0.008427660637370226,
        0.08718343989002839,
        -0.019222865554170892,
        -0.050910654985259464,
        -0.036099206762435804,
        0.021334606019185878,
        0.06536462652849635,
        0.02125508008487735,
        -0.044097559348598964,
        -0.05989661296970213,
        -0.03706881598633832,
        -0.0112920936048893,
        -0.014609608324444523,
        -0.054145922003168354,
        -0.02460880698341532,
        0.0156380095587057,
        0.004638055328158712,
        0.020013772869661807,
        0.010964802417638052,
        0.036037155080796496,
        0.06179604287143829,
        0.11257468168078379,
        0.05318071594069117,
        -0.007002901935650351,
        0.016948445262969104,
        -0.017190996886686776,
        0.030493017809160524,
        -0.016008915244485444,
        -0.026393275969406844,
        0.01348511134272995,
        0.07029158831984708,
        -0.009427372974931965,
        -0.021365049804839706,
        -0.006928236957193944,
        0.035888958846867845,
        0.08051090216144913,
        -0.01079116711834174,
        -0.04569910164498549,
        0.01571384836140994,
        0.02712999784833327,
        -0.01410514450698835,
        -0.025505498920637526,
        -0.02385574325654237,
        0.07124434636583646,
        0.04975877089751714,
        0.04944773297849115,
        0.09091056038176801,
        0.020875681807276107,
        0.07612979259685132,
        0.020936829143321484,
        -0.034655615665256885,
        -0.009197790919981191,
        0.02846222589052941,
        0.00022867499034545793,
        -0.03632122175470058,
        -0.027687655013748123,
        -0.0466234392845779,
        -0.011642897496892686,
        0.03264456554390502,
        0.03927678395036683,
        0.009308305633367046,
        -0.0660657843186214,
        -0.14877419657818203,
        -0.13754804113369357,
        -0.042619559120424644,
        -0.006767814920145931,
        0.058648796590752464,
        0.10119135372070177,
        0.04936148549287969,
        0.013558585726138756,
        0.038032530638057935,
        -0.05704037524575023,
        -0.059535129396075886,
        -0.05683910906032002,
        -0.05152273147850273,
        0.021041953630159677,
        0.10062827255639241,
        0.11369212449850169,
        0.0943207222520294,
        0.04539509002302049,
        -0.024789534083078366,
        -0.010217002064182728,
        -0.01632736756855656,
        0.04968478946720635,
        0.01646217525504229,
        -0.013796442449603473,
        0.02321214778511896,
        0.06462059731907656,
        0.005420596272303242,
        0.017649448711789743,
        -0.053753508940118364,
        -0.09261694382570945,
        -0.040120594525196,
        -0.003332302529249929,
        -0.06232718259448816,
        -0.07321686162742572,
        -0.055592146465057876,
        0.010692194805160399,
        0.0259228894723491,
        0.013403985224153897,
        0.002581791872973791,
        0.02523250888834633,
        0.027333621558322117,
        0.025229800072007348,
        0.08176687891910007,
        0.05769902052843476,
        0.00903041066154462,
        -0.04766520485475192,
        -0.057486402202870046,
        0.007906412505841329,
        0.02278480957625391,
        -0.006075841147146455,
        0.0016515341175676601,
        0.036494084752563265,
        -0.025883254081240703,
        -0.05365179285194365,
        0.058570253483085234,
        0.0479692576917715,
        0.004014187368987136,
        0.08198694735816346,
        0.050762725546678295,
        -0.030478127656755782,
        -0.06268356561255416,
        -0.008631614353561495,
        0.0579254284415877,
        0.042093787738978844,
        0.018588701330893985,
        0.015088105941741693,
        -0.021976079223647527,
        -0.06823005784665648,
        -0.008907816714992434,
        -0.005587698488643555,
        0.027516984706238857,
        -0.01858118897951912,
        -0.03667819209720209,
        -0.0039016089512771066,
        0.03408374483188666,
        0.049864749277221024,
        -0.0013983654995717797,
        0.04529306656953823,
        0.06604817883018137,
        -0.04887146965866225,
        -0.007514903498582692,
        -0.00476793649787571,
        -0.017761603938887482,
        0.03816663149823531,
        0.012563529280814325,
        -0.011514849266531882,
        -0.015322186424158031,
        0.07398676542287777,
        0.052339815197466555,
        0.005940830290344734,
        -0.03439293970039158,
        -0.04827382466322361,
        0.01766349986457142,
        0.010666918432549037,
        0.05345439450750071,
        -0.026133626597465792,
        -0.035593802013840936,
        -0.012370157579011533,
        0.04942474626808692,
        0.09467047964259515,
        0.00736586937044716,
        -0.011949773411757729,
        -0.03515176868602206,
        0.047687149112173165,
        0.04832596375422475,
        0.045085951710030825,
        0.04187710520045658,
        0.0025429386982184434,
        -0.07110817767669429,
        -0.05668939215764209,
        -0.042377314228105895,
        0.030409165149589235,
        0.05487154606631911,
        0.07164911831680645,
        0.07248634892463651,
        0.03790613435629434,
        -0.004377516441223174,
        -0.027813253126388167,
        -0.048162714605655736,
        0.016704686916762985,
        0.041146070532703485,
        0.034175704390630515,
        0.006346764010701067,
        0.015169845864506475,
        -0.00613582020585937,
        -0.030805191023408666,
        -0.01845696677045481,
        -0.050306042481573,
        -0.08862823596881363,
        -0.03862938178122769,
        0.022511993570125385,
        -0.015532214601555499,
        -0.05112347069006787,
        -0.029974309354776338,
        0.04598447427667865,
        0.06454051580168471,
        0.1072394538860533,
        0.12183068847097961,
        0.054920577316550534,
        0.0038838075652136523,
        -0.07035796482218894,
        -0.0018303651591639947,
        0.04967197151861698,
        -0.0006894895239430878,
        -0.014005352513208785,
        0.033473519819897934,
        0.05522659900065348,
        0.0640869931939898,
        0.09153338950639975,
        0.07577930030318453,
        0.06253646123291601,
        0.09971760659833376,
        0.1893569419081847,
        0.10837031416954637,
        -0.029027871664977802,
        -0.024849215915013677,
        -0.08133642435109995,
        -0.07780331269759204,
        -0.0541746331775015,
        -0.03558896054114839,
        0.01566294350714883,
        0.01649061619464711,
        0.014832360434584746,
        0.04278478744115984,
        -0.014398833384357457,
        -0.018048990505667346,
        -0.017243780126554302,
        -0.018209824523670107,
        -0.00762058732697183,
        -0.03852692245803514,
        -0.03659074813066819,
        -0.05045546289066407,
        -0.020049829512156864,
        0.005672423321725333,
        -0.03265199930176382,
        -0.026600258373639746,
        0.016870497873071974,
        0.07305244573472054,
        -0.001909053490192377,
        -0.05036791020466183,
        0.01752474448426329,
        -0.005551936135060594,
        -0.022477931912823615,
        -0.00010444778886391465,
        0.034814829831810154,
        0.0024897581547103143,
        0.03787421410953813,
        0.04187173008640061,
        0.06798104706738296,
        0.09929715292452584,
        0.045373284321292645,
        -0.08343483076732255,
        -0.08418060533912272,
        -0.039471865976526826,
        -0.028934134585923484,
        -0.007440432438222485,
        -0.027447974220306984,
        0.004736139160538905,
        -0.0024831600556069464,
        -0.04189751442057926,
        0.0006066442974743864,
        -0.003929186025564177,
        0.012262566562570616,
        0.06626922647550831,
        0.09640733451816388,
        0.027035663732246088,
        0.021989869938682752,
        0.05733566709912133,
        -0.001537335016486984,
        0.0040309153196429305,
        0.014868486507292583,
        0.007687605393323003,
        -0.00036810708158224834,
        0.0623118964702236,
        0.043222687040625686,
        -0.03737134370500132,
        -0.04824450350521497,
        -0.06654547720598092,
        0.09515491151990052,
        0.11196037382914692,
        0.06998625726116031,
        -0.029368817026439883,
        0.018934831780232045,
        0.007072538463868952,
        -0.03271396229992854,
        -0.06363324600365314,
        -0.02295870040381861,
        -0.02532354806016575,
        -0.012350280813096186,
        0.041536897004749884,
        -0.0066924163094279135,
        -0.028779522319765327,
        -0.048067292568927444,
        -0.0500280934019639,
        -0.02604794373238688,
        -0.07506736552001399,
        -0.07934762105137896,
        -0.0007378450345467073,
        0.027543156039202273,
        0.00873758828140589,
        -0.03378581316635759,
        -0.05105220844151514,
        0.016063051651458625,
        0.04397405564879803,
        0.021767725420751702,
        -0.029327873572897283,
        -0.004872197013977567,
        -0.02326197003258955,
        -0.0013399443110443318,
        0.02591769990483074,
        0.024282081115015307,
        0.01131475500475975,
        -0.06134158054754699,
        -0.02624984148166955,
        -0.020551761595296442,
        -0.04676180526109555,
        -0.024918195002520245,
        0.06603023277568157,
        0.08833173721890014,
        0.11099047749792496,
        0.04204081130325049,
        -0.011972803546332011,
        -0.011167702753203007,
        0.00015944972975606405,
        0.01268713055660825,
        0.03976222008405307,
        -0.02433826516552269,
        -0.019884597390730972,
        0.03455068870749003,
        0.07344902454996581,
        0.0333238871457696,
        0.10618196134320865,
        0.1645486582112245,
        0.131007484613641,
        0.0905439190832901,
        0.04955595610394223,
        0.004151574066310343,
        -0.12640424803021288,
        -0.1094222549369348,
        -0.03977713147131384,
        -0.00899156489378427,
        -0.016246247290423305,
        -0.007313575844025644,
        -0.03495431031918289,
        -0.05446185419377411,
        -0.06415118478883672,
        -0.0011825339098061024,
        0.029091003118915302,
        0.01874692588242689,
        -0.056227312234727864,
        -0.026906400644785895,
        0.06169951335896438,
        0.03577877139260936,
        -0.08148494276479169,
        -0.05526078829822874,
        -0.05348092171617382,
        -0.03648892817172117,
        -0.012001794955358828,
        0.0004728467146590782,
        0.0017441519468808363,
        -0.001143059118403788,
        -0.01197573458409101,
        0.01945427605129049,
        0.03273249075965785,
        0.006747121487023708,
        -0.02288654649199723,
        -0.006036863375977848,
        0.03640436031799532,
        0.005661689825317821,
        -0.018781793549644314,
        -0.048685478057057925,
        -0.006677124561415651,
        0.032255576343384516,
        0.017148762017308215,
        0.006327428130183657,
        0.022711398677590824,
        0.009505390656315303,
        0.0018786909004755898,
        -0.028108029222610034,
        -0.014523099307725797,
        -0.021533637851348823,
        0.022000555316638234,
        0.02753491786952638,
        0.05345009570178994,
        0.004001348514016125,
        -0.03831709278131133,
        -0.08125461179837011,
        -0.04541250781982052,
        -0.023407916923373843,
        0.004148203968331491,
        0.03152102190257209,
        -0.012026194633054304,
        -0.029800546788693184,
        0.036082739677438844,
        0.06398691117116463,
        0.0652132964938007,
        0.07774376872143393,
        0.0591425948955069,
        0.05849680061641071,
        0.028292375448064566,
        -0.018643861070416864,
        -0.025692355119125047,
        -0.047113313839237496,
        -0.06437523417003402,
        -0.057390408190641715,
        -0.005609561648356933,
        0.04425294045955485,
        0.014402979590893176,
        -0.006115465295554283,
        0.0038012445082463704,
        -0.0011097452991307962,
        -0.015876801023589477,
        -0.007041725199468691,
        -0.02482907793111815,
        0.010910407970184378,
        0.07481909561693836,
        0.09775023843246215,
        0.09460950067499838,
        0.11002244443202816,
        0.06537680873424409,
        0.03208422598918937,
        0.020952506736325788,
        0.0007340220746024346,
        -0.007270832596346855,
        -0.016998888295297415,
        0.03156617483635719,
        0.011193670441659441,
        -0.1048763352029419,
        -0.1326680637958522,
        -0.09404223763352448,
        -0.03612241926671168,
        -0.0029149732445751847,
        0.11772708740407063,
        0.14684259383567186,
        0.07301962017677607,
        -0.006565194145984516,
        -0.07441104284307534,
        -0.0354168258112232,
        -0.00962361248465505,
        -0.014166369490362516,
        -0.020520938202333125,
        0.008417960815321916,
        0.031155610096303174,
        0.01703831122215073,
        0.003967692572524472,
        0.001764183117275712,
        0.03529817875446201,
        0.01699231087541218,
        0.015230672677052512,
        -0.024515704110347848,
        -0.08833474478996041,
        -0.0745718827934373,
        0.027033858473234827,
        0.02550520937491757,
        -0.02199346826984304,
        0.00967290712587714,
        0.01952039873403117,
        0.014359062017558991,
        -0.020571922404243118,
        -0.06682427215939027,
        -0.12079207762182237,
        -0.08219199526767736,
        -0.01372933169462142,
        0.05113950053186868,
        0.04986717280096619,
        0.014514536233036033,
        0.013691588181107068,
        0.018379986977399933,
        0.032020361116838224,
        -0.006951625164609333,
        -0.0530187906483154,
        -0.09161820376581147,
        -0.0661039454161937,
        -0.02896918637816073,
        -0.04745134421919416,
        -0.012961977322249827,
        0.042900254497565335,
        0.010551656512513701,
        -0.022859002788888312,
        -0.004182018405909721,
        0.026637971785146902,
        0.03820293348323501,
        0.05580722229330065,
        0.05563760215833394,
        -0.0006070614079736289,
        -0.016241134191592697,
        -0.01150690350074952,
        0.031961090176323696,
        0.024323994924571872,
        0.0039563381018003045,
        0.0663994276752739,
        0.07128096694462394,
        0.06838586575501894,
        0.04229283897452276,
        0.04928910672974064,
        0.1034288129347383,
        0.19558736246488767,
        0.18717387141124653,
        0.09496910644779641,
        0.008535890719209096,
        0.004074159979625306,
        0.03582028651573571,
        0.02117410386170698,
        0.015358410130433974,
        -0.000918565734981505,
        -0.0012972140685132225,
        -0.006731520234492827,
        0.01821813982639786,
        0.008485266519726621,
        0.026919747875917426,
        0.048064014441254396,
        0.11041867386675476,
        0.09166362370454231,
        0.05658641131060909,
        0.008651339540892655,
        0.014319856449983055,
        0.019469403831639105,
        0.01890621516899122,
        -0.023531961910516822,
        -0.021543100427862616,
        0.03092604793317761,
        -0.0224722607664617,
        -0.050998847420172445,
        0.0342106754585638,
        0.11110727400159527,
        0.115666691118992,
        0.04663156950856287,
        0.006568884900161528,
        0.019041651400330643,
        -0.017460187048803488,
        0.02031134071681881,
        -0.02270693290598312,
        -0.03732392170168458,
        0.017165248789128354,
        0.023811332457461462,
        -0.028018835932781858,
        -0.04431693106671541,
        -0.0064217444099071135,
        0.017868360901874897,
        0.02262207341361875,
        -0.04811629089752694,
        -0.03148019363379823,
        0.014732182935745675,
        0.04209739112705823,
        -0.02691339609630079,
        -0.07108571872340833,
        -0.007058685385669835,
        -0.017200474211459326,
        0.0027311327469231967,
        -0.030357621858916346,
        0.02775138162126614,
        0.04239764159230441,
        0.06178084195360649,
        0.04817253900500118,
        0.06083859328642279,
        -0.08007053088897975,
        -0.17945015908272005,
        -0.21076044607648853,
        -0.1576202937486631,
        -0.02816372517580127,
        0.0382906903719754,
        -0.047352397937003236,
        -0.044296709581709996,
        -0.00016056712964979776,
        0.04900119269584404,
        0.0286234207322566,
        0.00695347188377454,
        -0.021624741042704818,
        -0.001492920637909996,
        0.0457235657689818,
        0.08685323486798499,
        0.08214800468970487,
        0.032024444835240584,
        0.009045759080713723,
        0.01933325410050919,
        0.07182028057926217,
        0.04811068580600557,
        0.01616717662334862,
        0.047702704595337986,
        0.059332488504589095,
        0.057448909695971925,
        0.043582415592876914,
        0.051358058240153714,
        0.05319997961352346,
        0.046474742619529844,
        0.04354503114670462,
        0.01668256681907619,
        0.04016768235504546,
        0.016568788943855713,
        -0.018961009365294355,
        -0.020300061100262765,
        -0.0671641980643354,
        -0.07220983495703365,
        -0.054844803885690394,
        -0.008120540059842779,
        -0.02349662958841115,
        0.02331879388957346,
        0.01122115262238188,
        -0.044509350457352485,
        -0.10044335045468772,
        -0.0486087392794497,
        -0.021224616755091418,
        -0.031694283998403544,
        0.030541876890338257,
        0.006419266056117038,
        -0.061742328941627206,
        -0.014237371694024201,
        -0.0037968382452381213,
        -0.029407553013764798,
        -0.024521520207730282,
        -0.014386510643804501,
        -0.025818337610260415,
        0.011669367777849313,
        0.017545831325609468,
        -0.06645236943333141,
        -0.039250327085637395,
        0.04870630839779804,
        0.011178558189542904,
        -0.14406808059052206,
        -0.15580660289988363,
        -0.17760530492136611,
        -0.04194993166293258,
        0.1223828754954887,
        0.04847296253911828,
        0.03879964674818426,
        0.0738394330199923,
        0.010886618857823369,
        0.04028188287559528,
        0.016109845041578617,
        -0.01552226627613357,
        0.03483963784075169,
        -0.023139923102756386,
        -0.06893248604404972,
        -0.11515712283051395,
        -0.15175457584025753,
        -0.018274201348416175,
        0.1067546287961518,
        0.08334553518619794,
        0.03933459149939969,
        0.023755444902531793,
        0.010219686648584268,
        0.04908456001264096,
        0.04813622495643465,
        0.046390931188083934,
        0.03894953243311972,
        0.032920388140681524,
        0.04500528397712036,
        0.04317189354728253,
        -0.017335409389510666,
        -0.02485807041015055,
        -0.041879508922302286,
        0.02432221841140753,
        -0.06504311557104729,
        -0.06474820741653495,
        -0.009571756774679932,
        0.060991452943150046,
        0.04764004092577183,
        0.025747430796078354,
        0.04890591865510541,
        0.023430276082932976,
        -0.019371422609398666,
        -0.02921456207712915,
        -0.016253132774303715,
        0.010176977596187683,
        0.04749685626326201,
        0.04983668312936107,
        0.03128732154601592,
        -0.028784479987923065,
        0.0019014112435800615,
        -0.011188559083069613,
        0.027937599665421576,
        0.014309997223167538,
        0.033628239512622754,
        0.09499794932534104,
        0.053807244401935864,
        0.00583261148092595,
        -0.040548164624714875,
        -0.024055195564324304,
        -8.59500226577754e-05,
        0.01421662675753757,
        0.05172048155780331,
        -0.06276951133945662,
        -0.06331488909895164,
        -0.06067749576766489,
        -0.05918113066736893,
        -0.04778020069016038,
        -0.04694242443961305,
        -0.02683575119940633,
        -0.11386760407382589,
        -0.10208492913526494,
        -0.09686540618559011,
        0.04886209620946598,
        0.061848303779472286,
        0.048053846174109904,
        -0.022765425885714445,
        -0.014566292538054536,
        -0.020361320015826995,
        0.02277975174795875,
        0.07359079260824924,
        0.06728826107920083,
        0.06974008452930233,
        0.009273543686438776,
        0.0360873670491972,
        0.009825321510222185,
        0.018300497335365658,
        -0.02621460000940836,
        -0.003534704663450044,
        -0.0015568726635935256,
        -0.020346137322140093,
        0.000849349894977886,
        -0.09068225772792962,
        -0.09893713842430713,
        -0.13452296390802526,
        -0.06850424712789219,
        -0.021379711867397167,
        -0.01934801025954486,
        -0.019859953153995795,
        0.015285069226089864,
        0.006142202788813036,
        0.001582693674895515,
        -0.03557645536757317,
        0.08293781733350492,
        0.07250145602492816,
        0.05865477957673387,
        -0.0363764792691694,
        -0.018370052300518004,
        0.013783155551659303,
        0.043486717346957506,
        0.014285487286476002,
        0.0033133347372822177,
        -0.005741479728786323,
        -0.010778900763317717,
        -0.004442932524504841,
        0.03437154839093595,
        0.024806551780475722,
        -0.011490887078831225,
        -0.009604452055456543,
        -0.02665339302403741,
        -0.1079196178334568,
        -0.14131233475366134,
        -0.12591854982978481,
        -0.05347698626448406,
        -0.029365165956458415,
        -0.03230198526103122,
        0.020172074123099987,
        0.029385395932127266,
        -0.015127954428238388,
        0.014630636155553555,
        0.03487564530038845,
        0.024835766357022428,
        0.007962688508427634,
        0.02436602667423514,
        0.06616402479633302,
        0.059463502285870794,
        0.008720763118173762,
        -0.00780843675955145,
        0.004553650862056117,
        0.009087084007928355,
        0.026055027849457985,
        0.04204389428489742,
        0.02963382774330706,
        0.056220393430451196,
        -0.01028950373438552,
        0.04423307986533062,
        -0.035401486926286356,
        0.04857424250241995,
        0.014401526416233372,
        0.0343261249558999,
        0.012173426184014098,
        0.0387585814915299,
        0.02133117551456734,
        0.027738734052437833,
        0.011147155394389105,
        -0.041477952339989396,
        -0.0025049989104193363,
        -0.06527373559048766,
        -0.07310773345231673,
        -0.09261145298259107,
        -0.0015855270636421235,
        0.13372951490113322,
        0.1457321226722164,
        0.10275517144607721,
        -0.06364254664807825,
        -0.062204491690780135,
        -0.07072433025717999,
        -0.02198881347725226,
        -0.035634095040905964,
        -0.039199329554193925,
        0.04162408786072482,
        0.0021919722146254896,
        -0.008746175387608471,
        0.006297993441228126,
        -0.01518978247102461,
        0.00637100635794019,
        -0.012247524861409988,
        0.020363823089637703,
        0.02562186086162959,
        0.03122301363505098,
        0.005719373917429295,
        -0.03964365854204495,
        -0.018664197842208703,
        -0.020505877586095317,
        -0.025446701347036915,
        -0.0078060423113847114,
        0.026465706870762096,
        0.06627365127668232,
        -0.028173161414278995,
        -0.09169929615812833,
        -0.061094461786617205,
        -0.06198326145093826,
        -0.016057210812662922,
        -0.022358141370586435,
        0.044930869873631124,
        0.05392180683484804,
        0.049713954500856965,
        0.09738884517521523,
        0.05064737508683897,
        -0.05024767631817298,
        0.025729772937155518,
        0.019910442661593124,
        0.007930924434237631,
        -0.02503048252301297,
        -0.07703661933284363,
        -0.02274088523374735,
        -0.0336448651071406,
        -0.08781039330360024,
        -0.033580254839982594,
        0.02783869063430344,
        0.030330306875693637,
        0.052138029901243846,
        0.02441448569939072,
        0.022952407482974314,
        0.038542343336786716,
        0.01919715130289193,
        0.05400916336995277,
        0.0342809403098375,
        0.0011935726203036214,
        0.06104354368534245,
        0.04971117028239863,
        0.051543920739962376,
        0.08536089008847214,
        0.025995737531772093,
        0.005830648104873935,
        0.05133655256048816,
        -0.006087162507352186,
        0.03389412698783536,
        0.05381686789330238,
        0.008681319843572592,
        0.0815348901478243,
        0.1268167437838322,
        0.08950999800124594,
        0.08844353876259506,
        0.09924887101779412,
        0.06024899118380576,
        0.10524175672421297,
        0.07116214251718292,
        0.014217296515411926,
        0.062467627184705984,
        0.061207509981538545,
        -0.022676173553285366,
        0.006593734788496201,
        0.03843012110652474,
        0.02373205847679248,
        0.08301007387156265,
        0.040879533819813955,
        -0.06336722468180708,
        -0.028138172264799394,
        -0.010786622844984106,
        0.0019415455135156274,
        0.02839668818492085,
        0.049281618477257344,
        0.015813209773590485,
        0.027287461058717294,
        -0.011257225172003902,
        -0.02348601352488782,
        -0.03915754297188877,
        -0.03104933478034443,
        -0.060011188921915905,
        -0.04171291957025976,
        0.04106034652915136,
        0.06422213316100762,
        0.022236178963159547,
        -0.015096515991944691,
        -0.054190006520279374,
        -0.08322315382254199,
        -0.052791024653575255,
        0.04404475659035766,
        0.030405054301916007,
        0.0055994797741200295,
        -0.014316752197552173,
        -0.03367429423437899,
        -3.667054868753403e-05,
        0.017072125730795105,
        0.04054061744626715,
        -0.007956277507769706,
        -0.0031879359264409927,
        -0.026285322675214825,
        -0.00792292482929017,
        -0.06297875062228012,
        -0.01667960507285606,
        -0.0005602737054304667,
        -0.03410904488281144,
        -0.010945354131953081,
        0.05616705245309086,
        0.05738256843160623,
        0.001819852243656693,
        -0.020671119444067014,
        0.01716358137554598,
        0.017542166068382485,
        -0.0038428473122188167,
        -0.03609179272365455,
        -0.00015652681954531273,
        -0.03626284577683398,
        -0.07725692392994925,
        -0.040685910931437426,
        -0.05884507138508097,
        -0.10397830996146065,
        -0.07880026892330037,
        -0.0018063586542859098,
        0.013398642807862854,
        -0.04648055501525419,
        -0.06940913610134604,
        -0.0893785615272334,
        -0.12320433429440383,
        -0.08384207940676215,
        0.0005112349579314858,
        0.014426503895158427,
        -0.11278547897103984,
        -0.1467526392257151,
        -0.13899072704011994,
        -0.13611124832711113,
        -0.1067036059135853,
        -0.08378343898190731,
        -0.00035261549341423555,
        0.0018979112384938383,
        -0.06091554200448837,
        -0.10897192901425051,
        -0.12060819885885277,
        -0.09853006162626897,
        -0.00277735800653593,
        -0.015103262484808012,
        -0.06261670206079187,
        -0.1073199628529402,
        -0.10814730387628795,
        -0.0969438983653641,
        -0.06546414629706689,
        -0.052263589301090735,
        -0.0658207183551146,
        -0.11357664521269492,
        -0.08784472559067819,
        -0.02410116060587089,
        0.027380340957317964,
        0.02143978021528478,
        0.020153881437654786,
        0.04890280086461083,
        0.04788436547635855,
        0.03638181099013238,
        -0.004533148207815035,
        -0.014307224295831995,
        0.02398555323479342,
        0.052591704782242364,
        0.05278544884406319,
        0.027083601443665353,
        0.03720511387118727,
        0.09405814628897108,
        0.08873004998734563,
        0.04539803593016343,
        -0.00891141872207556,
        -0.0782821934152037,
        -0.025931238871056535,
        -0.04865821885283947,
        -0.06750574424290545,
        -0.07020674494697463,
        -0.07333814173032743,
        0.007559043573220492,
        -0.01983614235554266,
        -0.052806475203768605,
        -0.09226043143030146,
        -0.05617234881381973,
        -0.009795568539591223,
        -0.012056663460233624,
        0.010546732817791445,
        -0.01669480903206914,
        -0.018903463685036426,
        -0.03045545467776306,
        -0.0533261025281351,
        -0.055293847267208526,
        -0.06369817771512702,
        -0.004038469521367494,
        0.01595438051457558,
        0.010959194505303438,
        -0.028108157743017198,
        -0.04575559528561428,
        -0.038455893530559226,
        -0.019844427184626076,
        0.01503673879390262,
        0.039085824035795774,
        0.0344554253354562,
        -0.007760356078208416,
        0.031471890726778015,
        -0.009995412217378943,
        0.0011897556173437805,
        0.01670557964439002,
        0.0063441825365536265,
        -0.03051840437608,
        0.010460751283474817,
        0.02723131713313827,
        0.07507987853180147,
        0.05036179712865103,
        0.022714716897612917,
        -0.023600994899586572,
        -0.015476802304261876,
        -0.045674599823863245,
        -0.016558262494328617,
        0.0049752831491166076,
        0.022256485410283987,
        -0.0012718470694599564,
        0.013448634109240047,
        0.02525359518360463,
        -0.02083353943220177,
        -0.07474842417986904,
        -0.09181589234588074,
        -0.05547621552166712,
        -0.06331574338391,
        -0.02435795919269644,
        -0.008264469460988983,
        0.01642285969978174,
        0.03003502418814837,
        0.04429686449066958,
        0.039091450368579486,
        0.01443483061537321,
        0.005383194908958541,
        0.013100029549218304,
        -0.02078625293090204,
        -0.025575055080264683,
        -0.0036897985594900977,
        0.027207162232649934,
        0.020474223296337045,
        0.009688179872348825,
        0.003958206532012188,
        -0.027658803446832587,
        -0.045724886020836,
        -1.0484706312669705e-06,
        0.05803849241172058,
        0.03966826167250871,
        -0.0015694980866139282,
        -0.0058782550196254365,
        0.02757089298400872,
        -0.014014439840285383,
        -0.01218270198517955,
        0.028224719601912675,
        0.040041384747150785,
        0.017121414417343425,
        -0.004339205287340556,
        -0.054099436867663456,
        -0.0447811783891334,
        -0.05426999444832528,
        0.02034086984479352,
        0.017806711091906555,
        0.007981153724722582,
        0.03274037517963657,
        0.023670228019025543,
        -0.0005892655752666446,
        -0.05515711326671087,
        -0.0886434647787552,
        -0.06204878506174476,
        0.005079049251370307,
        0.024550611559351312,
        -0.0004985031271175748,
        -0.044926988896027704,
        -0.034724790671192024,
        -0.03775086765101438,
        -0.024143574408778238,
        0.017643351207257473,
        0.029463506020855332,
        0.05020346215542217,
        0.046889675906992764,
        0.06242130140641012,
        0.03594503051110173,
        0.031195770510067902,
        0.06071674942887837,
        0.07788128423337669,
        0.05486644190974507,
        0.006001061324675208,
        -0.027196970841721735,
        -0.03277150964957344,
        0.012130578472147128,
        0.05744123326572556,
        0.06390673618097581,
        0.00806650080829494,
        -0.025308560111104994,
        -0.010725896168996541,
        0.014580805559739028,
        0.05617753329489425,
        0.05546535734886017,
        0.035339920662898976,
        0.007588663104178181,
        0.012953433084469454,
        0.07927108416031473,
        0.11121977275841871,
        0.10688420570109215,
        0.08119734644230434,
        0.04561009906593497,
        0.03289026475697966,
        0.053790348912462364,
        0.06759318903417325,
        0.06036083730911311,
        0.037373268964872294,
        0.07665776452345388,
        0.08854381272888814,
        0.06740070780140488,
        0.017320742927994105,
        -3.07754061281002e-05,
        0.023460120037927364,
        0.026097445850910464,
        -0.0052232549896114346,
        -0.0007886982141849085,
        -0.008041820033113423,
        -0.03448943010876661,
        -0.014215383661045024,
        0.03584922700702482,
        0.06112587195507953,
        0.05904255613056897,
        0.015818209753049397,
        0.024169709331132987,
        0.05798458868870718,
        0.07687672757114342,
        0.0817900669350377,
        0.016200487137584072,
        -0.014395279695961757,
        -0.030641438165001,
        -0.017279862838856436,
        -0.0019541876844320323,
        0.009660285412759536,
        0.04129776254575618,
        0.03924997658742485,
        0.04270328045293548,
        0.04348239248630596,
        0.035510593771550664,
        0.02239496165177684,
        0.02296937814336682,
        0.017243661101275544,
        0.040112885145988986,
        0.03276349882531467,
        0.017325303867757085,
        0.01265371616859199,
        0.008783737279472476,
        0.027791864329728605,
        0.02680210825593473,
        0.016587177635016756,
        0.008471794038158125,
        0.0334244609496986,
        0.03595836032033904,
        0.007462083640306051,
        -0.017816181249235917,
        0.023325045462007234,
        0.07927660156265849,
        0.05954504068246287,
        0.04373747233815066,
        0.05664595851130769,
        0.07079595644431691,
        0.03995651240827029,
        0.006959518364978491,
        -0.010530154190443765,
        -0.03788871551703389,
        -0.06079983436691465,
        -0.08613682615110194,
        -0.10993600362235388,
        -0.10406172576742291,
        -0.0861011219092553,
        -0.06680806912992233,
        -0.0662286597291963,
        -0.08612178829983068,
        -0.06954042642217848,
        -0.023998130897269064,
        -0.014628380827156196,
        -0.010556224727149751,
        -0.009635267483440594,
        0.0032746947965128503,
        0.0059993260677626906,
        -0.006838185550642324,
        -0.018165184461636126,
        0.005775221177729479,
        0.04388353792286057,
        0.04933694064366151,
        0.07180788389428393,
        0.07330714416085399,
        0.07631934216257999,
        0.04222967980049946,
        0.03880177236972215,
        0.021364444593804915,
        0.01162245655585786,
        0.012411622833593174,
        0.029292426630435492,
        0.01706558814326046,
        -0.0049983512102830885,
        -0.05506753336645001,
        -0.09499080653582753,
        -0.09527354765795887,
        -0.0697835570907552,
        -0.07866032100567247,
        -0.09534890187228733,
        -0.07353232327434786,
        -0.03674310709616692,
        0.02015255911273868,
        0.007376628887247122,
        -0.015170142880611394,
        -0.02304914523731004,
        -0.008155267512520954,
        0.020119956411753844,
        -0.03925040509825792,
        -0.04188177886571558,
        -0.0469924050539592,
        -0.011231272520278467,
        0.021709623913701324,
        0.004027115224104464,
        0.017534448976256296,
        -0.0031759657047336597,
        -0.028421384567882107,
        -0.030478395719596096,
        -0.038064546301087826,
        -0.018485763969750605,
        0.002989101703648748,
        -0.02104651785328303,
        -0.026276908313607756,
        -0.08210577234124031,
        -0.07042644207938811,
        -0.017127348194254648,
        -0.0011593740800466012,
        0.02252432623263621,
        0.008614033290787885,
        0.010835165549854375,
        -0.020709857539227824,
        -0.041082892142322996,
        -0.04035509567055742,
        0.002299019222005639,
        0.027014647289997515,
        0.02051158661833525,
        0.008958329793825829,
        0.009324605330658674,
        0.010622314606717823,
        -0.005998827404476355,
        -0.02637475461575297,
        -0.013859168708527346,
        -0.007060318467791012,
        0.022604312680572496,
        0.019214183493024714,
        0.024968285362854357,
        0.03560848367692499,
        0.05453717949871166,
        0.074372488635794,
        0.06989463402745634,
        0.04672564136828687,
        0.05610276741130585,
        0.0441186340497023,
        0.05762883572577445,
        0.022205076393721216,
        0.011571445460413943,
        -0.001783083675322169,
        0.025517936265722158,
        0.04128477168592291,
        0.011720390183293034,
        -0.005522081648005273,
        -0.015428676717533634,
        -0.006931596392177137,
        0.00234053602703192,
        0.00374674598325699,
        0.008829266187126646,
        -0.08330539037530867,
        -0.09601312111823339,
        -0.06035006042011535,
        0.025026476256267485,
        0.024109808238274223,
        0.010537011172399541,
        0.03705471862305757,
        0.05741040027309936,
        0.0823573794753425,
        0.058204683183707015,
        0.03224111065826538,
        0.043765785122325006,
        0.015064960956362818,
        0.00214320281571708,
        0.02459966977682028,
        0.02112553556776828,
        0.008489810400902104,
        -0.012494856140514175,
        -0.018332946062421605,
        -0.027383392996302297,
        -0.08633739996127562,
        -0.05335302290905188,
        -0.03553754485561464,
        -0.00771591467646978,
        -0.009601031452183398,
        -0.05037965348691601,
        -0.009991627730273796,
        0.01750888052954082,
        0.010713912575651022,
        0.03206585807265816,
        0.03785273661589721,
        0.05440469697620568,
        0.020348021654999358,
        0.00045172699454647616,
        0.014991059649286258,
        -0.020062379149837852,
        -0.0313413293010851,
        -0.035030400275106816,
        0.030299251099527504,
        0.0018024716180656069,
        -0.06870881626550411,
        -0.06245786713103851,
        -0.03200512454595847,
        0.025163141320122165,
        0.03687234079236911,
        -0.0443583936256214,
        -0.06980834971930239,
        -0.059554792506936016,
        -0.046290428315970744,
        0.004496890359267758,
        0.030373537427119766,
        0.09670118934214503,
        0.0806224196295274,
        0.05588865212881434,
        0.025761920895841187,
        0.016407687259990887,
        0.03419901340515043,
        0.01334777481261161,
        -0.017836624699071577,
        -0.026659037934947918,
        -0.04802167784198785,
        -0.05362789214452583,
        -0.061598821859565375,
        -0.05420764792150043,
        -0.038512993654924825,
        -0.034538240202414305,
        -0.01157180174365624,
        0.031699811585318,
        0.06703363290797035,
        0.04683695507005111,
        -0.028777493429307747,
        -0.04139667877036012,
        -0.02317504405151246,
        -0.04879814670709905,
        -0.057585507923757454,
        -0.07187148428351284,
        -0.023328733488120222,
        0.01729225036616259,
        0.010147354181005222,
        0.0260609333355503,
        0.020155159269306045,
        0.010137166644624279,
        -0.011495319871148423,
        -0.015268372747383994,
        -0.0025582886784682947,
        0.03243060983515488,
        0.03334157827327655,
        -0.03045657525168967,
        -0.041765607192870674,
        -0.005879991757072622,
        -0.013792555871866279,
        0.007160494487430005,
        -0.03237157560189013,
        -0.019272929299916888,
        0.007327999230866911,
        0.03460285108138444,
        0.017948227668097755,
        0.04251331427466164,
        0.019478072929024506,
        0.022352329682700664,
        0.01457005925986024,
        -0.014300037379811219,
        -0.023915185887798514,
        0.01647676560377622,
        -0.006840574552817148,
        -0.004138871024505698,
        -0.043450905511933535,
        -0.03915684721678274,
        -0.005467574009010575,
        -0.011368975315050277,
        -0.021899560188018488,
        -0.04281147598840693,
        -0.043950378128664605,
        -0.02974857694130848,
        0.015410923727696388,
        0.0016573820809639905,
        0.02656019905315932,
        0.03673219601756553,
        -0.01719690539874843,
        0.012479424210224487,
        -0.0646378852720002,
        -0.0486467004035612,
        0.007352635920244424,
        0.011889135445647486,
        0.04758338108262258,
        0.02083441645876264,
        0.019885995654594514,
        -0.014187442982695184,
        -0.03410705811323821,
        0.029431478346790326,
        0.028424441664596373,
        0.02365798844701031,
        -0.05421808323599421,
        -0.12594921395436,
        -0.10998995808454023,
        -0.13521262056923972,
        -0.114648728221249,
        -0.0819977109649017,
        -0.06304145199799353,
        -0.039818223726208565,
        -0.06013894603233828,
        -0.0499301576043044,
        -0.0028060141464908996,
        0.015506689516313286,
        0.03362898380031862,
        0.044515710018496565,
        0.013496970349433195,
        0.0047031299994421,
        0.028946244839510707,
        0.02902786875980382,
        -0.0009639940539206653,
        -0.05613841325284706,
        -0.05995825101057427,
        -0.0038253414475921486,
        -0.011684952134011398,
        0.02149370347224633,
        0.0493795889969412,
        0.07252640650733544,
        0.03144920178697751,
        -0.016636154913303728,
        -0.07526268520850907,
        -0.055540043507958436,
        -0.005284105844002203,
        -0.03222604897259895,
        -0.010155522986813357,
        -0.01574825195216687,
        0.02609290597430077,
        -0.02334848251403652,
        -0.02201811511177776,
        0.031218773711172848,
        0.011553732218866672,
        0.045219808225556025,
        -0.0490747634563969,
        -0.021398314617189322,
        -0.001468629274334834,
        0.032132641219518185,
        0.021736495584600855,
        0.05010338381606924,
        0.042351390264192906,
        0.05986868435348293,
        0.029293900286724427,
        0.029271028179271647,
        0.07470654470048457,
        0.054340192777804955,
        0.0024811409404384586,
        -0.04740249701343757,
        -0.04786280318169409,
        -0.007233397587057646,
        -0.0214199781883497,
        0.004431172966983867,
        0.0287473122072774,
        0.0606561571370947,
        0.009919150649808306,
        -0.009027909745902452,
        -0.009564889130285505,
        0.054504188437134476,
        -0.01313014094390343,
        0.012375034390228221,
        0.020142111574447064,
        0.052502040479583956,
        0.01959350538214316,
        -0.009972833998971932,
        -0.016770817922801044,
        0.058810326990749326,
        0.01798787156991244,
        -0.01317260539477155,
        -0.0025031366365858496,
        0.05997744338148491,
        0.03904265122793285,
        0.03412875945197612,
        0.03973851282730333,
        0.07175923304935639,
        0.04555765808323612,
        0.016368718768994966,
        -0.011339603087737564,
        -0.0724021467718079,
        -0.04803219525687239,
        0.017949714339257926,
        0.026009664064128253,
        -0.05566933545340657,
        -0.07080912076346571,
        -0.02442547536909976,
        0.0904976666179859,
        0.04014051793698101,
        0.062341421095432205,
        0.0832055789966899,
        0.09661398479910918,
        0.05313023028501031,
        -0.007937636935424982,
        0.006138096650794082,
        0.020116643129601035,
        0.05100920037686055,
        0.014113388861322174,
        -0.028206370828409648,
        -0.037511622304910175,
        -0.025605071196645797,
        0.0033003375081314223,
        -0.027503365837352158,
        -0.01906064582158792,
        0.033769600072835165,
        0.10863387533097851,
        0.08301610766074985,
        0.09884626900198204,
        0.1287272016115859,
        0.08685088737467567,
        0.10845494948361445,
        0.08290317220104969,
        0.04358007247869629,
        -0.02881838923343237,
        -0.020845466777975392,
        0.017707141127752665,
        -0.005820766723046994,
        -0.011070263861648113,
        -0.039830818105667506,
        -0.0593178245033871,
        -0.017659508895207163,
        -0.007320664767402494,
        0.029865698298581017,
        -0.05178332220751699,
        -0.04798373387998446,
        -0.03501475285260405,
        -0.01362694899090848,
        -0.0029667774424660754,
        0.052711188139336985,
        0.04551884370268521,
        0.05694793455466593,
        0.04041155416610821,
        0.033121346585945864,
        0.04416394445028139,
        0.047230839755204077,
        0.07123708329371506,
        0.013917517276254475,
        -0.013175262656656743,
        -0.0012898028197875463,
        -0.024573608124641967,
        -0.03602562714064847,
        -0.0025186893585120314,
        -0.04166716724335735,
        -0.027378541174759276,
        0.01210892177706523,
        -0.014765834980357866,
        -0.004334736230393793,
        0.006651115170522642,
        -0.01543522740051635,
        -0.043755127893535264,
        -0.027959284524975266,
        0.005926307301594565,
        0.023430106594051224,
        0.013014665192766627,
        0.045914808325311154,
        0.033121793809045764,
        0.04872095772348871,
        0.07876104464790656,
        0.022847936557807515,
        0.023419944368922863,
        0.06230023410281769,
        0.04684938663492466,
        0.03601245782359169,
        0.043276441005868145,
        -0.005501412112222239,
        0.045371990248728025,
        0.10800854537683477,
        0.09363557563186883,
        0.08399427470963429,
        0.10435972160210695,
        -0.005130139084328,
        -0.025284446304512175,
        0.04119575919486853,
        -0.011934355847873793,
        0.011846763200667689,
        0.02007463123413402,
        -0.020704188315016546,
        0.0659686698999371,
        0.11648754093280736,
        0.07401949922194802,
        0.025426929392518446,
        0.005365527740289316,
        -0.01764839344238722,
        -0.01967072533393583,
        -0.0009759129175428362,
        0.020993934252453418,
        0.0764608277564148,
        0.09520451223877045,
        0.0797074190419014,
        0.06839652489958703,
        0.044963745343609605,
        0.050532900390327845,
        0.07517706568135334,
        0.07163667515363495,
        0.0756788833541655,
        0.1325184331950368,
        0.07582661231609863,
        0.020499728019446203,
        0.023701513330279606,
        -0.071258942227536,
        -0.047464882690628936,
        0.026869159481916864,
        0.004285330141656188,
        0.020937944682633804,
        0.049028493315016616,
        0.07899106462394381,
        0.09744701078314327,
        0.08971007415183235,
        0.08130091719331427,
        0.07522713103929869,
        0.022633460650142972,
        0.07466921030601856,
        0.17419970175533547,
        0.16881871990355055,
        0.14026470813958028,
        0.0948439899891328,
        0.06603440273580846,
        0.044669568393408146,
        0.06912019162000702,
        0.013612700338802691,
        0.023855887031733723,
        -0.06225290932919878,
        -0.11301977600794795,
        -0.1403270862569458,
        -0.17066464497389458,
        -0.08743825844966768,
        -0.08388140425898508,
        -0.016585731045354855,
        0.002716355732356712,
        -0.01699320738464742,
        0.0009379799990625703,
        -0.025246735008744522,
        -0.036631181387674724,
        0.009610955087496043,
        -0.027482774204580025,
        0.007631248295268229,
        0.024477787703087367,
        0.07226445628973077,
        0.05641623889147058,
        0.02478613829673626,
        0.027678988401479337,
        0.03627713917885034,
        -0.0156309849763925,
        -0.045360972403373875,
        -0.056832766520369574,
        -0.0517157472103669,
        -0.05288624410081616,
        -0.11173539680247119,
        -0.07098274218489925,
        -0.06749862398427986,
        -0.08939800372849285,
        -0.054956243785793016,
        -0.09839358418140257,
        -0.08865910455385509,
        -0.07530031660837228,
        -0.08554986958237976,
        -0.027444485797059978,
        0.0021149252490366252,
        0.020319015228665492,
        0.019163026968052436,
        -0.0012430620840196349,
        0.027688659861797926,
        0.012640244902321376,
        0.03737520562048493,
        0.0035502408810271914,
        -0.018660230602880273,
        0.012140341878398077,
        -0.001542378457535583,
        0.015409638450362476,
        0.02985346123484609,
        0.012011428323229437,
        0.04615269807474527,
        0.009328186107177824,
        0.03428883001104353,
        0.050722343728177396,
        0.03618466534094909,
        0.045307906020041776,
        -0.02155649423447522,
        0.0056948599973339845,
        -0.01995675101027082,
        -0.025532594522219197,
        -0.0061256789747372725,
        -0.02668130841112103,
        -0.007740637402091291,
        -0.031239732652120135,
        -0.03774335579104386,
        -0.02283256538721926,
        -0.06504182972188055,
        -0.043364771675810196,
        -0.04479119634641841,
        0.023624928819605095,
        0.03827460915800507,
        0.0472379303636135,
        0.04360556435526254,
        0.04842160694975521,
        0.05183435028042428,
        0.03877817588730387,
        -0.009787006206883022,
        -0.0015463898845816564,
        -0.027942612011357684,
        -0.011233928783014886,
        -0.007351958394197026,
        -0.01427639209025902,
        -0.053348020720348284,
        -0.04756368039148881,
        -0.006641564080597087,
        0.00028703007325980065,
        -0.02871363842881719,
        -0.03439092968535101,
        -0.011072174973787097,
        -0.01477772503548244,
        0.018290942074905767,
        -0.008528073163446889,
        -0.0011734834926746113,
        -0.0015318463509511472,
        -0.014129211679616277,
        0.023725220243585178,
        0.006645525618037603,
        0.04440703668509923,
        0.047583210462883635,
        -0.0042985129459347125,
        -0.011427765839500004,
        -0.012720331426497799,
        -0.028256163298513236,
        -0.0026266572735652,
        0.03230507876976521,
        0.021643156275616124,
        0.053897490402182426,
        0.03344992339516575,
        -0.00815568015508417,
        -0.0036931334113312598,
        -0.012810315050890534,
        -0.018362213344079614,
        -0.055995089712790734,
        -0.026894204702486116,
        -0.046881546761987226,
        0.026961769161244927,
        0.02884097868450529,
        0.03362421398533609,
        -0.017481397682171235,
        -0.014889424821320362,
        0.004567214859298163,
        0.0471264015023181,
        0.05244726958111428,
        0.04090821419203186,
        0.05169626900258596,
        0.013199479605797461,
        0.06055149272782942,
        0.014589206546167709,
        0.01426374526844168,
        0.026092866909474176,
        -0.003574872877651666,
        0.02214443546684013,
        -0.0036799441444979367,
        -0.0007020377884488847,
        -0.028302453102660545,
        -0.028093423658195248,
        -0.06287940742806683,
        -0.013081301576188807,
        -0.01650349978982591,
        0.03728676767542943,
        0.01482309534288584,
        0.018324769060883338,
        -0.037378832890820626,
        -0.03125678229262405,
        -0.03398409530600387,
        -0.00902211267574687,
        0.019738213364083518,
        0.007622675590053862,
        0.03386881937467756,
        0.05849814880308999,
        0.05055233663227466,
        0.010462187093360288,
        0.016882932615016305,
        -0.029143541542923375,
        0.008396875875128974,
        -0.009606443591392936,
        0.0035955693422762554,
        -0.00347362092796946,
        0.018739635209262778,
        0.02012904844931594,
        0.03788065941880673,
        0.03281764020579492,
        0.011195157209221217,
        0.035778036381859404,
        0.06309955762617257,
        0.07941901250676014,
        0.05711371157807936,
        0.04408226743829151,
        0.016196263905801582,
        0.04715164091890245,
        0.04438654045268556,
        0.056460075352613034,
        -0.0014265420993563216,
        -0.012533395673534661,
        -0.008171169416589352,
        0.03167999376639182,
        0.06560900650824703,
        0.07109418698224597,
        0.053342504547823445,
        0.006090216247600765,
        -0.01931872111983178,
        -0.08569231739415162,
        -0.09027704072605747,
        -0.11600279531999982,
        -0.06953382264503923,
        -0.08665400059406783,
        -0.0215725510457896,
        -0.03955186590991038,
        0.02251960691584501,
        -0.004799445068035913,
        0.021938657713612503,
        -0.0059378337274669235,
        0.08226633593272965,
        0.08133686034385343,
        0.11222078576850238,
        0.0475416981027045,
        0.04415195753470357,
        -0.04854906564073069,
        -0.04035232753453004,
        -0.10044670985475643,
        -0.04759452123930233,
        -0.03177041509329353,
        -7.387045562489369e-05,
        -0.004374998435450049,
        0.0418981374026914,
        0.06488536057041874,
        0.05841501767984495,
        0.06123160066926675,
        0.012647023851771574,
        0.051883125529115885,
        0.013322911371692125,
        0.06087916552663848,
        0.007425968203364759,
        0.037853350892518844,
        0.0043036251332286505,
        0.008998541596986018,
        0.024863308200247423,
        0.02570144217042695,
        0.0380305772028096,
        0.02183405698476636,
        0.025208198533780986,
        0.020333976640099394,
        0.0538063405156747,
        -0.003963128892910743,
        0.03231291164031133,
        -0.02323228076721169,
        0.0034984494724024555,
        -0.046606464799025416,
        -0.020097796108161165,
        -0.03844339912910175,
        0.006015642295444034,
        -0.03790485583217469,
        0.005160200609706468,
        0.025671292311732083,
        0.0526377549179179,
        0.012241672895764966,
        0.0329033958516649,
        0.04375112670240075,
        0.09090023840502046,
        0.09303149267820252,
        0.07958526410665398,
        0.058226835920652906,
        0.029323449509741147,
        0.036435467817187664,
        -0.015103961727838008,
        -0.010799641299862979,
        -0.06770284012270505,
        -0.0497301375230826,
        -0.032582650019175576,
        0.018310676361803793,
        0.010557863208338958,
        0.040985359062867995,
        0.0004171811043184547,
        -0.007021732440346863,
        -0.026406404333779006,
        -0.02428454475777103,
        -0.015891069294829484,
        -0.016957193068388,
        -0.0034584548551999886,
        -0.04370175457569797,
        -0.04530500315215753,
        -0.05099885117799372,
        0.004641993020780186,
        0.02310096037499936,
        -0.004992281263727023,
        -0.007456622965886716,
        -8.311473176462526e-05,
        0.010252046973647707,
        0.0015196461639342168,
        -0.011593374931501726,
        -0.041531078825237974,
        -0.019243371757116552,
        0.010912398887676408,
        0.024715310777758792,
        -0.011929298289033894,
        -0.002197622574185553,
        -0.01296024939788594,
        0.01389218732032988,
        0.012140251255698582,
        0.0055958534921854465,
        -0.00727693208879799,
        0.0054595067679860335,
        0.055741475417582315,
        0.06202771999537444,
        0.055977107961114075,
        0.016805034887854283,
        0.025686744131048544,
        0.02524807647531458,
        0.018632780526151187,
        0.05188409844230233,
        0.0696525193754264,
        0.07047360569793762,
        0.05846002087748191,
        0.054891843619143836,
        0.08218288461471754,
        0.07223203769770178,
        0.06658029139119108,
        0.017080457221728025,
        0.009945011693723678,
        0.0024526225136018093,
        -0.019462695080238738,
        -0.017537742137865575,
        -0.06480795652317649,
        -0.035921284954543914,
        -0.047560004003351135,
        0.01861651236181493,
        0.049529149768538124,
        0.07886756662419128,
        0.06738584588243343,
        0.002073339352016447,
        -0.02037661394767607,
        -0.05492730165322681,
        -0.03701852357496467,
        -0.04574466056452513,
        -0.026046705542440346,
        -0.009985839776292308,
        -0.008814150640292728,
        0.0432309532800291,
        0.025968955866438326,
        0.050053522068301604,
        -0.008407567323820869,
        -0.046549855517410116,
        -0.050166026488514225,
        -0.04812314471249238,
        -0.008920916730098882,
        -0.005681675523296351,
        0.015300320723618015,
        0.004120856887461357,
        -0.010500568831297989,
        0.011491824912909211,
        -0.010468449264175164,
        0.047631205724931056,
        0.017733169715701724,
        0.010622732108183557,
        0.006569652076283095,
        -0.035319622379895346,
        -0.04216379833697368,
        -0.06917153510741153,
        -0.031481857118660236,
        0.014833453131288489,
        -0.00870063922363164,
        0.007427746744967789,
        -0.06777492243896052,
        -0.0429349786462406,
        -0.031063670966847503,
        -0.015069196017352564,
        0.022454086814665812,
        0.028625756126673944,
        0.033252191120768854,
        0.04221624575083021,
        0.028610256733208952,
        0.011432832630248187,
        -0.017238001573392597,
        -0.02060421879985804,
        -0.040796003661017696,
        -0.037764258641375725,
        -0.0125249171119357,
        -0.020536304679190855,
        -0.005408228744963528,
        -0.01690062811927944,
        -0.009276237913689775,
        -0.02004133401998015,
        -0.024524629681376885,
        0.00040678301490106755,
        0.00502933915433075,
        0.021730048092777066,
        -0.005649846933523589,
        -0.014595722384435001,
        -0.008474085282746943,
        -0.038808975677024946,
        0.03342263776358165,
        0.04958625415624372,
        0.036017293326897584,
        0.016715069266253837,
        -0.02682334986828501,
        -0.03570750619577015,
        0.017473521856859357,
        -0.008454495642963794,
        0.0374995730216914,
        0.032599266705385654,
        0.022565876984412165,
        0.02613419609053067,
        -0.010379920363625466,
        -0.02843920053669571,
        -0.02447541908708247,
        -0.021576669100047005,
        -0.009804733607938402,
        0.014685928857655458,
        -0.019975804663283022,
        -0.008743431986539199,
        -0.007179007505121126,
        -0.035235520661778395,
        -0.0007124819105303625,
        0.014829951847948865,
        0.0037613003757332782,
        0.010141526140150917,
        0.0013246433922136458,
        0.03158966799182183,
        0.042288791545537927,
        0.02777542769254384,
        0.025760716605230542,
        0.03252004352606311,
        0.04274294321318272,
        0.03662912047419574,
        0.014906306783211257,
        0.046270912984680265,
        0.025477448348895173,
        -0.030582600313275768,
        -0.017129084893052086,
        -0.055717212701381386,
        -0.007719500769862307,
        -0.0031339749910607277,
        -0.010294855417624831,
        0.01883012357968657,
        0.004688990648506655,
        -0.03088950247084485,
        0.014615358939611783,
        -0.03367546914278019,
        0.004098281308221376,
        0.01883999926175993,
        -0.03595300417076397,
        -0.003846535092904239,
        -0.030432399719638882,
        -0.01752648739635012,
        0.002614102636204151,
        -0.0019063187671884965,
        -0.019089065755085108,
        0.006446843506659187,
        0.02161854580181769,
        -0.00014050895100294647,
        0.02593233468807677,
        -0.001681713394240213,
        0.010028566313042844,
        0.05414814740527894,
        0.03339466635928879,
        0.04404012821031499,
        0.016954178822093824,
        -0.033334482739614556,
        -0.05921164831627912,
        -0.06807684947838309,
        -0.03594173155444393,
        -0.00883198325686727,
        -0.02765978992760538,
        0.0040528916857166366,
        0.05425168901562444,
        0.02918369658344335,
        0.034991840001636326,
        0.04387626877213051,
        -0.0005234375123064654,
        0.016895031376896637,
        0.04564929729686219,
        0.04786856894298652,
        0.09905602834359432,
        0.041622798962544505,
        -0.03151637921192906,
        -0.008495002008621855,
        -0.01361534319919483,
        0.019505592073628623,
        0.04665428915104948,
        0.022396211870098798,
        0.007641059484111071,
        0.015611984377115022,
        0.0020406040621450605,
        0.029867731544490083,
        0.03757652596227288,
        0.012172084535740327,
        0.02363366173537096,
        0.04972544167101824,
        0.0348437178254222,
        0.04538134716834537,
        0.028845031559464503,
        -0.004809295311325927,
        0.020628712753643988,
        0.0027323462326857826,
        -0.015213440476752932,
        0.01996098211088363,
        0.03284686572352805,
        0.050086757896892264,
        0.027201751415254494,
        -0.02947537344899472,
        -0.0012977497824912768,
        0.019474614356206173,
        0.03638197043399584,
        0.02379197164482411,
        -0.004076986206054399,
        0.004492867588412371,
        0.039304630099515875,
        0.03458025593861854,
        0.047177191730156144,
        0.041158674696878755,
        0.024570883620455383,
        0.03732150844500731,
        0.05843651606882323,
        0.03827449305471701,
        0.03637101612432668,
        0.034649939256490445,
        0.010203441442106668,
        -0.010214866466136077,
        -0.0003043189903394219,
        0.004237025837890079,
        -0.0011800607785757767,
        0.0358495659593029,
        0.02221371651234294,
        0.04296537506278508,
        0.014416276882387126,
        0.004599075755654215,
        0.013388285112133221,
        -0.005629864727839287,
        -0.010460387861430682,
        -0.01838173266197537,
        -0.05401989676063797,
        -0.05476265610884719,
        -0.08447290535250968,
        -0.12337199028788251,
        -0.09734503298217584,
        -0.06406859422570187,
        -0.04673993119231345,
        0.03358555222331209,
        0.054609853123970625,
        0.007084176243316094,
        0.02525027800784959,
        0.022629940132884992,
        -0.03608264333046157,
        -0.030563724004975038,
        -0.039546973911367515,
        -0.10748982325638258,
        -0.08207897126488534,
        -0.06444099241945453,
        -0.08751979949902883,
        -0.062331595505252683,
        -0.060416180620204006,
        -0.01277385063313966,
        0.008422579189171523,
        0.029217667748596583,
        0.05953221492810791,
        0.026759265877404924,
        0.04633576099854811,
        0.021933795508655263,
        -0.02331338095503602,
        -0.035274480792289495,
        -0.026110203672898763,
        -0.027944147847032245,
        -0.02861933474536019,
        -0.030983817306009975,
        0.0003281227571061571,
        -0.007588207494458429,
        0.001937189508237621,
        0.024056784577724376,
        -0.007913523715484674,
        -0.04145278715501212,
        -0.0603994115160261,
        -0.07018826259148817,
        -0.05801529525353757,
        -0.0021237885577416273,
        0.05294423094509734,
        0.03451864517936192,
        0.021726710573109105,
        -0.004647168687588621,
        -0.008889706431114102,
        0.0012638981339977168,
        -0.0023516566987046342,
        -0.01424523136320742,
        -0.03407903101047763,
        -0.027257677558636118,
        -0.035124002247201,
        -0.01661629708637819,
        -0.008344214702512578,
        -0.006078717095325074,
        0.00441115047271074,
        1.546865027359938e-06,
        0.03173892694043328,
        0.023103031630041203,
        0.039349446827056114,
        -0.001562574504663411,
        0.019494641162786486,
        0.05252725299538435,
        0.05454712672202082,
        0.04517373243647612,
        0.007813022117124386,
        0.01587864733141386,
        0.021575526412124724,
        0.02651885845915377,
        0.00908770946343232,
        0.002584220329046641,
        0.0009012234407465414,
        -0.017093825361058055,
        0.04051072274981443,
        0.008425011754046707,
        -0.002668636999116233,
        -0.0420156479121262,
        0.018879644000002783,
        0.0354132677413693,
        0.1005864725104891,
        0.06733371342567673,
        0.1248139369598708,
        0.08196928116101573,
        0.057050460203591905,
        0.04168607963848771,
        0.011126761535869497,
        0.03373058245981592,
        0.010705744700724159,
        0.07501429476929258,
        0.006380680456557123,
        -0.011643016888238766,
        -0.015788618073148068,
        0.010631778352603916,
        -0.003902763837362703,
        0.011258083478673474,
        0.02246222119817079,
        0.006480904995735943,
        -0.01153462573199549,
        -0.014147368922863605,
        0.022734805051129202,
        0.02295679545877109,
        -0.012985821183882147,
        -0.004888451681363964,
        -0.024958234026293283,
        -0.028438364343761714,
        -0.03616278931094137,
        0.03902292086486188,
        0.009229596995412995,
        0.0068330574250973775,
        -0.03745666940708991,
        0.01728620897538974,
        0.0273798517062933,
        0.06233663196119227,
        0.07528124572683338,
        0.06838259909494485,
        0.031257039401831985,
        -0.01758137337176699,
        -0.07317877356329489,
        -0.0218494737711187,
        -0.018698181178331236,
        -0.015356808531040317,
        -0.059762008435410664,
        0.0049623315170147205,
        -0.005190272857014484,
        -0.02452700559019889,
        -0.011296478183797268,
        0.026473081143221992,
        -0.0017716855434426657,
        -0.03122061094720576,
        -0.05148610589530398,
        -0.059867075212691065,
        -0.08032572297832938,
        -0.051863306337430116,
        0.001043629820196573,
        0.007305245113885788,
        -0.01746709059417174,
        -0.00626549781050734,
        0.02207576561502338,
        0.023805550519194037,
        0.023895139526805872,
        -0.0046832559085501465,
        -0.041409568048114874,
        -0.03214082635228658,
        -0.05397618346700015,
        -0.04351198733791573,
        -0.0407907419246919,
        -0.05122069463488743,
        -0.014291924734926145,
        -0.009748254554585715,
        -0.024595872991862867,
        -0.03478058033346347,
        -0.0038711621246847547,
        -0.0410212586152994,
        -0.004962670014506749,
        0.0073276695973081615,
        0.019318318010166417,
        0.019888497134619102,
        -0.002569722587980906,
        -0.015073737884003128,
        -0.0261436503334203,
        0.004597006181754855,
        -0.007600298467412447,
        -0.012098255149505136,
        -0.041826978301885046,
        -0.034584078374911856,
        -0.05754774232793128,
        -0.007874083642358826,
        -0.010991293241198578,
        -0.0036753306409974236,
        -0.01349484858172215,
        0.01125901482667747,
        0.013575519385663528,
        0.01650706833828988,
        0.037284384766576834,
        0.003741958206226325,
        0.012274739300141842,
        -0.03236877383848144,
        -0.01593318934135378,
        -0.026460749109257983,
        -0.005874778123545852,
        -0.015161641152294209,
        -0.04981390678127787,
        -0.08163594537446602,
        -0.10919541606105818,
        -0.09264876074261105,
        -0.10703115713392361,
        -0.10838565496781988,
        -0.11962122121895076,
        -0.0949796957850175,
        -0.08927573575090923,
        -0.07864678787308876,
        -0.12912025210823644,
        -0.1139449333363797,
        -0.09185112075630883,
        -0.0604777325290439,
        -0.010453808279115318,
        0.00920802852632795,
        0.06420290251224245,
        0.0674333127132096,
        0.05476530499155829,
        0.01878482901868815,
        0.057419181494718176,
        0.07374190316959095,
        0.07327512213526324,
        0.06835645013818538,
        0.03897113658820859,
        0.03341050481033814,
        0.008733365082617565,
        0.022223939738285875,
        0.013440769534444817,
        0.02118306885111067,
        0.029977163186859654,
        -0.020115584545546114,
        0.0014879500844429997,
        -0.02641128815633798,
        0.011185924712536568,
        0.014417828073873654,
        -0.0286672205971054,
        -0.014694663243459381,
        -0.031771481424661754,
        -0.03409905542087008,
        -0.004327618482076286,
        -0.037433805664526254,
        -0.027190548103859936,
        -0.04756691600740397,
        -0.00581764454002581,
        0.015239271655084265,
        0.0073746707460626525,
        0.022547756459335433,
        0.011725440233208954,
        0.015079362823085647,
        0.04811106675800421,
        0.027592242798617213,
        0.030025143271399643,
        -0.00952040758532526,
        -0.02439515176496105,
        -0.01931565392172151,
        -0.016395356113181384,
        -0.024784319058482884,
        0.0011029181773477394,
        -0.005476530174160065,
        -0.020535200923231738,
        -0.025380899001979554,
        -0.03168513866568273,
        0.004619346776127384,
        0.008517299753537625,
        -5.964953708811557e-05,
        -0.012256267987063627,
        -0.05565041692705937,
        -0.03798657236877884,
        -0.042116123492846644,
        -0.022593615348085763,
        0.010943322364220125,
        0.015607585306863878,
        -0.011370657312197205,
        0.022380479795495963,
        0.01709616990044229,
        -0.014155677479793849,
        -0.02524169778392961,
        -0.06575434492232224,
        -0.04163336970411749,
        -0.027192957842794456,
        0.011072473995775217,
        0.0011264363682821836,
        0.0020317301327473234,
        -0.02408685283677686,
        0.0064727755513555845,
        -0.029474771424987365,
        -0.03358037521070544,
        -0.0013858439396363512,
        -0.03603397938216335,
        -0.06137940740852573,
        -0.043909910967696135,
        -0.07164161854972045,
        -0.018687107630662093,
        -0.022945948646124294,
        -0.0204256060428201,
        -0.00982034379769807,
        -0.017636238225334812,
        -0.0412762034665549,
        -0.008154694364217908,
        0.017334368902579476,
        -0.00804974609374598,
        0.006089806981510961,
        -0.007605482003688351,
        -0.014020461699756574,
        -0.006614972721965545,
        0.010581637153957817,
        0.009006030593844156,
        0.00761992126253302,
        0.014296000636637975,
        0.01093904940726606,
        -0.017121587331102136,
        -0.02693535295529353,
        -0.0313588769580707,
        -0.042070819459541074,
        -0.03784634631398724,
        -0.043055283825182825,
        -0.015271343369386781,
        0.001774639101643594,
        -0.006964096892988947,
        -0.03879480649206164,
        -0.02834215946625812,
        -0.029186069781188425,
        -0.022417829812113623,
        -0.006951869300339374,
        -0.015255239800346512,
        -0.03444432176270766,
        -0.0010706023593096893,
        0.004291070195299543,
        0.02768932573292313,
        0.018393880717419216,
        0.03642270569924222,
        0.03551325135858603,
        0.012293319990223914,
        -0.005971914220125582,
        -0.019562136104006266,
        -0.03173001332922995,
        0.019449263272802074,
        0.027859641974008954,
        0.021192171578720984,
        0.015973749065890174,
        -0.009171178571272373,
        -0.013484584776562652,
        0.003982540538244467,
        0.03642183675147226,
        0.0385092907103315,
        0.04511238076043757,
        0.0518079696268183,
        0.027460549119432617,
        0.028962570333465318,
        0.027223450783154985,
        0.041484839035813154,
        0.04728050820528648,
        0.04630464524629046,
        0.052161474449699985,
        0.013201003092349598,
        0.026103334105394227,
        -0.01862531136573734,
        0.014961146679011626,
        0.02170083440466167,
        -0.01997712110865421,
        0.02450132073879633,
        -0.04073086190075675,
        0.02545124102988264,
        -0.013986202627056453,
        0.0005051012181120842,
        0.0077634765693747245,
        -0.015162704354391123,
        0.007350146489815139,
        -0.017218565799357686,
        -0.016520874225186215,
        -0.018132543378137526,
        0.018525280417473637,
        0.00875809757544255,
        -0.040975902688219275,
        -0.01975495068443755,
        -0.023695015868780096,
        -0.020345732576674137,
        -0.016087299251133377,
        -0.008644756218370967,
        0.006306521185695058,
        -0.0016000744255330551,
        -0.029061626649901688,
        -0.02017400714528666,
        -0.027821399025414518,
        -0.033669116590471414,
        -0.03363419320807408,
        0.012785569843283238,
        -0.01156864246345698,
        0.0006690144948595313,
        -0.003949769012869215,
        0.02632786405103714,
        0.03265663668587966,
        0.04273217670913558,
        0.018744524810855034,
        0.023009677848916218,
        0.02649705654389107,
        0.03194247368465635,
        0.023578080327823762,
        0.01380546545065569,
        0.013396042934900983,
        0.021147145981421204,
        -0.019928453446378024,
        -0.011859483484832622,
        -0.016853809525769363,
        -0.025996440824677402,
        -0.0032690346671410664,
        0.035929468527468984,
        0.01380041567189609,
        -0.006971138162977135,
        -0.015862231188067143,
        -0.02026335782742984,
        -0.023911829230493672,
        0.00043198204286050933,
        0.014434636859386084,
        -0.006809913750058169,
        -0.016081920277311305,
        -0.00889848036687384,
        -0.02390155776089968,
        0.01083592433145629,
        0.03019458348311669,
        0.011325520108646932,
        -0.014295058526147786,
        -0.04832795453966138,
        -0.006524720922457943,
        0.019865066256099462,
        0.030365750116339695,
        0.017836870187097374,
        -0.03005319520775817,
        -0.052015201693867474,
        -0.028456799751836227,
        -0.029787717071477267,
        -0.04082674746939479,
        0.006204171421429443,
        0.020480171872907654,
        0.018840430448574533,
        0.033613598768137735,
        0.01968223008950966,
        0.03656928605820315,
        0.05225047241122804,
        0.05886177023419918,
        0.038477324440308144,
        -0.0023659486601401436,
        -0.027660920548024784,
        -0.036942091301692195,
        -0.019551961471500054,
        0.019103918120289044,
        0.023705220545380122,
        0.023539554839504703,
        -0.010975966158081494,
        -0.042928168675008246,
        -0.046494039245399826,
        -0.04704238593477893,
        0.02540533823157779,
        0.07274871548801701,
        0.07714091647155154,
        0.05467319150523528,
        0.021828561436268518,
        0.015279153491079282,
        0.023881729337568738,
        0.04995913910059588,
        0.05400656395239644,
        0.049561808003901864,
        0.05474145063747313,
        0.00328409662343128,
        -0.03172866583341595,
        -0.03213665912532176,
        -0.014520293496054989,
        -0.014736149197182842,
        0.029613188900841834,
        0.015584182391180701,
        -0.012420658543223407,
        -0.001292472552501684,
        -0.0012537266826382128,
        0.012364750252012367,
        -0.04629694100998623,
        -0.04911278211256994,
        -0.09425970369821784,
        -0.07101826007105337,
        -0.07245409770570108,
        -0.07232818211987102,
        -0.0897262354760289,
        -0.0890085580218478,
        -0.06702580374090586,
        -0.034611718688624296,
        -0.026771868259639967,
        0.026117353014895855,
        0.019394368475925093,
        0.02776172672748424,
        0.009327730367519379,
        0.005913276596765332,
        -0.028377273632917185,
        0.006067677068540268,
        0.01765056149094343,
        0.042628017214927504,
        0.06237081625006915,
        0.06059087341853742,
        0.05295714069126541,
        0.03967137052397679,
        0.019592168902293598,
        -0.0023238672226615804,
        -0.02025922435601497,
        -0.021111133213526947,
        -0.0020169184459499475,
        0.022323429946452672,
        0.05095172307571514,
        0.05859990532269566,
        0.05109141656235629,
        0.014998017594078952,
        0.03348203854548897,
        0.01089674902730385,
        0.03450914719240307,
        0.04336926591381728,
        0.04985375600251571,
        0.015711794520030686,
        -0.01335127930206885,
        0.012094734469819728,
        -0.020187673951564275,
        0.0015289873503071079,
        0.012008798999339593,
        0.015690168567456485,
        0.003951003116171874,
        0.0013911464533297262,
        -0.015810194366684314,
        -0.04908060913079822,
        -0.0206565093748283,
        -0.021594008622913583,
        -0.01456598174187432,
        -0.009681019192027936,
        -0.005418907157394823,
        -0.0005458840391858822,
        0.008518463532301956,
        -0.007390079331153311,
        0.00034574473618918355,
        -0.01928659058811165,
        -0.03450558287726147,
        -0.036164132387943006,
        -0.018850478609114832,
        -0.020872501761243833,
        -0.032386551172831214,
        -0.08287081624763293,
        -0.09201208534771327,
        -0.07025264083888029,
        -0.03494932986827402,
        -0.0016871269893963142,
        0.012644578453383482,
        0.0066804691925281,
        -0.016767826596040033,
        -0.02934662717137974,
        -0.008765368099071517,
        0.025873739750997528,
        0.04896735878447886,
        0.07935591600143427,
        0.0807579048004757,
        0.07922165408040013,
        0.06583763334241646,
        0.046985130459204494,
        0.03761887282849784,
        0.08079892323303889,
        0.08710722906364055,
        0.06444796624488658,
        0.02548671328298515,
        0.014645775082192971,
        0.0007080264414984132,
        -0.020100016911722786,
        0.002527188406593615,
        -0.016200828271745592,
        -0.015024170248749994,
        0.012133256149793875,
        0.013182335588289639,
        -0.011887995406251024,
        0.010768559815463053,
        0.023805613024901306,
        0.03969339996534298,
        0.04420135740232963,
        0.015146866009632842,
        -0.017633335845300455,
        -0.00856125048305183,
        0.0029398739802539093,
        0.038406107447156265,
        0.05476291146556793,
        0.03162817357600759,
        0.029415669313556853,
        0.03624495172083461,
        0.03223382326131408,
        0.02729726891163451,
        0.015688438346050555,
        -0.0022841050304415384,
        -0.025536984226672166,
        -0.06706916092566459,
        -0.07550930000084494,
        -0.06799715229708668,
        -0.020469160509780895,
        0.015289177580138473,
        0.029787368231521477,
        0.021089567885941917,
        -0.0037929422310233026,
        -0.016109568546899284,
        -0.013329465789539485,
        -0.0162422611445095,
        -0.027036174886786318,
        -0.020802165471926308,
        -0.03834637739261274,
        -0.028661206053149334,
        -0.027679516416322297,
        0.008705921586589085,
        0.019077885032644504,
        0.04509123575446685,
        0.052757685867854516,
        0.017690921272741043,
        0.003251804838444359,
        -0.0032416716062177273,
        -0.006864103877426808,
        -0.012161613036853171,
        -0.013893688717584625,
        -0.021692437806178966,
        0.0003090127940818178,
        0.00785929539851103,
        -0.02115526707162671,
        -0.033553532329945956,
        -0.0357972723917664,
        -0.008965269299337357,
        0.010475575571420882,
        -0.0025408231878082657,
        -0.027336147225357644,
        -0.05450011120952452,
        -0.05281607426243756,
        -0.03661280463923147,
        -0.018175963779859257,
        -0.007570834006363368,
        0.01967831935708709,
        -0.002223095098967575,
        -0.013037484472755096,
        -0.025598229713804814,
        -0.024088164815261652,
        -0.008933793929153454,
        0.005214907750549673,
        -0.01218205484520011,
        -0.044997813496197345,
        -0.05891123758962403,
        -0.06188102362957973,
        -0.033652249412567795,
        -0.023098384755686405,
        -0.003677037300098271,
        0.008772241195132424,
        0.01595607752282313,
        -0.004806488522612718,
        -0.029793464093264863,
        -0.05886740188947484,
        -0.0418554575807129,
        -0.014832974024179539,
        0.009976100805349428,
        0.02357078163975019,
        0.005307247610329987,
        -0.02379011445320223,
        -0.035410390227182884,
        -0.03668014416879448,
        -0.04764382276881729,
        -0.06556382094964247,
        -0.0804144419990104,
        -0.07688356325813608,
        -0.06692739291159332,
        -0.05510291376441881,
        -0.025155260883074924,
        -0.002389222726261673,
        0.01823112950736782,
        0.027790586300104524,
        0.0036431370953268786,
        -0.037452268481505756,
        -0.036119717563517895,
        -0.04092771863617501,
        -0.03274738095568275,
        -0.02283636487134524,
        -0.031085789468608915,
        -0.02850299583930154,
        -0.03575546659992161,
        -0.04100468548721855,
        -0.03581930719569415,
        -0.027838005465932236,
        -0.03279716559518393,
        -0.044830832770616925,
        -0.028800465798238244,
        -0.0019273803823934039,
        0.021890536206141863,
        0.019628897649621453,
        0.01383987922563262,
        -0.006324525521455894,
        -0.004642463995396646,
        0.013844788927396986,
        0.016846042842140307,
        -0.0007576723292978374,
        -0.019652468565716785,
        -0.04364660209878432,
        -0.05191236733868702,
        -0.025249073640123583,
        0.011425537561415119,
        0.045746118884884314,
        0.03914524113552589,
        0.014319813341652634,
        -0.005768974868007695,
        -0.02890912546892032,
        -0.023213174780859325,
        0.019261427940063726,
        0.0322638984336214,
        0.017655101617693597,
        0.0071425334564134526,
        -0.004339154129410143,
        0.005719158189072954,
        0.02441410955918412,
        0.015768462388405673,
        -0.016264166888457617,
        -0.04214046924866528,
        -0.05796336430049789,
        -0.023323652923402178,
        -0.00047810625874629664,
        0.003167124555724201,
        -0.005808471086764619,
        -0.008540950794169768,
        -0.016852572260932258,
        -0.010669630486767473,
        0.0060573802834182,
        0.03460774075816006,
        0.03217322806019897,
        0.034169988989696254,
        0.014491046184665662,
        0.000793366910787942,
        0.007806769848498636,
        0.02987859248658204,
        0.031264689694934865,
        0.029796799426389877,
        -0.02074566961453654,
        -0.028411049021289506,
        -0.017183097455430958,
        -0.01018252982807372,
        0.015240935577149188,
        0.035167701989903974,
        0.026800999824218665,
        0.02421312193071036,
        0.028334744066371736,
        0.01652280216811519,
        0.006900900512859886,
        -0.0027172280580758934,
        0.0140895162364556,
        0.006748621888874244,
        0.002257053284872096,
        0.001419678510688682,
        -0.018064429540201727,
        -0.019122352863479193,
        -0.011891776401587364,
        -0.0012908032977738519,
        0.01167086753707584,
        0.019724325925918277,
        -0.0008286277331794772,
        -0.00890719224538215,
        -0.010230169053790573,
        0.0011386018042785517,
        0.036070166577362575,
        0.031187238577983625,
        0.02171791758278713,
        0.02391666995988425,
        0.03605952334489328,
        0.026721321249393325,
        0.034766859995291,
        0.03151155427386905,
        0.0105713122250412,
        -0.012691814804445683,
        -0.03373092622903577,
        -0.047538812056348655,
        -0.049161466198901924,
        -0.001409588044585376,
        -0.012100631199537394,
        -0.01086750296615993,
        -0.022258414759646055,
        -0.03477970447537204,
        -0.05140669843369077,
        -0.046797012805006394,
        -0.03322800121396798,
        -0.0026870994361297314,
        0.027820538582734797,
        0.0413710243761799,
        0.050731409281057314,
        0.030268264277091176,
        0.01713002279636068,
        -0.003352585536389924,
        -0.005951471828775934,
        -0.004965251447717391,
        0.00490890541807518,
        -0.004647700691753323,
        -0.017497066673776443,
        0.012245761274332505,
        0.005523566140608449,
        0.006635136744183964,
        0.014605071510810164,
        -0.0037560183828155473,
        -0.011555464860856658,
        0.008893612424768785,
        -0.018539041440025324,
        -0.019421983835375668,
        0.0006022044123177408,
        0.002138486774555852,
        -0.0011566828704164009,
        -0.021810812475904058,
        -0.02323843548957362,
        -0.015456421379453715,
        -0.0027157031360207804,
        0.009106457174162903,
        0.002562288452537611,
        -0.013895793235337055,
        -0.006318654527646788,
        0.022223765034514127,
        0.0431809648080253,
        0.033572284263959265,
        0.010910107385518454,
        -0.012487648750794784,
        -0.04166467193263134,
        -0.03848548097085578,
        -0.020575312908509166,
        -0.02905133750458841,
        -0.026396336724097524,
        -0.010169459802143031,
        -0.02922200112566691,
        -0.03199327503261619,
        -0.03307623351365549,
        -0.024505180319312654,
        -0.0025201760914032698,
        0.010587302672261373,
        0.006868964815629133,
        0.018013934423139373,
        0.028104161435562654,
        0.03584250427818126,
        -0.007625476471133414,
        -0.055616819149080565,
        -0.06080332945608516,
        -0.04350698709823251,
        -0.012075630835208578,
        0.011598619673495118,
        -0.028994235912460642,
        -0.07103036486557539,
        -0.06411787678152707,
        -0.052690391040265884,
        -0.009903574319361647,
        0.01862652708069048,
        0.013150752440805654,
        0.005289528932860862,
        -0.008973386821870696,
        -0.015145405085931306,
        0.013085878630706461,
        0.02245903971743334,
        0.007643241084689148,
        0.010364674199225637,
        -0.003520463480398894,
        0.010818724629521766,
        0.0012311557366561842,
        0.01389098924761679,
        0.014299351511238413,
        0.018284228855859633,
        0.017933094246820998,
        -0.0019679766733559437,
        -0.01791282202928374,
        -0.012559418016549128,
        -0.011409310754096003,
        0.0053297859426687105,
        -0.0176530257225641,
        -0.009099535065921809,
        -0.005153046669123024,
        0.01104392412118025,
        0.030613420879387745,
        0.02196632407400658,
        0.013769921133385389,
        0.022795249386708624,
        0.036569378972704396,
        0.037695076551443205,
        0.04517594852698063,
        0.021410881261732136,
        0.02227887401667846,
        0.0349250147026044,
        0.015194864977075315,
        0.004961428081775273,
        -0.028856481882633265,
        -0.03739047481854685,
        -0.008419596710081221,
