{
    "train_site": [
        "DRIAMS-A",
        "DRIAMS-C",
        "DRIAMS-B"
    ],
    "test_site": [
        "DRIAMS-C"
    ],
    "seed": 188,
    "model": "mlp",
    "antibiotic": "Ciprofloxacin",
    "species": "Klebsiella pneumoniae",
    "years": "*",
    "test_size_obtained": 0.02857142857142857,
    "prevalence_train": [
        0.8648648648648649,
        0.13513513513513514
    ],
    "prevalence_test": [
        0.8648648648648649,
        0.13513513513513514
    ],
    "metadata_versions": {
        "DRIAMS-A": {
            "2015_strat.csv": "56d646ce31a05dd704a4a6693aabc413a4e75f76",
            "2016_strat.csv": "d06fff6b6b60af9fc10fadc858cf5624808aaf3f",
            "2017_strat.csv": "a474ce364f6d3e201b3a527d8786e2c31bbc8577",
            "2018_strat.csv": "e650292c172f16845899c3a566b8f3c427b3e9c2"
        },
        "DRIAMS-C": {
            "2018_clean.csv": "0e0d2a1ebdfeed3f39f7dae50f4000328e7da075"
        },
        "DRIAMS-B": {
            "2018_clean.csv": "27380b0a9a43a1e699b4b311235211ccfd2a76f2"
        }
    },
    "scoring": "roc_auc",
    "best_params": {
        "mlp__activation": "relu",
        "mlp__alpha": 0.0001,
        "mlp__hidden_layer_sizes": [
            256,
            64
        ],
        "scaler": "passthrough"
    },
    "y_score": [
        [
            0.9985043734438344,
            0.0014956265561656443
        ],
        [
            0.9998288809978275,
            0.0001711190021725325
        ],
        [
            0.9996538222130609,
            0.00034617778693909985
        ],
        [
            0.9992353771041075,
            0.000764622895892502
        ],
        [
            0.33173887871832086,
            0.6682611212816791
        ],
        [
            0.9991641895510728,
            0.0008358104489272036
        ],
        [
            0.9999992260008204,
            7.739991796043469e-07
        ],
        [
            0.9999999993962627,
            6.037372621299075e-10
        ],
        [
            0.9999998602663852,
            1.3973361482454793e-07
        ],
        [
            0.9940451322930085,
            0.005954867706991441
        ],
        [
            0.9999945393827774,
            5.460617222637989e-06
        ],
        [
            0.9998200793381933,
            0.00017992066180675222
        ],
        [
            0.9999419872276611,
            5.8012772338851774e-05
        ],
        [
            0.9999935723702276,
            6.4276297724539666e-06
        ],
        [
            0.9998151130569016,
            0.00018488694309832192
        ],
        [
            0.9999995041754801,
            4.958245199374847e-07
        ],
        [
            4.515363247947768e-05,
            0.9999548463675205
        ],
        [
            0.9998230177799138,
            0.00017698222008624638
        ],
        [
            0.9999906790978604,
            9.320902139523279e-06
        ],
        [
            0.9222843382332924,
            0.07771566176670766
        ],
        [
            0.9999563818982851,
            4.3618101714991533e-05
        ],
        [
            0.9999999805272521,
            1.947274780490184e-08
        ],
        [
            0.9477314360581478,
            0.05226856394185218
        ],
        [
            0.9999741047768063,
            2.589522319369611e-05
        ],
        [
            0.9999701189955222,
            2.988100447778361e-05
        ],
        [
            0.9999325570367062,
            6.744296329371424e-05
        ],
        [
            0.9999623809702703,
            3.761902972959959e-05
        ],
        [
            0.9987183803711078,
            0.00128161962889213
        ],
        [
            0.9999111644963001,
            8.883550369986671e-05
        ],
        [
            0.9999329490055469,
            6.705099445314822e-05
        ],
        [
            0.9997283499162937,
            0.0002716500837063197
        ],
        [
            0.9999802498043969,
            1.975019560303318e-05
        ],
        [
            0.7092824936616193,
            0.2907175063383807
        ],
        [
            0.9998632852821857,
            0.0001367147178142407
        ],
        [
            0.47841791663069777,
            0.5215820833693022
        ],
        [
            0.999763249946572,
            0.00023675005342803853
        ],
        [
            0.9998189433850633,
            0.00018105661493676405
        ],
        [
            0.016030421399579775,
            0.9839695786004202
        ],
        [
            0.9999436328016107,
            5.636719838930348e-05
        ],
        [
            0.9993241663888506,
            0.0006758336111493925
        ],
        [
            0.9999999216154902,
            7.838450978706994e-08
        ],
        [
            0.9592499528340788,
            0.04075004716592121
        ],
        [
            0.9999776998744327,
            2.2300125567251248e-05
        ],
        [
            0.9999999928322867,
            7.16771328534987e-09
        ],
        [
            0.0006373933296304202,
            0.9993626066703696
        ],
        [
            0.9999995926056483,
            4.073943517264956e-07
        ],
        [
            0.9998565212531674,
            0.00014347874683261978
        ],
        [
            0.9999852232769749,
            1.4776723025053532e-05
        ],
        [
            0.9999952412665621,
            4.7587334378968765e-06
        ],
        [
            0.9999805318975444,
            1.9468102455545232e-05
        ],
        [
            0.9999920526984167,
            7.947301583305987e-06
        ],
        [
            0.9999985691536921,
            1.4308463078856831e-06
        ],
        [
            0.9999687203077448,
            3.127969225529564e-05
        ],
        [
            0.9911033758319675,
            0.008896624168032531
        ],
        [
            0.9999965870871447,
            3.412912855314763e-06
        ],
        [
            0.98475896659377,
            0.015241033406229988
        ],
        [
            0.9998319079657542,
            0.00016809203424587437
        ],
        [
            0.9999339584185698,
            6.60415814302143e-05
        ],
        [
            0.9999580330466562,
            4.196695334375479e-05
        ],
        [
            0.9988117618383456,
            0.0011882381616543508
        ],
        [
            0.7383505566006106,
            0.26164944339938945
        ],
        [
            0.9999998831427559,
            1.1685724405856026e-07
        ],
        [
            0.9999995204568475,
            4.795431525598032e-07
        ],
        [
            0.9999999523649343,
            4.763506568780542e-08
        ],
        [
            0.01861099989895043,
            0.9813890001010496
        ],
        [
            0.9999995574562076,
            4.4254379236936315e-07
        ],
        [
            0.9999202027171493,
            7.979728285068215e-05
        ],
        [
            0.999997412006552,
            2.5879934479705148e-06
        ],
        [
            0.9998490768816364,
            0.00015092311836357355
        ],
        [
            0.9999513213662804,
            4.8678633719548866e-05
        ],
        [
            0.9999987720146452,
            1.227985354826147e-06
        ],
        [
            0.9989341885898202,
            0.0010658114101797878
        ],
        [
            0.9999964842930101,
            3.515706989850925e-06
        ],
        [
            0.9999996999912887,
            3.000087113668731e-07
        ]
    ],
    "y_pred": [
        0,
        0,
        0,
        0,
        1,
        0,
        0,
        0,
        0,
        0,
        0,
        0,
        0,
        0,
        0,
        0,
        1,
        0,
        0,
        0,
        0,
        0,
        0,
        0,
        0,
        0,
        0,
        0,
        0,
        0,
        0,
        0,
        0,
        0,
        1,
        0,
        0,
        1,
        0,
        0,
        0,
        0,
        0,
        0,
        1,
        0,
        0,
        0,
        0,
        0,
        0,
        0,
        0,
        0,
        0,
        0,
        0,
        0,
        0,
        0,
        0,
        0,
        0,
        0,
        1,
        0,
        0,
        0,
        0,
        0,
        0,
        0,
        0,
        0
    ],
    "y_test": [
        0,
        0,
        0,
        0,
        1,
        0,
        0,
        0,
        0,
        0,
        0,
        0,
        0,
        0,
        0,
        0,
        1,
        0,
        0,
        1,
        0,
        0,
        0,
        0,
        0,
        0,
        0,
        0,
        0,
        0,
        0,
        0,
        0,
        0,
        0,
        0,
        1,
        1,
        0,
        0,
        0,
        0,
        0,
        0,
        1,
        0,
        0,
        0,
        0,
        0,
        0,
        0,
        0,
        0,
        1,
        0,
        0,
        0,
        0,
        1,
        0,
        0,
        0,
        1,
        1,
        0,
        0,
        0,
        0,
        0,
        0,
        0,
        0,
        0
    ],
    "feature_weights": [
        -0.07777528030698058,
        -0.05014409280854587,
        0.06799291156407153,
        0.029203097676059424,
        0.08418016508776863,
        -0.005718920468997278,
        0.02079417145055428,
        0.013075157577894672,
        0.06491276185928156,
        0.07919042793609879,
        0.07936528393191286,
        0.020665469524744642,
        0.014831971196846948,
        0.005953379643326481,
        0.005617278788900756,
        0.03969677554116256,
        -0.009133489841338788,
        0.026773269683194705,
        0.045791853095523506,
        -0.005288248992851524,
        -0.03158975695553927,
        -0.01603971666433642,
        -0.025303473490753788,
        0.023547836908674822,
        -0.06608817372287168,
        -0.11077708658078399,
        -0.07172959554667954,
        0.035455041891672104,
        0.0729699196545246,
        0.04076376782973187,
        0.005872222729634703,
        -0.05547432846302535,
        -0.0014762244363794698,
        0.017475792800289505,
        0.006944244896902815,
        0.04778222622332601,
        0.0789950339395129,
        0.04154125399313029,
        0.03741836070053875,
        -0.006384738549486183,
        0.004841392336508174,
        -0.009447787023181657,
        -0.011122326756757922,
        -0.04672913384396688,
        -0.06760636378487066,
        -0.04090412263112313,
        0.01751375875877558,
        0.1371050614941321,
        0.05686150310385525,
        0.05478571506573571,
        -0.027483646380857797,
        -0.045178445474882825,
        -0.08942663771121412,
        0.04602736004907215,
        0.0734229196631665,
        0.0026685364675160883,
        0.012257656306011187,
        0.1011924299881869,
        -0.009442386035041323,
        -0.013834345741164426,
        0.011622494312940152,
        0.012290740335051512,
        -0.031156564861858624,
        -0.02875192535913782,
        -0.026080565303442937,
        0.05598044548473226,
        0.07889045186806351,
        -0.008375707283990248,
        -0.04340195656514475,
        -0.006474072961411164,
        -0.07742954766015384,
        0.012930148608623945,
        0.10181990668646088,
        -0.006873773209357435,
        0.03410566338971416,
        -0.04628241891826633,
        -0.15868476084626268,
        -0.05591536505854756,
        -0.10809470970640117,
        -0.018973890932901104,
        0.004330275728917383,
        -0.04557096748958174,
        0.05951912379587902,
        0.030822417645026502,
        -0.017227293062272865,
        -0.07185807963618687,
        -0.038179384775349275,
        -0.02162412377485229,
        0.05594380206873942,
        0.10651235418415037,
        -0.021041416061295296,
        -0.056851550384819705,
        -0.09162673487300728,
        -0.12090780104599491,
        -0.09371206053567255,
        0.0066777683879752515,
        0.03090612203556471,
        0.07837572143834455,
        0.09823798432792728,
        0.0418293870123336,
        -0.025464043628365185,
        -0.02498868603033679,
        -0.0039603261339239875,
        0.022866877576876766,
        0.041021670126972665,
        0.02267191928551708,
        -0.02147129281294813,
        -0.016297193279615912,
        0.0013669676874184117,
        0.03190569558464938,
        0.03897842347035345,
        0.02351426191999644,
        -0.0226419409561784,
        -0.04005653942357163,
        -0.040890003422146146,
        0.10611876580577677,
        0.029092140735778028,
        -0.043408291432346396,
        -0.005877309626006237,
        0.03521060132091423,
        0.1184091377636451,
        0.14212390331064995,
        -0.0372318616491496,
        0.013579520725226567,
        -0.06048538975935841,
        -0.09979332496251242,
        0.013703822073832542,
        -0.04173785694329458,
        0.04150951194086529,
        0.047005784901792136,
        0.038828931163805036,
        -0.03298091999918828,
        0.0012361634978705462,
        0.03318699525068633,
        0.008442342962653351,
        0.0415721988597444,
        -0.03257546719948939,
        0.02482405884412461,
        0.0060236931020968675,
        -0.0006593842655826887,
        0.008621274683912243,
        -0.0357537018578963,
        0.0018238099713099789,
        0.02202122077960708,
        -0.015772322080252487,
        0.016069850572130447,
        -0.007381370868200918,
        -0.021689025944232623,
        -0.01391311503252723,
        -0.04499909421462901,
        -0.012130831534928253,
        0.025988871304522633,
        -0.020448743295558326,
        -0.030671290541507443,
        -0.09947455771711541,
        -0.052466689004805334,
        0.04008948548450908,
        0.042069701315474835,
        -0.1546079205023959,
        -0.11627304297548784,
        -0.07928601165594078,
        -0.04960007357815635,
        0.03266018839232689,
        0.04619828892258121,
        0.07112069895704788,
        0.02452176542879199,
        -0.044760978664526344,
        -0.020085588509064684,
        -0.030168028106819483,
        0.015440165300170113,
        -0.015376814413867446,
        -1.911739477194151e-05,
        0.0650633552990411,
        0.0046373173222821135,
        -0.038245579694941814,
        0.005331172389605881,
        0.025699800145139007,
        0.06329070012777674,
        0.025059141414333828,
        0.015612678528792393,
        -0.013917588991635102,
        -0.07607544693731874,
        -0.0195985316494423,
        0.11197261174231452,
        0.11031277854610533,
        0.0783406996356764,
        0.08001683277768008,
        0.01901040300173879,
        -0.11104892603215637,
        -0.025882263028536072,
        0.02683807316286077,
        -0.0051245776656001765,
        0.0087479321301062,
        0.007001204799140294,
        0.059756247251369785,
        0.019567689940799386,
        -0.07360934554234454,
        -0.013595085462951195,
        0.01921696898704206,
        0.017400566510091104,
        -0.00416767771313867,
        0.06275777222160239,
        0.09023035278931706,
        -0.01681172882393506,
        -0.012575313948744709,
        -0.03649374307724444,
        -0.03229964045452285,
        0.009394459250679381,
        0.0447221606727437,
        -0.003782209329497844,
        -0.014939284034866183,
        -0.04391109147220257,
        -0.05281053236686112,
        -0.09466832567856637,
        0.028266890637882028,
        -0.037305614051611424,
        -0.11114839845317909,
        -0.017732154857998537,
        0.0010870956328406782,
        0.04830828466963906,
        -0.019851694898465975,
        0.03020476316825674,
        0.0739839419006734,
        0.05129818178677495,
        0.03296852048953186,
        -0.01716507824858432,
        -0.011710529207493957,
        -0.03114471088260111,
        0.0450529649491241,
        -0.015146133035043785,
        0.008326881069413435,
        0.020422303741981694,
        0.02929865410774898,
        -0.026117615393842532,
        -0.07122939104916057,
        -0.057452674080812505,
        -0.03714413449611138,
        0.01781733328016185,
        0.016621602177558505,
        -0.09051093550455976,
        -0.07005427736881492,
        0.010169177696308918,
        0.005083402653922984,
        0.06872430351812273,
        0.1840139510338556,
        0.15231034031743218,
        0.05199800810198055,
        0.015116173974999193,
        0.034208139939579364,
        0.12203570889718152,
        0.035739857111900544,
        -0.0008628374274351032,
        -0.007975927481005679,
        0.03495666080853311,
        0.03113487002109543,
        0.007526830345180347,
        -0.026826635837551606,
        -0.025339065495257315,
        0.0722050461173272,
        -0.022975739684095574,
        -0.004310504609854727,
        0.08689817703298686,
        0.05302772336713659,
        0.01705533918188512,
        -0.00025593785073287014,
        -0.00893079991017371,
        -0.03717978991762986,
        -0.0020887975276475215,
        -0.027472179545762074,
        0.0022206135114763966,
        0.010285217623340748,
        0.03214634028700761,
        0.031228399193278352,
        0.018498033181693622,
        -0.0036197888538481576,
        -0.022307053661952167,
        0.004567723013894786,
        0.02889328993924382,
        0.10975576831047346,
        0.1829418218597868,
        0.04198593760505068,
        -0.047749471893445986,
        -0.0727696603976016,
        -0.05068695620885154,
        0.03242522563833994,
        0.06674286387366782,
        0.02727928795090389,
        -0.021772000617231023,
        -0.05821724703936283,
        -0.10569052683293255,
        0.05531193403852198,
        0.023185406339984144,
        -0.04204194876114759,
        -0.06575399652650571,
        -0.06853858855993962,
        0.016955192840811394,
        -0.022214037895222666,
        -0.2268233996044951,
        -0.09163576839714198,
        0.011682959951912913,
        0.03074991708230377,
        0.10300808771906486,
        -0.010194165087735785,
        -0.07599326236758011,
        -0.09323899892578436,
        -0.029521601897714085,
        0.03211107708281129,
        0.0471956851027371,
        0.05067155856540134,
        0.047476441418664375,
        -0.062063815725131415,
        -0.04523009155578055,
        0.013659991450620107,
        0.036404062328264195,
        0.032420256934245634,
        -0.042352236463478535,
        0.08347850972900923,
        -0.013001358714300843,
        -0.00046374722639532374,
        0.03274962935613768,
        0.014153398709545403,
        -0.001175491447882711,
        -0.0010787816268186502,
        0.041956457921493856,
        0.03992569240770691,
        -0.021482387710101844,
        -0.01885777896485062,
        0.01579072082899936,
        -0.02190524535020759,
        0.009479730833962691,
        0.09290095173964386,
        0.023807495866983643,
        -0.0015900275352271707,
        -0.029637797793273517,
        -0.0594379122464858,
        -0.059052853371605527,
        0.01359123691824328,
        -0.003927751171579677,
        -0.07066120184835273,
        0.02009802571412651,
        0.04068803104604224,
        -0.007430890552839254,
        -0.07390019094180289,
        -0.056874265529405346,
        0.038496383810012844,
        0.03198768015059464,
        -0.035084056607043404,
        0.03440364763791916,
        0.05331686078127747,
        0.0761103379966372,
        0.09193738149773682,
        -0.036828381655040626,
        -0.08144585038997548,
        -0.1134487797098736,
        -0.06063506925770732,
        -0.006868953346934752,
        0.022101143928830926,
        0.08194101276639698,
        -0.0022471083158527947,
        0.051022962117522976,
        0.024716479781333144,
        -0.03617902715561351,
        -0.005368008782745038,
        -0.02267498637667735,
        -0.044366648953710466,
        -0.0119337845659163,
        0.07479921244688888,
        0.012220310954776293,
        0.10708865304518578,
        0.03803437098512387,
        -0.017472353728347444,
        -0.13843699283619537,
        -0.0549059018974669,
        0.0024813554445404316,
        0.03870375135820654,
        -0.0269399282207037,
        -0.03945420825276168,
        0.057481675572071164,
        0.05698617963153575,
        0.002761576958895148,
        0.009211744650223704,
        0.01704645565339829,
        0.006315819714355112,
        -0.01121764708155135,
        0.0200905460861515,
        0.06773582927804114,
        0.007528958691704604,
        0.0008543597283063495,
        0.030925212699943725,
        -0.018163386173461818,
        0.023689961759396888,
        -0.028156556045552825,
        -0.04939402399964141,
        0.0037451491068485826,
        0.005984763254433796,
        0.004665431058141466,
        -0.06526517210029112,
        -0.03823128413174918,
        0.011628934717207145,
        0.10899910595452983,
        0.046111561912474584,
        -0.022420657655177097,
        0.0017627653372799916,
        0.0036077534982619603,
        -0.016663780162941604,
        0.04232349841209003,
        0.08398862510287144,
        0.16479033690776648,
        0.04904729109053722,
        0.01861442747971703,
        -0.010256039799124044,
        -0.010029622099523898,
        -0.07359104718078571,
        -0.0658240079269793,
        -0.043284144683505874,
        -0.15035330245154507,
        -0.13371048923239423,
        -0.056718378474265335,
        0.03338173595061045,
        0.02689393357101979,
        -0.03213802231279307,
        -0.10700268726954851,
        -0.05237589867455872,
        -0.13113367780354476,
        -0.1142442876686883,
        0.10857467799303239,
        0.20982536981832448,
        0.04913738997739105,
        -0.05914154873743992,
        0.02170947803844645,
        0.20043143346809392,
        0.08011130991973375,
        -0.05215551665153811,
        -0.04236762081729169,
        -0.04883979913770124,
        0.007960137423967874,
        -0.028036276083532395,
        -0.09609514784996655,
        0.010191311610082372,
        0.055146900475777375,
        -0.0046101328898981424,
        0.020321874920234767,
        -0.016829999669367282,
        -0.016725923856584807,
        0.029202403424574877,
        -0.002691605223293716,
        0.01636644495721911,
        -0.029218822533369042,
        -0.010739707593930163,
        -0.03633146265471913,
        0.010703198475226876,
        0.011676903877530186,
        -0.033524621355828656,
        -0.028913040211140748,
        -0.03658863066016006,
        0.024534660063670735,
        0.04820133211427231,
        0.014793657686280078,
        -0.013975813518300548,
        0.07958597014437792,
        0.017990286187062512,
        -0.08846271156659068,
        -0.026790855552905193,
        0.16057664738793617,
        0.1258954144140813,
        -0.008215520195502505,
        -0.14732998105941073,
        -0.10689935006444534,
        -0.013694515114935949,
        0.08626426824435462,
        0.03538148443721348,
        0.0019406614850366862,
        0.025109541873717257,
        0.028839304462696395,
        -0.07530367673592,
        0.012726415441537988,
        0.017994664273636496,
        -0.010884800066937855,
        0.040744120208384055,
        0.013462398573532819,
        0.034351222915693765,
        -0.07877070956584567,
        -0.030351885778085445,
        -0.027165408708536933,
        0.02836183857310272,
        0.0012530899944306671,
        0.0019039935082602343,
        -0.049971713108323726,
        -0.028374610169471702,
        -0.012934165846598797,
        0.14599687401648176,
        0.08378777517010944,
        0.005675368471527802,
        0.07079723265818218,
        0.09794518264246568,
        0.030914832317601136,
        0.0824504819735149,
        -0.04553148087903652,
        -0.01909580013489018,
        -0.07373902435251409,
        0.10415182008099191,
        0.08498027265910105,
        -0.06747076131456908,
        -0.021178253360639464,
        -0.06114502135934677,
        -0.043455845229648765,
        -0.04264578068875394,
        -0.008788860728057915,
        -0.06092454652758385,
        -0.12050894660024945,
        -0.08349965111881706,
        -0.04943828874139902,
        -0.06288326311078518,
        0.0034218628062484433,
        -0.017375161944693362,
        0.004305465879129734,
        0.010450822308965154,
        -0.024417045053833037,
        0.011442493032564246,
        0.04601978400303292,
        0.06951533009227245,
        -0.017700534741815335,
        -0.0903471584511083,
        -0.0344532839810945,
        0.00815478000054324,
        0.014144620156295973,
        0.012119009550354488,
        0.04307309185611334,
        -0.02950804164182227,
        0.021655462622704423,
        0.05478107052934354,
        -0.04590197754458658,
        -0.01134460396911784,
        0.07481489980059156,
        0.09703981060448964,
        -0.004582417714108631,
        -0.11211153494879533,
        -0.04649568169772156,
        -0.045409035648586796,
        -0.000741420102218208,
        -0.025071038532792803,
        -0.015242506287715105,
        0.028092653094576328,
        0.11298227770799504,
        0.03344410556837837,
        0.019064906663856872,
        -0.029732940027547897,
        0.07843684416101215,
        0.05595075847765856,
        0.014410725483219648,
        0.03272962426665895,
        -0.01157029117140669,
        -0.043141954788174924,
        -0.03222153300199923,
        0.03796549838737193,
        0.08350736790265889,
        0.030786798973175707,
        0.03237150364078614,
        -0.016137179711309606,
        -0.08817444344901204,
        0.029456767032569584,
        0.05094954217980483,
        -0.006371716292568089,
        -0.052222491874767345,
        0.03909726068179091,
        0.021306738535817122,
        -0.01714763509256943,
        0.032486000746972325,
        0.078952501650284,
        0.08757072559117987,
        0.024415388780845336,
        -0.03686462404376334,
        -0.05935152086071932,
        0.05834730481443748,
        0.023263024449605884,
        0.04990206352210814,
        0.04894234907879607,
        0.018934565198142725,
        -0.1276217657765903,
        -0.10272469435391612,
        -0.060376798667201595,
        0.006889944244481345,
        -0.016026986551768943,
        -0.002423906139056793,
        -0.06938043626419678,
        -0.11855678758333424,
        -0.017786870232844018,
        -0.01492433431029913,
        -0.13285002142691812,
        0.017998424786006998,
        0.15225710286712832,
        0.06762474530350975,
        -0.03505866089924274,
        -0.09828332919247326,
        -0.15838569359454507,
        0.028751899942754577,
        0.03205139065170135,
        -0.039133804404592035,
        -0.07885521165596117,
        -0.09071344192605338,
        0.05679040440998056,
        0.01928015541308461,
        0.07598461211277982,
        0.19535752434600442,
        0.05495359485117608,
        -0.053082118599623765,
        -0.05871550031616984,
        -0.06982490091697013,
        -0.033668244493814226,
        -0.010539648930080758,
        0.011591555191375849,
        0.037570938550580815,
        0.048198849401383255,
        0.06399065341054515,
        0.08559107329625246,
        -0.04193398581748785,
        -0.0313913853185827,
        0.009811936856187278,
        0.003920470419521287,
        0.01157834455956922,
        0.042828883143145494,
        0.004832035258124784,
        -0.0042933800799849165,
        -0.025800725606024325,
        -0.017415779341541423,
        -0.011314765956152547,
        0.07323597090254835,
        0.010432220687257457,
        -0.0008387415885286117,
        -0.012967557634136448,
        0.011665441563042776,
        0.023777926024622545,
        -0.020476063782200543,
        -0.15457981457258552,
        -0.14619274003808125,
        -0.1215613232417746,
        0.06852557533183254,
        0.08925207204683515,
        0.0860028075504102,
        0.04905330959531989,
        -0.02038112735414556,
        -0.0723444809415611,
        -0.0790114139381455,
        0.030562770649777554,
        0.046077382579887596,
        -0.021161538854018815,
        0.0054814956052464635,
        -0.013633092225417727,
        0.01066250502788944,
        -0.022102048478958615,
        -0.06563806404828856,
        -0.03318186825461125,
        0.032591945951493395,
        0.04965592834595217,
        0.0467108338905628,
        0.027021899036302997,
        -0.01580464202308451,
        0.030630350125187906,
        0.004598973011130046,
        -0.024393515471379273,
        -0.01996344600103987,
        0.028796594845051857,
        -0.019378835773539806,
        -0.04413957320498149,
        0.00432872858227856,
        0.04439013172324775,
        0.05432528536860204,
        0.14166864494602888,
        0.045038099969927754,
        -0.13234187765867456,
        -0.15566191001863683,
        -0.029727117217704036,
        -0.04749689574153283,
        0.0027336128803854822,
        0.14618964460152556,
        0.06543099184099885,
        -0.05841958475676832,
        -0.00761268515628501,
        -0.050471710634455505,
        -0.1714495182766824,
        -0.037714435890819464,
        -0.04108017432559844,
        -0.007870618833781283,
        -0.02731882569472264,
        0.00022158806347548831,
        0.04028732141057267,
        -0.03135967182237204,
        -0.08810471801274182,
        -0.062350353556589105,
        -0.017849424853762008,
        0.0397723156285716,
        -0.004329255225456537,
        0.026069983419325718,
        0.012608168905987503,
        0.042124827134768866,
        -0.002810712507586597,
        -0.011159190199075285,
        -0.034764005377176346,
        -3.029776049884227e-06,
        0.059581660408342424,
        0.05164232477307243,
        -0.017859768820479235,
        -0.06696580967349225,
        -0.03498042965197454,
        0.005368048533911466,
        0.012366289106854332,
        -0.08160591865742242,
        0.009467324446492904,
        0.14332774000259785,
        0.12068593969542894,
        0.07442103633359673,
        0.003473227947894346,
        -0.027720123227076246,
        -0.02652545678412867,
        -0.00801205375980895,
        -0.0523782830408223,
        -0.047479542190055596,
        0.01823858030941819,
        0.032580266005620376,
        -0.0075953091761372694,
        -0.04778894876018889,
        -0.06682230099021025,
        -0.037848762126947634,
        -0.0064732251587684645,
        -0.012395909178178554,
        -0.059261790735956006,
        -0.02704102456490953,
        -0.017057370539483696,
        0.020896970513646845,
        0.026664716251287704,
        0.006738822296480036,
        0.006373302855763298,
        -0.040293202417429036,
        -0.04105322461329025,
        -0.01971895547697538,
        0.10273025196792365,
        0.09729645746166303,
        -0.08038108182787658,
        -0.037189477091231854,
        0.09875368090174522,
        0.13858677592093938,
        0.03144087638598712,
        -0.031093461844850057,
        0.0645053884597227,
        0.0955976240310452,
        -0.0016632493637323365,
        -0.07088854395706143,
        0.00019913061143760858,
        0.11700560711424308,
        0.04660788932719484,
        0.07546568594600121,
        0.061302517399368026,
        0.0734388955131181,
        -0.006049603172660815,
        0.01701726199038889,
        -0.014893686242590876,
        -0.07893676083652304,
        -0.011173588033735832,
        0.038997102478680414,
        0.06797924954227595,
        0.00040555403678151845,
        -0.044840863422873675,
        0.01823534375882653,
        0.07942578155611033,
        0.05622718753999231,
        -0.12177661342251045,
        0.01398983748323549,
        0.002914177347446803,
        -0.05078055479180232,
        -0.043898868502837016,
        0.0908136300486211,
        0.2602039427428273,
        0.1492748879193681,
        0.045816435715087846,
        0.061683597384276596,
        0.06817408940171074,
        0.060629094754435536,
        -0.02824110470501081,
        0.06154407595419633,
        0.14910953161118967,
        0.09754462185802915,
        0.11127730926982012,
        0.09498556257779997,
        -0.03075983283073643,
        -0.05317466598312667,
        -0.058369728681637194,
        -0.0037311812798220606,
        0.04346591342907513,
        0.04363581889690772,
        0.00461399453104929,
        0.02997746718544227,
        0.09073430787522382,
        -0.03569715578038865,
        -0.0700336014961868,
        -0.17132997502051872,
        -0.10140383357828864,
        -0.030348247815443482,
        0.06268245470331471,
        0.007718785595281571,
        0.026180272871035724,
        0.04284354650542205,
        0.025042884999502857,
        0.007560685977872076,
        -0.05408224174849062,
        -0.1661479769796881,
        -0.14451239600350746,
        -0.05446903564260608,
        -0.02978331493138827,
        -0.0066335298291241955,
        0.08677628609970356,
        0.08685356175907885,
        0.011844930014422288,
        -0.035085635351309055,
        0.009067641008464472,
        0.015230481771183397,
        0.021910346470358603,
        0.006024629391787193,
        0.034664142661961814,
        0.04044663521006847,
        0.052338552512573196,
        0.062383824287651206,
        0.023397386230314107,
        0.05210647624194457,
        -0.010092526114860733,
        0.008376270237277512,
        -0.03758265303387842,
        -0.0012691883447673072,
        0.11431739058391807,
        0.09584270140369053,
        -0.025185031199803413,
        -0.008701902762439935,
        0.016614311677756167,
        0.020804006505251143,
        -0.040442783979967006,
        -0.009935525460978686,
        0.011025438418038335,
        0.012645524613223727,
        0.023092690141600706,
        0.01899485239457866,
        -0.03069214111289817,
        -0.14765281301157487,
        -0.12362567360300046,
        0.14886202568270523,
        0.13749680951476867,
        0.10349495891141836,
        0.16788329765221316,
        0.05727953391445392,
        -0.002584455890627041,
        -0.018692115714748367,
        -0.014419038033589605,
        -0.06547536561328497,
        -0.0449485494234413,
        -0.02115526443385817,
        0.021606926781007126,
        0.014532611285593326,
        0.021462975318326055,
        -0.005875353559307338,
        -0.004790094402626374,
        -0.0664729757676256,
        -0.11094044703675032,
        -0.05476337681515309,
        -0.03327503401544429,
        -0.07505450192295754,
        -0.07577079823346197,
        -0.006242394229188172,
        0.09524343014829861,
        0.0986741621936007,
        0.07853212921991415,
        -0.13114899707719863,
        -0.09191593515460529,
        0.08699068939378055,
        0.05418099314763676,
        0.044440700995573824,
        0.011080257712783464,
        -0.016080985035396355,
        -0.045634890464069766,
        -0.02426456906932413,
        -0.09425592883817199,
        -0.06287075618605656,
        -0.1214197237707858,
        -0.0941912787164704,
        0.0025896848266886213,
        -0.040589788890240924,
        -0.036985500321793416,
        0.0043817534543029255,
        0.12304412233676609,
        0.0711148430423835,
        0.15580398392615424,
        0.07448102285907725,
        0.08036560964040032,
        -0.0840477960162429,
        -0.19710587169871202,
        -0.20251902833525381,
        -0.15137806282269678,
        -0.18173866478181805,
        -0.1018376536715217,
        0.09120425665263956,
        0.22361487006897818,
        0.1717955452066284,
        0.13053911790846268,
        0.06126898994971479,
        0.12048516383838298,
        0.024710669389379113,
        -0.12585317585872552,
        -0.008307929360642218,
        0.1071425631679476,
        0.12938832949540433,
        0.07585892404127123,
        0.004179391281949794,
        -0.008659027065978537,
        -0.04190552846933978,
        -0.07218086917650608,
        -0.006187371231744038,
        -0.03461814142536105,
        -0.005579991558180157,
        -0.024158991942608586,
        0.03098119723401775,
        0.001631010427753349,
        -0.008477295976801247,
        0.020733325399144027,
        -0.03827118544299961,
        -0.01857925507607147,
        -0.026873186842948198,
        -0.01813245430713295,
        -0.024072982099019688,
        -0.027534865571559354,
        0.016915574731579328,
        0.04022712605973748,
        -0.009921119976191235,
        -0.04391363509791116,
        -0.032568472188227955,
        0.020363914523415447,
        -0.03964579790907315,
        0.014885895688192326,
        -0.009569602857846674,
        0.10445644743279527,
        -0.1330784135254406,
        -0.10658085660855487,
        -0.1569099445149132,
        0.03296039705340473,
        0.1126508930355766,
        0.0691974639143646,
        0.05555716098740417,
        0.04582827891731053,
        0.1552641217062911,
        0.16114941956879192,
        0.057019412229450374,
        0.01999088559380622,
        -0.08558023222514594,
        -0.11072432291254267,
        -0.09413136797335735,
        -0.07801164406375968,
        0.036213732748570246,
        0.03899399620717459,
        0.14707992290098554,
        0.1709510498489512,
        0.11462290638223219,
        0.17749671828527464,
        0.018657114744979754,
        0.02912769195808675,
        -0.005617114088702581,
        -0.018773833153027074,
        -0.09178281434693845,
        -0.03635057316435597,
        0.17240070943022817,
        0.12908992199721345,
        0.0841768762904565,
        0.0003632316913905084,
        -0.01625590461991036,
        0.07500727783590025,
        0.04583858883185764,
        0.05479682513594218,
        -0.025413472727012817,
        -0.014637412125782434,
        -0.046160055188678564,
        -0.010428898224237253,
        0.04769694041864218,
        0.04918812640694298,
        0.03691756031367603,
        -0.11118255641907135,
        0.023399593795013815,
        -0.002559595373772639,
        0.01919684256080385,
        0.0170128118968227,
        0.08692540267527779,
        0.0011510036851782447,
        -0.01758251472044957,
        -0.007824368384162284,
        0.023847062500884093,
        -0.022785854688837905,
        -0.030244538902061257,
        -0.012891530563308546,
        -0.0768363484940397,
        -0.07944438667189953,
        -0.14649894066456684,
        -0.15271439753267188,
        -0.11296894849056788,
        -0.09204561083770733,
        0.018025363301079015,
        0.15749884591845795,
        0.03590529687474399,
        -0.07037914992136865,
        -0.09171207931413355,
        -0.0686003232767496,
        0.16688086116968512,
        0.13234203969135364,
        0.09683607752456794,
        0.0038728275629343776,
        0.009856029588692075,
        0.04450102144629549,
        0.049190221097350134,
        0.03820834587415875,
        0.03652376212262353,
        -0.03410342622493258,
        -0.020003714888947775,
        -0.014129000008671254,
        0.024301879021324323,
        0.08689613618970585,
        0.09515012292741877,
        0.046575063625815455,
        0.05609521510245316,
        -0.013204282021051283,
        -0.03979803050591852,
        -0.18348943988349323,
        -0.21343790489739944,
        -0.21327118913249327,
        -0.005383745446896822,
        -0.024311805668625352,
        0.04378133869526348,
        -0.0021555013155619184,
        -0.019705590227111266,
        -0.11085485259888168,
        -0.035440822764178745,
        -0.025136444540135472,
        0.006614045968766663,
        -0.028471293931288884,
        0.09915794256856053,
        0.074083145728884,
        0.10231483709775901,
        0.053286783172883406,
        0.06312132300612328,
        0.03464241742788289,
        0.06494304217572607,
        0.012381290466720629,
        -0.001300385773961736,
        0.012014451047252225,
        -0.0004943035647719811,
        0.03535582671182291,
        -0.018390897645963317,
        0.014543820403691832,
        0.05354237468894951,
        0.10460396967241378,
        0.014838427981517867,
        -0.04622610701118871,
        0.021695554183476514,
        0.054447796887985345,
        0.0719035637796413,
        -0.05450525705104549,
        -0.014090336791444946,
        0.0789904091885821,
        0.13623410453131343,
        0.002205026456712932,
        -0.0005387066022502897,
        0.018358814858440244,
        -0.008224645872802944,
        0.030418270036378807,
        -0.0041907209099284574,
        0.02726598219656344,
        -0.023851844661850204,
        -0.015472588791541966,
        -0.10352668963197978,
        0.024607971589099657,
        -0.015553958159767931,
        0.01641434843453269,
        -0.025967808544112292,
        -0.01609466868149996,
        -0.010651780141818666,
        -0.12994748659594946,
        -0.09733819295354815,
        -0.09484306887613422,
        -0.0497797312117374,
        0.011260199683928773,
        0.0930753616630964,
        0.0201188130362875,
        0.011442342815438544,
        0.0652248331524348,
        0.11450705749625503,
        0.09556551801786295,
        -0.0435842137603971,
        -0.09155301777129242,
        -0.15280673772542755,
        -0.06223880047611331,
        0.04690376307200736,
        0.05851260046425851,
        0.0063159226384391694,
        -0.04529014482671975,
        0.006418111831100426,
        0.18744258044978923,
        0.18738610057563282,
        0.16760561201436963,
        0.06133800613390039,
        0.03935164215603894,
        -0.010002149766052012,
        -0.15242454257780932,
        -0.07076600180448232,
        0.0036911544703058788,
        0.034157735143891976,
        0.08453209089141812,
        0.06173037531105478,
        0.0751099785619671,
        0.050195971283925916,
        0.028534131087769008,
        0.015026572212244654,
        0.08731298743261612,
        0.05344891242891629,
        0.04433350470574084,
        0.041059495620086844,
        0.0866381129560573,
        0.04973159110247796,
        -0.0071175689729478155,
        -0.01176510978906238,
        -0.0012145069190118212,
        -0.06786306352111898,
        -0.006746964395243757,
        -0.027154499608446132,
        -0.008680036096049323,
        -0.0045128917779132475,
        0.028101143736978182,
        -0.018238125943442242,
        0.02925311417487418,
        0.010053773532968279,
        -0.038883227863524036,
        -0.0031129990418369974,
        -0.0019456291771441797,
        -0.07708091429847891,
        -0.07122322448296955,
        -0.13197117170726036,
        -0.12109195983404641,
        -0.13015611057946042,
        -0.06980017574889374,
        0.03106499229095352,
        0.00625820006435207,
        -0.027006726387600218,
        -0.06995580323315655,
        -0.047349760806956354,
        -0.04621212570219606,
        -0.019722198127350342,
        -0.11063465954636192,
        -0.11269266791593216,
        0.08659366035188905,
        0.02634573191654904,
        -0.07224799710123407,
        -0.06975839269774826,
        0.063390237038324,
        0.07506256038620324,
        0.11019518686650648,
        0.06621295535436743,
        -0.030097995691186926,
        -0.07925818055542641,
        0.01251347520138816,
        0.03311267481350329,
        -0.06132687542416349,
        -0.08744319044092855,
        -0.09342491472507275,
        -0.04204981305301495,
        -0.03685800910999229,
        -0.089853165662666,
        -0.03537351611049677,
        0.03764274717126235,
        0.0582029580771409,
        0.02200600220919053,
        0.014067760463453139,
        0.010646252170809598,
        0.011582035039075263,
        0.030318129373591414,
        0.004890115316127125,
        -0.1524430377352674,
        -0.14125226815208544,
        -0.14707976850289672,
        -0.1649966875440794,
        -0.04833051654392497,
        0.1505393624992703,
        0.1652083181097111,
        0.008407986224660706,
        -0.04532112145607937,
        -0.05657995329152334,
        0.18946365937801152,
        0.15610678658505356,
        -0.1625559070879115,
        -0.24425747702349027,
        -0.1471306304074736,
        0.06186913689532113,
        0.013624314519556601,
        0.08028922639213493,
        -0.016159883950813907,
        0.035486084416340616,
        0.018586998753879473,
        -0.037256984851160135,
        -0.09905500692046261,
        -0.0382042811594768,
        0.005592883925606976,
        -0.02468460955689778,
        -0.023276460369700023,
        -0.01765431165964074,
        0.002406533802264778,
        0.032358257504215726,
        0.04611546528048446,
        0.03487868374748706,
        0.0664826477042128,
        0.0385684823131738,
        -0.004513217979494678,
        -0.08565480156816567,
        -0.12793128118072578,
        -0.059986541153635484,
        -0.06175612832470257,
        -0.09538824364617268,
        -0.03313025687124074,
        0.07268470678372721,
        0.22312279087438416,
        0.07789116895709318,
        -0.03402929870311491,
        -0.027862339312751,
        0.07490374036801775,
        0.181532416835732,
        0.050464070924476134,
        -0.03136577468136416,
        -0.13203046582831268,
        -0.13151737575921876,
        -0.1424234759335613,
        -0.028527731274251837,
        -0.01766836589020618,
        0.005362035462132378,
        -0.0037372500119427967,
        0.035298348739635305,
        0.07103663081869994,
        0.07705328893304554,
        0.08086073235620807,
        0.06517986025037067,
        -0.04941773522446218,
        -0.04653294655638586,
        -0.05759125800394216,
        -0.061617020854796895,
        -0.05672878764199684,
        -0.04691287637894474,
        -0.014976338499470243,
        0.0009265514564083164,
        -0.003049621900155259,
        -0.012921367041331898,
        -0.14043543917739318,
        -0.132545770269138,
        -0.10143042666632604,
        -0.0043401420974570875,
        -0.02755508360961522,
        0.021325084230739207,
        0.04736637732753672,
        0.0321875002635598,
        0.05338777426348787,
        0.02538699012775779,
        0.0882785761032367,
        0.029414687603017298,
        -0.03713156737650933,
        -0.1382224782478471,
        -0.12627780672146952,
        -0.16354044837735882,
        -0.04236999632210839,
        0.06448028431684927,
        0.1442822026543226,
        0.2190084540303473,
        0.043091053047484715,
        -0.13211504906266291,
        -0.0427161325245198,
        0.07093784649719398,
        0.014021182897239257,
        -0.14674023377370077,
        -0.17113771055459032,
        -0.09093737162178954,
        0.017453672025642318,
        0.0354475423866818,
        -0.027879082650373296,
        -0.06484977210266857,
        -0.09066437765616996,
        -0.029479100540484464,
        0.024198213127605575,
        -0.03720754304767495,
        -0.05603366745921566,
        0.016852525275107416,
        -0.06472937978781523,
        -0.1715197577593889,
        -0.03780463981645743,
        0.05761573055067898,
        0.06270670947691603,
        -0.0433405054717652,
        0.010265210045793852,
        0.04630926465455427,
        0.06624954115049136,
        0.008550707031971999,
        -0.0010319744759453844,
        0.02330500065279134,
        -0.039348051285330934,
        -0.11453702634216403,
        -0.02948527293335491,
        0.04962019158393109,
        -0.020573440770792848,
        -0.05322048773771694,
        -0.09778740246465273,
        -0.09944101538269018,
        -0.05182997114330573,
        0.004254770596358046,
        -0.044939448797390605,
        -0.009784235738133647,
        0.02970693549228741,
        -0.011083166955716317,
        0.04565322108816316,
        0.0663620164535497,
        0.08979780408992039,
        0.07153871315131116,
        -0.08119941624077111,
        -0.16944820615565606,
        -0.1407064144118547,
        -0.12858573870616036,
        -0.08065752844188283,
        0.03167463934569209,
        0.03102460096625513,
        0.035169290356882724,
        0.11459780909746178,
        0.05393543222903113,
        0.06713429827893683,
        0.0669246871979044,
        0.09745185533328941,
        0.0877658385210753,
        0.11250707266169475,
        0.12006318366546868,
        0.13503145191127272,
        0.10201819369589434,
        0.06691503238648969,
        0.15142590085876137,
        0.20206542558903032,
        0.24986450339912342,
        0.09774423626530906,
        -0.018299254104165445,
        -0.04667994762939577,
        -0.030973086170400607,
        -0.07892539053374942,
        -0.11404163348390409,
        -0.12344326420960394,
        -0.019767486654180034,
        0.013845241357603191,
        -0.0954621762032766,
        -0.07591609157370915,
        -0.04788949632750526,
        0.04422822341416881,
        -0.02170413818141831,
        -0.05873155437599846,
        -0.08022079771863974,
        0.03132042247514992,
        -0.03891934221871593,
        -0.12371498364831654,
        -0.0789420756203367,
        -0.06468162333935061,
        -0.03269869667284817,
        0.018273829185394795,
        0.024181435405534604,
        0.11139589078473106,
        0.004353410926311787,
        -0.05193988430832448,
        -0.027207440024531793,
        -0.05666597026776595,
        -0.021406382494058223,
        0.034078203398519,
        0.032812781778873944,
        -0.045429613285755205,
        -0.07946295919581953,
        0.012295590738892222,
        0.03797730336247384,
        0.10042667262295732,
        0.2040333237343424,
        0.18143698291870675,
        0.05514145824229207,
        -0.022317157237778308,
        -0.0012124444900432818,
        0.014935324715015894,
        0.03270169325689267,
        0.03666389493738334,
        -0.012544398352358372,
        0.021382254325586457,
        0.020716078110090862,
        -0.03789833779516717,
        -0.04774597334711275,
        -0.07109130927304874,
        -0.07686408791977897,
        -0.0809069032419347,
        -0.0004726161423449658,
        -0.030321950030163233,
        0.06969059590764559,
        0.10283524946861305,
        0.21133667871452555,
        0.180844712996676,
        0.02389124154509168,
        -0.07031964890550581,
        -0.1747593372172799,
        -0.0625189369830729,
        0.08599406012847749,
        0.1283773320904717,
        0.0689284419214435,
        0.02734399201298399,
        0.03692947041172068,
        -0.032831424431110146,
        -0.09326895335834835,
        -0.1522854333414994,
        -0.010045788792085973,
        0.1259403072057492,
        0.1111158575260213,
        0.015272341578994274,
        -0.02295970104803091,
        0.026808778238994743,
        0.02225638800291002,
        -0.02541872248888863,
        -0.012532996316732771,
        0.03219712624796854,
        0.021876644019468098,
        -0.010480760046399338,
        -0.06175642806078332,
        -0.019961414971330412,
        0.0021510072479323074,
        0.002361654378567381,
        -0.04275209344965365,
        -0.032422781246622595,
        -0.015368142519028054,
        -0.015044872157706139,
        0.006440429081125487,
        -0.017189465845860907,
        -0.013267161531689633,
        0.012666149414106122,
        -0.0036842130868254682,
        -0.036425325568090236,
        -0.017188729524484976,
        -0.03072268649329879,
        -0.04540555674605137,
        -0.012951402834709452,
        0.04763585936156863,
        0.029229632636829712,
        -0.05967996666721953,
        -0.1433666770189733,
        -0.1473171945009375,
        -0.09163329314604152,
        -0.05976700995411653,
        -0.04464784178497393,
        -0.09962834327278539,
        -0.09691744419401846,
        -0.10093750555032484,
        -0.09687751683010257,
        -0.09939825893463188,
        -0.05633067314421805,
        0.008627052558010247,
        0.020267422115002005,
        0.05116899226124838,
        0.06904813303464027,
        0.07200244399241942,
        0.0036780199553936343,
        -0.022637818880130525,
        -0.024123456805875694,
        -0.024780696150700672,
        -0.01955463361332313,
        -0.02240224804720096,
        -0.0012863691130583872,
        -0.009367958853061409,
        -0.06459579857998554,
        -0.08503232831581033,
        -0.09952805770035578,
        -0.05543130967111318,
        -0.004659188638844131,
        0.015205047970467575,
        -0.022523965107677162,
        -0.13529713603306767,
        -0.1720980745645868,
        -0.05325480825532513,
        0.04110633663358117,
        0.031210101527173358,
        0.012795040223783711,
        0.04721614167313369,
        0.02637909820548979,
        -0.003571014289208348,
        -0.04251288964920555,
        -0.02507267555207139,
        0.015438601889430508,
        -0.015039791656422307,
        0.03099850586354414,
        0.020458744735017666,
        0.05775626580786736,
        0.15278842124370717,
        0.11922517639620303,
        0.08136522808685753,
        0.011174501151695763,
        -0.0017682437651105297,
        -0.16312053288480916,
        -0.20361618128506648,
        -0.11674566374522108,
        -0.052164239643206996,
        0.03877528639573048,
        -0.005711127783417205,
        -0.06187412893348308,
        -0.07888242407043582,
        -0.054728174612165156,
        0.07586582334642086,
        0.1811827647577619,
        0.20107562220294056,
        0.1326646484676375,
        -0.02262121608318944,
        -0.03382481541049427,
        -0.03782214681728945,
        0.03440869146934193,
        0.03271768322911328,
        0.0917992622708288,
        0.060579242742620755,
        0.05218946389291754,
        -0.024962908296381692,
        -0.059684344337388576,
        -0.020826888585504855,
        0.04046617298407182,
        0.08480319517082369,
        0.06061393031449438,
        0.02613759547295437,
        -0.00044585077235228675,
        -0.016486834570312463,
        -0.030195150988020288,
        0.01524166554840848,
        0.09568094304269578,
        0.15007182121554352,
        0.15770778113996928,
        0.09085364543441912,
        0.08749410077552905,
        0.031998455996557804,
        0.0046090209571949745,
        0.03187230556314498,
        0.09361364581454466,
        0.1467488786391779,
        0.1619821405062332,
        0.16464983031807232,
        0.13856698342919133,
        0.055122222827815676,
        0.06978537958275868,
        -0.01047850203020112,
        0.09713892436441064,
        0.14601867778703462,
        0.1115049760467095,
        0.11898799024459783,
        0.03498981999120847,
        0.005878708808625046,
        0.02673763135907621,
        0.07335512118581575,
        0.07346212805993209,
        -0.0376757517696724,
        -0.08069635525370071,
        -0.1582738506828158,
        -0.1994349526880988,
        -0.10082537689505554,
        0.07278120643512724,
        0.21826768447270992,
        0.204192485634678,
        0.03585014795907426,
        -0.048042272370264136,
        0.06436174437639285,
        0.0982393061090497,
        0.05668285558100318,
        -0.001929799024602662,
        -0.04251305764222399,
        0.07318433935804178,
        0.11413367023019341,
        -0.023769773396125866,
        -0.07720268025197671,
        -0.15568269118322398,
        -0.03017033754628064,
        0.11354562768629362,
        0.15383049594786946,
        0.11665801138657571,
        0.08784825360924367,
        -0.03611390605568219,
        -0.06744419733256182,
        0.02227651516706995,
        0.11028214628377278,
        0.1380599832696283,
        0.10200710574609732,
        -0.05128451053611476,
        -0.01824972514571621,
        0.024913850701630113,
        0.06183837908017667,
        0.08319837550121591,
        0.041790836240066985,
        0.1837982144687359,
        0.19924213327226484,
        0.15203794804780033,
        0.06675612275378344,
        -0.058601979042847245,
        -0.01850146268407326,
        0.05127703524200933,
        0.10800010733003369,
        0.07739901227625715,
        0.022646348887081186,
        0.009925702409700567,
        0.05151396259177653,
        0.05803170031047971,
        0.14438582965544616,
        0.13200521977562918,
        0.09877047084898535,
        0.04985096794942865,
        0.1002877971244126,
        0.1562647033136188,
        0.14235214931173518,
        0.09526645020084115,
        0.04442656746585818,
        0.012779214250893296,
        -0.04541727052698796,
        -0.024046050955660273,
        -0.04136012301470083,
        -0.060288309165518715,
        -0.028861052157564494,
        0.024132532432452777,
        0.036492486721733074,
        -0.16241790847913612,
        -0.09446088066313253,
        0.047589333452673147,
        0.14862748054896974,
        0.09904870377898878,
        -0.01876884604874405,
        -0.0052922849247896845,
        -0.07012270878433581,
        -0.05923610370601543,
        -0.02624949461245695,
        0.013865460648474286,
        0.1794927564980821,
        0.2506562770471806,
        0.15544874465264,
        -0.007067911313627887,
        0.017417337908302515,
        -0.03868451801233306,
        -0.022637343995064153,
        0.0790049360778396,
        0.05709851561608635,
        0.01925072359470814,
        -0.11982707766388528,
        -0.234719482938815,
        -0.2917252425713022,
        -0.2663068743994986,
        -0.21936076841518418,
        -0.07832151838376572,
        -0.007518687589965106,
        0.0579396893172941,
        0.09715692017556489,
        0.05291436864348231,
        -0.028541596609282287,
        -0.11508781500788624,
        -0.20930715637731412,
        -0.2538062235530445,
        -0.13578647018973833,
        0.07811632329427123,
        0.09783639972883504,
        0.021061506107968034,
        0.007420719053758444,
        0.12011245624097396,
        0.1572081580705013,
        0.10935708258737785,
        0.010931615218703403,
        0.07294271735111035,
        0.06610085019632898,
        0.050235607010879604,
        0.035546758472839175,
        0.05008706268831782,
        -0.008087141992715353,
        0.06971591861513951,
        0.09093698326280608,
        0.13392554921402508,
        0.1067220019489972,
        -0.002592857901944512,
        -0.015663319695301995,
        -0.006471176309831558,
        -0.023697443376726142,
        -0.007733966135406174,
        -0.005275477413130818,
        0.023346651188418662,
        0.0329860820513979,
        0.021535554472027492,
        0.0032063385393921234,
        -0.0031279395291472457,
        -0.060224874730649344,
        -0.07682082441226237,
        0.008110152003630602,
        -0.01578591053144935,
        -0.02106014307113755,
        -0.042039384897905915,
        -0.011811628479854817,
        -0.03973800183004092,
        -0.12202205937973368,
        -0.12731144890862367,
        -0.0842990661451037,
        0.04177653858125516,
        0.08119948030414166,
        0.01862237357073546,
        -0.015683840212443366,
        0.06273730329323465,
        0.2051507773149296,
        0.07354216795395957,
        -0.06025468218454954,
        -0.03332619877061008,
        0.08084702871479021,
        0.04402003724458141,
        -0.0028543670428329082,
        -0.03687350016189673,
        -0.0054422978225516765,
        -0.004223523140800092,
        -0.023302809120126295,
        -0.08876284070463294,
        -0.009091190812485632,
        -0.05551962479788726,
        -0.036527005990546355,
        -0.027217746763737942,
        -0.1067408179291206,
        -0.020465637822310947,
        0.04911994801858548,
        0.01881273205038758,
        -0.01725276419387382,
        -0.01327569433204203,
        0.023737075111595958,
        0.014429917098438966,
        -0.02881521026238436,
        -0.00611764698440507,
        0.03589091163790133,
        0.05622304018304543,
        -0.02031142894661379,
        -0.077840001918052,
        -0.12368054347924015,
        -0.11616446592175227,
        -0.056002586003073715,
        0.008184751172145725,
        -0.029740471108235828,
        0.08317045448905985,
        0.08868204981131284,
        -0.01391409182292176,
        -0.09628870524570828,
        -0.0050913940135539765,
        0.14919059517941902,
        0.08912657520013038,
        0.021022803996488364,
        0.01176625697175138,
        0.022096147395689505,
        -0.03485229262338138,
        -0.0317184129646814,
        -0.02521195625335429,
        0.02233504103813413,
        -0.029578673503629027,
        -0.05644787512201035,
        -0.013701273905832138,
        0.01329949158171038,
        -0.00745967568897817,
        0.027596193111442874,
        -0.0310076863800103,
        0.0154961927350472,
        0.01179440167760985,
        -0.06322324033142367,
        -0.05247853230661779,
        0.04173800861211704,
        0.0343743812343765,
        0.045999605256701714,
        0.03970651734873373,
        -0.08436571170252194,
        -0.08111601482757778,
        0.037791994223939834,
        0.07422022888592314,
        0.08031983708976,
        0.05513906804309969,
        0.042101152288696875,
        -0.031237230782697592,
        -0.0038348169373718334,
        -0.04144957739365404,
        -0.009022211134298004,
        0.014111765754345341,
        0.0802660275946791,
        -0.01877357356591381,
        -0.006897936855574077,
        0.10400512270846661,
        0.11076812703896874,
        0.02003971074785585,
        0.014652216872950076,
        0.06102426590491215,
        -0.0013152061204282743,
        -0.044810281952291336,
        0.01833451551438159,
        0.20056440481420024,
        0.05386699801819057,
        0.0074380662394041884,
        -0.0674568707823985,
        -0.024133678029717297,
        -0.0536193346221918,
        -0.0022439216802469554,
        -0.05204020543171578,
        -0.0034976121873184236,
        -0.013127404918642475,
        -0.060462011509902824,
        0.07792472952812157,
        -0.04150257476134416,
        -0.0056773790931031,
        -0.01881859046705934,
        -0.031092709938853824,
        -0.042625492133165105,
        -0.1851986208619144,
        -0.06653205413224444,
        -0.00920586921581933,
        0.11473064561011356,
        0.06760911421903203,
        0.032534488761844345,
        -0.012685873942955077,
        -0.10907786233560623,
        -0.0639230535139892,
        -0.07089891992952677,
        0.06138819047577369,
        0.15297984767559195,
        0.2755412337611756,
        0.23774410619457673,
        0.16603310039399552,
        0.0989055500064171,
        0.08507378601938392,
        0.014706046690179022,
        0.12233323682144948,
        0.1310405423151031,
        0.1590228994192405,
        0.1190290365399892,
        0.007292931187094783,
        -0.041669047537503126,
        -0.15293410617006573,
        -0.07347305676241853,
        -0.1768952342578609,
        -0.16576637056119364,
        -0.011292145080776844,
        0.05509301815356042,
        0.20332280443529455,
        0.12858754557710303,
        0.08186833994254343,
        0.0912535507212601,
        -0.06886929429658821,
        -0.131697917410099,
        -0.06477149601964591,
        0.01151192793214022,
        -0.029209435256875225,
        -0.027117527682807504,
        -0.047485913899342,
        0.09484734139843926,
        0.08057922966869926,
        0.008021299019413449,
        0.006091175906254363,
        0.07901165191442378,
        -0.003745754682092154,
        0.007878650112890698,
        -0.036064154229839045,
        -0.05123698418342609,
        -0.039987272615713186,
        -0.056091190274888174,
        -0.029857447068870453,
        0.03451234249091775,
        0.02118392043982642,
        -0.027065805143553813,
        -0.08695433667009793,
        -0.048694115684722525,
        -0.015447170075351853,
        0.0006888582511143358,
        -0.053269222960200806,
        0.055031179878137076,
        0.03328708511509719,
        0.04396985413362818,
        0.042745656821943326,
        -0.05635550626837596,
        -0.044041807268945146,
        -0.04440887286663554,
        0.041195651146182156,
        0.13383390029411624,
        0.17901504503710597,
        0.15302116847581443,
        0.0615346065021391,
        -0.06610157298375147,
        -0.06285340664542366,
        -0.15230202378834695,
        -0.2589361579202613,
        -0.25411411055068456,
        -0.09460816083941763,
        -0.015525672727379291,
        0.047564031208863246,
        -0.019658803836381897,
        -0.02485689960123007,
        -0.08516086902682213,
        -0.12070344952135693,
        -0.08273508926054612,
        -0.07842804701476568,
        0.031432830639150165,
        0.03129400537451659,
        -0.0626750410623404,
        -0.04140879488636344,
        0.013514155808644672,
        -0.025668175364233325,
        0.1091135834460685,
        0.029848026920991352,
        -0.0013448739584169687,
        0.022281991178362714,
        0.005346001192543873,
        0.0013060172270178395,
        0.02605624908157242,
        0.004439513927848368,
        -0.0178262355962546,
        0.010500759247127744,
        0.061748402383346154,
        0.1295372852217359,
        0.04288630078362693,
        0.05672087123090762,
        0.03848340310182752,
        0.0250198977778452,
        0.031385054585110386,
        -0.010352467193020779,
        -0.012513714043295841,
        0.03685753248358557,
        -0.030132182507474098,
        0.0032977387547838835,
        0.022771661685465995,
        -0.09699920632047404,
        -0.02040950477110271,
        0.005848226121943649,
        0.08687832573499094,
        0.18296946641503797,
        0.23803955599954818,
        0.24925561216031808,
        0.293440847857615,
        0.11109667654067075,
        0.11498755838731635,
        0.06834491410399204,
        0.010159664110527943,
        0.042581241547770945,
        0.030915553358840032,
        0.038703641544601666,
        0.048850927000402736,
        0.0034883327885066287,
        0.027929636394866966,
        0.012466364994449836,
        0.1236560805573586,
        0.28892167243192796,
        0.1405992115971492,
        0.17207699403517301,
        0.054455027791201295,
        0.07141773836115631,
        0.13712544496770945,
        0.040471879953439795,
        0.03854164634615999,
        -0.031036474096477466,
        0.04825328197044665,
        0.09031397177014552,
        0.025092425348295387,
        -0.03198108177233974,
        -0.15673102693212287,
        -0.1782866606949179,
        -0.13067711855992897,
        -0.14579624239191663,
        -0.11549593452782644,
        -0.09259029067511867,
        0.03645256100983148,
        0.000560689408664193,
        -0.058145891164999804,
        0.045219869526579734,
        0.0376430206446861,
        0.11818386250717078,
        0.02914729085331475,
        -0.0005968083436384678,
        0.0660726727038456,
        0.017941521676034557,
        0.08602015994515838,
        -0.0053774947820376465,
        -0.0454036032153617,
        0.026918291395994862,
        -0.0031378366687061982,
        0.03579647397853919,
        -0.08571061287807508,
        -0.04070395947022064,
        -0.047547907532679165,
        0.05299875949916823,
        0.1743667027448656,
        0.15336798412992247,
        0.14572475027287551,
        0.07585979946593786,
        0.04002861898647466,
        0.05051059198293498,
        0.0321968504665191,
        0.0015657606633918022,
        -0.023391088924214758,
        0.07166629293537041,
        0.01906976375802734,
        -0.04187602127665284,
        -0.10653698586461618,
        -0.23223259277142447,
        -0.12616229573840987,
        -0.016502134834165873,
        0.08958927516658624,
        0.08226039096321683,
        0.02172292955771429,
        0.06915177019518155,
        0.06112524135539278,
        -0.006042340413988765,
        -0.09119787184156064,
        -0.0761088187688736,
        -0.09164706547354497,
        0.04922716589786319,
        -0.0769124263667656,
        -0.10879069249195156,
        -0.05713022187677118,
        -0.01564586221827799,
        0.09199453830354767,
        -0.06380400948260911,
        -0.03266629423302845,
        -0.006783840887478434,
        0.12269983926944891,
        0.17627572626321053,
        0.1797444971289775,
        0.08986333701871288,
        0.08080180405034745,
        -0.006612287013275386,
        -0.05940345155158991,
        -0.0616542620025715,
        -0.06923822263948308,
        -0.07178149948820717,
        -0.02106579936087355,
        -0.013564892397175059,
        0.06056999993249707,
        0.02033221979479898,
        -0.027667744282188475,
        -0.13906539064002393,
        -0.04344498823282446,
        0.0016417328972289287,
        0.028277557465985217,
        0.025255772942990688,
        0.09703984804529647,
        0.13627027877290127,
        0.08983953843802808,
        0.05524293775596498,
        0.0004077671524386182,
        0.058956562028406025,
        0.11184814576990924,
        0.07653255918602525,
        0.052526546888134185,
        0.091791333957613,
        0.00662592047767341,
        -8.167525731389482e-05,
        0.0568011192523086,
        0.16084515873967475,
        0.033332196200788464,
        -0.06219246932459806,
        -0.23814474999077784,
        -0.042394063746736606,
        0.025531066880660577,
        0.11481225115101955,
        0.11192959378525469,
        -0.00473105028084256,
        -0.00814267774808787,
        -0.10908503659880464,
        -0.0005297826261863449,
        -0.10178371968329394,
        -0.1179793863065661,
        -0.1534137286125768,
        -0.059417115803518494,
        -0.06752632927018355,
        0.02082104383843696,
        -0.08488104581173489,
        -0.022242738795261223,
        -0.011311448563498461,
        0.025361485663503294,
        0.15275306238899078,
        0.17172500074900965,
        0.1678354428696019,
        0.09103607708924738,
        0.032497489772921,
        0.0665581110958498,
        0.02702924106952192,
        0.01833599185135049,
        -0.013482095103846004,
        -0.020551323420151972,
        0.030378631279472906,
        -0.005616917259547586,
        -0.029676360220379325,
        -0.026988010502279267,
        0.061072538737753944,
        0.03217863335474313,
        0.004732455899669897,
        0.03744745986951449,
        0.042955175804089724,
        0.03886525038966099,
        0.0543084138018269,
        0.05111343373041991,
        0.025064493973051178,
        0.04141992466452314,
        0.03671978230155974,
        -0.010740222341232224,
        0.03035469455414016,
        -0.014467801982675712,
        0.03379300252002792,
        0.028236976586584816,
        0.015426987584794861,
        -0.02109374098000992,
        -0.05130141621214153,
        0.0051170797457518015,
        -0.02055530165580282,
        0.013349453154297919,
        -0.006537409316669616,
        0.03455463614483541,
        0.02096231967772645,
        0.04938605150982031,
        -0.028668070013733074,
        0.006241485100471932,
        -0.04793987285336752,
        0.03280291941210622,
        -0.04543013912619169,
        0.015528521457208642,
        -0.07549593128534555,
        0.06579174489255138,
        0.0013205526001590284,
        0.07092375433137559,
        -0.007498985933309039,
        0.057753043257899345,
        -0.038671268239164926,
        0.04076671600463222,
        -0.06145913646416942,
        0.06440240523383339,
        -0.003127479732694484,
        0.0736291535936914,
        0.05929004357723921,
        0.05800609187117918,
        0.09160259625423861,
        0.12198442655884695,
        0.08678466736463428,
        0.03811487134218178,
        -0.03467625356984309,
        -0.03737209525244491,
        -0.10397028071388356,
        -0.04536205926794685,
        -0.11590087391761317,
        0.009790732659992122,
        0.02132416674215741,
        0.09539404058531847,
        0.004856632546701456,
        0.024045905129138047,
        -0.01609692880880139,
        -0.14152011126626354,
        -0.12650175192588875,
        -0.2375721368103248,
        -0.1129533865764735,
        -0.10198674590131973,
        -0.034861962996996176,
        -0.06344893112507614,
        -0.026507262046965734,
        -0.0774440863340846,
        0.033144616387625836,
        -0.04388556293139933,
        0.0731419355919654,
        -0.02409857305401837,
        0.1464133734923817,
        0.024739986484109276,
        0.10833484574597894,
        -0.008885678000562289,
        -0.02721777193811128,
        -0.06685977385911229,
        -0.09306423478428973,
        -0.0918953609434191,
        -0.13703054214679883,
        -0.05365199255470533,
        -0.09074667225733435,
        -0.08424871626068063,
        -0.08935432705735835,
        -0.027700425198880392,
        -0.040370271982327316,
        -0.049870679504409605,
        -0.17424125428485976,
        -0.009602306875205026,
        -0.02563252218501049,
        0.1512585462378453,
        0.05667636819622259,
        -0.03870925781202516,
        0.013975599471529938,
        -0.07791395932159915,
        0.047063521853624404,
        -0.056431164121624244,
        0.05634547738570908,
        0.005169928580696727,
        0.02958362038603395,
        -0.06615366618917866,
        -0.1443931105653224,
        -0.058214504817658067,
        -0.006046628099376934,
        0.12841529860919482,
        0.057329056595949446,
        0.009385977069744134,
        -0.15005652378983453,
        -0.022523896797139734,
        -0.03323100510458733,
        0.127562326221723,
        0.21555542325887783,
        0.09558103517304915,
        0.09843591625209505,
        0.07845936451276996,
        0.04457643151056473,
        0.036535530098963966,
        0.0437081446247066,
        -0.07845948808112407,
        -0.06664024815362724,
        -0.11840684602488455,
        -0.11927978153963358,
        -0.09870754538396029,
        -0.044482882204675625,
        -0.06295384559610312,
        -0.042621642992862356,
        -0.04261396330309078,
        0.051227788769069235,
        0.11893860206823181,
        0.08647020310307085,
        0.028484224244746982,
        -0.09858616565618536,
        -0.11405750307941455,
        -0.05367065892275154,
        0.1879143218057847,
        0.17222816724397122,
        0.09351679687863278,
        -0.07701658574113959,
        -0.12750207383135084,
        -0.1075506351001574,
        0.013534594213094713,
        0.04837937822079327,
        -0.033921933960401496,
        -0.11641959723222002,
        -0.1450523228001804,
        -0.18464452004877718,
        -0.14858460893021713,
        -0.0978104671356344,
        -0.09527710724259963,
        -0.00494648246188017,
        0.10759109704353373,
        0.04897001546628477,
        0.0768098661783256,
        0.08893623611615901,
        0.11352826922776066,
        0.08485997200998635,
        -0.0016937228175388456,
        -0.08371831920922906,
        0.04446433924455837,
        0.0184059459112137,
        0.04525261194888065,
        -0.01044923877721447,
        0.0392309483851619,
        0.07894897657155574,
        -0.028600297401099824,
        0.0387483971020749,
        -0.10332197842941912,
        0.01781875041402735,
        0.045369319030517614,
        0.02283789400780525,
        0.07062889213362622,
        -0.07857086770588657,
        -0.06811483128050304,
        0.03996220846776921,
        -0.010426049380442327,
        -0.04674173199459346,
        -0.061889121189653395,
        -0.04848881535487666,
        0.15626592421539562,
        0.04882957347251968,
        0.05871706383170449,
        -0.03057450773901907,
        -0.036801333022170236,
        -0.0502859696212907,
        -0.19445996579955133,
        -0.13981068995303655,
        -0.10100701402230099,
        -0.03721885330773613,
        0.014469352759651407,
        -0.0703218364801872,
        -0.14773749146419174,
        -0.21640020242534433,
        -0.15595129345472009,
        -0.02999391031028566,
        -0.057640022511092875,
        0.031316018674532806,
        -0.06193465824438962,
        -0.11980957938180453,
        -0.08678222922634057,
        -0.1821469027391612,
        -0.05217081243836631,
        -0.06473339025489766,
        0.010888068865256935,
        0.05445659547037934,
        -0.006211029967287323,
        0.028997181590817198,
        -0.04512652331493419,
        -0.04989030749687006,
        0.0490322881648283,
        -0.05955229943169418,
        0.01222476717043042,
        0.009212045679667928,
        -0.023448851896526915,
        0.0415217715233928,
        -0.046340290775415474,
        0.04001721705854436,
        -0.028042900544653943,
        0.0001684806727968698,
        0.03871800187637101,
        -0.03805585346534464,
        0.030231253767550474,
        0.0801746878375722,
        0.05284169284906323,
        0.1061241127869966,
        0.10479358767598096,
        0.12072803834591254,
        0.09881794986940165,
        -0.01861240281708671,
        -0.03844623281260538,
        0.07077663733022552,
        0.013088816215179997,
        0.1469948573550193,
        0.06932203158462918,
        0.041411428020103544,
        0.0816225483981873,
        0.081712040027041,
        0.09527120943772606,
        0.006650234106207456,
        0.05350700845538747,
        -0.019413303109766286,
        0.03311119774720146,
        0.06926206742991457,
        0.03586885377232049,
        0.051317986775037704,
        0.04496256157660823,
        -0.019149674478389424,
        0.015416675149203706,
        -0.008153633519427049,
        -0.038981580210047564,
        -0.020703094273048707,
        0.012144758997994269,
        -0.08790920413463954,
        0.08326368356716979,
        0.032399358197319275,
        -0.09980775205044806,
        -0.09241188292152192,
        -0.01690240563444879,
        0.027369090734077752,
        0.021072716714869006,
        -0.030409358581944754,
        -0.07287617226714876,
        0.019909412065901532,
        -0.14037863368808567,
        -0.135807927601558,
        -0.01716284545384688,
        0.08737756883622605,
        0.07993260226104285,
        -0.047284243828265446,
        -0.12257686313342853,
        -0.14697212555976835,
        -0.062039107489474235,
        0.10375939643718764,
        0.16691083812481838,
        0.05949295314459618,
        0.07519266398981045,
        -0.042677362772125124,
        -0.011197490763617545,
        0.022078456857972,
        0.014923995281411712,
        0.05504670925914098,
        0.05548916110628652,
        -0.023118461692778848,
        -0.006540961209506512,
        -0.0133786109042624,
        -0.030199854844834926,
        -0.057527413858767855,
        0.026747978813248318,
        0.057297870201780864,
        0.020406306494962535,
        0.11013571042578874,
        0.005975780062257012,
        -0.031977716330240914,
        0.02326515460525743,
        -0.016243498425666972,
        0.021270722609459676,
        0.07186661304919566,
        -0.034594991085538165,
        0.05431916410230951,
        0.0037501144180908243,
        -0.07280157846608916,
        -0.0981564266360958,
        -0.07274635576089944,
        -0.009938221945151213,
        0.00026912704826270034,
        0.08921514497981264,
        -0.025442949163366542,
        -0.0017571846377057105,
        -0.06586029701015006,
        -0.0473456656481544,
        0.13464443474461327,
        0.05880028887473012,
        -0.030500592142844337,
        -0.06275458181097193,
        -0.06336613026717318,
        -0.0821128955165549,
        0.03160812425237815,
        0.11977178990672505,
        0.08870357786257488,
        0.07541343936289473,
        -0.017446614490292743,
        -0.07559456789828434,
        -0.07319954921647684,
        0.07222447257287258,
        0.008043087575187971,
        -0.051779162137746915,
        -0.05325323680031266,
        -0.03868802212582222,
        0.08624752317459272,
        0.14551277586889505,
        -0.02423108085738842,
        0.018611270206075024,
        0.03629266173511189,
        0.029147299804745636,
        0.04767265392363902,
        -0.059883503447745685,
        -0.18484063457577046,
        -0.04840844048683064,
        0.030933408147621785,
        0.012047257673616864,
        0.032868167440470136,
        -0.011457819212285574,
        0.005547867925777954,
        0.10882109383368513,
        0.1417624391841744,
        0.08512847163349141,
        0.07035605844922004,
        0.05764544901558891,
        0.036663805435138905,
        0.05109627529932742,
        0.01344460657924364,
        0.033782921650889745,
        0.08541567435078198,
        0.17100745771491355,
        0.12261331197710448,
        0.08913729887546772,
        0.1257668387173405,
        0.047152888816842584,
        0.10089557974220062,
        0.10694256459907708,
        0.09131480919073726,
        0.06788493543223749,
        0.05639435077219384,
        -0.09142224940799351,
        -0.23567117241344473,
        -0.255890647805269,
        -0.15887578894695498,
        -0.10529808241032751,
        -0.019493331019640674,
        0.057550722894268366,
        -0.11411459603722049,
        -0.08441911251212006,
        0.05341852799013677,
        0.096932431862669,
        0.07853879190175375,
        -0.07654535390465844,
        -0.05009360526880624,
        0.08310479938304059,
        0.06518429513143156,
        0.16171038292432185,
        0.05350045807031052,
        -0.08620727899158469,
        0.008407627250885322,
        0.06272883074576996,
        0.04330299994713051,
        -0.044034479643049525,
        -0.057313215871308255,
        0.016493536277549924,
        0.02927311670108751,
        0.07378995781522976,
        0.13800127979208066,
        0.12652351794480432,
        0.012868340752161509,
        -0.005938776362405143,
        0.007105174711450984,
        -0.04658986012386931,
        0.0027980209955273594,
        0.03665628858092594,
        0.016808626624918027,
        -0.0540420082979971,
        -0.021407985465887708,
        -0.012624327194235691,
        -0.03494807038754511,
        0.002034334863920764,
        -0.012929734002514551,
        -0.01304628688870333,
        -0.01470074871513993,
        -0.02029875708200981,
        -0.020694070813002705,
        -0.02287695100171562,
        -0.002271020526577243,
        0.030200817117593006,
        -0.003435220783102321,
        0.005361530178622977,
        -0.039435312015355536,
        -0.013890894181156157,
        0.019132680823393915,
        0.0035334457369111515,
        0.033022465807174585,
        -0.039391238979643424,
        -0.021883857112169357,
        -0.02666114716647318,
        0.04912972650631246,
        -0.0634412383064629,
        -0.05349372822141661,
        -0.05036479317664497,
        -0.0031832981045204828,
        -0.09523128113134466,
        -0.02724395076468089,
        -0.028817756856334593,
        -0.011055595058924055,
        -0.0038576980040402054,
        -0.03715616752439921,
        -0.02157507833251325,
        -0.03280257814285084,
        0.005373186532917314,
        0.01277441023743358,
        0.06600854110860119,
        0.06065323574683083,
        0.08471002591848491,
        0.010355818122685125,
        0.01491996054299501,
        -0.05352236708246327,
        0.019198078912083284,
        0.012250717050702726,
        0.02876270167745272,
        0.034235368205576606,
        0.07882885446833886,
        0.1041760099491896,
        0.060591416118143324,
        0.04636274403056696,
        0.0013062162114518899,
        -0.033863739057488726,
        0.009949412446908636,
        -0.06681867732577203,
        -0.11594875154307668,
        -0.06422086907568536,
        -0.07101813742431591,
        -0.045200158079814555,
        -0.0018781696054725632,
        -0.11520692633953414,
        -0.12083954720241623,
        -0.11223083252724486,
        -0.11904809194370318,
        -0.1082813589228867,
        -0.030137628528874437,
        -0.07139429868550613,
        -0.01590124565540603,
        -0.06959384084567423,
        -0.03803016912470897,
        -0.02647701417092298,
        -0.10356966840397844,
        -0.1065600621767833,
        -0.05200575719267023,
        0.02436935832673845,
        0.007214814822073308,
        -0.08890456892104845,
        -0.16696063544324802,
        -0.06935745923667279,
        -0.018522317035616298,
        0.04145819806390669,
        0.1044451949019823,
        0.03142575753647668,
        -0.021240922355969784,
        -0.06075183504839002,
        -0.017549735479270308,
        0.04871582196190988,
        0.05052334209041959,
        0.00173063880185758,
        -0.02446262234349481,
        -0.014761564333932706,
        -0.024538213858486407,
        -0.04569884770468088,
        0.10229444633988566,
        0.18707298925544819,
        0.1999739149861306,
        0.15878885848871274,
        0.014049929177017141,
        0.009252563162057036,
        0.04547088415413677,
        -0.005191410359776183,
        -0.04231390872641179,
        -0.04593775021875274,
        -0.1183067364140168,
        0.0685194669896858,
        0.029638352153536766,
        0.01647017082375509,
        -0.08918834948093103,
        -0.09198237773599874,
        -0.07811918205526985,
        0.12894388787645686,
        0.21702811784614268,
        0.24760796857533002,
        0.2385593449481077,
        0.23516788098011615,
        0.03228837160524688,
        0.08255418367102027,
        0.07673582502768549,
        0.02245902396034878,
        0.004785115185307338,
        -0.08209627987420956,
        -0.1256662702371176,
        -0.021160734620025635,
        -0.044208251133293755,
        -0.056829254527597794,
        -0.07647669885214167,
        -0.09867070357249398,
        -0.03425847054527696,
        -0.03642404877869633,
        -0.09400159918602266,
        -0.03541922359034666,
        -0.08390264910828965,
        -0.031351262859574305,
        -0.05928598203935833,
        -0.04569762714326529,
        -0.08493167027053532,
        0.05780334047838655,
        0.05508804191126863,
        0.040873720911336425,
        0.0618570748740807,
        0.0418777667117561,
        0.0642808148219959,
        -0.0030251695454666223,
        -0.013737046502295984,
        0.0233373415637701,
        0.0020704562481134417,
        0.12751042033510282,
        0.06934530097418154,
        0.037439425697078116,
        0.08393020805876406,
        0.042962349407718,
        0.12851187180482712,
        0.12444593678416546,
        0.10678385279773023,
        0.0639973223906022,
        0.15728286145472167,
        0.24206541567183487,
        0.221057572769434,
        0.16339177269463773,
        -0.032180386007645854,
        -0.09744821457831165,
        0.005553670686761546,
        -0.015684273726066143,
        0.07479415053949295,
        -0.01364283409141144,
        0.02438920822755561,
        0.10513677562634358,
        0.021892933482289892,
        -0.003513495530788101,
        0.03996783295703124,
        -0.011344292267547278,
        0.07566956118901373,
        0.09088672534116571,
        -0.03477505033397355,
        -0.05782646487382559,
        0.061675361650973294,
        -0.02144267797410559,
        -0.004454382648116245,
        0.04228166061643166,
        -0.09501772757267575,
        -0.0033652673955649553,
        0.09844357815731156,
        0.1475539507752251,
        -0.02161460877342311,
        -0.08698076498093742,
        -0.11951217786254799,
        -0.19924352765637404,
        -0.014461376088462674,
        -0.018219714391821948,
        0.010128180450108321,
        0.01786482567575448,
        -0.0023288069480748973,
        -0.013379910586785735,
        0.08085013115119058,
        -0.0023906788697336608,
        0.005384198136403994,
        -0.021610689821374665,
        -0.1305435978345092,
        -0.1077452301548888,
        -0.05514000028897168,
        0.0526209535533292,
        0.11040255748752578,
        0.08531732396780278,
        0.10035680643247676,
        0.08489558877838385,
        0.006841475822389717,
        0.027099079867901228,
        0.011602625343458382,
        -0.07356929081865105,
        0.023292687542139118,
        0.06494315309239239,
        -0.04556192884088697,
        0.00916588209018233,
        -0.0330149834495993,
        -0.06684558575304153,
        -0.02793218006429795,
        -0.09016582833885617,
        -0.08200105560709703,
        -0.08861632812220963,
        0.0007095526696367697,
        0.11779566227014905,
        0.1233954979204191,
        0.09496353277445947,
        0.017505262651798217,
        -0.011032362539404802,
        0.025545955746819712,
        0.06154511320291001,
        0.056989688673763354,
        -0.051619437221424556,
        -0.12012644481923479,
        -0.04741093758312859,
        -0.0377083365266174,
        0.09533367793505085,
        0.03654083793046016,
        -0.04784014853615883,
        -0.17723566754903675,
        -0.1131802703996453,
        -0.040934147086332,
        0.056543917153648406,
        0.04796717463890115,
        -0.0006014476269075458,
        -0.02643197916140541,
        -0.01296141364325618,
        0.07962259076809439,
        0.084369624149117,
        0.06616391788192826,
        0.07205473023998943,
        -0.03983999621930524,
        -0.06416138636903349,
        -0.02403272053574835,
        -0.012358888625245713,
        0.08295072938609582,
        0.014851116526166334,
        -0.028739423973900974,
        0.05287978614796594,
        0.15901808154734437,
        0.1435213726708562,
        0.04230155403446422,
        -0.03610583958252933,
        -0.058173674262176886,
        -0.025582214327999772,
        0.07238011332056613,
        0.10480371942376325,
        0.05336788624731709,
        0.03153918423140278,
        0.08704746249206397,
        0.11466708025604637,
        0.02432540756463534,
        0.04818657392270471,
        -0.03084281287688355,
        -0.01205690269705577,
        0.035264924479491665,
        0.024470651347714693,
        0.008050817398208149,
        -0.010235086281949652,
        -0.016192425827154695,
        -0.0720845558952018,
        -0.018365249079499383,
        -0.008264707385503597,
        0.02557969096058212,
        0.023396322989022292,
        -0.01924469544274282,
        -0.03027597373612405,
        -0.07016324499233875,
        -0.050088841894007176,
        -0.006540255229194615,
        -0.0015253241783979607,
        0.04633242259342919,
        0.043300343238186705,
        -0.010815290037283893,
        -0.0067910140639243395,
        0.003665108908794305,
        -0.018171515116697984,
        -0.07081395007130856,
        -0.1589592690787628,
        -0.13067539983060195,
        -0.05525830028575254,
        -0.02711191894445112,
        -0.011004891570616076,
        0.032318381518201045,
        0.03260849466899772,
        0.04785188975894432,
        0.05153494960177951,
        -0.023087630739374573,
        -0.020814622257585014,
        -0.05542733956388483,
        -0.012975244144023252,
        -0.07715307597217932,
        -0.09644838398669853,
        -0.11308181687196481,
        -0.11476848644369243,
        -0.18918424279511942,
        -0.1280058324349524,
        -0.0761633881209123,
        -0.017308061398908586,
        -0.030667588660714097,
        0.04411711643183834,
        0.03449433798671843,
        0.061962913307303955,
        0.027530768408732885,
        0.09990407993729931,
        0.09615265529993972,
        0.07306034518588887,
        0.07020742717881859,
        0.025692553359577708,
        -0.07192173844735952,
        -0.11838248468373426,
        -0.10791541914835637,
        -0.07879810319612532,
        -0.010582197028747575,
        0.1053180889841043,
        0.06854743686604353,
        0.06254052219257818,
        0.05337508655045209,
        0.05070591289196759,
        0.0982307519111621,
        0.11657691426205682,
        0.026384847397160772,
        -0.03353465331644616,
        -0.016188142123479826,
        -0.051341502567439246,
        -0.027625866134066538,
        -0.02320220511789424,
        -0.018465204799394085,
        -0.06272416879315974,
        -0.059560483875295306,
        -0.08728566133379811,
        -0.022165414281793992,
        -0.036774654846731904,
        -0.015463254124637133,
        -0.01443530228770614,
        -0.015335006378589134,
        0.0836075643124036,
        0.14875465023954484,
        0.10041792929217488,
        -0.044021605869240116,
        -0.12396779127660071,
        -0.1795486446568364,
        -0.08204923878164289,
        -0.04358676176866565,
        -0.0033056146993559092,
        0.06248460239035867,
        0.0650071196325144,
        0.06186461931043492,
        0.053053890038129506,
        0.02840601901071416,
        0.03948652913775607,
        0.12013189518624444,
        0.08505008925762239,
        -0.023368142167082637,
        -0.04879860772675715,
        -0.03882511209368521,
        -0.06348721495369966,
        -0.022994131616662007,
        0.055315510775455906,
        0.0789097371199847,
        0.0047059996783448445,
        0.03624440370697553,
        0.06271403562461934,
        0.028993062107269388,
        -0.02016478126403571,
        -0.08540597299762581,
        -0.17335677097762053,
        -0.05754964849452081,
        -0.019568536313597687,
        -0.015670880299843495,
        -0.03079211447524092,
        -0.07775921593270116,
        -0.10734154149645844,
        -0.08907815649182702,
        0.004358389426879476,
        0.17801314998871082,
        0.13967841792883068,
        0.11046023044119271,
        0.06455361966237977,
        0.038296021209290515,
        0.07662567094775886,
        0.10732697554835369,
        0.061594330933454566,
        0.02490643163250477,
        0.040101886063326445,
        -0.006225526416805759,
        0.014469377334878457,
        0.06074676223873126,
        -0.011634056938251789,
        0.020426035020549495,
        0.028553305883808285,
        0.07526913986734679,
        0.06813043840685902,
        0.011260632650444698,
        -0.06450082383550698,
        -0.1147509392474158,
        -0.0468580886773155,
        0.012780871398286441,
        0.05048032216617386,
        0.048309943555215215,
        -0.023353093957745128,
        -0.006856388096901144,
        0.015463452129436967,
        0.08164730698304704,
        0.13629907803630983,
        0.06661359182082452,
        0.01990466406255864,
        0.06191954758961518,
        0.04212212476773909,
        0.04255074586484696,
        0.06786674140177336,
        0.008382435802141468,
        0.037713499790562044,
        -0.030513007717416118,
        0.005539997408894888,
        0.09370227081066171,
        0.11610482493999952,
        0.09846840396623792,
        0.049640580162662165,
        -0.09537312807328319,
        -0.1957856153135713,
        -0.17905737417221393,
        -0.11542209975716212,
        -0.06252944842676174,
        0.0063705818256981185,
        -0.011132215946200019,
        -0.048276100166351435,
        0.008656774728228258,
        -0.007684873778267386,
        -0.04709527074370952,
        0.0016680034485212908,
        0.010582652675828742,
        0.08833989575990736,
        0.18033499029766767,
        0.22134167675183636,
        0.1773945448974349,
        0.09911354027225984,
        -0.02889963120232375,
        -0.13662081480639923,
        -0.12425466463858112,
        0.006266360481119969,
        0.01617964667710692,
        0.05039544117226816,
        0.019565378543894316,
        -0.03565605020405417,
        -0.02932855214204978,
        0.07361015773110893,
        -0.004075904471363171,
        -0.07789916309302963,
        -0.06865788721382562,
        -0.08709646462942928,
        -0.13785431443167967,
        -0.09674742868807229,
        -0.08769243013826857,
        -0.04135516443369354,
        0.01210473560977353,
        0.003996865859972854,
        0.042981599244570345,
        0.08783627919084958,
        0.0666298754624235,
        0.05382832371050229,
        0.025478218679767888,
        0.06654461774132003,
        0.02059274362316133,
        0.011876105376888775,
        0.00923545317860286,
        -0.031471322594702936,
        -0.029730357967365277,
        -0.09007845459540582,
        -0.14688191934179015,
        -0.22386065681690398,
        -0.1389709695614919,
        0.03896538904300828,
        0.04680869093713279,
        0.03731739288038759,
        0.021436747418949395,
        0.05832055065156744,
        0.08964681189925224,
        0.15274716977004743,
        -0.007554248474818384,
        -0.14860822362998746,
        -0.14068321640719283,
        -0.17005054177918688,
        -0.07087840472385262,
        -0.06947951041757106,
        -0.07655620777123487,
        -0.06747631179321154,
        -0.08136011672160745,
        -0.05834140139561178,
        -0.02084707466856072,
        -0.05450103909883616,
        -0.02130471468836246,
        -0.027521001377501665,
        -0.05367929366719919,
        -0.11674882281029175,
        -0.08671591843212206,
        -0.033705565486361444,
        -0.05355731277852252,
        -0.01437363942596575,
        0.045148971467849415,
        0.023211618368027136,
        0.07083290390279795,
        -0.0008659434163916677,
        -0.14644384762959484,
        -0.12993518036370544,
        -0.07670859080200082,
        -0.03610324177514467,
        0.052874003153332745,
        0.02756339812065775,
        0.06068652285432952,
        0.07303091322983293,
        0.10591125800024491,
        0.1053642801110283,
        0.026387463609449845,
        -0.028667182904429166,
        -0.03550232642127184,
        -0.05980373012384833,
        -0.030955835688670226,
        -0.000860010710519735,
        -0.02846241615695548,
        -0.015998774677700688,
        -0.007469371542821395,
        -0.0006398943909595189,
        0.04533826618328561,
        0.028010507105325332,
        0.06327180017306692,
        -0.02207653664378235,
        0.005698429723000669,
        -0.01012204979326296,
        0.02661769823931441,
        0.018893208138932235,
        0.05965600546907533,
        -0.04990249767247105,
        -0.07043879794005196,
        -0.15040878692249232,
        -0.12730595069259376,
        -0.08489664609710833,
        -0.023657719800824175,
        -0.05998118125266931,
        -0.14172621178950995,
